{"learner":{"attributes":{},"feature_names":["income","name_email_similarity","prev_address_months_count","current_address_months_count","customer_age","days_since_request","intended_balcon_amount","payment_type","zip_count_4w","velocity_6h","velocity_24h","velocity_4w","bank_branch_count_8w","date_of_birth_distinct_emails_4w","employment_status","credit_risk_score","email_is_free","housing_status","phone_home_valid","phone_mobile_valid","bank_months_count","has_other_cards","proposed_credit_limit","foreign_request","source","session_length_in_minutes","device_os","keep_alive_session","device_distinct_emails_8w","device_fraud_count","month"],"feature_types":["float","float","int","int","int","float","float","int","int","float","float","float","int","int","int","int","int","int","int","int","int","int","float","int","int","float","int","int","int","int","int"],"gradient_booster":{"model":{"gbtree_model_param":{"num_parallel_tree":"1","num_trees":"200"},"iteration_indptr":[0,1,2,3,4,5,6,7,8,9,10,11,12,13,14,15,16,17,18,19,20,21,22,23,24,25,26,27,28,29,30,31,32,33,34,35,36,37,38,39,40,41,42,43,44,45,46,47,48,49,50,51,52,53,54,55,56,57,58,59,60,61,62,63,64,65,66,67,68,69,70,71,72,73,74,75,76,77,78,79,80,81,82,83,84,85,86,87,88,89,90,91,92,93,94,95,96,97,98,99,100,101,102,103,104,105,106,107,108,109,110,111,112,113,114,115,116,117,118,119,120,121,122,123,124,125,126,127,128,129,130,131,132,133,134,135,136,137,138,139,140,141,142,143,144,145,146,147,148,149,150,151,152,153,154,155,156,157,158,159,160,161,162,163,164,165,166,167,168,169,170,171,172,173,174,175,176,177,178,179,180,181,182,183,184,185,186,187,188,189,190,191,192,193,194,195,196,197,198,199,200],"tree_info":[0,0,0,0,0,0,0,0,0,0,0,0,0,0,0,0,0,0,0,0,0,0,0,0,0,0,0,0,0,0,0,0,0,0,0,0,0,0,0,0,0,0,0,0,0,0,0,0,0,0,0,0,0,0,0,0,0,0,0,0,0,0,0,0,0,0,0,0,0,0,0,0,0,0,0,0,0,0,0,0,0,0,0,0,0,0,0,0,0,0,0,0,0,0,0,0,0,0,0,0,0,0,0,0,0,0,0,0,0,0,0,0,0,0,0,0,0,0,0,0,0,0,0,0,0,0,0,0,0,0,0,0,0,0,0,0,0,0,0,0,0,0,0,0,0,0,0,0,0,0,0,0,0,0,0,0,0,0,0,0,0,0,0,0,0,0,0,0,0,0,0,0,0,0,0,0,0,0,0,0,0,0,0,0,0,0,0,0,0,0,0,0,0,0,0,0,0,0,0,0],"trees":[{"base_weights":[-1.2835277E-3,7.0202917E-1,-1.2984303E0,9.57726E-1,-1.7104692E0,-9.766071E-1,-1.8346581E0,-1.1000648E0,1.202862E0,-1.5317681E0,-1.9270469E0,-1.5278381E0,-2.3539546E-1,-1.5624353E0,-1.9071493E0,-8.9482796E-1,-1.8639023E0,1.4577237E0,-4.384828E-1,8.51266E-2,-1.6404083E0,-1.9660776E0,-1.8379905E0,-9.8912686E-2,-1.6003845E0,6.2032267E-2,-6.096306E-1,-1.7548716E0,-1.2161068E0,-1.9423249E0,-1.786181E0,-1.4626431E0,-5.010721E-1,-1.8909676E0,-1.5743004E0,-3.586309E-1,1.5711699E0,2.9964614E-1,-9.124734E-1,-3.3821408E-2,5.681842E-1,-1.8616155E0,-1.3594604E0,-6.112592E-2,-5.264795E-2,-1.930816E0,-1.729574E0,-1.5323297E0,3.155857E-1,-1.871514E0,-1.394715E0,-1.4262662E0,1.900421E-1,-1.9259069E0,-1.6445874E0,6.1726354E-2,-1.5103289E0,-6.0862802E-2,-1.8678281E0,6.138255E-2,-1.8522686E0,-1.6960993E0,-1.1803445E0,-1.3583949E0,-2.1399535E-1,-1.7308816E0,-1.9279276E0,-3.5941478E-2,-6.006905E-2,6.1908867E-2,-5.3899693E-1,-3.0236608E-1,1.6193835E0,-1.2752942E0,5.113346E-1,-1.702268E0,-6.2561667E-1,-8.270117E-3,8.564032E-1,-1.9307582E0,-1.6521777E0,6.1649155E-2,-1.5278814E0,-1.7847718E0,-6.105474E-2,-1.3397132E0,-1.8587068E0,-4.0619858E-2,-1.6717405E0,-5.792394E-1,6.917293E-1,-1.9405303E0,-1.8097969E0,6.1995443E-2,-1.6499265E0,-1.8154374E0,-1.1258036E0,6.2029194E-2,-5.4078376E-1,-1.7438565E0,-6.0330022E-2,-1.5583161E0,-6.1719775E-2,-1.7063568E0,-1.1220913E0,-6.0856268E-2,-1.7732178E0,-1.9082806E0,-1.6693251E0,-1.7780672E0,-1.2600489E0,-1.4807817E0,-8.18029E-1,-1.5074564E0,-5.5420774E-1,1.2402828E0,-3.7694457E-1,-6.030928E-2,-1.6049663E0,-1.7845777E0,-6.0748268E-2,-1.2338572E0,6.6307895E-2,1.1126779E0,-5.462604E-1,1.6554772E0,1.6573331E-1,-1.6356163E0,-7.9154414E-1,7.596679E-1,-7.6300114E-1,-1.8810977E0,-1.4916373E0,-1.4183435E0,-3.593744E-1,1.1265348E0,1.1586953E-2,-1.945972E0,-1.7037251E0,-1.8473808E0,-1.4291501E0,-1.830687E0,-1.1409526E0,-4.576755E-2,-6.020251E-2,-2.4133308E-2,-5.278571E-2,-5.068279E-2,-5.939494E-2,-4.5369722E-2,-5.7436537E-2,-3.416322E-2,-1.0942547E-1,6.180075E-2,6.482441E-2,-1.9455038E0,-5.233466E-2,-1.8920987E0,-1.6945474E0,-1.8519714E0,-1.4226034E0,-1.0827299E0,-1.8510001E0,2.6696452E-1,-1.2385834E0,-1.1906892E0,7.3205495E-1,-6.1227094E-2,-4.596249E-2,-5.912473E-2,-1.4464653E0,-5.914582E-2,-1.4811735E0,6.1443098E-2,-1.650571E0,-1.8065134E0,-3.3461466E-2,-6.1200574E-2,-1.847797E0,-1.1112959E0,-1.7540255E0,-3.811269E-2,-5.6602728E-2,-2.0169716E-2,-5.372154E-2,-3.337486E-2,-5.016391E-2,-2.0213572E-2,-5.712037E-2,-5.3112607E-2,-3.2759573E-2,5.4187733E-3,-2.856314E-2,3.4155652E-2,5.2178897E-2,-1.8549882E-2,2.0367159E-2,-4.075803E-2,-5.391068E-2,-5.950891E-2,-4.9855083E-2,-4.514572E-2,-2.0797124E-2,6.1950307E-2,-1.3028059E-2,4.183032E-2,2.0751402E-2,-2.5208341E-2,3.932681E-3,5.181903E-2,-1.5769634E-2,-2.9611034E-2,1.31740095E-2,-5.340463E-2,-3.8640913E-2,-1.6192231E-2,-4.5187548E-2,4.7243037E-3,3.6528964E-2,-3.6899798E-2,-6.334143E-3,-5.2112848E-2,-5.93899E-2,-4.890615E-2,-1.4427781E-2,-5.3685047E-2,-3.184254E-2,-2.459672E-2,4.231043E-3,2.7706698E-2,4.173649E-2,-6.1050538E-2,-5.76492E-2,-4.06447E-2,-6.1199624E-2,-5.9156545E-2,-4.5913562E-2,-4.9991407E-2,-3.4368925E-2,-6.014546E-2,-5.4044478E-2,6.16433E-2,-4.769027E-2,1.0525013E-2,-1.8731276E-2,1.0351995E-2,-3.9732557E-2,-6.0593445E-2,-5.6648232E-2,-5.440368E-2,-5.9831522E-2,-4.1658733E-2,-5.41333E-2,-5.9816252E-2,-5.3935688E-2,-1.9529723E-2,-4.742175E-2,-5.276743E-2,-1.1350283E-2,-5.847659E-2,-4.8775148E-2,-3.0807083E-2,1.992256E-2,-3.408513E-2,-6.1107084E-2,-5.7657115E-2,-2.6700195E-2,6.200005E-2,-2.179777E-2,-5.235159E-2,-3.675689E-2,-3.111004E-2,-5.1913094E-2,-3.8288713E-2,-5.4724064E-2,-5.3598277E-2,-6.158416E-2,-5.8162212E-2,-4.548545E-2,-1.7981665E-2,-5.0286125E-2,-5.6946132E-2,-4.569431E-2],"categories":[],"categories_nodes":[],"categories_segments":[],"categories_sizes":[],"default_left":[0,0,0,0,0,0,0,0,0,0,0,0,0,0,0,0,0,0,0,0,0,0,0,0,0,0,0,0,0,0,0,0,0,0,0,0,0,0,0,0,0,0,0,0,0,0,0,0,0,0,0,0,0,0,0,0,0,0,0,0,0,0,0,0,0,0,0,0,0,0,0,0,0,0,0,0,0,0,0,0,0,0,0,0,0,0,0,0,0,0,0,0,0,0,0,0,0,0,0,0,0,0,0,0,0,0,0,0,0,0,0,0,0,0,0,0,0,0,0,0,0,0,0,0,0,0,0,0,0,0,0,0,0,0,0,0,0,0,0,0,0,0,0,0,0,0,0,0,0,0,0,0,0,0,0,0,0,0,0,0,0,0,0,0,0,0,0,0,0,0,0,0,0,0,0,0,0,0,0,0,0,0,0,0,0,0,0,0,0,0,0,0,0,0,0,0,0,0,0,0,0,0,0,0,0,0,0,0,0,0,0,0,0,0,0,0,0,0,0,0,0,0,0,0,0,0,0,0,0,0,0,0,0,0,0,0,0,0,0,0,0,0,0,0,0,0,0,0,0,0,0,0,0,0,0,0,0,0,0,0,0,0,0,0,0,0,0,0,0,0,0,0,0,0,0,0,0,0,0,0,0,0,0],"id":0,"left_children":[1,3,5,7,9,11,13,15,17,19,21,23,25,27,29,31,33,35,37,39,41,43,45,47,49,-1,51,53,55,57,59,61,63,65,67,69,71,73,75,-1,77,79,81,-1,-1,83,85,87,89,91,93,95,97,99,101,-1,103,-1,105,-1,107,109,111,113,115,117,119,-1,-1,-1,121,123,125,127,129,131,133,-1,135,137,139,-1,141,143,-1,145,147,-1,149,151,153,155,157,-1,159,161,163,-1,165,167,-1,169,-1,171,173,-1,175,177,179,181,183,185,187,189,191,193,195,-1,197,199,-1,201,203,205,207,209,211,213,215,217,219,221,223,225,227,229,-1,231,233,235,237,239,241,-1,-1,-1,-1,-1,-1,-1,-1,-1,243,-1,245,247,-1,249,251,253,255,257,259,261,263,265,267,-1,-1,-1,269,-1,271,-1,273,275,-1,-1,277,279,281,-1,-1,-1,-1,-1,-1,-1,-1,-1,-1,-1,-1,-1,-1,-1,-1,-1,-1,-1,-1,-1,-1,-1,-1,-1,-1,-1,-1,-1,-1,-1,-1,-1,-1,-1,-1,-1,-1,-1,-1,-1,-1,-1,-1,-1,-1,-1,-1,-1,-1,-1,-1,-1,-1,-1,-1,-1,-1,-1,-1,-1,-1,-1,-1,-1,-1,-1,-1,-1,-1,-1,-1,-1,-1,-1,-1,-1,-1,-1,-1,-1,-1,-1,-1,-1,-1,-1,-1,-1,-1,-1,-1,-1,-1,-1,-1,-1,-1,-1,-1,-1,-1],"loss_changes":[2.5969539E5,1.13862875E5,1.726761E4,8.418834E4,6.799258E2,2.5553824E4,7.359844E2,2.7819648E3,6.2383812E4,1.7044648E3,2.2263672E1,3.7173281E3,2.2328533E4,5.229004E2,1.20765625E2,3.129585E3,2.4769531E1,2.6600188E4,7.013381E3,3.476358E2,5.606406E2,3.3085938E0,1.9533203E1,1.0316427E3,1.8992812E3,0E0,1.4925808E4,9.07793E1,2.6695273E3,3.0304688E1,1.6692031E3,3.7445508E2,2.0348665E3,1.5147461E1,4.5810852E1,3.2248098E3,1.0975969E4,2.6135986E3,2.7633047E3,0E0,1.0502632E2,6.859375E1,2.2629082E3,0E0,0E0,2.0170898E0,5.3516357E1,8.373779E0,4.53497E2,5.7316406E1,1.682405E4,1.3187148E3,1.5284698E4,2.0581055E0,8.758496E1,0E0,1.9372656E2,0E0,4.0351562E1,0E0,6.241992E1,1.08302734E2,2.806294E2,2.4681128E2,1.4689741E3,1.2833496E1,7.2509766E0,0E0,0E0,0E0,2.9660144E3,1.0525122E3,6.2135625E3,1.5937805E2,2.1875518E3,1.1797168E2,1.888936E3,0E0,4.100467E1,8.026367E0,5.100122E1,0E0,4.4361328E2,9.390015E0,0E0,5.6368896E1,6.060547E0,0E0,4.460327E0,9.7152695E1,7.7294226E2,3.5976562E0,6.889258E1,0E0,8.251758E2,1.2484082E2,1.0036675E3,0E0,6.807503E3,8.040039E0,0E0,9.247217E1,0E0,7.344971E1,1.4344135E3,0E0,5.567041E1,1.4484375E1,6.99624E1,6.538672E1,1.4192157E2,7.573169E1,1.9847137E2,1.5907178E2,8.793168E1,3.5058044E1,1.2768528E3,0E0,1.2558472E1,7.4630127E0,0E0,4.090874E2,3.5443645E3,4.5116943E1,4.6784174E2,4.0296875E3,8.34478E2,1.4359863E1,6.980069E1,1.4698965E3,2.6816724E2,7.1533203E0,1.3050879E2,2.7282178E2,1.4439219E3,8.2291565E0,0E0,1.6210938E0,2.2261475E1,1.0479492E1,3.202832E1,1.5222168E1,2.0911343E3,0E0,0E0,0E0,0E0,0E0,0E0,0E0,0E0,0E0,4.732022E1,0E0,2.3240993E2,1.8535156E0,0E0,1.8365234E1,5.515918E1,7.793359E1,7.200137E2,1.0088098E2,4.135742E1,2.2722717E2,5.9807324E2,1.1978589E3,5.0637363E3,0E0,0E0,0E0,1.15687744E2,0E0,7.246521E1,0E0,3.1886597E1,2.8740723E1,0E0,0E0,2.411914E1,5.4404633E1,2.6870117E1,0E0,0E0,0E0,0E0,0E0,0E0,0E0,0E0,0E0,0E0,0E0,0E0,0E0,0E0,0E0,0E0,0E0,0E0,0E0,0E0,0E0,0E0,0E0,0E0,0E0,0E0,0E0,0E0,0E0,0E0,0E0,0E0,0E0,0E0,0E0,0E0,0E0,0E0,0E0,0E0,0E0,0E0,0E0,0E0,0E0,0E0,0E0,0E0,0E0,0E0,0E0,0E0,0E0,0E0,0E0,0E0,0E0,0E0,0E0,0E0,0E0,0E0,0E0,0E0,0E0,0E0,0E0,0E0,0E0,0E0,0E0,0E0,0E0,0E0,0E0,0E0,0E0,0E0,0E0,0E0,0E0,0E0,0E0,0E0,0E0,0E0,0E0,0E0,0E0,0E0,0E0,0E0,0E0,0E0,0E0,0E0,0E0,0E0,0E0,0E0,0E0,0E0],"parents":[2147483647,0,0,1,1,2,2,3,3,4,4,5,5,6,6,7,7,8,8,9,9,10,10,11,11,12,12,13,13,14,14,15,15,16,16,17,17,18,18,19,19,20,20,21,21,22,22,23,23,24,24,26,26,27,27,28,28,29,29,30,30,31,31,32,32,33,33,34,34,35,35,36,36,37,37,38,38,40,40,41,41,42,42,45,45,46,46,47,47,48,48,49,49,50,50,51,51,52,52,53,53,54,54,56,56,58,58,60,60,61,61,62,62,63,63,64,64,65,65,66,66,70,70,71,71,72,72,73,73,74,74,75,75,76,76,78,78,79,79,80,80,82,82,83,83,85,85,86,86,88,88,89,89,90,90,91,91,92,92,94,94,95,95,96,96,98,98,99,99,101,101,103,103,104,104,106,106,107,107,108,108,109,109,110,110,111,111,112,112,113,113,114,114,115,115,116,116,118,118,119,119,121,121,122,122,123,123,124,124,125,125,126,126,127,127,128,128,129,129,130,130,131,131,132,132,133,133,134,134,135,135,137,137,138,138,139,139,140,140,141,141,142,142,152,152,154,154,155,155,157,157,158,158,159,159,160,160,161,161,162,162,163,163,164,164,165,165,166,166,170,170,172,172,174,174,175,175,178,178,179,179,180,180],"right_children":[2,4,6,8,10,12,14,16,18,20,22,24,26,28,30,32,34,36,38,40,42,44,46,48,50,-1,52,54,56,58,60,62,64,66,68,70,72,74,76,-1,78,80,82,-1,-1,84,86,88,90,92,94,96,98,100,102,-1,104,-1,106,-1,108,110,112,114,116,118,120,-1,-1,-1,122,124,126,128,130,132,134,-1,136,138,140,-1,142,144,-1,146,148,-1,150,152,154,156,158,-1,160,162,164,-1,166,168,-1,170,-1,172,174,-1,176,178,180,182,184,186,188,190,192,194,196,-1,198,200,-1,202,204,206,208,210,212,214,216,218,220,222,224,226,228,230,-1,232,234,236,238,240,242,-1,-1,-1,-1,-1,-1,-1,-1,-1,244,-1,246,248,-1,250,252,254,256,258,260,262,264,266,268,-1,-1,-1,270,-1,272,-1,274,276,-1,-1,278,280,282,-1,-1,-1,-1,-1,-1,-1,-1,-1,-1,-1,-1,-1,-1,-1,-1,-1,-1,-1,-1,-1,-1,-1,-1,-1,-1,-1,-1,-1,-1,-1,-1,-1,-1,-1,-1,-1,-1,-1,-1,-1,-1,-1,-1,-1,-1,-1,-1,-1,-1,-1,-1,-1,-1,-1,-1,-1,-1,-1,-1,-1,-1,-1,-1,-1,-1,-1,-1,-1,-1,-1,-1,-1,-1,-1,-1,-1,-1,-1,-1,-1,-1,-1,-1,-1,-1,-1,-1,-1,-1,-1,-1,-1,-1,-1,-1,-1,-1,-1,-1,-1,-1],"split_conditions":[1E0,1E0,1E0,2.1E1,1E0,3.1E1,1E0,1E0,1E0,1E0,4.1E1,1E0,4E1,4.1E1,4.1E1,4.3E1,6.273628E3,1.8E1,1E0,3.1E1,3.1E1,1.841E3,7.0183253E-1,2E1,2.1E1,6.2032267E-2,4.1E1,4.7E1,5E1,8.0162597E-1,5E1,6.011437E-1,2.0203336E-1,1E0,1.3E1,3E1,1.1694818E-1,3.4E1,4.1E1,-3.3821408E-2,6.011437E-1,8.0162597E-1,4E1,-6.112592E-2,-5.264795E-2,4.263596E3,1E0,3.7757587E-1,2.1E1,4.0844834E-1,3E1,5E1,5E1,1.5789027E3,1E0,6.1726354E-2,5.1E1,-6.0862802E-2,5.1E1,6.138255E-2,5.1E1,5.6694478E-2,1.7E1,5.6694478E-2,1E0,4.2E1,4.1291294E3,-3.5941478E-2,-6.006905E-2,6.1908867E-2,3.1E1,1E0,3E0,1.6E1,2E0,2.1E1,4.0844834E-1,-8.270117E-3,4.8716416E3,8.914065E-1,4.8E1,6.1649155E-2,4.1E1,2.3303989E-1,-6.105474E-2,3E0,1.6566369E-1,-4.0619858E-2,2E0,5.3511504E3,3E1,1.3550768E4,4.6E1,6.1995443E-2,4.2E1,1E0,1E0,6.2029194E-2,5.1E1,1.8E1,-6.0330022E-2,0E0,-6.1719775E-2,6.011437E-1,6E1,-6.0856268E-2,0E0,6.011437E-1,3.7349204E3,2.8158064E3,6.778763E0,9E0,3E0,1.1694818E-1,4.3620757E3,5.6694478E-2,5.6694478E-2,-6.030928E-2,9.5E1,6.011437E-1,-6.0748268E-2,8.0162597E-1,4E1,2E0,4.1E1,3.1E1,2E0,4.339942E-2,5.969159E-1,4.1E1,5.1E1,4E0,5.1E1,2.0203336E-1,4.1E1,4.3951865E3,1.1586953E-2,7.0183253E-1,5.933731E0,6.0940024E3,6.2859546E3,5.4E1,5E1,-4.576755E-2,-6.020251E-2,-2.4133308E-2,-5.278571E-2,-5.068279E-2,-5.939494E-2,-4.5369722E-2,-5.7436537E-2,-3.416322E-2,4.5117244E-1,6.180075E-2,1E0,6.5105728E3,-5.233466E-2,3.0745146E3,3.0379858E3,1.7E1,3.6085261E3,2.6E1,6.3015933E3,4.0844834E-1,1E0,4.7E1,6E1,-6.1227094E-2,-4.596249E-2,-5.912473E-2,3.1E1,-5.914582E-2,2E0,6.1443098E-2,2E0,1E0,-3.3461466E-2,-6.1200574E-2,5.6694478E-2,3.8544166E-1,5.6448564E3,-3.811269E-2,-5.6602728E-2,-2.0169716E-2,-5.372154E-2,-3.337486E-2,-5.016391E-2,-2.0213572E-2,-5.712037E-2,-5.3112607E-2,-3.2759573E-2,5.4187733E-3,-2.856314E-2,3.4155652E-2,5.2178897E-2,-1.8549882E-2,2.0367159E-2,-4.075803E-2,-5.391068E-2,-5.950891E-2,-4.9855083E-2,-4.514572E-2,-2.0797124E-2,6.1950307E-2,-1.3028059E-2,4.183032E-2,2.0751402E-2,-2.5208341E-2,3.932681E-3,5.181903E-2,-1.5769634E-2,-2.9611034E-2,1.31740095E-2,-5.340463E-2,-3.8640913E-2,-1.6192231E-2,-4.5187548E-2,4.7243037E-3,3.6528964E-2,-3.6899798E-2,-6.334143E-3,-5.2112848E-2,-5.93899E-2,-4.890615E-2,-1.4427781E-2,-5.3685047E-2,-3.184254E-2,-2.459672E-2,4.231043E-3,2.7706698E-2,4.173649E-2,-6.1050538E-2,-5.76492E-2,-4.06447E-2,-6.1199624E-2,-5.9156545E-2,-4.5913562E-2,-4.9991407E-2,-3.4368925E-2,-6.014546E-2,-5.4044478E-2,6.16433E-2,-4.769027E-2,1.0525013E-2,-1.8731276E-2,1.0351995E-2,-3.9732557E-2,-6.0593445E-2,-5.6648232E-2,-5.440368E-2,-5.9831522E-2,-4.1658733E-2,-5.41333E-2,-5.9816252E-2,-5.3935688E-2,-1.9529723E-2,-4.742175E-2,-5.276743E-2,-1.1350283E-2,-5.847659E-2,-4.8775148E-2,-3.0807083E-2,1.992256E-2,-3.408513E-2,-6.1107084E-2,-5.7657115E-2,-2.6700195E-2,6.200005E-2,-2.179777E-2,-5.235159E-2,-3.675689E-2,-3.111004E-2,-5.1913094E-2,-3.8288713E-2,-5.4724064E-2,-5.3598277E-2,-6.158416E-2,-5.8162212E-2,-4.548545E-2,-1.7981665E-2,-5.0286125E-2,-5.6946132E-2,-4.569431E-2],"split_indices":[27,21,18,4,18,4,19,18,18,19,4,19,4,4,4,3,11,3,19,4,4,12,0,3,4,0,4,3,4,0,4,0,0,19,13,4,0,3,3,0,0,0,4,0,0,11,19,1,4,0,4,3,4,9,21,0,4,0,3,0,4,5,3,5,19,3,11,0,0,0,4,19,7,3,14,3,0,0,11,5,3,0,4,1,0,30,1,0,7,10,4,9,3,0,3,19,19,0,4,3,0,20,0,0,4,0,2,0,11,10,5,13,7,0,10,5,5,0,3,0,0,0,4,7,4,20,20,5,1,4,4,13,4,0,4,11,0,0,5,10,9,3,4,0,0,0,0,0,0,0,0,0,1,0,14,11,0,9,10,3,11,3,11,0,21,3,4,0,0,0,4,0,30,0,13,21,0,0,5,1,11,0,0,0,0,0,0,0,0,0,0,0,0,0,0,0,0,0,0,0,0,0,0,0,0,0,0,0,0,0,0,0,0,0,0,0,0,0,0,0,0,0,0,0,0,0,0,0,0,0,0,0,0,0,0,0,0,0,0,0,0,0,0,0,0,0,0,0,0,0,0,0,0,0,0,0,0,0,0,0,0,0,0,0,0,0,0,0,0,0,0,0,0,0,0,0,0,0,0,0,0,0,0],"split_type":[0,0,0,0,0,0,0,0,0,0,0,0,0,0,0,0,0,0,0,0,0,0,0,0,0,0,0,0,0,0,0,0,0,0,0,0,0,0,0,0,0,0,0,0,0,0,0,0,0,0,0,0,0,0,0,0,0,0,0,0,0,0,0,0,0,0,0,0,0,0,0,0,0,0,0,0,0,0,0,0,0,0,0,0,0,0,0,0,0,0,0,0,0,0,0,0,0,0,0,0,0,0,0,0,0,0,0,0,0,0,0,0,0,0,0,0,0,0,0,0,0,0,0,0,0,0,0,0,0,0,0,0,0,0,0,0,0,0,0,0,0,0,0,0,0,0,0,0,0,0,0,0,0,0,0,0,0,0,0,0,0,0,0,0,0,0,0,0,0,0,0,0,0,0,0,0,0,0,0,0,0,0,0,0,0,0,0,0,0,0,0,0,0,0,0,0,0,0,0,0,0,0,0,0,0,0,0,0,0,0,0,0,0,0,0,0,0,0,0,0,0,0,0,0,0,0,0,0,0,0,0,0,0,0,0,0,0,0,0,0,0,0,0,0,0,0,0,0,0,0,0,0,0,0,0,0,0,0,0,0,0,0,0,0,0,0,0,0,0,0,0,0,0,0,0,0,0,0,0,0,0,0,0],"sum_hessian":[2.8465778E5,1.8457912E5,1.0007868E5,1.6689138E5,1.7687738E4,6.2545207E4,3.7533473E4,1.7764236E4,1.4912714E5,9.696993E3,7.990744E3,3.5868473E4,2.667673E4,7.899244E3,2.9634229E4,1.400424E4,3.7599973E3,1.2908391E5,2.0043236E4,6.102496E2,9.086743E3,5.537246E3,2.4534983E3,1.7334988E3,3.4134977E4,3.8232473E3,2.2853484E4,5.0742466E3,2.824998E3,2.2943484E4,6.690745E3,5.732996E3,8.271244E3,3.4319976E3,3.2799976E2,7.5879946E3,1.21495914E5,7.8374946E3,1.2205741E4,1.7699988E2,4.332497E2,5.0797466E3,4.006997E3,5.413246E3,1.2399991E2,1.310249E3,1.1432491E3,3.8849973E2,1.344999E3,1.4719739E4,1.9415236E4,1.1306742E4,1.1546742E4,1.9809985E3,3.0932478E3,2.3674983E2,2.588248E3,1.7874736E4,5.0687466E3,1.14749916E2,6.575995E3,3.1342478E3,2.598748E3,2.0734985E3,6.1977456E3,6.552495E2,2.776748E3,1.557499E2,1.7224988E2,5.3874963E2,7.049245E3,3.0477478E3,1.18448164E5,9.277493E2,6.909745E3,3.2502476E3,8.955493E3,1.1074992E2,3.2249976E2,3.8109973E3,1.2687491E3,1.9124986E2,3.8157473E3,2.869998E2,1.02324927E3,2.882498E2,8.549994E2,1.552499E2,2.3324983E2,3.9749973E2,9.474993E2,6.930745E3,7.7889946E3,1.356999E3,1.8058236E4,4.9232466E3,6.3834956E3,3.3197476E3,8.226994E3,2.0924985E2,1.7717488E3,2.4819983E3,6.112496E2,1.7167488E3,8.714994E2,2.5129983E3,2.5557483E3,5.0252466E3,1.5507489E3,2.634748E3,4.9949963E2,1.418249E3,1.1804991E3,1.7479988E3,3.2549976E2,6.234996E2,5.574246E3,2.3549983E2,4.197497E2,5.1599963E2,2.2607483E3,3.2817476E3,3.7674973E3,4.472497E2,2.600498E3,1.15577914E5,2.870248E3,5.2974963E2,3.9799973E2,5.783496E3,1.1262491E3,1.7522488E3,1.4979989E3,2.2499983E3,6.705495E3,2.0524985E2,1.17249916E2,3.5624976E3,2.4849982E2,6.714995E2,5.972496E2,2.1377485E3,1.6779988E3,1.0149992E2,1.8549986E2,1.14999916E2,1.7324988E2,1.8199986E2,6.729995E2,1.13999916E2,1.19249916E2,1.8699986E2,2.1049985E2,3.069998E2,6.404995E2,6.788245E3,1.424999E2,4.5324966E3,3.2564976E3,9.555743E3,8.502494E3,2.2999983E2,4.6932466E3,4.7774966E2,5.9057456E3,5.446496E3,2.780498E3,1.0649992E2,1.0274992E2,5.974996E2,1.8844987E3,9.007493E2,8.159994E2,1.2624991E2,7.4524945E2,2.4364983E3,1.19249916E2,2.3852483E3,2.639998E3,2.0699985E2,1.343749E3,2.1424985E2,2.4204983E3,2.1974985E2,2.797498E2,3.6299973E2,1.0552493E3,1.01774927E3,1.6274988E2,1.1972491E3,5.5074963E2,1.0874992E2,2.1674985E2,4.7849966E2,1.449999E2,4.5917466E3,9.8249927E2,1.3724991E2,2.824998E2,2.849998E2,2.3099983E2,2.3504983E3,9.312493E2,7.5749945E2,3.0099978E3,2.894998E2,1.577499E2,1.8624987E3,7.3799945E2,1.14724664E5,8.532494E2,5.3824963E2,2.3319983E3,4.289997E2,1.0074993E2,2.852498E2,1.12749916E2,2.3612483E3,3.4222476E3,6.369996E2,4.8924966E2,2.6849982E2,1.4837489E3,1.381249E3,1.16749916E2,1.2464991E3,1.00349927E3,3.5757476E3,3.1297478E3,1.0324992E2,1.0199992E2,2.780998E3,7.8149945E2,1.0449992E2,1.439999E2,5.709996E2,1.0049993E2,3.7624973E2,2.2099985E2,9.364993E2,1.2012491E3,1.8849986E2,1.4894989E3,1.0999992E2,1.0049993E2,5.3474963E2,1.0574992E2,6.2832456E3,5.0499963E2,9.9549927E2,3.5369976E3,4.229997E2,2.833498E3,5.635246E3,3.9204973E3,1.01374927E3,7.4887446E3,1.22249916E2,1.0774992E2,4.156497E3,5.3674963E2,1.0899992E2,3.6874973E2,4.9662466E3,9.394993E2,1.7944987E3,3.6519973E3,1.4762489E3,1.304249E3,9.729993E2,9.114993E2,2.3774983E2,5.782496E2,1.6474988E2,5.804996E2,1.7124988E3,7.239995E2,2.4517483E3,1.8824986E2,1.0299992E2,1.0399992E2,1.0309993E3,3.127498E2],"tree_param":{"num_deleted":"0","num_feature":"31","num_nodes":"283","size_leaf_vector":"1"}},{"base_weights":[-1.6961903E-4,1.142256E0,-7.553319E-1,1.436187E0,-5.0047714E-1,-3.4483126E-1,-1.6943887E0,8.2898986E-1,1.5783733E0,2.5538498E-1,-1.005435E0,-9.750588E-1,4.416368E-1,-1.3776722E0,-1.7809412E0,9.1651934E-1,-8.242938E-1,1.6141212E0,1.2072022E-1,-4.1513947E-1,6.874881E-1,-1.4005082E0,-4.8696882E-1,-1.5191078E0,-5.7004684E-1,6.0464635E-2,-2.4907839E-2,-1.6960422E0,-1.1828651E0,-1.6521939E0,-1.8561561E0,1.3196129E0,5.729834E-1,2.0188885E-3,-1.0433674E0,6.0455192E-2,1.514735E0,6.1313547E-2,-1.7269368E-1,1.1270152E-1,-9.6796876E-1,6.0838476E-2,2.53547E-1,-1.1771333E0,-1.6032491E0,6.180406E-2,-9.027079E-1,-2.5573018E-1,-1.5782105E0,6.0479157E-2,-1.2416065E0,-1.1226065E0,7.5737745E-1,-1.7401928E0,-1.3100979E0,6.20053E-2,-1.3409606E0,-1.7007105E0,-1.0538769E0,-1.8798286E0,-1.7371627E0,1.0591331E-1,6.0475387E-2,6.981369E-1,-6.7437965E-1,-8.7405246E-1,-5.3930145E-2,8.0342495E-1,1.7147276E0,-1.1350737E0,4.8032212E-1,-8.4943146E-1,6.204161E-2,-1.1540504E0,-4.8488614E-1,-5.39275E-1,9.488932E-1,-1.6172681E0,6.284953E-2,-1.6905172E0,-1.2273736E0,-1.3598552E0,-5.7317395E-2,1.1624247E-1,-1.2131999E0,-1.3995951E0,-1.8636576E0,-7.0841515E-1,-1.5135188E0,4.104718E-1,-1.2604773E0,6.0542952E-2,1.4941051E-2,-1.678405E0,-5.9921216E-2,-9.076594E-1,-1.6447461E0,-1.7641321E0,-1.0549599E0,-1.7743062E0,-1.423121E0,-1.8004868E0,-7.6030505E-1,-1.7895203E0,-1.8984537E0,6.1083093E-2,-1.8357216E0,-1.0361689E-1,1.0387546E0,8.2890254E-1,-3.364194E-1,-4.4055203E-1,-1.25689E0,-5.3311605E-2,-6.904291E-1,1.6001745E0,6.196716E-1,6.0478184E-2,1.5051618E0,-1.3704709E0,-1.47683965E-2,6.1369654E-2,-3.0079004E-1,-2.121279E-1,-1.1388358E0,-6.647078E-1,-1.3451806E0,-3.930482E-2,-1.7022462E-1,-1.4589509E0,-3.4812436E-1,6.0892425E-2,5.644411E-2,-1.3120161E0,-1.7174622E0,-1.4663537E0,-1.7850304E0,-1.4804434E0,-8.668685E-1,-1.4580392E0,-6.282979E-3,6.208348E-2,-1.1316911E0,6.135576E-1,-1.0448774E0,-5.0537087E-2,-2.2254497E-2,-1.5425546E0,2.5290638E-1,-1.8844634E0,-1.7032204E0,9.452472E-1,-8.586874E-1,-4.0542048E-1,-1.5623907E0,9.53204E-1,-3.3839685E-1,-7.855816E-1,-1.5857438E0,-8.216831E-1,1.1345744E0,-1.7251265E0,-2.2896033E-2,-3.4224857E-2,-2.1607723E-2,-4.444428E-2,-5.827349E-2,-1.8048553E0,-1.3275295E0,6.09549E-2,-1.4075251E0,-1.8682078E0,-1.6947327E0,6.2244426E-2,-1.637985E0,-5.9235476E-2,-4.8540965E-2,-4.595543E-1,-5.2829344E-2,-1.7117981E0,-5.9037976E-2,-1.8779895E0,-6.0056698E-2,-5.848145E-2,-1.6464752E0,3.158028E-2,-7.8088217E-3,4.093006E-2,-1.7573418E-3,2.8941844E-2,-1.1923663E-2,3.3897598E-4,-3.3606756E-2,-3.690869E-2,-6.952495E-3,-2.6871208E-2,-4.8227213E-2,-4.213086E-2,-1.4338552E-2,2.157361E-2,5.0833486E-2,2.2886839E-2,-1.3835885E-2,3.4268204E-2,5.581955E-2,-4.9438424E-2,-2.9541193E-2,-3.288355E-2,2.478077E-2,-4.7964543E-2,6.1549313E-2,-3.8946565E-2,-1.7024703E-2,-3.2800075E-2,-5.666236E-3,-4.6306834E-2,-3.0449059E-2,7.214807E-3,-1.9884998E-2,-3.5016354E-2,-5.5299126E-2,-2.7862515E-3,-2.6202988E-2,-1.956933E-2,3.1255785E-2,-2.3210304E-2,-4.4297922E-2,-4.796715E-2,-5.572156E-2,-3.801646E-2,-5.1868822E-2,-4.974179E-2,-5.7323154E-2,-5.134278E-2,-3.7882164E-2,-1.0165262E-2,-4.5828126E-2,-3.7816606E-2,-5.2582663E-2,-4.6025075E-2,-3.2755218E-3,7.256376E-3,5.5354968E-2,-4.956191E-2,-9.504437E-3,-4.1117184E-2,-5.497012E-2,2.3387799E-2,-3.3002414E-2,-5.858033E-2,-4.929953E-2,-5.8371615E-2,-4.465324E-2,3.6945466E-2,-1.788763E-2,-1.9016279E-2,-5.275774E-2,1.4765814E-3,-3.6524903E-2,-4.3719362E-2,-5.491616E-2,-1.3011683E-3,3.8249537E-2,-1.1936353E-3,-4.220765E-2,-1.6250325E-2,-4.6071574E-2,-5.1101077E-2,-3.4921896E-2,-8.3667515E-3,-4.3995857E-2,6.055065E-2,3.953193E-5,-5.05602E-2,-5.8425296E-2,-4.8525766E-2,-5.6920536E-2,-2.7719434E-2,-5.118803E-2,-5.3024672E-2,-2.770928E-2,-5.9053328E-2,-5.5974804E-2,-4.9757853E-2,-5.8258757E-2,-5.4530125E-2,-3.0166835E-2,-3.224659E-2,1.743851E-3,-4.5579232E-2,-5.6069434E-2,-5.8668848E-2,-5.2003346E-2,-5.3976335E-2,-3.2862578E-2],"categories":[],"categories_nodes":[],"categories_segments":[],"categories_sizes":[],"default_left":[0,0,0,0,0,0,0,0,0,0,0,0,0,0,0,0,0,0,0,0,0,0,0,0,0,0,0,0,0,0,0,0,0,0,0,0,0,0,0,0,0,0,0,0,0,0,0,0,0,0,0,0,0,0,0,0,0,0,0,0,0,0,0,0,0,0,0,0,0,0,0,0,0,0,0,0,0,0,0,0,0,0,0,0,0,0,0,0,0,0,0,0,0,0,0,0,0,0,0,0,0,0,0,0,0,0,0,0,0,0,0,0,0,0,0,0,0,0,0,0,0,0,0,0,0,0,0,0,0,0,0,0,0,0,0,0,0,0,0,0,0,0,0,0,0,0,0,0,0,0,0,0,0,0,0,0,0,0,0,0,0,0,0,0,0,0,0,0,0,0,0,0,0,0,0,0,0,0,0,0,0,0,0,0,0,0,0,0,0,0,0,0,0,0,0,0,0,0,0,0,0,0,0,0,0,0,0,0,0,0,0,0,0,0,0,0,0,0,0,0,0,0,0,0,0,0,0,0,0,0,0,0,0,0,0,0,0,0,0,0,0,0,0,0,0,0,0,0,0,0,0,0,0,0,0,0,0,0,0,0,0,0,0,0,0,0,0,0,0,0,0,0,0,0,0,0,0,0,0,0,0,0,0,0,0,0,0,0,0,0,0,0,0,0,0],"id":1,"left_children":[1,3,5,7,9,11,13,15,17,19,21,23,25,27,29,31,33,35,37,39,41,43,45,47,49,-1,51,53,55,57,59,61,63,-1,65,-1,67,-1,69,71,73,-1,75,77,79,-1,81,83,85,-1,87,89,91,93,95,-1,97,99,101,103,105,107,-1,109,111,113,-1,115,117,119,121,123,-1,125,127,129,131,133,-1,135,137,139,141,143,145,147,149,151,153,155,157,-1,159,161,-1,163,165,167,169,171,173,175,177,179,181,-1,183,185,187,189,191,193,195,-1,197,199,201,-1,203,205,-1,-1,207,209,211,213,215,-1,217,219,221,-1,223,225,227,229,231,233,235,237,-1,-1,239,241,243,-1,-1,245,247,249,251,253,255,257,259,261,263,265,267,269,271,273,-1,-1,-1,-1,-1,275,277,-1,279,281,283,-1,285,-1,-1,287,-1,289,-1,291,-1,-1,293,-1,-1,-1,-1,-1,-1,-1,-1,-1,-1,-1,-1,-1,-1,-1,-1,-1,-1,-1,-1,-1,-1,-1,-1,-1,-1,-1,-1,-1,-1,-1,-1,-1,-1,-1,-1,-1,-1,-1,-1,-1,-1,-1,-1,-1,-1,-1,-1,-1,-1,-1,-1,-1,-1,-1,-1,-1,-1,-1,-1,-1,-1,-1,-1,-1,-1,-1,-1,-1,-1,-1,-1,-1,-1,-1,-1,-1,-1,-1,-1,-1,-1,-1,-1,-1,-1,-1,-1,-1,-1,-1,-1,-1,-1,-1,-1,-1,-1,-1,-1,-1,-1,-1,-1,-1,-1,-1,-1,-1,-1],"loss_changes":[2.4551461E5,5.4685062E4,6.6043695E4,8.291219E3,6.5612974E3,5.9091664E4,1.4245469E3,2.6388506E3,4.0547812E3,1.9951304E3,2.109251E3,1.4581445E4,3.733473E4,6.906094E2,3.9147656E2,2.39588E3,1.79203E2,2.5326719E3,1.0172728E3,7.878683E2,2.3152827E3,2.6154395E2,4.599624E3,2.1075469E3,6.4237566E4,0E0,3.4787758E4,6.852637E1,3.4981895E3,4.352422E2,6.7671875E1,6.1006895E3,1.4601223E3,0E0,8.396301E1,0E0,8.338906E3,0E0,1.01322394E3,2.511168E3,1.1713916E2,0E0,1.7238274E3,3.9341577E3,9.688818E1,0E0,1.4753887E3,4.507818E2,1.3713359E3,0E0,4.3416836E3,3.5640605E3,2.099579E4,4.026465E1,5.661621E1,0E0,7.977998E2,2.8123828E2,2.4639404E2,3.0960938E1,1.5753184E3,5.334775E2,0E0,1.1502031E3,1.1474463E2,8.996472E1,0E0,1.8822568E3,2.2606094E3,9.9484314E1,1.125836E3,1.67888E2,0E0,8.698401E1,9.000632E1,2.5538309E2,1.5084504E3,7.1203125E1,0E0,4.8317383E1,5.0602722E1,2.8048975E2,2.9719734E3,5.2630426E2,7.079004E1,3.922787E3,2.9648438E1,2.5159795E3,1.0728672E3,5.661341E2,2.3867402E3,0E0,1.3671172E4,1.2442871E2,0E0,6.7309723E0,7.496887E0,4.3458984E1,4.212938E3,7.750781E1,2.1657773E3,3.5407715E0,2.3027234E2,2.7998047E1,8.625E0,0E0,3.5395508E1,3.7046222E2,1.5511371E2,9.593716E2,2.4828311E2,9.808112E1,2.5776978E1,0E0,7.324902E1,8.405664E1,1.3231592E3,0E0,2.8613672E3,4.2077698E1,0E0,0E0,5.292879E2,8.4665485E2,4.196454E1,5.030194E1,3.405896E1,0E0,5.065563E1,2.3346863E1,1.5494624E2,0E0,5.820168E2,3.8107178E1,2.0606445E1,3.3380737E1,1.5421875E1,1.1958618E1,7.872667E1,1.260376E2,0E0,0E0,3.1877795E2,2.8258585E2,1.1026105E2,0E0,0E0,7.5808203E2,8.7444E2,9.357422E0,5.2531006E1,3.1750775E2,1.9167104E3,2.9468304E2,6.002031E2,2.2614429E2,1.7874701E2,1.1500457E3,2.609375E2,2.7528071E3,5.790253E3,3.6521484E1,0E0,0E0,0E0,0E0,0E0,1.3680176E1,2.9847656E1,0E0,5.48125E2,6.310547E0,9.4302734E1,0E0,2.1916895E2,0E0,0E0,1.8682315E2,0E0,4.766797E1,0E0,2.9214844E1,0E0,0E0,4.653369E1,0E0,0E0,0E0,0E0,0E0,0E0,0E0,0E0,0E0,0E0,0E0,0E0,0E0,0E0,0E0,0E0,0E0,0E0,0E0,0E0,0E0,0E0,0E0,0E0,0E0,0E0,0E0,0E0,0E0,0E0,0E0,0E0,0E0,0E0,0E0,0E0,0E0,0E0,0E0,0E0,0E0,0E0,0E0,0E0,0E0,0E0,0E0,0E0,0E0,0E0,0E0,0E0,0E0,0E0,0E0,0E0,0E0,0E0,0E0,0E0,0E0,0E0,0E0,0E0,0E0,0E0,0E0,0E0,0E0,0E0,0E0,0E0,0E0,0E0,0E0,0E0,0E0,0E0,0E0,0E0,0E0,0E0,0E0,0E0,0E0,0E0,0E0,0E0,0E0,0E0,0E0,0E0,0E0,0E0,0E0,0E0,0E0,0E0,0E0,0E0,0E0,0E0,0E0,0E0,0E0,0E0,0E0,0E0,0E0,0E0],"parents":[2147483647,0,0,1,1,2,2,3,3,4,4,5,5,6,6,7,7,8,8,9,9,10,10,11,11,12,12,13,13,14,14,15,15,16,16,17,17,18,18,19,19,20,20,21,21,22,22,23,23,24,24,26,26,27,27,28,28,29,29,30,30,31,31,32,32,34,34,36,36,38,38,39,39,40,40,42,42,43,43,44,44,46,46,47,47,48,48,50,50,51,51,52,52,53,53,54,54,56,56,57,57,58,58,59,59,60,60,61,61,63,63,64,64,65,65,67,67,68,68,69,69,70,70,71,71,73,73,74,74,75,75,76,76,77,77,79,79,80,80,81,81,82,82,83,83,84,84,85,85,86,86,87,87,88,88,89,89,90,90,92,92,93,93,95,95,96,96,97,97,98,98,99,99,100,100,101,101,102,102,103,103,104,104,106,106,107,107,108,108,109,109,110,110,111,111,112,112,114,114,115,115,116,116,118,118,119,119,122,122,123,123,124,124,125,125,126,126,128,128,129,129,130,130,132,132,133,133,134,134,135,135,136,136,137,137,138,138,139,139,142,142,143,143,144,144,147,147,148,148,149,149,150,150,151,151,152,152,153,153,154,154,155,155,156,156,157,157,158,158,159,159,160,160,161,161,167,167,168,168,170,170,171,171,172,172,174,174,177,177,179,179,181,181,184,184],"right_children":[2,4,6,8,10,12,14,16,18,20,22,24,26,28,30,32,34,36,38,40,42,44,46,48,50,-1,52,54,56,58,60,62,64,-1,66,-1,68,-1,70,72,74,-1,76,78,80,-1,82,84,86,-1,88,90,92,94,96,-1,98,100,102,104,106,108,-1,110,112,114,-1,116,118,120,122,124,-1,126,128,130,132,134,-1,136,138,140,142,144,146,148,150,152,154,156,158,-1,160,162,-1,164,166,168,170,172,174,176,178,180,182,-1,184,186,188,190,192,194,196,-1,198,200,202,-1,204,206,-1,-1,208,210,212,214,216,-1,218,220,222,-1,224,226,228,230,232,234,236,238,-1,-1,240,242,244,-1,-1,246,248,250,252,254,256,258,260,262,264,266,268,270,272,274,-1,-1,-1,-1,-1,276,278,-1,280,282,284,-1,286,-1,-1,288,-1,290,-1,292,-1,-1,294,-1,-1,-1,-1,-1,-1,-1,-1,-1,-1,-1,-1,-1,-1,-1,-1,-1,-1,-1,-1,-1,-1,-1,-1,-1,-1,-1,-1,-1,-1,-1,-1,-1,-1,-1,-1,-1,-1,-1,-1,-1,-1,-1,-1,-1,-1,-1,-1,-1,-1,-1,-1,-1,-1,-1,-1,-1,-1,-1,-1,-1,-1,-1,-1,-1,-1,-1,-1,-1,-1,-1,-1,-1,-1,-1,-1,-1,-1,-1,-1,-1,-1,-1,-1,-1,-1,-1,-1,-1,-1,-1,-1,-1,-1,-1,-1,-1,-1,-1,-1,-1,-1,-1,-1,-1,-1,-1,-1,-1,-1],"split_conditions":[1E0,1E0,1E0,3.1E1,1E0,3.1E1,1E0,3E0,3E0,4.1E1,4.1E1,2.1E1,4E1,3.1E1,2E0,3E1,1.6864789E3,4E1,4E1,4E1,5E1,4E1,5E1,1E0,3E1,6.0464635E-2,4.1E1,5.6694478E-2,4E1,5.6694478E-2,4.1E1,2.1E1,1E0,2.0188885E-3,9E0,6.0455192E-2,4.1E1,6.1313547E-2,4.1E1,3.1E1,2.26E2,6.0838476E-2,5.1E1,3.1E1,2.45E2,6.180406E-2,5.1E1,1E1,4E0,6.0479157E-2,2E0,1E0,5E1,4E0,3E1,6.20053E-2,4.1E1,8.0162597E-1,3.0426732E-1,3.9699995E3,5E1,5.6694478E-2,6.0475387E-2,2.3502337E1,6.014932E-1,4.0844834E-1,-5.3930145E-2,1E0,5E1,2.4E2,5E1,3E1,6.204161E-2,4.2597764E3,6.011437E-1,1E0,6E1,3E1,6.284953E-2,4.2134214E3,8.0162597E-1,5.6694478E-2,6E1,4E0,6.011437E-1,3E0,5.6694478E-2,1E0,1E0,2E0,2E0,6.0542952E-2,5.1E1,3E0,-5.9921216E-2,6.9426274E3,9E0,6.048403E3,5E1,4.0844834E-1,9E-1,4.1E1,2.2E1,3.251331E3,4E0,6.1083093E-2,5.1E1,1E0,6.8128877E0,8.493302E-1,1.2E1,1E0,1.181E3,-5.3311605E-2,2.1E1,2.0203336E-1,1E0,6.0478184E-2,5.1E1,5.535003E3,-1.47683965E-2,6.1369654E-2,5.1E1,2.1E1,2.42E2,4.9340434E0,1.82E2,-3.930482E-2,9E-1,1.212E3,6E0,6.0892425E-2,6.1E1,2.9222998E3,3.2515535E3,3.9715976E-1,2E0,2.81E2,5.058791E-1,4.8790187E-1,-6.282979E-3,6.208348E-2,6.1E1,3E0,5.858485E3,-5.0537087E-2,-2.2254497E-2,9E0,9E0,4.712E3,1.724E3,1E0,1E0,9E0,9E0,4.0844834E-1,2.1E1,1E0,5.6694478E-2,2E0,6E1,8E0,-2.2896033E-2,-3.4224857E-2,-2.1607723E-2,-4.444428E-2,-5.827349E-2,2.954882E3,1.373E3,6.09549E-2,5.1E1,2.0203336E-1,8E-1,6.2244426E-2,2.13E2,-5.9235476E-2,-4.8540965E-2,3E0,-5.2829344E-2,7E0,-5.9037976E-2,3E0,-6.0056698E-2,-5.848145E-2,1.3051501E-1,3.158028E-2,-7.8088217E-3,4.093006E-2,-1.7573418E-3,2.8941844E-2,-1.1923663E-2,3.3897598E-4,-3.3606756E-2,-3.690869E-2,-6.952495E-3,-2.6871208E-2,-4.8227213E-2,-4.213086E-2,-1.4338552E-2,2.157361E-2,5.0833486E-2,2.2886839E-2,-1.3835885E-2,3.4268204E-2,5.581955E-2,-4.9438424E-2,-2.9541193E-2,-3.288355E-2,2.478077E-2,-4.7964543E-2,6.1549313E-2,-3.8946565E-2,-1.7024703E-2,-3.2800075E-2,-5.666236E-3,-4.6306834E-2,-3.0449059E-2,7.214807E-3,-1.9884998E-2,-3.5016354E-2,-5.5299126E-2,-2.7862515E-3,-2.6202988E-2,-1.956933E-2,3.1255785E-2,-2.3210304E-2,-4.4297922E-2,-4.796715E-2,-5.572156E-2,-3.801646E-2,-5.1868822E-2,-4.974179E-2,-5.7323154E-2,-5.134278E-2,-3.7882164E-2,-1.0165262E-2,-4.5828126E-2,-3.7816606E-2,-5.2582663E-2,-4.6025075E-2,-3.2755218E-3,7.256376E-3,5.5354968E-2,-4.956191E-2,-9.504437E-3,-4.1117184E-2,-5.497012E-2,2.3387799E-2,-3.3002414E-2,-5.858033E-2,-4.929953E-2,-5.8371615E-2,-4.465324E-2,3.6945466E-2,-1.788763E-2,-1.9016279E-2,-5.275774E-2,1.4765814E-3,-3.6524903E-2,-4.3719362E-2,-5.491616E-2,-1.3011683E-3,3.8249537E-2,-1.1936353E-3,-4.220765E-2,-1.6250325E-2,-4.6071574E-2,-5.1101077E-2,-3.4921896E-2,-8.3667515E-3,-4.3995857E-2,6.055065E-2,3.953193E-5,-5.05602E-2,-5.8425296E-2,-4.8525766E-2,-5.6920536E-2,-2.7719434E-2,-5.118803E-2,-5.3024672E-2,-2.770928E-2,-5.9053328E-2,-5.5974804E-2,-4.9757853E-2,-5.8258757E-2,-5.4530125E-2,-3.0166835E-2,-3.224659E-2,1.743851E-3,-4.5579232E-2,-5.6069434E-2,-5.8668848E-2,-5.2003346E-2,-5.3976335E-2,-3.2862578E-2],"split_indices":[17,18,18,4,19,4,19,7,7,4,4,4,4,4,17,4,9,4,4,4,4,4,4,19,4,0,4,5,4,5,4,4,14,0,2,0,4,0,4,4,15,0,4,4,15,0,4,2,17,0,17,19,4,17,4,0,4,0,0,11,4,5,0,6,1,0,0,19,4,15,4,4,0,11,0,26,4,4,0,11,0,5,4,17,0,17,5,19,19,17,17,0,4,17,0,9,2,11,4,0,0,4,2,10,17,0,4,19,6,1,13,26,8,0,4,0,14,0,4,10,0,0,4,4,15,25,15,0,0,8,13,0,4,10,9,1,12,15,1,1,0,0,4,17,10,0,0,2,2,8,8,14,14,2,2,0,2,14,5,17,4,2,0,0,0,0,0,10,8,0,4,0,0,0,15,0,0,12,0,30,0,17,0,0,5,0,0,0,0,0,0,0,0,0,0,0,0,0,0,0,0,0,0,0,0,0,0,0,0,0,0,0,0,0,0,0,0,0,0,0,0,0,0,0,0,0,0,0,0,0,0,0,0,0,0,0,0,0,0,0,0,0,0,0,0,0,0,0,0,0,0,0,0,0,0,0,0,0,0,0,0,0,0,0,0,0,0,0,0,0,0,0,0,0,0,0,0,0,0,0,0,0,0,0,0,0,0,0,0,0,0,0,0,0,0],"split_type":[0,0,0,0,0,0,0,0,0,0,0,0,0,0,0,0,0,0,0,0,0,0,0,0,0,0,0,0,0,0,0,0,0,0,0,0,0,0,0,0,0,0,0,0,0,0,0,0,0,0,0,0,0,0,0,0,0,0,0,0,0,0,0,0,0,0,0,0,0,0,0,0,0,0,0,0,0,0,0,0,0,0,0,0,0,0,0,0,0,0,0,0,0,0,0,0,0,0,0,0,0,0,0,0,0,0,0,0,0,0,0,0,0,0,0,0,0,0,0,0,0,0,0,0,0,0,0,0,0,0,0,0,0,0,0,0,0,0,0,0,0,0,0,0,0,0,0,0,0,0,0,0,0,0,0,0,0,0,0,0,0,0,0,0,0,0,0,0,0,0,0,0,0,0,0,0,0,0,0,0,0,0,0,0,0,0,0,0,0,0,0,0,0,0,0,0,0,0,0,0,0,0,0,0,0,0,0,0,0,0,0,0,0,0,0,0,0,0,0,0,0,0,0,0,0,0,0,0,0,0,0,0,0,0,0,0,0,0,0,0,0,0,0,0,0,0,0,0,0,0,0,0,0,0,0,0,0,0,0,0,0,0,0,0,0,0,0,0,0,0,0,0,0,0,0,0,0,0,0,0,0,0,0,0,0,0,0,0,0,0,0,0,0,0,0],"sum_hessian":[2.8458134E5,1.1325125E5,1.713301E5,9.6063266E4,1.7187982E4,1.1921722E5,5.2112875E4,1.8228777E4,7.7834484E4,6.883581E3,1.0304401E4,6.618277E4,5.3034445E4,1.1189711E4,4.0923168E4,1.7312932E4,9.158466E2,7.597091E4,1.863582E3,2.6971338E3,4.1864478E3,5.846602E3,4.4577993E3,2.8241809E4,3.794097E4,1.2525161E4,4.0509285E4,4.243824E3,6.9458867E3,1.5102098E4,2.5821068E4,7.963975E3,9.348956E3,1.8068835E2,7.3515826E2,1.733474E4,5.8636164E4,2.5371016E2,1.6098718E3,1.3796943E3,1.3174393E3,1.0618253E3,3.1246223E3,2.7861555E3,3.0604468E3,6.391422E2,3.8186572E3,1.2627627E3,2.6979045E4,7.9804126E3,2.9960555E4,1.6856514E4,2.365277E4,3.8038718E3,4.3995215E2,3.279641E2,6.617923E3,1.3966867E4,1.1352313E3,2.152075E4,4.300318E3,2.7254224E3,5.2385527E3,8.497231E3,8.5172455E2,5.9375494E2,1.4140329E2,1.2869826E4,4.5766336E4,6.507939E2,9.5907794E2,9.1423816E2,4.6545615E2,9.493351E2,3.681043E2,1.4597478E3,1.6648745E3,2.4502688E3,3.3588666E2,2.4798618E3,5.8058496E2,2.477657E3,1.341E3,9.097034E2,3.5305933E2,1.6599656E4,1.037939E4,1.0120592E4,1.9839963E4,1.3903762E3,1.5466138E4,9.060085E3,1.4592684E4,2.8898176E3,9.1405426E2,2.0210847E2,2.3784369E2,2.6661401E3,3.9517825E3,1.1034232E4,2.9326338E3,3.1846838E2,8.167629E2,3.7007595E3,1.781999E4,1.1073214E2,4.1895854E3,2.225822E3,4.9960025E2,7.5443276E3,9.5290405E2,6.096268E2,2.4209781E2,1.0394559E2,4.8980936E2,2.4099443E3,1.0459882E4,2.1511781E4,2.4254557E4,4.7809296E2,1.7270094E2,3.2820135E2,6.308765E2,2.8659088E2,6.276473E2,2.6864044E2,6.8069464E2,1.0419775E2,2.6390656E2,2.4960141E2,1.2101464E3,7.779758E2,8.868987E2,6.10228E2,1.8400408E3,7.419449E2,1.7379169E3,3.3848172E2,2.4210324E2,2.2832375E3,1.9441963E2,4.5919928E2,8.818008E2,6.3754224E2,2.7216122E2,1.8988489E2,1.6317442E2,1.5278287E4,1.3213694E3,9.175615E3,1.2037738E3,8.423527E2,9.278239E3,8.388889E2,1.9001074E4,8.063674E2,5.840088E2,6.289009E3,9.177129E3,8.351791E3,6.240893E3,2.7516572E3,1.3816054E2,1.0117325E2,1.0093522E2,1.3017714E2,1.0766656E2,2.434763E3,2.3137714E2,4.1233682E2,3.5394456E3,5.04824E3,5.9859927E3,1.7220157E2,2.7604324E3,2.1030585E2,1.0816253E2,6.2092883E2,1.9583408E2,2.2198357E3,1.4809238E3,1.1713539E4,6.106451E3,3.2941245E3,8.9546106E2,2.586743E2,1.9671478E3,3.976424E2,1.0195786E2,6.9456885E3,5.98639E2,6.508481E2,3.02056E2,1.3491736E2,4.7470938E2,1.0743291E2,1.346649E2,1.2268912E2,3.6712024E2,1.0245751E2,2.3074868E3,9.41324E3,1.0466418E3,1.0311162E4,1.3943395E4,3.083924E2,1.6970056E2,3.734186E2,2.5745792E2,1.786052E2,1.0798568E2,5.217041E2,1.0594316E2,1.4668208E2,1.2195835E2,4.7978418E2,2.0091046E2,1.4195856E2,1.21948E2,1.2692968E2,1.2267173E2,7.978663E2,4.1228012E2,5.147708E2,3.7212787E2,1.0691919E2,5.033088E2,5.970377E2,1.243003E3,3.477511E2,3.9419382E2,4.6440762E2,1.2735093E3,1.970892E2,1.4139253E2,1.299317E2,1.1217154E2,1.1457949E3,1.1374426E3,6.553901E2,2.2641069E2,4.8284128E2,1.5470094E2,1.5444594E2,1.1771528E2,7.8913022E3,7.386985E3,9.5763074E2,3.6373868E2,9.008486E3,1.6712915E2,7.100641E2,4.9370975E2,7.2541254E2,1.1694019E2,7.189353E3,2.0888862E3,5.290354E2,3.0985352E2,1.1005969E4,7.995106E3,1.7717685E2,6.2919055E2,4.5281158E2,1.311972E2,4.5820215E3,1.7069877E3,8.071774E3,1.1053547E3,4.3433115E3,4.0084792E3,3.6227368E3,2.6181562E3,1.7395509E3,1.0121062E3,2.8908054E2,2.1456824E3,1.0120051E2,1.3017662E2,2.2243196E3,1.3151262E3,3.1570793E3,1.891161E3,4.03758E3,1.9484126E3,2.3332244E3,4.2720798E2,2.9207965E2,3.2884915E2,6.417215E2,1.5781143E3,1.0910478E4,8.030622E2,7.6852893E2,1.2693211E2],"tree_param":{"num_deleted":"0","num_feature":"31","num_nodes":"295","size_leaf_vector":"1"}},{"base_weights":[4.4359567E-4,4.370453E-1,-1.3576334E0,-5.697581E-1,1.086312E0,-7.3402023E-1,-1.5781236E0,-1.3354733E0,-1.20945916E-1,1.2341713E0,-1.4209894E0,-1.206889E0,-1.5959479E-1,-1.7099906E0,-1.2043931E0,1.1377231E-2,-1.4084381E0,5.877197E-2,-7.920491E-1,-5.533617E-1,1.3537892E0,5.857892E-2,-1.5561904E0,-1.6583413E0,-9.7564703E-1,5.9158802E-2,-6.1298305E-1,-1.7180454E0,-2.1402678E-1,6.062259E-2,-1.4573683E0,-1.1176486E0,5.137465E-1,-1.657703E0,-1.1620446E0,-1.3714595E0,-2.9987174E-1,5.846435E-2,-9.619477E-1,-6.8722856E-1,1.412626E0,-2.2148068E-1,-1.6475574E0,-1.80426E0,-1.4797008E0,-7.7423596E-1,-1.828536E0,-1.2107226E0,1.2450547E-1,-1.6607555E0,-5.821738E-2,-2.4455728E-2,1.09107075E-2,-1.6710625E0,-9.159814E-1,-1.4968829E0,-1.5134083E-2,-2.6401956E-2,7.2150713E-1,-1.7627565E0,-1.509804E0,-1.2941539E0,-3.1827468E-1,-1.7190677E-1,-1.4309751E0,-4.8734996E-2,-1.800277E0,-1.5745802E0,-1.9220492E-1,5.99129E-2,-9.303266E-1,5.8735814E-2,1.2492985E0,-3.9075978E-2,4.3048856E-1,-1.7951822E0,-1.2471756E0,-5.720398E-2,-1.6432759E0,-2.095072E-2,-1.5371217E0,-1.5807264E0,-5.583998E-1,-5.789892E-2,-1.6844805E0,-1.5416152E0,-4.4807026E-1,5.9836272E-2,-8.2301146E-1,-1.760372E0,-1.4804884E0,-1.7557187E0,-1.4040878E0,6.116649E-2,-1.5638243E0,-5.3220242E-2,-3.6742646E-2,5.372141E-1,1.380727E0,-1.8286706E0,-1.6665628E0,-1.6631769E0,-1.3270036E0,-1.5097647E0,-9.362377E-1,1.463932E-1,-1.0241559E0,-9.2724246E-1,5.019842E-1,-1.570511E0,-1.011087E0,-1.1460845E0,1.6319878E-1,-5.7901792E-2,-1.5924602E0,-1.6733193E0,-1.0059621E0,5.9956085E-2,-8.456536E-1,-1.4857461E0,-3.5388958E-1,2.9084185E-1,1.5719571E0,-9.507987E-3,3.5255246E-2,-1.8726854E0,-1.6683003E0,-1.6284066E0,-8.9371604E-1,-5.5919964E-2,-4.1497957E-2,-1.6126983E0,-3.1794306E-2,-1.7247862E0,-1.2627931E0,-1.9689497E-1,-1.0712408E0,-5.6426898E-2,-4.4159308E-2,-1.4470977E0,-5.773114E-2,-1.1870528E-1,-5.7008848E-2,-1.2706716E0,1.0374911E-1,-5.731785E-2,-1.694384E0,6.2608436E-2,-1.7370433E0,-1.7833664E0,-1.4677144E0,-1.1864104E0,-5.7205345E-2,-1.7168758E0,-1.0043081E0,8.945986E-3,3.546222E-2,4.9879666E-2,3.571067E-2,-5.684828E-2,-4.8464004E-2,-5.338743E-2,-3.7154127E-2,-4.7780413E-2,-5.3967316E-2,-4.360932E-2,-1.8850772E-2,-5.5323638E-2,-4.226481E-2,6.298706E-2,-3.3843864E-2,-3.2977812E-2,1.3199685E-2,9.088936E-3,-3.7930034E-2,-1.80011E-2,-4.739222E-2,2.6503485E-2,1.8905436E-3,-5.3666044E-2,-4.225652E-2,6.189868E-2,-4.4271644E-2,-4.47147E-2,-1.946993E-2,4.338512E-2,-9.558128E-5,-5.46032E-2,-4.142057E-2,-4.566492E-2,-5.4538477E-2,-4.3643568E-2,-1.6016282E-2,-4.2901523E-2,1.2470332E-2,-1.0760576E-2,-4.919471E-2,5.949701E-2,-2.7368285E-2,-1.202747E-2,2.2566449E-2,5.8740355E-2,3.979514E-2,-5.3024072E-2,-5.8639523E-2,-5.619459E-2,-4.2467117E-2,-5.754406E-2,-4.682772E-2,5.7945054E-2,-4.275405E-2,-4.6039697E-2,-5.6039207E-2,-5.647085E-2,-4.898031E-2,-4.797293E-2,-2.94057E-2,-3.08393E-2,6.0154002E-2,-3.9167527E-2,-6.76592E-3,-4.6837937E-2,-3.0142516E-2,-3.397812E-2,5.487082E-3,-4.3186896E-2,1.705378E-3,6.0637E-2,-3.190451E-2,-5.6513067E-2,-4.9094055E-2,-5.5011593E-2,-3.9049704E-2,-4.8054058E-2,-5.5864055E-2,-2.5336381E-2,-4.9980335E-2,-2.5405515E-2,-4.648066E-2,-5.4620348E-2,-4.5985077E-2,-2.1817885E-2,-5.7328507E-2],"categories":[],"categories_nodes":[],"categories_segments":[],"categories_sizes":[],"default_left":[0,0,0,0,0,0,0,0,0,0,0,0,0,0,0,0,0,0,0,0,0,0,0,0,0,0,0,0,0,0,0,0,0,0,0,0,0,0,0,0,0,0,0,0,0,0,0,0,0,0,0,0,0,0,0,0,0,0,0,0,0,0,0,0,0,0,0,0,0,0,0,0,0,0,0,0,0,0,0,0,0,0,0,0,0,0,0,0,0,0,0,0,0,0,0,0,0,0,0,0,0,0,0,0,0,0,0,0,0,0,0,0,0,0,0,0,0,0,0,0,0,0,0,0,0,0,0,0,0,0,0,0,0,0,0,0,0,0,0,0,0,0,0,0,0,0,0,0,0,0,0,0,0,0,0,0,0,0,0,0,0,0,0,0,0,0,0,0,0,0,0,0,0,0,0,0,0,0,0,0,0,0,0,0,0,0,0,0,0,0,0,0,0,0,0,0,0,0,0,0,0,0,0,0,0,0,0,0,0,0,0,0,0,0,0,0,0,0,0,0,0,0,0,0,0,0,0,0,0,0,0,0,0,0,0,0,0,0,0,0,0,0,0],"id":2,"left_children":[1,3,5,7,9,11,13,15,17,19,21,23,25,27,29,31,33,-1,35,37,39,-1,41,43,45,-1,47,49,51,-1,53,55,57,59,61,63,65,-1,67,69,71,73,75,77,79,81,83,85,87,89,-1,-1,-1,91,93,95,-1,-1,97,99,101,103,105,107,109,111,113,115,117,-1,119,-1,121,-1,123,125,127,-1,129,-1,131,133,135,-1,137,139,141,-1,143,145,147,149,151,-1,153,-1,-1,155,157,159,161,163,165,167,169,171,173,175,177,179,181,183,185,-1,187,189,191,-1,193,195,197,199,201,-1,-1,203,205,207,209,-1,-1,211,-1,213,215,217,219,-1,-1,221,-1,223,-1,225,227,-1,229,-1,231,233,235,237,-1,239,241,-1,-1,-1,-1,-1,-1,-1,-1,-1,-1,-1,-1,-1,-1,-1,-1,-1,-1,-1,-1,-1,-1,-1,-1,-1,-1,-1,-1,-1,-1,-1,-1,-1,-1,-1,-1,-1,-1,-1,-1,-1,-1,-1,-1,-1,-1,-1,-1,-1,-1,-1,-1,-1,-1,-1,-1,-1,-1,-1,-1,-1,-1,-1,-1,-1,-1,-1,-1,-1,-1,-1,-1,-1,-1,-1,-1,-1,-1,-1,-1,-1,-1,-1,-1,-1,-1,-1,-1],"loss_changes":[1.684499E5,1.4053061E5,9.50075E3,2.8964443E4,4.8454953E4,4.9035303E3,2.5127734E3,3.0614766E3,7.192507E4,2.6391E4,3.2606426E3,1.0308438E3,7.645562E3,4.5339844E2,1.0651369E4,9.084665E2,1.8112617E3,0E0,1.1369439E4,7.7170176E3,1.3893E4,0E0,8.5156055E2,8.306641E1,1.1227183E3,0E0,2.949246E3,3.3903906E2,6.673494E1,0E0,1.4241602E3,1.15981384E2,3.1519037E2,2.2384375E2,1.6555195E3,1.3063398E3,8.1233877E3,0E0,3.1260928E3,2.0659304E3,8.849141E3,3.0551053E2,3.8309375E2,7.369629E0,6.774609E1,9.209956E2,2.1333008E0,9.3073096E2,5.1261187E3,4.922422E2,0E0,0E0,0E0,1.9578906E2,6.5418164E3,1.7533386E1,0E0,0E0,1.1535678E2,4.9591797E1,1.6752344E2,9.889844E2,6.611362E2,4.4208032E2,1.0193086E3,4.2964033E3,3.8671875E1,2.0427246E2,4.0866084E3,0E0,9.485845E2,0E0,2.5972516E4,0E0,1.4493057E2,4.2097656E1,2.3543042E2,0E0,1.485376E1,0E0,5.1604736E1,4.755127E1,7.749938E2,0E0,5.6745605E0,7.372754E1,5.1184457E2,0E0,8.1581555E2,9.914844E1,8.846826E3,4.916992E1,2.0137012E2,0E0,2.4135254E2,0E0,0E0,1.12883484E2,7.6961975E0,2.3652344E0,8.762988E1,2.7074219E1,1.5825342E2,3.1855078E2,2.2329136E3,4.1092218E2,2.1095691E2,8.34426E1,7.087349E1,4.3231055E2,5.465743E3,4.5709668E2,3.1833838E3,0E0,2.9293457E1,4.992383E1,1.0637622E2,0E0,1.5124785E3,1.7249683E2,1.7541135E3,6.277511E3,5.8441406E3,0E0,0E0,4.0322266E0,7.4520996E1,1.8290283E1,1.2362301E3,0E0,0E0,2.6201416E1,0E0,6.159424E0,2.891455E1,4.190618E3,2.825553E2,0E0,0E0,5.7728027E1,0E0,2.6273975E2,0E0,2.1587524E2,1.3465203E3,0E0,1.4088086E2,0E0,1.6062305E2,2.2195312E1,5.338623E1,1.6218677E2,0E0,1.932666E1,1.5389313E2,0E0,0E0,0E0,0E0,0E0,0E0,0E0,0E0,0E0,0E0,0E0,0E0,0E0,0E0,0E0,0E0,0E0,0E0,0E0,0E0,0E0,0E0,0E0,0E0,0E0,0E0,0E0,0E0,0E0,0E0,0E0,0E0,0E0,0E0,0E0,0E0,0E0,0E0,0E0,0E0,0E0,0E0,0E0,0E0,0E0,0E0,0E0,0E0,0E0,0E0,0E0,0E0,0E0,0E0,0E0,0E0,0E0,0E0,0E0,0E0,0E0,0E0,0E0,0E0,0E0,0E0,0E0,0E0,0E0,0E0,0E0,0E0,0E0,0E0,0E0,0E0,0E0,0E0,0E0,0E0,0E0,0E0,0E0,0E0,0E0,0E0,0E0,0E0],"parents":[2147483647,0,0,1,1,2,2,3,3,4,4,5,5,6,6,7,7,8,8,9,9,10,10,11,11,12,12,13,13,14,14,15,15,16,16,18,18,19,19,20,20,22,22,23,23,24,24,26,26,27,27,28,28,30,30,31,31,32,32,33,33,34,34,35,35,36,36,38,38,39,39,40,40,41,41,42,42,43,43,44,44,45,45,46,46,47,47,48,48,49,49,53,53,54,54,55,55,58,58,59,59,60,60,61,61,62,62,63,63,64,64,65,65,66,66,67,67,68,68,70,70,72,72,74,74,75,75,76,76,78,78,80,80,81,81,82,82,84,84,85,85,86,86,88,88,89,89,90,90,91,91,92,92,94,94,97,97,98,98,99,99,100,100,101,101,102,102,103,103,104,104,105,105,106,106,107,107,108,108,109,109,110,110,111,111,112,112,114,114,115,115,116,116,118,118,119,119,120,120,121,121,122,122,125,125,126,126,127,127,128,128,131,131,133,133,134,134,135,135,136,136,139,139,141,141,143,143,144,144,146,146,148,148,149,149,150,150,151,151,153,153,154,154],"right_children":[2,4,6,8,10,12,14,16,18,20,22,24,26,28,30,32,34,-1,36,38,40,-1,42,44,46,-1,48,50,52,-1,54,56,58,60,62,64,66,-1,68,70,72,74,76,78,80,82,84,86,88,90,-1,-1,-1,92,94,96,-1,-1,98,100,102,104,106,108,110,112,114,116,118,-1,120,-1,122,-1,124,126,128,-1,130,-1,132,134,136,-1,138,140,142,-1,144,146,148,150,152,-1,154,-1,-1,156,158,160,162,164,166,168,170,172,174,176,178,180,182,184,186,-1,188,190,192,-1,194,196,198,200,202,-1,-1,204,206,208,210,-1,-1,212,-1,214,216,218,220,-1,-1,222,-1,224,-1,226,228,-1,230,-1,232,234,236,238,-1,240,242,-1,-1,-1,-1,-1,-1,-1,-1,-1,-1,-1,-1,-1,-1,-1,-1,-1,-1,-1,-1,-1,-1,-1,-1,-1,-1,-1,-1,-1,-1,-1,-1,-1,-1,-1,-1,-1,-1,-1,-1,-1,-1,-1,-1,-1,-1,-1,-1,-1,-1,-1,-1,-1,-1,-1,-1,-1,-1,-1,-1,-1,-1,-1,-1,-1,-1,-1,-1,-1,-1,-1,-1,-1,-1,-1,-1,-1,-1,-1,-1,-1,-1,-1,-1,-1,-1,-1,-1],"split_conditions":[1E0,3.1E1,1E0,2.1E1,1E0,4.1E1,4.1E1,1E0,3E1,2.1E1,4E1,4.7E1,5E1,1.5441085E3,5E1,4.1E1,4.6E1,5.877197E-2,4.4E1,4E1,1.1694818E-1,5.857892E-2,1E0,2.2E1,1E0,5.9158802E-2,5.1E1,1E0,8.0417037E-1,6.062259E-2,5.1E1,7.0183253E-1,1.1694818E-1,6.011437E-1,5.6694478E-2,1E0,1E0,5.846435E-2,4.1E1,4E1,4E1,4.1E1,1.0694178E3,5.1E2,1.2014489E3,2.0203336E-1,1.0694178E3,1.0694178E3,6E1,3.1E1,-5.821738E-2,-2.4455728E-2,1.09107075E-2,1.0694178E3,6E1,4.0844834E-1,-1.5134083E-2,-2.6401956E-2,5.6694478E-2,1.9E1,1.7E1,6.011437E-1,5.933731E0,1.7E1,8.0162597E-1,2.0203336E-1,8.0162597E-1,1.0694178E3,5E1,5.99129E-2,4.1E1,5.8735814E-2,4.1E1,-3.9075978E-2,1.0694178E3,4.1E1,4.1E1,-5.720398E-2,3.1E1,-2.095072E-2,2.05E2,1.1694818E-1,4E1,-5.789892E-2,4.728849E0,1E0,1E0,5.9836272E-2,6.1E1,4.1E1,4E1,5.6694478E-2,1E0,6.116649E-2,6.1E1,-5.3220242E-2,-3.6742646E-2,2.449E3,2.7317517E0,2.45E2,5.6694478E-2,3.7757587E-1,5.6694478E-2,1.1694818E-1,7E-1,1.1694818E-1,3.4129075E3,5.152608E3,4.1701078E-1,1.8E1,9E-1,1.1694818E-1,1E0,-5.7901792E-2,9.9401996E2,2.4156874E-1,1.1E1,5.9956085E-2,5.1E1,1E0,5E1,2.0708963E2,5E1,-9.507987E-3,3.5255246E-2,1.0915934E-1,8.0162597E-1,5.4E1,5E1,-5.5919964E-2,-4.1497957E-2,4E1,-3.1794306E-2,5.897114E0,3.1E1,3.1E1,2.26E2,-5.6426898E-2,-4.4159308E-2,5.6694478E-2,-5.773114E-2,4.0844834E-1,-5.7008848E-2,2.62E2,7E1,-5.731785E-2,2.1E1,6.2608436E-2,2.45E2,3.1583557E3,8.015269E-1,4.696168E-1,-5.7205345E-2,2.13E2,1E0,8.945986E-3,3.546222E-2,4.9879666E-2,3.571067E-2,-5.684828E-2,-4.8464004E-2,-5.338743E-2,-3.7154127E-2,-4.7780413E-2,-5.3967316E-2,-4.360932E-2,-1.8850772E-2,-5.5323638E-2,-4.226481E-2,6.298706E-2,-3.3843864E-2,-3.2977812E-2,1.3199685E-2,9.088936E-3,-3.7930034E-2,-1.80011E-2,-4.739222E-2,2.6503485E-2,1.8905436E-3,-5.3666044E-2,-4.225652E-2,6.189868E-2,-4.4271644E-2,-4.47147E-2,-1.946993E-2,4.338512E-2,-9.558128E-5,-5.46032E-2,-4.142057E-2,-4.566492E-2,-5.4538477E-2,-4.3643568E-2,-1.6016282E-2,-4.2901523E-2,1.2470332E-2,-1.0760576E-2,-4.919471E-2,5.949701E-2,-2.7368285E-2,-1.202747E-2,2.2566449E-2,5.8740355E-2,3.979514E-2,-5.3024072E-2,-5.8639523E-2,-5.619459E-2,-4.2467117E-2,-5.754406E-2,-4.682772E-2,5.7945054E-2,-4.275405E-2,-4.6039697E-2,-5.6039207E-2,-5.647085E-2,-4.898031E-2,-4.797293E-2,-2.94057E-2,-3.08393E-2,6.0154002E-2,-3.9167527E-2,-6.76592E-3,-4.6837937E-2,-3.0142516E-2,-3.397812E-2,5.487082E-3,-4.3186896E-2,1.705378E-3,6.0637E-2,-3.190451E-2,-5.6513067E-2,-4.9094055E-2,-5.5011593E-2,-3.9049704E-2,-4.8054058E-2,-5.5864055E-2,-2.5336381E-2,-4.9980335E-2,-2.5405515E-2,-4.648066E-2,-5.4620348E-2,-4.5985077E-2,-2.1817885E-2,-5.7328507E-2],"split_indices":[18,4,19,4,21,4,4,19,4,3,4,3,4,22,4,3,3,0,3,4,0,0,19,3,21,0,4,21,0,0,4,0,0,0,5,19,21,0,4,4,4,4,22,22,9,0,22,22,4,4,0,0,0,22,4,0,0,0,5,3,3,0,5,3,0,0,0,22,4,0,4,0,4,0,22,4,4,0,4,0,15,0,4,0,25,21,21,0,4,3,4,5,21,0,4,0,0,8,5,15,5,1,5,0,0,0,10,10,1,3,0,0,19,0,22,1,3,0,4,19,4,22,4,0,0,1,0,3,4,0,0,4,0,25,4,4,15,0,0,5,0,0,0,15,4,0,4,0,15,11,5,1,0,15,21,0,0,0,0,0,0,0,0,0,0,0,0,0,0,0,0,0,0,0,0,0,0,0,0,0,0,0,0,0,0,0,0,0,0,0,0,0,0,0,0,0,0,0,0,0,0,0,0,0,0,0,0,0,0,0,0,0,0,0,0,0,0,0,0,0,0,0,0,0,0,0,0,0,0,0,0,0,0,0,0,0,0,0,0,0,0,0,0],"split_type":[0,0,0,0,0,0,0,0,0,0,0,0,0,0,0,0,0,0,0,0,0,0,0,0,0,0,0,0,0,0,0,0,0,0,0,0,0,0,0,0,0,0,0,0,0,0,0,0,0,0,0,0,0,0,0,0,0,0,0,0,0,0,0,0,0,0,0,0,0,0,0,0,0,0,0,0,0,0,0,0,0,0,0,0,0,0,0,0,0,0,0,0,0,0,0,0,0,0,0,0,0,0,0,0,0,0,0,0,0,0,0,0,0,0,0,0,0,0,0,0,0,0,0,0,0,0,0,0,0,0,0,0,0,0,0,0,0,0,0,0,0,0,0,0,0,0,0,0,0,0,0,0,0,0,0,0,0,0,0,0,0,0,0,0,0,0,0,0,0,0,0,0,0,0,0,0,0,0,0,0,0,0,0,0,0,0,0,0,0,0,0,0,0,0,0,0,0,0,0,0,0,0,0,0,0,0,0,0,0,0,0,0,0,0,0,0,0,0,0,0,0,0,0,0,0,0,0,0,0,0,0,0,0,0,0,0,0,0,0,0,0,0,0],"sum_hessian":[2.8409206E5,2.1498014E5,6.91119E4,8.428329E4,1.3069686E5,1.8054607E4,5.1057293E4,3.114461E4,5.313868E4,1.2341934E5,7.2775093E3,9.9016045E3,8.1530034E3,3.7737195E4,1.3320096E4,1.6002229E3,2.9544387E4,1.3266699E4,3.987198E4,7.7404653E3,1.1567888E5,2.8488684E2,6.9926226E3,3.3510466E3,6.550558E3,1.4653055E3,6.6876978E3,3.7534613E4,2.0258214E2,9.866723E2,1.2333423E4,4.9208652E2,1.1081364E3,1.4682758E4,1.4861628E4,1.8311807E4,2.1560176E4,1.1098264E3,6.6306387E3,3.2407268E3,1.1243816E5,4.4857855E2,6.544044E3,1.8378986E3,1.5131481E3,5.301172E3,1.249386E3,3.6938462E3,2.9938513E3,2.7646076E4,9.888538E3,1.007453E2,1.0183683E2,8.840803E3,3.4926199E3,3.057219E2,1.8636461E2,1.4561763E2,9.6251874E2,8.576512E3,6.1062466E3,1.2848766E4,2.0128623E3,8.661713E2,1.7445635E4,1.847004E4,3.0901362E3,3.6911694E3,2.9394692E3,2.7440604E2,2.9663208E3,2.8450379E4,8.398777E4,1.7288597E2,2.7569257E2,4.777718E3,1.7663262E3,1.453802E3,3.840966E2,1.0231089E2,1.4108372E3,1.1173727E3,4.1837993E3,9.701501E2,2.7923593E2,2.574966E3,1.1188801E3,1.0301569E3,1.9636945E3,1.7798818E4,9.847258E3,6.7066963E3,2.1341067E3,6.3920953E2,2.8534104E3,1.756588E2,1.3006311E2,7.5423615E2,2.0828261E2,5.075474E3,3.501037E3,3.3144932E3,2.7917537E3,8.0155435E3,4.8332227E3,1.2138757E3,7.989866E2,4.0857877E2,4.5759253E2,1.3091261E4,4.3543745E3,2.989415E3,1.5480625E4,2.3244841E3,7.656519E2,3.1426367E3,5.4853284E2,6.9036127E2,2.249108E3,1.5094562E3,1.4568647E3,2.1153834E4,6.283394E4,1.3487306E2,1.408195E2,2.955011E3,1.8227067E3,8.473632E2,9.189629E2,2.4721078E2,1.368858E2,1.2264869E3,1.8435022E2,7.6482355E2,3.5254916E2,2.4553599E3,1.7284396E3,1.782469E2,1.0098902E2,1.9942495E3,5.8071655E2,9.058287E2,2.1305148E2,1.3242166E3,6.394779E2,7.583347E3,1.0215472E4,6.7189777E2,9.175359E3,6.11294E3,5.9375653E2,1.4323273E3,7.017795E2,2.2382039E3,6.152065E2,5.3662854E2,2.1760762E2,1.0013588E2,1.0814672E2,4.9712764E3,1.0419787E2,3.125876E3,3.751611E2,1.3010952E3,2.0133981E3,2.5115015E3,2.8025198E2,2.7802961E3,5.235247E3,2.3984953E2,4.593373E3,2.2682396E2,9.870517E2,1.0464481E2,6.9434174E2,2.6100418E2,1.475746E2,2.5301321E2,2.0457933E2,7.3714854E3,5.7197754E3,5.2960815E2,3.8247666E3,1.899876E3,1.0895391E3,1.8347433E3,1.3645882E4,4.5677356E2,3.0887836E2,9.5122876E2,2.191408E3,2.995759E2,2.4895692E2,1.5715449E3,6.7756305E2,1.2395039E2,1.3855057E3,2.743402E2,1.1825245E3,8.2855E3,1.2868334E4,2.9632234E4,3.3201707E4,3.208215E2,2.6341897E3,1.2236733E3,5.990333E2,2.8236597E2,5.6499725E2,1.3675337E2,7.8220953E2,7.482752E2,4.7821173E2,4.492457E2,3.1557782E2,1.820632E2,1.7048596E2,1.7884562E3,6.6690375E2,1.4096868E3,3.187528E2,1.7551383E3,2.3911125E2,2.1016924E2,6.956594E2,1.21254E3,1.11676544E2,2.4258214E2,3.9689578E2,4.716176E3,5.4992954E3,8.503198E3,6.721618E2,4.6194443E2,5.6509956E3,1.0980589E2,4.8395065E2,6.6177277E2,7.7055444E2,1.868778E3,3.6942603E2,4.556051E2,1.5960141E2],"tree_param":{"num_deleted":"0","num_feature":"31","num_nodes":"243","size_leaf_vector":"1"}},{"base_weights":[-2.4708023E-4,6.531987E-1,-1.2071799E0,8.902258E-1,-1.5830325E0,-9.198996E-1,-1.6883754E0,1.1366752E0,-5.903046E-1,-1.7166107E0,-1.1019801E0,-1.5357419E0,-4.6636608E-1,-1.4457158E0,-1.7533672E0,-6.5449953E-1,1.2911152E0,1.4069425E-1,-1.002299E0,-1.7702446E0,-1.5728894E0,-7.368916E-1,-1.6490582E0,-1.7278217E0,-1.3053062E0,1.1129297E0,-6.7379314E-1,-1.5781065E0,-9.5036626E-1,-1.7732812E0,-1.5523022E0,-1.4842471E-1,-9.77677E-1,-7.19897E-1,1.3674239E0,-1.2875226E0,3.6306122E-1,-1.199886E0,-1.826313E-1,-1.6264637E0,-1.7888494E0,6.0493257E-2,-1.6937561E0,9.665052E-1,-9.529169E-1,-1.2708061E0,-1.7621294E0,-1.325113E0,-1.7443559E0,1.0241459E-1,-1.3776913E0,-8.148818E-1,1.2340004E0,-1.3522706E0,-3.5331613E-1,-1.7705693E0,-1.4724673E0,-7.356549E-1,-5.699684E-2,-1.7926769E0,-1.7043287E0,-1.4282501E0,-5.6634136E-2,-8.2018834E-1,1.677229E-1,-1.1733365E0,-4.060603E-1,8.224708E-1,-9.076039E-1,1.4170668E0,-2.6515228E-1,-1.5529624E0,-8.6281437E-1,-1.3237873E0,5.2548486E-1,-1.660194E0,-9.8241353E-1,-1.4059229E0,5.1630165E-2,-9.5012844E-1,-1.7932142E0,-5.701409E-2,-1.743183E0,-1.5878831E0,-5.6264266E-2,4.0079046E-2,1.4526724E-2,-1.5051802E0,-6.835209E-1,-5.232788E-2,-2.7550278E-2,-5.646542E-2,-1.6326398E0,-1.4685051E0,-2.6784252E-2,-1.7785187E0,-1.6114213E0,-3.227527E-1,5.792534E-1,-1.3991619E0,2.3185058E-2,-3.759484E-2,-7.34483E-3,1.3113855E0,-5.2102316E-2,-1.7195803E0,-1.0899221E0,-1.5926576E-1,-1.8223904E0,-1.6609358E0,-5.64202E-2,-1.3873048E0,-5.70199E-2,-1.6249728E0,-5.043213E-1,-1.7800231E0,-5.6910563E-2,-1.7272303E0,-1.3987814E0,-1.6024507E0,-1.0810986E0,1.4708976E-2,-9.7162336E-1,-1.2273366E0,3.3892927E-1,-1.3325901E0,-6.9076884E-1,5.9313286E-2,-1.0144676E0,1.0958142E0,1.1229892E-2,-1.053532E0,-1.3742688E-1,1.4480746E0,-1.4214827E-1,-6.6438246E-1,6.422471E-1,-1.6623405E0,-2.7969152E-2,-1.1908637E0,-6.799114E-3,-1.5896525E0,-1.0258509E0,1.9189107E-1,1.1540467E0,-1.3772131E0,-1.7176393E0,-1.4859743E0,-7.3755175E-1,-1.6608651E0,-2.9581122E-2,-1.0437481E0,2.660974E-1,-1.251611E-2,-4.5792587E-2,-4.8520885E-2,-5.690854E-2,-1.8069657E0,-1.6954441E0,-1.7762847E0,-1.4028813E0,-1.6182253E0,-2.9318677E-2,-4.0956888E-1,-1.3632956E0,-4.2011973E-2,-5.3565398E-2,-1.638661E0,-3.2494258E-2,-1.6442018E0,-1.7903302E0,-1.383655E0,-1.6902257E0,-2.2215746E-2,4.6725753E-3,3.126381E-2,2.1599394E-3,-1.4654222E0,-8.40943E-1,1.3707571E0,-4.5747794E-3,-1.7348427E0,-3.373984E-2,5.937736E-2,-1.2167699E0,1.2556237E-1,-8.0595326E-1,-5.6909982E-2,-4.7855176E-2,-5.5217654E-2,-1.4460386E0,-1.1784482E0,-1.595444E0,-5.5276904E-2,-4.295276E-2,-4.4389058E-2,-3.1007087E-1,-1.8141099E0,-1.751246E0,-1.6837605E0,-5.686133E-2,-5.385973E-2,-2.983116E-2,-3.572007E-2,-1.6479006E0,-1.3398558E-2,-1.3254086E0,-1.8217435E-2,-3.842663E-2,-2.1473844E-2,-4.741678E-2,1.5531353E-2,-2.3126591E-2,-1.02434745E-2,-4.315676E-2,-5.204018E-2,-1.6541217E-2,-4.6599966E-2,-2.246011E-2,4.7058817E-2,2.4752429E-2,-8.517957E-3,-3.7009347E-2,3.708045E-2,-1.2883121E-2,4.644062E-2,1.8154642E-2,6.11408E-3,-4.7925193E-2,2.27391E-2,-2.5698831E-2,2.6512938E-2,-6.717177E-3,-4.372868E-2,-5.348759E-2,-2.5513181E-2,-4.667738E-2,-5.4970637E-2,-4.0605474E-2,-1.2985228E-2,-4.3201845E-2,1.2305954E-2,-2.254423E-2,2.0695439E-2,4.217192E-2,-3.794968E-2,-5.4977186E-2,-5.5405214E-2,-4.917801E-2,-2.3399428E-2,-4.8608318E-2,6.080369E-2,-2.4763672E-2,-5.590781E-2,-4.3638337E-2,-5.2211758E-2,-2.2623284E-2,1.6452406E-2,-1.6318867E-2,-5.6548543E-2,-4.692009E-2,-4.9222194E-2,-5.469825E-2,-5.721436E-2,-5.209889E-2,-2.4815276E-2,-4.6770986E-2,-4.1667935E-2,-5.524795E-2,-3.4337003E-2,-3.473727E-3,-4.9510974E-2,-2.9295774E-2,-4.4211775E-2,-5.489239E-2,-5.2559286E-2,-3.8800877E-2,-5.5789113E-2,-5.2652087E-2,-5.200498E-2,-3.816504E-2,-3.947564E-2,-5.3728282E-2,-4.8333235E-2,-3.5749104E-2,1.9184866E-3,-3.3773527E-2,4.411658E-2,7.6830934E-4,-5.4478355E-2,-4.733562E-2,-2.9767908E-2,-5.351497E-2,8.224819E-3,-3.3672538E-2,5.85201E-2,-2.6927464E-2,-5.392273E-2,-3.838382E-2,-3.9837684E-2,-1.0342485E-2,-4.2318523E-2,-5.2933913E-2,-4.026697E-2,-4.1668415E-3,-5.6511696E-2,-5.1243432E-2,-5.328811E-2,-5.6455683E-2,-5.533562E-2,-4.9450133E-2,-4.1578516E-2,-5.2916422E-2,-5.3064484E-2,-3.5016425E-2],"categories":[],"categories_nodes":[],"categories_segments":[],"categories_sizes":[],"default_left":[0,0,0,0,0,0,0,0,0,0,0,0,0,0,0,0,0,0,0,0,0,0,0,0,0,0,0,0,0,0,0,0,0,0,0,0,0,0,0,0,0,0,0,0,0,0,0,0,0,0,0,0,0,0,0,0,0,0,0,0,0,0,0,0,0,0,0,0,0,0,0,0,0,0,0,0,0,0,0,0,0,0,0,0,0,0,0,0,0,0,0,0,0,0,0,0,0,0,0,0,0,0,0,0,0,0,0,0,0,0,0,0,0,0,0,0,0,0,0,0,0,0,0,0,0,0,0,0,0,0,0,0,0,0,0,0,0,0,0,0,0,0,0,0,0,0,0,0,0,0,0,0,0,0,0,0,0,0,0,0,0,0,0,0,0,0,0,0,0,0,0,0,0,0,0,0,0,0,0,0,0,0,0,0,0,0,0,0,0,0,0,0,0,0,0,0,0,0,0,0,0,0,0,0,0,0,0,0,0,0,0,0,0,0,0,0,0,0,0,0,0,0,0,0,0,0,0,0,0,0,0,0,0,0,0,0,0,0,0,0,0,0,0,0,0,0,0,0,0,0,0,0,0,0,0,0,0,0,0,0,0,0,0,0,0,0,0,0,0,0,0,0,0,0,0,0,0,0,0,0,0,0,0,0,0,0,0,0,0,0,0,0,0,0,0,0,0,0,0,0,0,0,0,0,0,0,0,0,0,0,0,0,0,0,0],"id":3,"left_children":[1,3,5,7,9,11,13,15,17,19,21,23,25,27,29,31,33,35,37,39,41,43,45,47,49,51,53,55,57,59,61,63,65,67,69,71,73,75,77,79,81,-1,83,85,87,89,91,93,95,97,99,101,103,105,107,109,111,113,-1,115,117,119,-1,121,123,125,127,129,131,133,135,137,139,141,143,145,147,149,151,153,155,-1,157,159,-1,-1,-1,161,163,-1,-1,-1,165,167,-1,169,171,173,175,177,-1,-1,-1,179,-1,181,183,185,187,189,-1,191,-1,193,195,197,-1,199,201,203,205,-1,207,209,211,213,215,-1,217,219,-1,221,223,225,227,229,231,233,-1,235,-1,237,239,241,243,245,247,249,251,253,-1,255,257,-1,-1,-1,-1,259,261,263,265,267,-1,269,271,-1,-1,273,-1,275,277,279,281,-1,-1,-1,-1,283,285,287,-1,289,-1,-1,291,293,295,-1,-1,-1,297,299,301,-1,-1,-1,303,305,307,309,-1,-1,-1,-1,311,-1,313,-1,-1,-1,-1,-1,-1,-1,-1,-1,-1,-1,-1,-1,-1,-1,-1,-1,-1,-1,-1,-1,-1,-1,-1,-1,-1,-1,-1,-1,-1,-1,-1,-1,-1,-1,-1,-1,-1,-1,-1,-1,-1,-1,-1,-1,-1,-1,-1,-1,-1,-1,-1,-1,-1,-1,-1,-1,-1,-1,-1,-1,-1,-1,-1,-1,-1,-1,-1,-1,-1,-1,-1,-1,-1,-1,-1,-1,-1,-1,-1,-1,-1,-1,-1,-1,-1,-1,-1,-1,-1,-1,-1,-1,-1,-1,-1,-1,-1,-1,-1,-1,-1,-1,-1,-1,-1,-1,-1],"loss_changes":[2.2340202E5,9.740796E4,1.37511875E4,6.062842E4,1.1284023E3,1.740005E4,5.824219E2,3.9406406E4,7.141912E3,1.0178125E2,7.6281055E2,1.1657539E3,1.1755068E4,5.1297656E2,1.1302344E2,1.84869E3,2.0125953E4,2.714607E3,2.455251E3,2.2201172E1,1.6034854E3,8.473198E2,6.176953E1,9.2078125E1,1.2253203E3,9.735112E2,6.8951514E3,1.21896484E2,3.1431055E2,3.0867188E1,8.6151855E1,9.3675507E2,7.7045264E2,1.3889199E3,1.0240891E4,1.2725989E2,2.0269858E3,1.22025E3,8.453801E2,1.2806152E2,1.5371094E1,0E0,4.2041992E1,4.0618774E1,3.0168762E2,5.4148315E1,4.3339844E0,3.548523E1,5.8265625E1,1.1958605E2,5.230156E2,5.5672424E1,8.862544E2,9.7716016E2,6.1403057E3,7.116699E0,1.2121094E2,2.7389563E2,0E0,6.2734375E0,3.7185547E1,1.07808105E2,0E0,2.774486E2,7.160537E2,3.930293E2,2.4875376E3,6.434436E1,4.797588E2,5.9292344E3,1.3513496E3,4.751123E1,9.3147675E1,4.8525635E1,1.4141382E3,5.9785156E1,1.0214253E3,5.1701538E1,5.8115594E2,6.547452E1,4.4592285E0,0E0,9.407227E0,6.3865723E1,0E0,0E0,0E0,3.9436768E1,2.5460901E2,0E0,0E0,0E0,6.208008E0,2.8064575E1,0E0,1.278125E1,4.7134277E1,5.840844E1,6.0247154E1,4.161797E2,0E0,0E0,0E0,3.3166943E2,0E0,3.751367E1,2.2659458E3,3.5059458E3,4.8710938E0,1.3793823E1,0E0,1.385332E2,0E0,6.3880005E0,1.9070285E2,1.0855469E1,0E0,2.0579102E1,5.8606262E1,2.1620117E1,9.631067E1,0E0,1.2843872E2,5.076773E1,4.7003818E2,2.2922461E2,1.9646472E2,0E0,1.9569556E2,3.847397E1,0E0,3.916189E2,2.533533E2,5.1836406E3,1.1403762E3,5.967793E2,2.0899207E2,5.572754E0,0E0,3.1712555E1,0E0,1.3633484E1,6.7726135E1,8.314276E2,2.3285645E2,3.6819946E1,2.519336E1,1.6047021E2,9.25199E2,6.7232056E0,0E0,7.899707E1,4.3447125E2,0E0,0E0,0E0,0E0,5.5507812E0,1.5520996E1,1.5090332E0,6.0749146E1,2.0922852E1,0E0,2.0320816E2,3.5754578E1,0E0,0E0,4.4954834E0,0E0,1.4599365E1,3.8320312E0,2.9550903E1,3.397461E1,0E0,0E0,0E0,0E0,2.9276562E2,2.7069965E2,2.5792285E2,0E0,1.5033203E1,0E0,0E0,7.4185547E2,2.2374404E3,9.8368555E2,0E0,0E0,0E0,1.1998352E1,1.4589551E2,3.821338E1,0E0,0E0,0E0,1.5246439E2,5.7148438E0,1.4904297E1,3.0475586E1,0E0,0E0,0E0,0E0,1.6167725E1,0E0,3.0465149E1,0E0,0E0,0E0,0E0,0E0,0E0,0E0,0E0,0E0,0E0,0E0,0E0,0E0,0E0,0E0,0E0,0E0,0E0,0E0,0E0,0E0,0E0,0E0,0E0,0E0,0E0,0E0,0E0,0E0,0E0,0E0,0E0,0E0,0E0,0E0,0E0,0E0,0E0,0E0,0E0,0E0,0E0,0E0,0E0,0E0,0E0,0E0,0E0,0E0,0E0,0E0,0E0,0E0,0E0,0E0,0E0,0E0,0E0,0E0,0E0,0E0,0E0,0E0,0E0,0E0,0E0,0E0,0E0,0E0,0E0,0E0,0E0,0E0,0E0,0E0,0E0,0E0,0E0,0E0,0E0,0E0,0E0,0E0,0E0,0E0,0E0,0E0,0E0,0E0,0E0,0E0,0E0,0E0,0E0,0E0,0E0,0E0,0E0,0E0,0E0,0E0,0E0,0E0,0E0,0E0,0E0,0E0,0E0],"parents":[2147483647,0,0,1,1,2,2,3,3,4,4,5,5,6,6,7,7,8,8,9,9,10,10,11,11,12,12,13,13,14,14,15,15,16,16,17,17,18,18,19,19,20,20,21,21,22,22,23,23,24,24,25,25,26,26,27,27,28,28,29,29,30,30,31,31,32,32,33,33,34,34,35,35,36,36,37,37,38,38,39,39,40,40,42,42,43,43,44,44,45,45,46,46,47,47,48,48,49,49,50,50,51,51,52,52,53,53,54,54,55,55,56,56,57,57,59,59,60,60,61,61,63,63,64,64,65,65,66,66,67,67,68,68,69,69,70,70,71,71,72,72,73,73,74,74,75,75,76,76,77,77,78,78,79,79,80,80,82,82,83,83,87,87,88,88,92,92,93,93,95,95,96,96,97,97,98,98,99,99,103,103,105,105,106,106,107,107,108,108,109,109,111,111,113,113,114,114,115,115,117,117,118,118,119,119,120,120,122,122,123,123,124,124,125,125,126,126,128,128,129,129,131,131,132,132,133,133,134,134,135,135,136,136,137,137,139,139,141,141,142,142,143,143,144,144,145,145,146,146,147,147,148,148,149,149,151,151,152,152,157,157,158,158,159,159,160,160,161,161,163,163,164,164,167,167,169,169,170,170,171,171,172,172,177,177,178,178,179,179,181,181,184,184,185,185,186,186,190,190,191,191,192,192,196,196,197,197,198,198,199,199,204,204,206,206],"right_children":[2,4,6,8,10,12,14,16,18,20,22,24,26,28,30,32,34,36,38,40,42,44,46,48,50,52,54,56,58,60,62,64,66,68,70,72,74,76,78,80,82,-1,84,86,88,90,92,94,96,98,100,102,104,106,108,110,112,114,-1,116,118,120,-1,122,124,126,128,130,132,134,136,138,140,142,144,146,148,150,152,154,156,-1,158,160,-1,-1,-1,162,164,-1,-1,-1,166,168,-1,170,172,174,176,178,-1,-1,-1,180,-1,182,184,186,188,190,-1,192,-1,194,196,198,-1,200,202,204,206,-1,208,210,212,214,216,-1,218,220,-1,222,224,226,228,230,232,234,-1,236,-1,238,240,242,244,246,248,250,252,254,-1,256,258,-1,-1,-1,-1,260,262,264,266,268,-1,270,272,-1,-1,274,-1,276,278,280,282,-1,-1,-1,-1,284,286,288,-1,290,-1,-1,292,294,296,-1,-1,-1,298,300,302,-1,-1,-1,304,306,308,310,-1,-1,-1,-1,312,-1,314,-1,-1,-1,-1,-1,-1,-1,-1,-1,-1,-1,-1,-1,-1,-1,-1,-1,-1,-1,-1,-1,-1,-1,-1,-1,-1,-1,-1,-1,-1,-1,-1,-1,-1,-1,-1,-1,-1,-1,-1,-1,-1,-1,-1,-1,-1,-1,-1,-1,-1,-1,-1,-1,-1,-1,-1,-1,-1,-1,-1,-1,-1,-1,-1,-1,-1,-1,-1,-1,-1,-1,-1,-1,-1,-1,-1,-1,-1,-1,-1,-1,-1,-1,-1,-1,-1,-1,-1,-1,-1,-1,-1,-1,-1,-1,-1,-1,-1,-1,-1,-1,-1,-1,-1,-1,-1,-1,-1],"split_conditions":[1E0,1E0,1E0,1E0,1.0694178E3,4.5E1,1E0,1.9E1,1E0,8.0162597E-1,1E0,1.8E1,1E0,1.0694178E3,2.34E2,9E0,1.1694818E-1,3.4E1,2.03E2,1E0,9E-1,1E0,1E0,1E0,1E0,1.1694818E-1,4.0844834E-1,4.6E1,1E0,8.0162597E-1,1E0,7E0,8.0162597E-1,1E0,3E0,1.7E1,1.1694818E-1,4.1E1,4E1,1E0,5.3E1,6.0493257E-2,1E0,4.5117244E-1,5.2E1,7.0183253E-1,3E0,8.0162597E-1,8.0162597E-1,7.0183253E-1,1.5441085E3,5.5209272E3,1E0,1.1694818E-1,1E0,2.8760022E-1,1E0,4.7E1,-5.699684E-2,1E0,1.3051501E-1,8.0162597E-1,-5.6634136E-2,1E0,2.0203336E-1,1.3E1,9E-1,2E0,5.6694478E-2,3E0,1.0694178E3,1.99E2,2.0708963E2,6.0640364E0,1.0694178E3,5E0,4.0844834E-1,2.6E1,4.0844834E-1,4.8321577E3,3.3561016E3,-5.701409E-2,4.958303E3,5E1,-5.6264266E-2,4.0079046E-2,1.4526724E-2,2.876978E-2,7.199703E-1,-5.232788E-2,-2.7550278E-2,-5.646542E-2,2.7791238E-1,1.2E1,-2.6784252E-2,9E0,4.2134214E3,6.9748106E0,9E-1,5.6694478E-2,2.3185058E-2,-3.759484E-2,-7.34483E-3,3E0,-5.2102316E-2,1.3550768E4,2E-1,1.1E1,0E0,2.8E1,-5.64202E-2,4.733527E-1,-5.70199E-2,2.5E1,1E0,4.9E1,-5.6910563E-2,1E0,5.7E1,1.4146318E0,2.5632626E-1,1.4708976E-2,2.909695E-1,4.7010986E3,2.092219E1,1E0,1.1694818E-1,5.9313286E-2,7E0,5E0,1.1229892E-2,5E0,7.1507347E-1,8.4519947E-1,5E0,1E0,1.3E1,4E0,-2.7969152E-2,4.051313E-1,-6.799114E-3,1.14E2,4.9087363E3,2E0,2.06E2,2E0,2.6E1,3E0,5E-1,3E0,-2.9581122E-2,1.1694818E-1,6.983488E-1,-1.251611E-2,-4.5792587E-2,-4.8520885E-2,-5.690854E-2,5.658817E3,4.7175654E3,2.9E1,1E0,3.813746E-1,-2.9318677E-2,6.011437E-1,8.0162597E-1,-4.2011973E-2,-5.3565398E-2,1E0,-3.2494258E-2,4.694443E-2,1.0694178E3,1.00108525E-2,9E0,-2.2215746E-2,4.6725753E-3,3.126381E-2,2.1599394E-3,8.0162597E-1,4.2559897E3,2E0,-4.5747794E-3,2.17E2,-3.373984E-2,5.937736E-2,4E-1,8.316798E-1,5E-1,-5.6909982E-2,-4.7855176E-2,-5.5217654E-2,3.996363E0,5.6694478E-2,4.345663E3,-5.5276904E-2,-4.295276E-2,-4.4389058E-2,2.0203336E-1,6.6334575E3,1.1E1,4.7E1,-5.686133E-2,-5.385973E-2,-2.983116E-2,-3.572007E-2,4E0,-1.3398558E-2,5.8E1,-1.8217435E-2,-3.842663E-2,-2.1473844E-2,-4.741678E-2,1.5531353E-2,-2.3126591E-2,-1.02434745E-2,-4.315676E-2,-5.204018E-2,-1.6541217E-2,-4.6599966E-2,-2.246011E-2,4.7058817E-2,2.4752429E-2,-8.517957E-3,-3.7009347E-2,3.708045E-2,-1.2883121E-2,4.644062E-2,1.8154642E-2,6.11408E-3,-4.7925193E-2,2.27391E-2,-2.5698831E-2,2.6512938E-2,-6.717177E-3,-4.372868E-2,-5.348759E-2,-2.5513181E-2,-4.667738E-2,-5.4970637E-2,-4.0605474E-2,-1.2985228E-2,-4.3201845E-2,1.2305954E-2,-2.254423E-2,2.0695439E-2,4.217192E-2,-3.794968E-2,-5.4977186E-2,-5.5405214E-2,-4.917801E-2,-2.3399428E-2,-4.8608318E-2,6.080369E-2,-2.4763672E-2,-5.590781E-2,-4.3638337E-2,-5.2211758E-2,-2.2623284E-2,1.6452406E-2,-1.6318867E-2,-5.6548543E-2,-4.692009E-2,-4.9222194E-2,-5.469825E-2,-5.721436E-2,-5.209889E-2,-2.4815276E-2,-4.6770986E-2,-4.1667935E-2,-5.524795E-2,-3.4337003E-2,-3.473727E-3,-4.9510974E-2,-2.9295774E-2,-4.4211775E-2,-5.489239E-2,-5.2559286E-2,-3.8800877E-2,-5.5789113E-2,-5.2652087E-2,-5.200498E-2,-3.816504E-2,-3.947564E-2,-5.3728282E-2,-4.8333235E-2,-3.5749104E-2,1.9184866E-3,-3.3773527E-2,4.411658E-2,7.6830934E-4,-5.4478355E-2,-4.733562E-2,-2.9767908E-2,-5.351497E-2,8.224819E-3,-3.3672538E-2,5.85201E-2,-2.6927464E-2,-5.392273E-2,-3.838382E-2,-3.9837684E-2,-1.0342485E-2,-4.2318523E-2,-5.2933913E-2,-4.026697E-2,-4.1668415E-3,-5.6511696E-2,-5.1243432E-2,-5.328811E-2,-5.6455683E-2,-5.533562E-2,-4.9450133E-2,-4.1578516E-2,-5.2916422E-2,-5.3064484E-2,-3.5016425E-2],"split_indices":[27,21,18,18,22,3,19,3,19,0,18,3,19,22,15,13,0,3,15,19,0,19,19,19,19,0,0,3,21,0,21,3,0,19,7,3,0,3,3,18,3,0,18,1,3,0,26,0,0,0,22,11,21,0,21,1,21,3,0,21,5,0,0,19,0,3,0,7,5,14,22,15,22,25,22,13,0,3,0,11,10,0,9,3,0,0,0,5,1,0,0,0,1,3,0,2,11,25,0,5,0,0,0,7,0,9,0,13,2,3,0,1,0,3,26,3,0,21,3,25,1,0,1,11,6,19,0,0,3,13,0,13,5,1,14,19,13,13,0,1,0,15,11,14,15,14,3,13,0,26,0,0,1,0,0,0,0,11,10,3,12,1,0,0,0,0,0,26,0,5,22,5,2,0,0,0,0,0,11,14,0,15,0,0,0,1,0,0,0,0,25,5,11,0,0,0,0,11,13,3,0,0,0,0,13,0,3,0,0,0,0,0,0,0,0,0,0,0,0,0,0,0,0,0,0,0,0,0,0,0,0,0,0,0,0,0,0,0,0,0,0,0,0,0,0,0,0,0,0,0,0,0,0,0,0,0,0,0,0,0,0,0,0,0,0,0,0,0,0,0,0,0,0,0,0,0,0,0,0,0,0,0,0,0,0,0,0,0,0,0,0,0,0,0,0,0,0,0,0,0,0,0,0,0,0,0,0,0,0,0,0,0,0,0,0],"split_type":[0,0,0,0,0,0,0,0,0,0,0,0,0,0,0,0,0,0,0,0,0,0,0,0,0,0,0,0,0,0,0,0,0,0,0,0,0,0,0,0,0,0,0,0,0,0,0,0,0,0,0,0,0,0,0,0,0,0,0,0,0,0,0,0,0,0,0,0,0,0,0,0,0,0,0,0,0,0,0,0,0,0,0,0,0,0,0,0,0,0,0,0,0,0,0,0,0,0,0,0,0,0,0,0,0,0,0,0,0,0,0,0,0,0,0,0,0,0,0,0,0,0,0,0,0,0,0,0,0,0,0,0,0,0,0,0,0,0,0,0,0,0,0,0,0,0,0,0,0,0,0,0,0,0,0,0,0,0,0,0,0,0,0,0,0,0,0,0,0,0,0,0,0,0,0,0,0,0,0,0,0,0,0,0,0,0,0,0,0,0,0,0,0,0,0,0,0,0,0,0,0,0,0,0,0,0,0,0,0,0,0,0,0,0,0,0,0,0,0,0,0,0,0,0,0,0,0,0,0,0,0,0,0,0,0,0,0,0,0,0,0,0,0,0,0,0,0,0,0,0,0,0,0,0,0,0,0,0,0,0,0,0,0,0,0,0,0,0,0,0,0,0,0,0,0,0,0,0,0,0,0,0,0,0,0,0,0,0,0,0,0,0,0,0,0,0,0,0,0,0,0,0,0,0,0,0,0,0,0,0,0,0,0,0,0],"sum_hessian":[2.832636E5,1.8376916E5,9.949445E4,1.661582E5,1.7610947E4,6.2302785E4,3.719167E4,1.4244702E5,2.3711195E4,1.3780722E4,3.8302268E3,2.6421785E4,3.5880996E4,7.863324E3,2.9328348E4,1.1306709E4,1.311403E5,8.546551E3,1.5164644E4,1.0024852E4,3.75587E3,2.2991602E3,1.5310665E3,1.4405448E4,1.2016337E4,4.164767E3,3.171623E4,6.202424E3,1.6609003E3,2.6675967E4,2.6523804E3,4.4076396E3,6.8990693E3,4.7937075E3,1.2634659E5,1.1504447E3,7.396106E3,1.2218266E4,2.9463782E3,1.1617765E3,8.863075E3,1.2389862E2,3.6319714E3,2.581122E2,2.041048E3,3.5618774E2,1.1748788E3,5.725189E2,1.383293E4,5.873054E2,1.1429032E4,2.4551799E2,3.9192493E3,1.0173428E4,2.1542803E4,2.190707E3,4.011717E3,1.3394991E3,3.2140106E2,2.0794453E4,5.8815146E3,1.8325522E3,8.198281E2,1.410512E3,2.9971277E3,5.1383345E3,1.7607349E3,5.1944434E2,4.274263E3,1.22618484E5,3.72811E3,7.0560956E2,4.4483514E2,6.4870984E2,6.747396E3,3.9174827E3,8.300783E3,4.7308826E2,2.47329E3,2.3170093E2,9.300756E2,4.193029E3,4.670046E3,1.9484398E3,1.6835316E3,1.5434221E2,1.0377001E2,6.6708234E2,1.3739656E3,1.6801292E2,1.8817482E2,7.940804E2,3.8079843E2,4.3421863E2,1.3830034E2,1.0991967E4,2.8409622E3,3.1009116E2,2.772143E2,1.1315313E4,1.1371862E2,1.4425272E2,1.0126527E2,3.8185884E3,1.0066094E2,4.2356733E3,5.937755E3,1.9030508E4,2.5122952E3,6.947401E2,1.4959668E3,3.2609238E3,7.5079333E2,2.7482004E2,1.0646791E3,1.6120647E4,4.6738047E3,5.465565E3,4.1594955E2,1.2168706E3,6.1568164E2,1.4713844E2,1.2633735E3,3.2661835E2,2.6705093E3,3.861268E3,1.2770665E3,3.6527057E2,1.3954642E3,3.2433777E2,1.9510655E2,3.5925527E3,6.817102E2,1.2022793E5,2.390552E3,2.5895845E3,1.1385255E3,6.020853E2,1.03524254E2,2.9355405E2,1.512811E2,3.396275E2,3.0908234E2,4.4093447E3,2.3380513E3,6.66739E2,3.2507437E3,2.713445E3,5.587338E3,2.9998718E2,1.7310106E2,4.0394867E2,2.0693413E3,1.1509706E2,1.1660386E2,1.5403789E2,7.760377E2,1.9788407E3,2.6912053E3,9.5974915E2,9.886907E2,5.526235E2,1.1445883E2,9.80969E2,3.9299664E2,1.0258246E2,2.7821597E2,3.0617728E2,1.2804134E2,9.0322485E2,1.0088742E4,7.366733E2,2.1042888E3,1.6956996E2,1.4052118E2,1.4940157E2,1.2781274E2,1.0112449E4,1.2028636E3,3.6696567E3,1.4893173E2,4.1331924E3,1.0248113E2,2.39739E2,5.6980156E3,1.3211601E4,5.8189067E3,2.3898657E3,1.2242966E2,4.3926562E2,2.5547449E2,1.632181E3,1.6287427E3,1.6035135E2,1.144687E2,1.8280482E2,8.8187427E2,7.343165E3,8.777482E3,3.9018843E3,1.5636807E3,2.3190775E2,1.8404181E2,1.15011345E2,1.1018593E3,1.6972035E2,4.4596127E2,5.2134644E2,7.420271E2,1.1974524E2,2.068731E2,2.3242803E3,3.4622885E2,2.174592E2,3.6438088E3,1.7352583E2,1.1035408E3,5.1739575E2,8.7806854E2,1.3163689E2,1.9270088E2,5.4948016E2,3.0430728E3,1.1677215E2,5.649381E2,1.1363718E5,6.590749E3,1.9255509E3,4.6500104E2,2.7213074E2,2.3174539E3,9.1275476E2,2.257708E2,1.2688735E2,4.7519797E2,1.3778168E2,1.5577235E2,2.0076686E2,1.3886064E2,1.1793409E2,1.9114825E2,3.6059065E3,8.034384E2,6.983396E2,1.6397117E3,4.848436E2,1.818954E2,2.113277E3,1.1374666E3,2.7538104E2,2.438064E3,1.2316751E2,5.4641704E3,1.8671413E2,1.13273056E2,1.3091641E2,2.7303226E2,1.5520592E3,5.172821E2,1.8628411E3,1.1599957E2,1.0636587E3,1.6275466E3,5.428254E2,4.1692374E2,1.4976291E2,8.389278E2,2.1142961E2,3.4119388E2,2.9182812E2,6.8914087E2,2.4950047E2,1.4349615E2,1.2333227E2,1.82845E2,7.948444E2,1.0838044E2,9.137874E3,9.50868E2,2.4714017E2,4.8953308E2,2.005045E2,1.9037844E3,7.773606E3,2.3388438E3,2.5937173E2,9.434919E2,3.5318394E3,1.3781732E2,3.720261E3,4.129312E2,3.7925452E3,1.9054705E3,1.1846528E4,1.365072E3,1.3146733E2,5.6874395E3,1.01882195E2,1.5359229E2,1.4482596E3,1.8392136E2,5.389739E2,1.0897688E3,1.3162827E2,7.5024603E2,6.9481284E3,3.9503696E2,6.0274116E3,2.7500713E3,1.809231E3,2.0926533E3,1.8318828E2,9.1867096E2,1.4655565E2,2.994056E2],"tree_param":{"num_deleted":"0","num_feature":"31","num_nodes":"315","size_leaf_vector":"1"}},{"base_weights":[1.4843115E-3,1.0662389E0,-7.033725E-1,1.2294936E0,-1.3458138E0,-7.244985E-2,-1.464405E0,1.4850831E0,8.493874E-2,-1.0599937E0,-5.5132817E-2,1.9661656E-1,-1.698358E0,-1.6545391E0,-1.3019964E0,1.5191915E0,1.2344528E-1,-1.2471309E0,2.0394503E-1,-1.4163265E0,-5.658418E-1,4.2259413E-1,-1.6467891E0,-1.7289007E0,-1.5282658E0,-1.7412055E0,-1.5482434E0,-1.1305931E0,-1.7841823E0,2.2429457E-1,1.5417974E0,-2.9813236E-1,6.174549E-1,-8.425056E-3,-1.3296111E0,3.1652826E-1,-1.2095019E0,-1.605417E0,-1.2218221E0,-6.857902E-1,3.3196982E-2,-6.75266E-1,7.93836E-1,-1.7024865E0,-1.2608101E0,-1.5527618E0,-1.7497612E0,-1.5749055E0,-1.9489428E-2,-5.4689087E-2,-1.703673E0,-1.3406385E0,-1.6451756E0,-9.722401E-1,-5.5523828E-2,-1.706715E0,-5.55443E-2,-5.219746E-1,4.907321E-1,2.828052E-1,1.5630339E0,-1.1447117E0,-5.715751E-2,2.0443592E-2,8.460012E-1,-1.1986717E0,-1.6764401E0,-1.376811E0,4.0466732E-1,-5.2616283E-2,-1.0561692E0,-3.7875157E-2,-1.6666394E0,-1.4347628E0,-8.832865E-1,-4.199229E-1,-1.3493657E0,-1.1586049E0,-1.5651488E-1,-9.847182E-1,9.065707E-1,-1.5094955E0,-1.7360231E0,-7.721153E-3,-1.43786E0,-1.6840457E0,-1.2885313E0,-5.492891E-2,-1.6807019E0,-1.3264221E0,-1.7027448E0,-1.6334175E0,-1.7311153E0,-1.4224627E0,-5.827114E-1,-1.6699053E0,-1.3953719E0,-1.561904E0,-8.070874E-1,-1.4448603E0,-5.551868E-2,7.719234E-3,-8.697204E-1,6.0991716E-2,2.1588808E-1,-3.067374E-1,5.218096E-1,1.5756224E0,-3.0417863E-1,-2.2473449E-2,-4.439334E-2,2.1687444E-1,-7.953408E-1,1.3857078E-2,-1.7729314E-2,1.3227872E0,3.787024E-1,-1.8786294E-2,-1.3123894E0,-5.5115364E-2,-4.263827E-2,-1.5580612E0,-1.1674067E0,5.327865E-1,-7.1435636E-1,-1.358078E-2,-1.2097561E0,-1.7008699E0,-4.1123435E-2,-1.1125047E0,-1.5678569E0,-5.895107E-3,-1.110117E0,3.1203723E-1,-6.1974627E-1,-1.5844643E0,-3.1321157E-2,-6.948183E-1,-1.3468429E0,4.1349408E-1,-5.8310854E-1,-1.1275479E0,5.932389E-1,1.0008571E0,-3.4702042E-1,-1.310903E0,-1.6905742E0,-1.7639697E0,-1.6032767E0,-1.0054913E0,-1.625298E0,-1.6053987E0,-5.5131167E-2,-9.947436E-1,-5.0496135E-2,-5.4660283E-2,-1.583769E0,-1.4676249E0,-1.7992973E-2,-4.2620834E-2,-5.3945422E-2,-1.6671079E0,-3.587848E-2,-1.6439278E0,-5.413244E-2,-1.5372075E0,-1.0380142E0,-8.0693245E-1,4.708266E-3,-1.7083087E0,-1.5669837E0,-2.7654452E-2,-1.5006895E0,-1.6091188E0,-7.405219E-1,5.9399992E-2,-8.5136247E-1,-3.456362E-2,-5.6056198E-2,-1.5991272E-2,-3.7922118E-2,1.2246381E-2,-1.475853E-2,-2.1548009E-2,1.4446849E-2,6.0029417E-2,7.3394096E-3,4.977598E-2,3.147281E-2,2.411385E-3,-2.3854872E-2,-3.994169E-2,1.5604127E-2,-9.087644E-3,-3.607754E-2,2.5977196E-2,5.8844697E-2,-1.2842932E-3,1.9006938E-2,-4.3769836E-2,-1.6972253E-2,-4.0171918E-2,-5.063899E-2,-2.89633E-2,-4.856172E-2,1.9277738E-2,-2.145078E-2,-3.2261036E-2,-9.235348E-3,-4.377473E-2,-3.0131513E-2,-4.898624E-2,-5.517755E-2,-2.1689454E-2,-4.4484556E-2,-4.3523394E-2,-5.2498963E-2,-2.1643525E-2,-4.4111308E-2,2.41247E-2,-9.323248E-3,-4.3379046E-2,-1.508791E-2,-4.2694345E-2,-5.344827E-2,-2.9484335E-2,1.3934948E-3,-4.4816013E-2,-2.8662544E-2,-3.5423797E-2,1.9166457E-2,-2.4918186E-2,1.1855943E-2,-3.888275E-2,-1.1891764E-2,2.8324476E-2,3.609972E-3,3.2966383E-2,-2.063494E-2,-6.0533695E-3,-4.767201E-2,-3.14878E-2,-5.127594E-2,-5.6538846E-2,-4.8597816E-2,-5.7423413E-2,-5.3599365E-2,-4.4278383E-2,-5.5522796E-2,-4.202201E-2,-1.4889349E-2,-5.3571526E-2,-3.322764E-2,-5.264425E-2,-4.2873487E-2,-1.5875982E-2,-4.4012565E-2,-4.545366E-2,-5.418355E-2,-2.9377274E-2,-4.9731668E-2,-4.7499795E-2,-5.340875E-2,-4.268991E-2,-5.213269E-2,-5.010171E-2,-3.8379416E-2,1.1804573E-3,-4.1270938E-2,-3.911638E-2,-1.5959032E-2,-5.136036E-2,-5.4201186E-2,-9.65161E-3,-5.103084E-2,-3.8615614E-2,-5.283255E-2,-5.258113E-2,-4.3895934E-2,-3.8027175E-2,-1.14231985E-2,-3.0063003E-2,1.1994599E-3],"categories":[],"categories_nodes":[],"categories_segments":[],"categories_sizes":[],"default_left":[0,0,0,0,0,0,0,0,0,0,0,0,0,0,0,0,0,0,0,0,0,0,0,0,0,0,0,0,0,0,0,0,0,0,0,0,0,0,0,0,0,0,0,0,0,0,0,0,0,0,0,0,0,0,0,0,0,0,0,0,0,0,0,0,0,0,0,0,0,0,0,0,0,0,0,0,0,0,0,0,0,0,0,0,0,0,0,0,0,0,0,0,0,0,0,0,0,0,0,0,0,0,0,0,0,0,0,0,0,0,0,0,0,0,0,0,0,0,0,0,0,0,0,0,0,0,0,0,0,0,0,0,0,0,0,0,0,0,0,0,0,0,0,0,0,0,0,0,0,0,0,0,0,0,0,0,0,0,0,0,0,0,0,0,0,0,0,0,0,0,0,0,0,0,0,0,0,0,0,0,0,0,0,0,0,0,0,0,0,0,0,0,0,0,0,0,0,0,0,0,0,0,0,0,0,0,0,0,0,0,0,0,0,0,0,0,0,0,0,0,0,0,0,0,0,0,0,0,0,0,0,0,0,0,0,0,0,0,0,0,0,0,0,0,0,0,0,0,0,0,0,0,0,0,0,0,0,0,0,0,0,0,0,0,0,0,0,0,0,0,0,0,0,0,0,0,0,0,0,0,0,0,0],"id":4,"left_children":[1,3,5,7,9,11,13,15,17,19,-1,21,23,25,27,29,31,33,35,37,39,41,43,45,47,49,51,53,55,57,59,61,63,-1,65,67,69,71,73,75,-1,77,79,81,83,85,87,89,-1,-1,91,93,95,97,-1,99,-1,101,103,105,107,109,111,113,115,117,119,121,123,-1,125,-1,127,129,131,133,135,137,139,141,143,145,147,-1,149,151,153,-1,155,157,159,161,163,165,167,169,171,173,175,177,-1,-1,179,-1,181,183,185,187,189,-1,-1,191,193,-1,-1,195,197,-1,199,-1,-1,201,203,205,207,-1,209,211,-1,213,215,-1,217,219,221,223,-1,225,227,229,231,233,235,237,239,241,243,245,247,249,251,253,-1,255,-1,-1,257,259,-1,-1,-1,261,-1,263,-1,265,267,269,-1,271,273,-1,275,277,279,-1,281,-1,-1,-1,-1,-1,-1,-1,-1,-1,-1,-1,-1,-1,-1,-1,-1,-1,-1,-1,-1,-1,-1,-1,-1,-1,-1,-1,-1,-1,-1,-1,-1,-1,-1,-1,-1,-1,-1,-1,-1,-1,-1,-1,-1,-1,-1,-1,-1,-1,-1,-1,-1,-1,-1,-1,-1,-1,-1,-1,-1,-1,-1,-1,-1,-1,-1,-1,-1,-1,-1,-1,-1,-1,-1,-1,-1,-1,-1,-1,-1,-1,-1,-1,-1,-1,-1,-1,-1,-1,-1,-1,-1,-1,-1,-1,-1,-1,-1,-1,-1,-1,-1,-1,-1,-1,-1],"loss_changes":[2.1193978E5,4.429493E4,8.158441E4,3.081861E4,8.7852246E2,4.064286E4,2.3745781E3,3.9987344E3,3.048648E3,7.548843E2,0E0,3.3204777E4,6.425781E1,3.2246875E2,3.4299531E3,2.4580938E3,4.3895038E2,1.2571533E2,2.8096895E3,8.840918E1,3.5445197E2,2.8940928E4,1.8349805E2,3.6683594E1,8.2625E1,1.20859375E1,3.1716016E2,3.2027734E3,1.5859375E0,2.8717883E2,2.2063594E3,2.3117253E2,1.3197974E2,0E0,6.2559082E1,2.4411035E3,9.425342E1,2.6134521E1,8.665027E1,2.9503003E2,0E0,4.498203E3,1.0640469E4,4.4964844E1,1.9631348E2,3.7781982E1,1.05546875E1,5.7169434E1,0E0,0E0,9.855469E0,3.1334277E2,6.3248047E1,2.4055664E3,0E0,1.7767334E1,0E0,1.0231691E2,4.3051215E2,1.934949E2,1.909875E3,2.819217E1,1.7971655E2,6.849734E1,1.5488873E2,6.966272E1,8.036743E0,2.7528564E1,2.229276E3,0E0,9.304724E1,0E0,8.843262E0,2.9342285E1,7.470444E1,1.7612463E2,3.533545E1,8.0892285E2,2.1052354E3,7.138611E2,5.89891E3,3.711377E1,1.9482422E1,0E0,7.305139E1,1.3430176E0,3.7270386E1,0E0,1.5114258E1,6.73916E1,1.1537109E1,3.058789E1,2.4541016E0,1.9940332E2,8.2390366E1,3.4726562E1,4.9753784E1,2.0738086E2,2.3304482E3,2.638623E1,0E0,0E0,3.132071E1,0E0,1.115758E2,1.19164665E2,3.9231973E2,1.3554844E3,9.716266E1,0E0,0E0,2.7907462E2,4.345111E1,0E0,0E0,9.361493E1,3.5381367E1,0E0,6.582068E1,0E0,0E0,4.914673E0,3.270166E1,1.522396E3,2.1607086E2,0E0,3.569629E1,4.85083E0,0E0,2.7953217E1,7.018799E0,0E0,4.4514923E1,7.4134094E1,9.637961E1,4.197754E0,0E0,5.0942847E2,2.731162E2,1.1812786E3,1.0557937E3,2.722444E2,3.9549797E1,4.8407656E3,6.2968286E2,5.2420105E1,5.093872E0,1.1480469E1,3.324951E1,5.1200623E1,3.3834717E1,5.3151855E0,0E0,4.325699E1,0E0,0E0,1.7778564E1,3.6396362E1,0E0,0E0,0E0,1.0562988E1,0E0,4.3112793E0,0E0,7.99375E1,3.3466882E2,4.9200027E1,0E0,1.0240234E1,2.6690674E2,0E0,3.863745E1,8.199414E1,5.23629E1,0E0,2.0041465E3,0E0,0E0,0E0,0E0,0E0,0E0,0E0,0E0,0E0,0E0,0E0,0E0,0E0,0E0,0E0,0E0,0E0,0E0,0E0,0E0,0E0,0E0,0E0,0E0,0E0,0E0,0E0,0E0,0E0,0E0,0E0,0E0,0E0,0E0,0E0,0E0,0E0,0E0,0E0,0E0,0E0,0E0,0E0,0E0,0E0,0E0,0E0,0E0,0E0,0E0,0E0,0E0,0E0,0E0,0E0,0E0,0E0,0E0,0E0,0E0,0E0,0E0,0E0,0E0,0E0,0E0,0E0,0E0,0E0,0E0,0E0,0E0,0E0,0E0,0E0,0E0,0E0,0E0,0E0,0E0,0E0,0E0,0E0,0E0,0E0,0E0,0E0,0E0,0E0,0E0,0E0,0E0,0E0,0E0,0E0,0E0,0E0,0E0,0E0,0E0,0E0,0E0,0E0,0E0,0E0,0E0],"parents":[2147483647,0,0,1,1,2,2,3,3,4,4,5,5,6,6,7,7,8,8,9,9,11,11,12,12,13,13,14,14,15,15,16,16,17,17,18,18,19,19,20,20,21,21,22,22,23,23,24,24,25,25,26,26,27,27,28,28,29,29,30,30,31,31,32,32,34,34,35,35,36,36,37,37,38,38,39,39,41,41,42,42,43,43,44,44,45,45,46,46,47,47,50,50,51,51,52,52,53,53,55,55,57,57,58,58,59,59,60,60,61,61,62,62,63,63,64,64,65,65,66,66,67,67,68,68,70,70,72,72,73,73,74,74,75,75,76,76,77,77,78,78,79,79,80,80,81,81,82,82,84,84,85,85,86,86,88,88,89,89,90,90,91,91,92,92,93,93,94,94,95,95,96,96,97,97,98,98,99,99,102,102,104,104,105,105,106,106,107,107,108,108,111,111,112,112,115,115,116,116,118,118,121,121,122,122,123,123,124,124,126,126,127,127,129,129,130,130,132,132,133,133,134,134,135,135,137,137,138,138,139,139,140,140,141,141,142,142,143,143,144,144,145,145,146,146,147,147,148,148,149,149,150,150,151,151,153,153,156,156,157,157,161,161,163,163,165,165,166,166,167,167,169,169,170,170,172,172,173,173,174,174,176,176],"right_children":[2,4,6,8,10,12,14,16,18,20,-1,22,24,26,28,30,32,34,36,38,40,42,44,46,48,50,52,54,56,58,60,62,64,-1,66,68,70,72,74,76,-1,78,80,82,84,86,88,90,-1,-1,92,94,96,98,-1,100,-1,102,104,106,108,110,112,114,116,118,120,122,124,-1,126,-1,128,130,132,134,136,138,140,142,144,146,148,-1,150,152,154,-1,156,158,160,162,164,166,168,170,172,174,176,178,-1,-1,180,-1,182,184,186,188,190,-1,-1,192,194,-1,-1,196,198,-1,200,-1,-1,202,204,206,208,-1,210,212,-1,214,216,-1,218,220,222,224,-1,226,228,230,232,234,236,238,240,242,244,246,248,250,252,254,-1,256,-1,-1,258,260,-1,-1,-1,262,-1,264,-1,266,268,270,-1,272,274,-1,276,278,280,-1,282,-1,-1,-1,-1,-1,-1,-1,-1,-1,-1,-1,-1,-1,-1,-1,-1,-1,-1,-1,-1,-1,-1,-1,-1,-1,-1,-1,-1,-1,-1,-1,-1,-1,-1,-1,-1,-1,-1,-1,-1,-1,-1,-1,-1,-1,-1,-1,-1,-1,-1,-1,-1,-1,-1,-1,-1,-1,-1,-1,-1,-1,-1,-1,-1,-1,-1,-1,-1,-1,-1,-1,-1,-1,-1,-1,-1,-1,-1,-1,-1,-1,-1,-1,-1,-1,-1,-1,-1,-1,-1,-1,-1,-1,-1,-1,-1,-1,-1,-1,-1,-1,-1,-1,-1,-1,-1],"split_conditions":[1E0,1E0,1E0,1E0,1E0,1E0,4.3E1,3E0,2.2E1,1.0694178E3,-5.5132817E-2,4E0,1.0694178E3,1.8E1,4E0,1.1694818E-1,1.0694178E3,3.1003809E3,3E0,5.0987407E3,5.6694478E-2,3.4E1,5.6694478E-2,1E0,2.9295686E-1,1E1,2E0,1E0,3.7349204E3,0E0,1.3E1,3E0,7.0183253E-1,-8.425056E-3,6.7573655E-1,1.1694818E-1,1E0,1E0,8.0162597E-1,7.199703E-1,3.3196982E-2,1.5E1,1.1694818E-1,4.18689E3,1E0,2.0708963E2,8.0162597E-1,2E0,-1.9489428E-2,-5.4689087E-2,2E0,6.048403E3,5.6694478E-2,2.0203336E-1,-5.5523828E-2,2.8760022E-1,-5.55443E-2,2E0,1E0,0E0,3.1E1,4.3904696E0,1.55E2,5.0987407E3,9E-1,8E0,2.4243109E-2,5.4804735E0,8.2680166E-1,-5.2616283E-2,1E0,-3.7875157E-2,3.528101E-2,-1.1392114E0,5.707983E3,1E0,6.1181562E3,2E0,2E0,3E0,8.4519947E-1,4.9864227E-1,5.658817E3,-7.721153E-3,4.4441E3,1.74144E-2,5.367701E3,-5.492891E-2,4.9E1,5.6028296E3,1E0,6.3015933E3,4.098013E3,0E0,-1.4113675E-1,0E0,4.2442163E3,3E0,3E-1,-8.234602E-1,-5.551868E-2,7.719234E-3,-1.0283532E0,6.0991716E-2,7.282191E-1,5.6694478E-2,1E0,8.4519947E-1,7E0,-2.2473449E-2,-4.439334E-2,3.5E1,3E0,1.3857078E-2,-1.7729314E-2,8.0162597E-1,7E0,-1.8786294E-2,1.7E1,-5.5115364E-2,-4.263827E-2,2.8093433E3,1.68E2,3E1,1.0694178E3,-1.358078E-2,1.6E1,2.888235E3,-4.1123435E-2,3.156107E-1,5E2,-5.895107E-3,5E2,4.852914E3,2.2242688E3,8.316798E-1,-3.1321157E-2,8.0162597E-1,5.6694478E-2,2.0203336E-1,5.6694478E-2,5.6694478E-2,3E0,3E0,9.9045926E-1,1E0,3E0,1E0,1.3E1,6.011437E-1,1.6E1,1.37E2,-5.5131167E-2,2E0,-5.0496135E-2,-5.4660283E-2,5.711901E-1,4.2559897E3,-1.7992973E-2,-4.2620834E-2,-5.3945422E-2,2.6E1,-3.587848E-2,6E0,-5.413244E-2,8.0162597E-1,2.3E1,3E0,4.708266E-3,4.4361293E-1,1E1,-2.7654452E-2,5.933731E0,1.1694818E-1,5.0484146E3,5.9399992E-2,5.6694478E-2,-3.456362E-2,-5.6056198E-2,-1.5991272E-2,-3.7922118E-2,1.2246381E-2,-1.475853E-2,-2.1548009E-2,1.4446849E-2,6.0029417E-2,7.3394096E-3,4.977598E-2,3.147281E-2,2.411385E-3,-2.3854872E-2,-3.994169E-2,1.5604127E-2,-9.087644E-3,-3.607754E-2,2.5977196E-2,5.8844697E-2,-1.2842932E-3,1.9006938E-2,-4.3769836E-2,-1.6972253E-2,-4.0171918E-2,-5.063899E-2,-2.89633E-2,-4.856172E-2,1.9277738E-2,-2.145078E-2,-3.2261036E-2,-9.235348E-3,-4.377473E-2,-3.0131513E-2,-4.898624E-2,-5.517755E-2,-2.1689454E-2,-4.4484556E-2,-4.3523394E-2,-5.2498963E-2,-2.1643525E-2,-4.4111308E-2,2.41247E-2,-9.323248E-3,-4.3379046E-2,-1.508791E-2,-4.2694345E-2,-5.344827E-2,-2.9484335E-2,1.3934948E-3,-4.4816013E-2,-2.8662544E-2,-3.5423797E-2,1.9166457E-2,-2.4918186E-2,1.1855943E-2,-3.888275E-2,-1.1891764E-2,2.8324476E-2,3.609972E-3,3.2966383E-2,-2.063494E-2,-6.0533695E-3,-4.767201E-2,-3.14878E-2,-5.127594E-2,-5.6538846E-2,-4.8597816E-2,-5.7423413E-2,-5.3599365E-2,-4.4278383E-2,-5.5522796E-2,-4.202201E-2,-1.4889349E-2,-5.3571526E-2,-3.322764E-2,-5.264425E-2,-4.2873487E-2,-1.5875982E-2,-4.4012565E-2,-4.545366E-2,-5.418355E-2,-2.9377274E-2,-4.9731668E-2,-4.7499795E-2,-5.340875E-2,-4.268991E-2,-5.213269E-2,-5.010171E-2,-3.8379416E-2,1.1804573E-3,-4.1270938E-2,-3.911638E-2,-1.5959032E-2,-5.136036E-2,-5.4201186E-2,-9.65161E-3,-5.103084E-2,-3.8615614E-2,-5.283255E-2,-5.258113E-2,-4.3895934E-2,-3.8027175E-2,-1.14231985E-2,-3.0063003E-2,1.1994599E-3],"split_indices":[17,21,27,27,27,21,3,7,3,22,0,17,22,3,17,0,22,11,7,9,5,3,5,19,5,3,17,21,11,20,3,20,0,0,1,0,26,19,0,1,0,3,0,11,30,22,0,17,0,0,17,11,5,0,0,1,0,30,20,20,20,25,3,9,0,2,5,25,1,0,19,0,5,6,9,19,9,17,17,17,1,1,11,0,11,5,9,0,3,11,19,11,11,2,6,2,11,17,0,6,0,0,6,0,1,5,20,1,13,0,0,3,30,0,0,0,20,0,3,0,0,9,3,20,22,0,20,9,0,1,22,0,22,11,9,1,0,0,5,0,5,5,30,7,1,16,20,7,13,0,13,3,0,17,0,0,1,11,0,0,0,2,0,30,0,0,2,20,0,1,2,0,5,0,11,0,5,0,0,0,0,0,0,0,0,0,0,0,0,0,0,0,0,0,0,0,0,0,0,0,0,0,0,0,0,0,0,0,0,0,0,0,0,0,0,0,0,0,0,0,0,0,0,0,0,0,0,0,0,0,0,0,0,0,0,0,0,0,0,0,0,0,0,0,0,0,0,0,0,0,0,0,0,0,0,0,0,0,0,0,0,0,0,0,0,0,0,0,0,0,0,0,0,0,0,0,0,0,0,0,0,0,0],"split_type":[0,0,0,0,0,0,0,0,0,0,0,0,0,0,0,0,0,0,0,0,0,0,0,0,0,0,0,0,0,0,0,0,0,0,0,0,0,0,0,0,0,0,0,0,0,0,0,0,0,0,0,0,0,0,0,0,0,0,0,0,0,0,0,0,0,0,0,0,0,0,0,0,0,0,0,0,0,0,0,0,0,0,0,0,0,0,0,0,0,0,0,0,0,0,0,0,0,0,0,0,0,0,0,0,0,0,0,0,0,0,0,0,0,0,0,0,0,0,0,0,0,0,0,0,0,0,0,0,0,0,0,0,0,0,0,0,0,0,0,0,0,0,0,0,0,0,0,0,0,0,0,0,0,0,0,0,0,0,0,0,0,0,0,0,0,0,0,0,0,0,0,0,0,0,0,0,0,0,0,0,0,0,0,0,0,0,0,0,0,0,0,0,0,0,0,0,0,0,0,0,0,0,0,0,0,0,0,0,0,0,0,0,0,0,0,0,0,0,0,0,0,0,0,0,0,0,0,0,0,0,0,0,0,0,0,0,0,0,0,0,0,0,0,0,0,0,0,0,0,0,0,0,0,0,0,0,0,0,0,0,0,0,0,0,0,0,0,0,0,0,0,0,0,0,0,0,0,0,0,0,0,0,0],"sum_hessian":[2.8239606E5,1.1248171E5,1.6991434E5,1.0535188E5,7.129823E3,9.2899305E4,7.701503E4,8.611982E4,1.9232068E4,4.296283E3,2.8335398E3,7.970908E4,1.319023E4,3.547346E4,4.1541574E4,8.40148E4,2.1050188E3,1.576147E3,1.7655922E4,2.4945713E3,1.801712E3,7.1005734E4,8.703339E3,1.1172028E4,2.0182019E3,1.9529953E4,1.5943506E4,3.0650555E4,1.0891019E4,1.4421039E3,8.2572695E4,1.1354412E3,9.6957776E2,1.2370081E2,1.4524462E3,1.6354398E4,1.3015233E3,1.2599075E3,1.2346638E3,1.6795134E3,1.2219861E2,1.794259E4,5.3063145E4,7.6016943E3,1.1016444E3,1.193552E3,9.978477E3,1.917481E3,1.0072098E2,1.208079E4,7.4491636E3,5.081072E3,1.0862435E4,2.4725824E4,5.9247305E3,9.954717E2,9.895547E3,3.786635E2,1.0634404E3,1.3703473E3,8.120235E4,2.5029466E2,8.851464E2,2.6932397E2,7.002538E2,1.0586637E3,3.9378238E2,8.081338E2,1.5546265E4,3.080842E2,9.934391E2,1.7739879E2,1.0825087E3,7.550306E2,4.7963327E2,1.200792E3,4.7872137E2,9.28719E3,8.6554E3,3.1622273E3,4.9900918E4,1.1344213E3,6.467273E3,1.6484999E2,9.3679443E2,7.925197E2,4.0103226E2,7.531978E3,2.4464985E3,6.565739E2,1.2609071E3,2.1145164E3,5.334647E3,4.584592E3,4.9647977E2,9.876961E3,9.854737E2,5.40746E3,1.9318365E4,2.4809781E2,7.4737384E2,1.1734521E2,2.613183E2,1.6561421E2,8.9782623E2,3.94608E2,9.757392E2,8.065898E4,5.4336975E2,1.03847435E2,1.4644724E2,6.4553625E2,2.396102E2,1.5720755E2,1.1211641E2,3.451727E2,3.550811E2,1.7215741E2,8.8650635E2,2.895904E2,1.04191986E2,4.284554E2,3.796784E2,1.3950065E4,1.596199E3,1.9914171E2,7.942974E2,9.78542E2,1.0396671E2,2.2451997E2,5.3051056E2,1.19258865E2,3.6037442E2,2.5685593E2,9.439361E2,2.7964233E2,1.9907901E2,2.6833127E3,6.603878E3,3.7044375E3,4.950963E3,2.900307E3,2.6192047E2,4.641082E4,3.4900989E3,5.462925E2,5.881288E2,5.329269E3,1.1380039E3,2.860308E2,6.507636E2,4.4500244E2,3.475173E2,2.1814076E2,1.8289151E2,1.3093273E3,1.1371714E3,5.507003E2,1.0587356E2,1.3442894E2,1.1264781E3,1.9714426E3,1.4307368E2,8.0828864E2,4.5263584E3,3.527465E3,1.0571268E3,3.808225E2,1.1565726E2,7.1781157E3,2.6988447E3,1.7299269E2,8.1248096E2,5.112041E3,2.9541888E2,3.0820346E2,1.901016E4,1.3289621E2,1.152016E2,1.3253964E2,1.2877866E2,7.1409344E2,1.8373279E2,2.6312152E2,1.3148648E2,1.6237633E2,8.133629E2,7.655058E4,4.1083975E3,2.98284E2,2.4508572E2,1.02374214E2,5.4316205E2,1.0273593E2,1.3687428E2,1.8914148E2,1.5603122E2,1.2670082E2,2.2838026E2,7.8309753E2,1.0340881E2,1.0128989E2,3.2716553E2,2.4258377E2,1.3709462E2,1.3005103E4,9.4496277E2,8.9341943E2,7.0277954E2,4.2532504E2,3.6897235E2,3.9812857E2,5.8041345E2,1.005344E2,1.2398557E2,2.3725171E2,2.9325885E2,1.5763182E2,2.027426E2,1.4618863E2,1.1066728E2,1.3566965E2,8.082665E2,1.1840718E2,1.6123517E2,1.9931771E3,6.901355E2,5.348373E3,1.255505E3,4.2996164E2,3.2744758E3,4.0303948E3,9.205679E2,2.476982E3,4.2332498E2,1.5546556E2,1.06454926E2,4.4731863E4,1.6789546E3,3.0970088E3,3.9309012E2,2.965946E2,2.4969786E2,2.7358292E2,3.1454587E2,1.4914713E3,3.8377976E3,5.9497687E2,5.43027E2,1.7011203E2,1.1591878E2,5.4625616E2,1.0450745E2,3.0770776E2,1.3729468E2,1.0373215E2,1.1440861E2,6.70169E2,4.6700235E2,1.1700134E2,4.33699E2,5.876136E2,1.3838291E3,1.06516174E2,7.0177246E2,2.7859268E3,7.415383E2,2.262432E2,8.308836E2,1.4695642E2,2.3386609E2,3.1663113E3,4.0118044E3,1.6074503E2,2.5380999E3,3.649265E2,4.4755444E2,3.516605E3,1.5954363E3,1.2648736E2,1.6893152E2,1.6778447E4,2.231713E3],"tree_param":{"num_deleted":"0","num_feature":"31","num_nodes":"283","size_leaf_vector":"1"}},{"base_weights":[2.3048164E-4,1.0353023E0,-6.841198E-1,1.1944522E0,-1.3155828E0,-6.8735205E-2,-1.4273076E0,1.4447017E0,8.132909E-2,-1.037531E0,-5.3781588E-2,1.9340257E-1,-1.6543308E0,-1.6172209E0,-1.2713572E0,1.478094E0,1.2238356E-1,-5.9746486E-1,3.1768543E-1,-8.83973E-1,-1.4717304E0,-1.165609E0,5.1822865E-1,-1.4422617E0,-1.6801717E0,-1.7015846E0,-1.5157744E0,-1.107832E0,-1.7397356E0,3.080222E-1,1.502582E0,-4.4730306E-2,2.464495E-1,-1.299229E0,-4.2041555E-1,5.6673523E-2,4.655379E-2,-1.1089809E0,-4.3537077E-1,-3.4907624E-2,-1.5328021E0,-8.6897117E-1,-1.6620464E0,-8.103213E-1,7.133748E-1,-1.571857E0,-1.2451618E0,-1.715783E0,-1.5756563E0,-5.3344864E-2,-1.6669695E0,-1.3126683E0,-1.6101313E0,-9.550652E-1,-5.4180685E-2,-1.7137183E0,-5.5015683E-2,-3.287551E-2,4.554182E-1,2.9766643E-1,1.523364E0,4.2725423E-1,-6.5125906E-1,-7.2866523E-1,-1.4510826E0,5.702457E-2,-8.08589E-1,-8.4341025E-1,5.511493E-1,-9.930518E-1,-5.1487025E-2,-1.181776E0,-1.9620574E-1,-1.3242856E0,-1.6294377E0,-1.0913453E0,8.671152E-1,-1.6748163E0,-3.9356835E-2,5.7411835E-2,-9.688751E-1,8.2352203E-1,-1.4610053E0,-3.801967E-2,-1.6187785E0,-1.5487965E0,-1.0427222E0,-1.721738E0,-1.4877431E0,-5.328276E-2,-1.4291998E0,-1.6128602E0,-5.2541424E-2,-1.3928787E0,-5.736703E-1,-1.5784221E0,-5.455101E-2,-7.5868666E-1,-1.4273282E0,-1.6553277E0,-5.3911563E-2,5.8307797E-1,-1.6313905E-2,4.8973587E-1,-4.6106666E-1,6.4523894E-1,1.5437043E0,5.606132E-1,-2.1467114E-2,-4.383829E-2,-1.2596031E-3,-3.538233E-2,-1.0227601E-2,-1.3879465E0,-5.4422975E-2,-6.6555035E-1,-1.5411035E0,-6.963333E-1,-1.5766221E0,5.6334637E-2,-6.821017E-2,-1.2133375E0,-5.820055E-1,-4.5900248E-2,-2.3843681E-2,2.1885293E-2,-4.4750583E-1,-4.6920612E-2,-2.8858293E-2,-1.4735501E0,-5.4419667E-2,-1.4329473E0,-5.5627066E-1,-5.2974343E-1,1.3014661E0,-1.6842022E0,-3.6165297E-2,-1.3639036E0,-5.952749E-1,-9.3496907E-1,9.2037755E-1,5.8077373E-2,-1.6303917E0,-5.3032685E-2,-1.4047989E0,-4.133509E-2,-5.3693127E-2,-4.9964618E-2,-7.844117E-1,-5.410442E-2,-1.6884836E0,-3.8141116E-2,-5.3218935E-2,-1.5128971E0,-2.2270499E-2,-1.4788135E0,-1.6549344E0,-1.2559783E0,-1.6774524E0,-1.6088285E-1,-4.044033E-2,-5.2914448E-2,-1.5179793E0,-1.437824E0,-5.9042925E-1,-1.5736997E0,-1.1213505E0,-4.0380955E-2,-1.6911354E0,2.9728257E-3,2.5182E-2,1.856053E-2,-1.7071674E-2,6.584665E-4,-2.7810842E-2,2.3895284E-2,-1.5459957E-2,4.8688848E-2,3.1170586E-2,-7.566612E-3,2.2175454E-2,-4.0530164E-2,-5.11515E-2,-3.952183E-2,-1.4590213E-2,-5.1103804E-2,-3.7080396E-2,-4.1494384E-2,-1.723566E-2,-5.4002944E-2,-4.3523215E-2,-2.1208739E-2,2.4642043E-2,-2.9943483E-2,-4.6711963E-2,5.8145475E-2,-3.4571987E-2,-1.94253E-2,1.2503803E-2,-5.3440526E-2,-3.7882786E-2,-3.493217E-2,-4.8437286E-2,-4.2605076E-2,-1.0068023E-2,6.371255E-3,-4.029621E-2,2.1320997E-2,4.3858707E-2,-4.5976155E-2,-5.264814E-2,-2.7543336E-2,-4.754814E-2,5.7544272E-2,-2.9355682E-2,5.8859725E-2,-3.2504663E-2,3.1693302E-2,-6.7782453E-3,-5.6073904E-2,-4.5147475E-2,-5.2897103E-2,-3.4236982E-2,-1.2705991E-2,-3.613738E-2,-5.2602593E-2,-4.4412997E-2,-4.121286E-2,-5.2390393E-2,-4.7929443E-2,-3.5620462E-2,-4.3811888E-2,-5.178772E-2,-1.516124E-2,-4.137374E-2,-4.8581984E-2,-5.3356916E-2,-1.3912354E-2,8.675029E-3,-4.397269E-2,-5.095715E-2,-4.644092E-2,-1.7173102E-2,-1.3923659E-2,-4.533539E-2,-4.6884697E-2,-5.5655695E-2,5.701171E-2,-4.2165354E-2,-5.3790186E-2,-4.5229625E-2],"categories":[],"categories_nodes":[],"categories_segments":[],"categories_sizes":[],"default_left":[0,0,0,0,0,0,0,0,0,0,0,0,0,0,0,0,0,0,0,0,0,0,0,0,0,0,0,0,0,0,0,0,0,0,0,0,0,0,0,0,0,0,0,0,0,0,0,0,0,0,0,0,0,0,0,0,0,0,0,0,0,0,0,0,0,0,0,0,0,0,0,0,0,0,0,0,0,0,0,0,0,0,0,0,0,0,0,0,0,0,0,0,0,0,0,0,0,0,0,0,0,0,0,0,0,0,0,0,0,0,0,0,0,0,0,0,0,0,0,0,0,0,0,0,0,0,0,0,0,0,0,0,0,0,0,0,0,0,0,0,0,0,0,0,0,0,0,0,0,0,0,0,0,0,0,0,0,0,0,0,0,0,0,0,0,0,0,0,0,0,0,0,0,0,0,0,0,0,0,0,0,0,0,0,0,0,0,0,0,0,0,0,0,0,0,0,0,0,0,0,0,0,0,0,0,0,0,0,0,0,0,0,0,0,0,0,0,0,0,0,0,0,0,0,0,0,0,0,0,0,0,0,0,0,0,0,0,0,0,0,0,0,0,0,0,0,0,0,0,0,0],"id":5,"left_children":[1,3,5,7,9,11,13,15,17,19,-1,21,23,25,27,29,31,33,35,37,39,41,43,45,47,49,51,53,55,57,59,-1,61,63,65,-1,67,69,71,-1,73,75,77,79,81,83,85,87,89,-1,91,93,95,97,-1,99,-1,-1,101,103,105,107,109,111,113,-1,115,117,119,121,-1,123,125,127,129,131,133,135,-1,-1,137,139,141,-1,143,145,147,149,151,-1,153,155,-1,157,159,161,-1,163,165,167,-1,169,-1,171,173,175,177,179,-1,-1,-1,-1,-1,181,-1,183,185,187,189,-1,191,193,195,-1,-1,-1,197,-1,-1,199,-1,201,203,205,207,209,-1,211,213,215,217,-1,219,-1,221,-1,-1,-1,223,-1,225,-1,-1,227,-1,229,231,233,235,237,-1,-1,239,241,243,245,247,-1,249,-1,-1,-1,-1,-1,-1,-1,-1,-1,-1,-1,-1,-1,-1,-1,-1,-1,-1,-1,-1,-1,-1,-1,-1,-1,-1,-1,-1,-1,-1,-1,-1,-1,-1,-1,-1,-1,-1,-1,-1,-1,-1,-1,-1,-1,-1,-1,-1,-1,-1,-1,-1,-1,-1,-1,-1,-1,-1,-1,-1,-1,-1,-1,-1,-1,-1,-1,-1,-1,-1,-1,-1,-1,-1,-1,-1,-1,-1,-1,-1,-1,-1],"loss_changes":[1.993777E5,4.1915758E4,7.749167E4,2.9226875E4,8.249951E2,3.85275E4,2.2695938E3,3.7815938E3,3.0901682E3,2.825127E2,0E0,3.5113258E4,6.808203E1,2.919453E2,3.2249219E3,2.3927188E3,4.0980585E2,6.1662854E2,5.850255E3,3.178108E2,2.046997E1,2.2569102E3,1.6644654E4,3.335254E1,3.925E1,8E0,2.9772656E2,3.0515312E3,5.140625E0,3.4602338E2,2.0479688E3,0E0,3.1789767E2,8.4588745E1,3.4872656E3,0E0,5.4405464E3,1.3162036E2,1.8799329E2,0E0,1.5367676E1,3.7102012E3,2.5158203E1,3.4721426E3,1.3407475E4,1.0561523E1,3.2530334E1,7.6796875E0,5.870996E1,0E0,5.8554688E0,2.9424902E2,4.6439453E1,2.3373984E3,0E0,4.7382812E0,0E0,0E0,1.9443585E2,2.027009E2,1.4349375E3,2.4379456E2,1.5205678E2,3.3960823E1,1.115918E1,0E0,3.5332837E2,4.7046558E2,6.0641797E3,1.5610876E2,0E0,2.9319275E1,1.8227837E2,2.0125061E1,8.342163E0,1.5550498E3,6.631403E2,2.309375E1,0E0,0E0,1.1435918E3,9.075293E3,1.5273872E3,0E0,1.0883667E1,5.1411743E0,4.898169E1,1.9902344E0,1.0057007E1,0E0,8.62561E1,9.152832E0,0E0,1.7189062E2,1.4727737E2,6.464453E1,0E0,2.0344834E3,3.2862598E2,2.0694824E1,0E0,1.526448E2,0E0,1.261864E2,5.9478786E1,2.624936E2,1.1356719E3,1.8192627E2,0E0,0E0,0E0,0E0,0E0,1.0284668E1,0E0,3.3587793E2,1.7091187E1,3.2758264E2,1.6856934E1,0E0,2.7611206E3,7.953345E1,8.0169653E2,0E0,0E0,0E0,9.626024E1,0E0,0E0,1.4895508E1,0E0,2.0299219E2,6.27662E2,1.4762445E2,5.5907104E1,1.1364258E1,0E0,3.0202002E2,3.4422769E3,8.967175E2,5.86684E3,0E0,7.5515625E1,0E0,1.7905243E1,0E0,0E0,0E0,3.3476974E1,0E0,3.633789E0,0E0,0E0,3.941626E1,0E0,9.524658E0,2.7685547E0,1.8218945E2,2.6948242E0,4.024853E1,0E0,0E0,7.175098E1,1.8656738E2,1.7581597E3,6.3645508E1,1.7000867E3,0E0,1.3745605E1,0E0,0E0,0E0,0E0,0E0,0E0,0E0,0E0,0E0,0E0,0E0,0E0,0E0,0E0,0E0,0E0,0E0,0E0,0E0,0E0,0E0,0E0,0E0,0E0,0E0,0E0,0E0,0E0,0E0,0E0,0E0,0E0,0E0,0E0,0E0,0E0,0E0,0E0,0E0,0E0,0E0,0E0,0E0,0E0,0E0,0E0,0E0,0E0,0E0,0E0,0E0,0E0,0E0,0E0,0E0,0E0,0E0,0E0,0E0,0E0,0E0,0E0,0E0,0E0,0E0,0E0,0E0,0E0,0E0,0E0,0E0,0E0,0E0,0E0,0E0,0E0,0E0,0E0,0E0,0E0,0E0,0E0],"parents":[2147483647,0,0,1,1,2,2,3,3,4,4,5,5,6,6,7,7,8,8,9,9,11,11,12,12,13,13,14,14,15,15,16,16,17,17,18,18,19,19,20,20,21,21,22,22,23,23,24,24,25,25,26,26,27,27,28,28,29,29,30,30,32,32,33,33,34,34,36,36,37,37,38,38,40,40,41,41,42,42,43,43,44,44,45,45,46,46,47,47,48,48,50,50,51,51,52,52,53,53,55,55,58,58,59,59,60,60,61,61,62,62,63,63,64,64,66,66,67,67,68,68,69,69,71,71,72,72,73,73,74,74,75,75,76,76,77,77,80,80,81,81,82,82,84,84,85,85,86,86,87,87,88,88,90,90,91,91,93,93,94,94,95,95,97,97,98,98,99,99,101,101,103,103,104,104,105,105,106,106,107,107,113,113,115,115,116,116,117,117,118,118,120,120,121,121,122,122,126,126,129,129,131,131,132,132,133,133,134,134,135,135,137,137,138,138,139,139,140,140,142,142,144,144,148,148,150,150,153,153,155,155,156,156,157,157,158,158,159,159,162,162,163,163,164,164,165,165,166,166,168,168],"right_children":[2,4,6,8,10,12,14,16,18,20,-1,22,24,26,28,30,32,34,36,38,40,42,44,46,48,50,52,54,56,58,60,-1,62,64,66,-1,68,70,72,-1,74,76,78,80,82,84,86,88,90,-1,92,94,96,98,-1,100,-1,-1,102,104,106,108,110,112,114,-1,116,118,120,122,-1,124,126,128,130,132,134,136,-1,-1,138,140,142,-1,144,146,148,150,152,-1,154,156,-1,158,160,162,-1,164,166,168,-1,170,-1,172,174,176,178,180,-1,-1,-1,-1,-1,182,-1,184,186,188,190,-1,192,194,196,-1,-1,-1,198,-1,-1,200,-1,202,204,206,208,210,-1,212,214,216,218,-1,220,-1,222,-1,-1,-1,224,-1,226,-1,-1,228,-1,230,232,234,236,238,-1,-1,240,242,244,246,248,-1,250,-1,-1,-1,-1,-1,-1,-1,-1,-1,-1,-1,-1,-1,-1,-1,-1,-1,-1,-1,-1,-1,-1,-1,-1,-1,-1,-1,-1,-1,-1,-1,-1,-1,-1,-1,-1,-1,-1,-1,-1,-1,-1,-1,-1,-1,-1,-1,-1,-1,-1,-1,-1,-1,-1,-1,-1,-1,-1,-1,-1,-1,-1,-1,-1,-1,-1,-1,-1,-1,-1,-1,-1,-1,-1,-1,-1,-1,-1,-1,-1,-1,-1],"split_conditions":[1E0,1E0,1E0,1E0,1E0,1E0,4.2E1,3E0,3.1E1,7.367266E-1,-5.3781588E-2,2.1E1,1E0,1.7E1,4E0,1.5E1,2.1E1,2.1E1,4E1,2.22E2,1E0,4E0,2E1,1.51E2,8.0162597E-1,1E1,2E0,1E0,3E1,2.1E1,1.1694818E-1,-4.4730306E-2,1E0,3.0535667E3,3E1,5.6673523E-2,4.1E1,1.6E2,6.011437E-1,-3.4907624E-2,8.16917E-1,3E0,1.807E3,3E1,4E0,3.1692295E3,1.122E3,2.66E2,4.8E1,-5.3344864E-2,2.6E1,6.048403E3,1E0,1E0,-5.4180685E-2,3.9715976E-1,-5.5015683E-2,-3.287551E-2,1E0,7.3253375E-1,2.1E1,8.218766E-1,4.1E1,1.76E2,8.316798E-1,5.702457E-2,1E0,1E0,5E1,4.1E1,-5.1487025E-2,4.1E1,1E0,2.33E2,7E0,4.6E1,3.9E1,4.505E3,-3.9356835E-2,5.7411835E-2,3.1E1,1.1694818E-1,3E1,-3.801967E-2,3E0,1.9E2,3.1E1,6.6E1,5.281222E-1,-5.328276E-2,5.6757144E3,2E0,-5.2541424E-2,1E0,1E0,2.1E1,-5.455101E-2,2.0203336E-1,4.1E1,3.7349204E3,-5.3911563E-2,7E0,-1.6313905E-2,2E0,6E0,2.092219E1,8.493302E-1,1E0,-2.1467114E-2,-4.383829E-2,-1.2596031E-3,-3.538233E-2,-1.0227601E-2,1.6E1,-5.4422975E-2,3.9E1,3E0,4.9E1,4.699919E0,5.6334637E-2,5.1E1,4E1,5E1,-4.5900248E-2,-2.3843681E-2,2.1885293E-2,5.9562686E3,-4.6920612E-2,-2.8858293E-2,4.8460806E3,-5.4419667E-2,2E0,2.0203336E-1,3.813746E-1,1E0,1E0,-3.6165297E-2,2E0,4E1,3E1,2E0,5.8077373E-2,3.1E1,-5.3032685E-2,5.0259314E0,-4.133509E-2,-5.3693127E-2,-4.9964618E-2,5E1,-5.410442E-2,6.4555005E3,-3.8141116E-2,-5.3218935E-2,4.4741872E-1,-2.2270499E-2,1.5E1,3.1205876E3,1E0,6E0,-7.5141764E-1,-4.044033E-2,-5.2914448E-2,4E1,3E0,8.2680166E-1,5E0,5E1,-4.0380955E-2,6.048403E3,2.9728257E-3,2.5182E-2,1.856053E-2,-1.7071674E-2,6.584665E-4,-2.7810842E-2,2.3895284E-2,-1.5459957E-2,4.8688848E-2,3.1170586E-2,-7.566612E-3,2.2175454E-2,-4.0530164E-2,-5.11515E-2,-3.952183E-2,-1.4590213E-2,-5.1103804E-2,-3.7080396E-2,-4.1494384E-2,-1.723566E-2,-5.4002944E-2,-4.3523215E-2,-2.1208739E-2,2.4642043E-2,-2.9943483E-2,-4.6711963E-2,5.8145475E-2,-3.4571987E-2,-1.94253E-2,1.2503803E-2,-5.3440526E-2,-3.7882786E-2,-3.493217E-2,-4.8437286E-2,-4.2605076E-2,-1.0068023E-2,6.371255E-3,-4.029621E-2,2.1320997E-2,4.3858707E-2,-4.5976155E-2,-5.264814E-2,-2.7543336E-2,-4.754814E-2,5.7544272E-2,-2.9355682E-2,5.8859725E-2,-3.2504663E-2,3.1693302E-2,-6.7782453E-3,-5.6073904E-2,-4.5147475E-2,-5.2897103E-2,-3.4236982E-2,-1.2705991E-2,-3.613738E-2,-5.2602593E-2,-4.4412997E-2,-4.121286E-2,-5.2390393E-2,-4.7929443E-2,-3.5620462E-2,-4.3811888E-2,-5.178772E-2,-1.516124E-2,-4.137374E-2,-4.8581984E-2,-5.3356916E-2,-1.3912354E-2,8.675029E-3,-4.397269E-2,-5.095715E-2,-4.644092E-2,-1.7173102E-2,-1.3923659E-2,-4.533539E-2,-4.6884697E-2,-5.5655695E-2,5.701171E-2,-4.2165354E-2,-5.3790186E-2,-4.5229625E-2],"split_indices":[17,21,27,27,27,21,3,7,4,1,0,4,19,3,17,3,4,4,4,15,19,17,3,15,0,3,17,21,4,4,0,0,14,10,4,0,4,12,0,0,1,17,12,4,17,10,8,15,3,0,2,11,21,14,0,1,0,0,14,1,4,1,4,15,1,0,14,14,4,4,0,4,19,15,12,3,3,8,0,0,4,0,4,0,26,15,4,3,1,0,11,17,0,14,14,4,0,0,4,11,0,3,0,14,13,6,1,26,0,0,0,0,0,2,0,3,26,3,25,0,4,4,4,0,0,0,10,0,0,11,0,17,0,1,26,19,0,17,4,4,14,0,4,0,25,0,0,0,4,0,11,0,0,1,0,2,11,19,13,6,0,0,4,17,1,14,4,0,11,0,0,0,0,0,0,0,0,0,0,0,0,0,0,0,0,0,0,0,0,0,0,0,0,0,0,0,0,0,0,0,0,0,0,0,0,0,0,0,0,0,0,0,0,0,0,0,0,0,0,0,0,0,0,0,0,0,0,0,0,0,0,0,0,0,0,0,0,0,0,0,0,0,0,0,0,0,0,0,0,0,0],"split_type":[0,0,0,0,0,0,0,0,0,0,0,0,0,0,0,0,0,0,0,0,0,0,0,0,0,0,0,0,0,0,0,0,0,0,0,0,0,0,0,0,0,0,0,0,0,0,0,0,0,0,0,0,0,0,0,0,0,0,0,0,0,0,0,0,0,0,0,0,0,0,0,0,0,0,0,0,0,0,0,0,0,0,0,0,0,0,0,0,0,0,0,0,0,0,0,0,0,0,0,0,0,0,0,0,0,0,0,0,0,0,0,0,0,0,0,0,0,0,0,0,0,0,0,0,0,0,0,0,0,0,