{"learner":{"attributes":{},"feature_names":["income","name_email_similarity","prev_address_months_count","current_address_months_count","customer_age","days_since_request","intended_balcon_amount","payment_type","zip_count_4w","velocity_6h","velocity_24h","velocity_4w","bank_branch_count_8w","date_of_birth_distinct_emails_4w","employment_status","credit_risk_score","email_is_free","housing_status","phone_home_valid","phone_mobile_valid","bank_months_count","has_other_cards","proposed_credit_limit","foreign_request","source","session_length_in_minutes","device_os","keep_alive_session","device_distinct_emails_8w","device_fraud_count","month","x1","x2"],"feature_types":["float","float","int","int","int","float","float","int","int","float","float","float","int","int","int","int","int","int","int","int","int","int","float","int","int","float","int","int","int","int","int","float","float"],"gradient_booster":{"model":{"gbtree_model_param":{"num_parallel_tree":"1","num_trees":"200"},"iteration_indptr":[0,1,2,3,4,5,6,7,8,9,10,11,12,13,14,15,16,17,18,19,20,21,22,23,24,25,26,27,28,29,30,31,32,33,34,35,36,37,38,39,40,41,42,43,44,45,46,47,48,49,50,51,52,53,54,55,56,57,58,59,60,61,62,63,64,65,66,67,68,69,70,71,72,73,74,75,76,77,78,79,80,81,82,83,84,85,86,87,88,89,90,91,92,93,94,95,96,97,98,99,100,101,102,103,104,105,106,107,108,109,110,111,112,113,114,115,116,117,118,119,120,121,122,123,124,125,126,127,128,129,130,131,132,133,134,135,136,137,138,139,140,141,142,143,144,145,146,147,148,149,150,151,152,153,154,155,156,157,158,159,160,161,162,163,164,165,166,167,168,169,170,171,172,173,174,175,176,177,178,179,180,181,182,183,184,185,186,187,188,189,190,191,192,193,194,195,196,197,198,199,200],"tree_info":[0,0,0,0,0,0,0,0,0,0,0,0,0,0,0,0,0,0,0,0,0,0,0,0,0,0,0,0,0,0,0,0,0,0,0,0,0,0,0,0,0,0,0,0,0,0,0,0,0,0,0,0,0,0,0,0,0,0,0,0,0,0,0,0,0,0,0,0,0,0,0,0,0,0,0,0,0,0,0,0,0,0,0,0,0,0,0,0,0,0,0,0,0,0,0,0,0,0,0,0,0,0,0,0,0,0,0,0,0,0,0,0,0,0,0,0,0,0,0,0,0,0,0,0,0,0,0,0,0,0,0,0,0,0,0,0,0,0,0,0,0,0,0,0,0,0,0,0,0,0,0,0,0,0,0,0,0,0,0,0,0,0,0,0,0,0,0,0,0,0,0,0,0,0,0,0,0,0,0,0,0,0,0,0,0,0,0,0,0,0,0,0,0,0,0,0,0,0,0,0],"trees":[{"base_weights":[-4.957076E-4,6.777905E-1,-1.360415E0,1.1221303E0,-1.0094744E0,-5.091043E-1,-1.648905E0,1.2976272E0,-1.5790155E0,-1.04620256E-1,-1.4991801E0,1.4878394E-1,-1.5223178E0,-1.740846E0,-1.1545959E-2,1.5897796E0,1.0053444E-1,-1.6502746E0,2.5606826E-1,3.015755E-1,-1.7940787E0,-1.5729648E0,4.2651974E-2,3.7389117E-1,-1.8343831E0,-1.5858456E0,-4.1710806E-1,-1.5617692E0,-1.9357617E0,-1.5551312E0,1.3431545E0,1.5041474E-2,1.6426232E0,-5.444542E-1,1.2502933E0,-1.2123333E0,-1.8265116E0,-5.0326265E-2,1.3857725E0,4.0448946E-1,-1.4145069E0,-1.8256797E0,-3.92055E-2,-1.3964146E0,-6.1010305E-2,-1.488317E0,1.362132E0,5.817337E-2,1.3948733E0,-1.8791037E0,-4.6036154E-2,-1.448777E0,-6.1179552E-2,-1.3620126E0,3.35276E-2,-1.8217704E0,-1.3088785E0,-1.978501E0,-1.9052837E0,-1.8508346E0,-9.060271E-1,1.5977138E0,-5.0339807E-2,-4.4098797E-1,1.3674695E0,-8.286976E-2,1.6827106E0,-1.3157066E0,8.31585E-2,-1.7336103E-1,1.7367194E0,-1.4367275E0,-7.493373E-1,-1.8631748E0,-1.3127121E0,2.9342584E-2,5.6378458E-2,5.5191994E-1,-6.3972974E-1,-1.594157E0,-1.4324684E-2,-1.8468368E0,-4.1148636E-2,-1.7959771E0,-1.2176187E0,-5.7517175E-2,-2.6096657E-2,1.692551E0,-8.878626E-3,-1.472911E0,2.0696573E-1,1.10149615E-1,1.7144414E0,-1.9161223E0,-4.430812E-2,-1.598276E0,-9.98963E-1,-2.9205874E-2,-5.424441E-2,-1.8408344E0,-9.7035456E-1,-1.1140348E0,-1.9560574E0,-6.1455313E-2,-5.1204544E-2,-1.8744065E0,-6.1659697E-2,-1.729462E0,-6.119665E-2,-4.1470602E-1,-5.788628E-2,1.7305236E0,8.44193E-3,-1.1747487E0,-2.3396423E-2,-1.3804165E-2,1.7948331E0,-4.2444515E-1,1.3426255E0,1.7123265E0,2.3979436E-1,-1.7175151E0,-6.7482585E-1,6.1969075E-2,-1.517681E-1,-1.6032073E0,2.2230466E-1,1.7848423E0,-3.0124137E-2,-9.1578275E-1,-1.6014398E0,-2.0287405E-1,-1.2324874E0,-1.8928087E0,-1.541263E0,-1.6839349E0,-3.7578475E-3,-1.1888653E0,6.469082E-1,-8.567776E-1,4.9598444E-1,-5.9805185E-2,-1.4734738E0,-1.7064111E0,-1.9319164E0,-1.8479387E0,-1.4539896E0,-1.341502E0,-3.357423E-1,3.476716E-2,1.8276829E0,-1.6653281E0,-8.7193716E-1,-1.2870764E0,3.3684564E-1,-1.7246343E-2,4.2446113E-1,1.8673867E0,4.7008663E-1,-6.019832E-2,-5.0379638E-2,-1.6952782E0,-1.2448682E0,-5.3335994E-1,-1.3910588E0,-1.9275216E0,-1.741594E0,-5.8057033E-2,7.683856E-3,-1.2254968E0,1.7473194E-1,-1.966743E0,-4.695151E-2,-6.072197E-2,-1.8330001E0,-6.057397E-2,-1.5085139E0,-1.1705034E0,1.7950276E-2,2.4177816E-2,1.8125154E0,-5.0964862E-2,-1.5316672E-2,2.312398E-2,-1.5843356E-2,4.623751E-2,5.995164E-2,9.247354E-3,-3.30203E-2,-5.3631817E-3,5.4327212E-2,5.4329615E-2,2.3635946E-2,-8.781177E-3,3.4496624E-2,-5.880198E-2,6.0569616E-3,-5.3336164E-3,-5.620523E-2,-3.5176277E-2,8.586786E-3,-5.8930438E-2,-3.8241737E-2,-2.793286E-2,2.2116385E-2,5.712566E-2,8.41516E-3,-1.6008968E-2,-3.674148E-2,-5.727214E-2,-4.424131E-2,-4.4362567E-2,1.2785214E-2,-4.820741E-2,-1.0335894E-2,-6.0714256E-2,-5.6425225E-2,-5.354365E-2,-3.3432398E-2,-4.3265868E-2,-5.8124453E-2,-5.344331E-2,-2.2628454E-2,1.5311533E-2,4.5851357E-2,-4.1132882E-2,-1.4902212E-2,-1.0071297E-3,3.1113137E-2,-5.343077E-2,-3.739559E-2,-5.630079E-2,-4.045619E-2,-5.477111E-2,-6.0837924E-2,-5.8095805E-2,-4.169851E-2,-3.22783E-2,-5.3906105E-2,-3.6351483E-2,-5.487595E-2,-4.2238394E-3,-5.658718E-2,5.1280193E-2,5.9547532E-2,-4.5899905E-2,-5.6055788E-2,-4.734555E-2,-6.230068E-3,-3.2618955E-2,-5.6521274E-2,1.3866428E-2,-3.9316285E-2,6.1292417E-2,-2.5500334E-3,4.8063736E-2,6.0063872E-2,-3.3641814E-3,3.8053934E-2,-4.5506448E-2,-5.7273544E-2,6.1339878E-2,-5.0048426E-2,-4.4842932E-2,-1.0645591E-2,-4.6673767E-2,-1.5383948E-2,-5.341656E-2,-6.0473777E-2,-5.7775695E-2,-4.9763985E-2,-3.321797E-2,-6.123889E-2,-3.041306E-2,3.73766E-2,-6.148866E-2,-5.7885714E-2,-4.513228E-2,-5.745094E-2,-5.551139E-2,-3.5573434E-2,-4.8958827E-2,-2.2297071E-2,4.2788796E-2,5.856749E-2],"categories":[],"categories_nodes":[],"categories_segments":[],"categories_sizes":[],"default_left":[0,0,0,0,0,0,0,0,0,0,0,0,0,0,0,0,0,0,0,0,0,0,0,0,0,0,0,0,0,0,0,0,0,0,0,0,0,0,0,0,0,0,0,0,0,0,0,0,0,0,0,0,0,0,0,0,0,0,0,0,0,0,0,0,0,0,0,0,0,0,0,0,0,0,0,0,0,0,0,0,0,0,0,0,0,0,0,0,0,0,0,0,0,0,0,0,0,0,0,0,0,0,0,0,0,0,0,0,0,0,0,0,0,0,0,0,0,0,0,0,0,0,0,0,0,0,0,0,0,0,0,0,0,0,0,0,0,0,0,0,0,0,0,0,0,0,0,0,0,0,0,0,0,0,0,0,0,0,0,0,0,0,0,0,0,0,0,0,0,0,0,0,0,0,0,0,0,0,0,0,0,0,0,0,0,0,0,0,0,0,0,0,0,0,0,0,0,0,0,0,0,0,0,0,0,0,0,0,0,0,0,0,0,0,0,0,0,0,0,0,0,0,0,0,0,0,0,0,0,0,0,0,0,0,0,0,0,0,0,0,0,0,0,0,0,0,0,0,0,0,0,0,0,0,0,0,0,0,0,0,0,0,0,0,0,0,0,0,0,0,0,0,0,0,0,0,0,0,0,0,0,0,0,0,0],"id":0,"left_children":[1,3,5,7,9,11,13,15,17,19,21,23,25,27,29,31,33,35,37,39,41,43,45,47,49,51,53,55,57,59,61,63,65,67,69,71,73,-1,75,77,79,81,-1,83,-1,85,87,89,91,93,-1,95,-1,97,-1,99,101,103,105,107,109,111,-1,113,115,117,119,121,123,125,127,129,131,133,135,-1,-1,137,139,141,-1,143,-1,145,147,-1,-1,149,-1,151,153,155,157,159,-1,161,163,-1,-1,165,167,169,171,-1,-1,173,-1,175,-1,177,-1,179,-1,181,183,-1,185,187,189,191,193,195,197,-1,199,201,203,205,-1,207,209,211,213,215,217,219,-1,221,223,225,227,-1,229,231,233,235,237,239,241,-1,243,245,247,249,251,-1,253,255,257,-1,-1,259,261,263,265,267,269,-1,-1,271,273,275,-1,-1,277,-1,279,281,-1,-1,283,-1,-1,-1,-1,-1,-1,-1,-1,-1,-1,-1,-1,-1,-1,-1,-1,-1,-1,-1,-1,-1,-1,-1,-1,-1,-1,-1,-1,-1,-1,-1,-1,-1,-1,-1,-1,-1,-1,-1,-1,-1,-1,-1,-1,-1,-1,-1,-1,-1,-1,-1,-1,-1,-1,-1,-1,-1,-1,-1,-1,-1,-1,-1,-1,-1,-1,-1,-1,-1,-1,-1,-1,-1,-1,-1,-1,-1,-1,-1,-1,-1,-1,-1,-1,-1,-1,-1,-1,-1,-1,-1,-1,-1,-1,-1,-1,-1,-1,-1,-1,-1,-1,-1,-1],"loss_changes":[2.6260912E5,1.4241303E5,2.3266547E4,7.127797E4,1.7544836E4,1.5986857E4,1.0651734E4,4.9376406E4,1.2006719E3,9.544287E3,2.923621E3,6.491534E3,6.6125586E2,2.3338438E3,7.87203E3,9.443031E3,2.0541717E4,6.778379E2,7.314754E2,1.9800718E3,4.1242188E1,1.7059141E3,2.3735403E3,4.20898E3,1.868457E1,4.698496E2,7.308917E2,2.2924531E3,3.6078125E1,3.3471484E2,1.5167332E3,2.2743948E3,7.596125E3,8.590029E3,6.8947676E3,2.6148633E2,1.1453125E2,0E0,3.78237E1,1.6287887E3,1.06756836E2,2.2749023E1,0E0,1.2072695E3,0E0,1.261272E2,3.4503503E2,2.2725107E3,1.2651577E3,1.7385254E1,0E0,4.4096777E2,0E0,4.8542847E1,0E0,2.7626172E2,2.2294023E3,1.2003906E1,4.2835938E1,1.2797363E1,2.5938086E2,3.23646E2,0E0,8.441517E2,7.2195374E2,1.2143522E3,4.5843125E3,2.0478857E3,4.4048335E3,1.4356241E3,9.692578E2,1.4378833E2,2.1850198E2,5.1375E1,1.86211E2,0E0,0E0,1.5333723E3,3.2321783E2,1.6997192E1,0E0,2.3960938E1,0E0,8.8728516E1,1.2785156E3,0E0,0E0,3.7083252E1,0E0,9.944519E1,1.7646611E3,1.2915952E2,4.6794385E2,4.095703E0,0E0,1.6616309E2,2.9952148E2,0E0,0E0,1.3966016E2,4.1876868E2,1.9564062E3,1.4603516E1,0E0,0E0,4.246875E1,0E0,2.6005371E1,0E0,2.7717993E2,0E0,1.2809424E2,0E0,3.1737952E2,6.600301E2,0E0,2.7168945E1,9.3277026E2,3.0051324E2,4.0167812E3,9.8693555E2,1.6794795E3,1.7557382E3,0E0,3.674109E3,5.661975E1,1.096668E3,6.375488E2,0E0,4.3002502E1,5.1274902E1,2.971438E2,1.262962E2,2.0185547E1,3.9914062E1,1.3508423E1,0E0,1.1532739E2,1.117542E3,1.928305E2,5.6925518E1,0E0,2.2982544E1,3.698999E1,2.274414E0,5.55166E1,7.873755E1,7.3999805E2,4.2810583E2,0E0,1.8786621E0,1.3297607E1,9.424611E1,8.82229E1,1.4837891E3,0E0,3.3116888E2,4.4137695E1,1.1990283E2,0E0,0E0,1.2996875E2,1.2793246E3,1.298331E2,8.993506E1,3.7453125E1,1.2618945E2,0E0,0E0,1.4431211E3,1.2932733E3,1.0302734E0,0E0,0E0,6.6125E1,0E0,2.879132E1,3.636209E1,0E0,0E0,4.6975098E1,0E0,0E0,0E0,0E0,0E0,0E0,0E0,0E0,0E0,0E0,0E0,0E0,0E0,0E0,0E0,0E0,0E0,0E0,0E0,0E0,0E0,0E0,0E0,0E0,0E0,0E0,0E0,0E0,0E0,0E0,0E0,0E0,0E0,0E0,0E0,0E0,0E0,0E0,0E0,0E0,0E0,0E0,0E0,0E0,0E0,0E0,0E0,0E0,0E0,0E0,0E0,0E0,0E0,0E0,0E0,0E0,0E0,0E0,0E0,0E0,0E0,0E0,0E0,0E0,0E0,0E0,0E0,0E0,0E0,0E0,0E0,0E0,0E0,0E0,0E0,0E0,0E0,0E0,0E0,0E0,0E0,0E0,0E0,0E0,0E0,0E0,0E0,0E0,0E0,0E0,0E0,0E0,0E0,0E0,0E0,0E0,0E0,0E0,0E0,0E0,0E0,0E0,0E0,0E0],"parents":[2147483647,0,0,1,1,2,2,3,3,4,4,5,5,6,6,7,7,8,8,9,9,10,10,11,11,12,12,13,13,14,14,15,15,16,16,17,17,18,18,19,19,20,20,21,21,22,22,23,23,24,24,25,25,26,26,27,27,28,28,29,29,30,30,31,31,32,32,33,33,34,34,35,35,36,36,38,38,39,39,40,40,41,41,43,43,45,45,46,46,47,47,48,48,49,49,51,51,53,53,55,55,56,56,57,57,58,58,59,59,60,60,61,61,63,63,64,64,65,65,66,66,67,67,68,68,69,69,70,70,71,71,72,72,73,73,74,74,77,77,78,78,79,79,81,81,83,83,84,84,87,87,89,89,90,90,91,91,92,92,93,93,95,95,96,96,99,99,100,100,101,101,102,102,105,105,107,107,109,109,111,111,113,113,114,114,116,116,117,117,118,118,119,119,120,120,121,121,122,122,124,124,125,125,126,126,127,127,129,129,130,130,131,131,132,132,133,133,134,134,135,135,137,137,138,138,139,139,140,140,142,142,143,143,144,144,145,145,146,146,147,147,148,148,150,150,151,151,152,152,153,153,154,154,156,156,157,157,158,158,161,161,162,162,163,163,164,164,165,165,166,166,169,169,170,170,171,171,174,174,176,176,177,177,180,180],"right_children":[2,4,6,8,10,12,14,16,18,20,22,24,26,28,30,32,34,36,38,40,42,44,46,48,50,52,54,56,58,60,62,64,66,68,70,72,74,-1,76,78,80,82,-1,84,-1,86,88,90,92,94,-1,96,-1,98,-1,100,102,104,106,108,110,112,-1,114,116,118,120,122,124,126,128,130,132,134,136,-1,-1,138,140,142,-1,144,-1,146,148,-1,-1,150,-1,152,154,156,158,160,-1,162,164,-1,-1,166,168,170,172,-1,-1,174,-1,176,-1,178,-1,180,-1,182,184,-1,186,188,190,192,194,196,198,-1,200,202,204,206,-1,208,210,212,214,216,218,220,-1,222,224,226,228,-1,230,232,234,236,238,240,242,-1,244,246,248,250,252,-1,254,256,258,-1,-1,260,262,264,266,268,270,-1,-1,272,274,276,-1,-1,278,-1,280,282,-1,-1,284,-1,-1,-1,-1,-1,-1,-1,-1,-1,-1,-1,-1,-1,-1,-1,-1,-1,-1,-1,-1,-1,-1,-1,-1,-1,-1,-1,-1,-1,-1,-1,-1,-1,-1,-1,-1,-1,-1,-1,-1,-1,-1,-1,-1,-1,-1,-1,-1,-1,-1,-1,-1,-1,-1,-1,-1,-1,-1,-1,-1,-1,-1,-1,-1,-1,-1,-1,-1,-1,-1,-1,-1,-1,-1,-1,-1,-1,-1,-1,-1,-1,-1,-1,-1,-1,-1,-1,-1,-1,-1,-1,-1,-1,-1,-1,-1,-1,-1,-1,-1,-1,-1,-1,-1],"split_conditions":[1E0,1E0,1E0,1E0,1E0,1E0,1.8848816E0,2E0,2.0937455E0,1E0,1.9539919E0,1E0,1.7780564E0,1E0,9.1877705E-1,1.7E1,1.0655676E0,1E0,7.960144E-1,3E0,1.6662756E0,1E0,9.541152E-1,1.3358777E0,5.1E1,1E0,1.0347968E0,4.5E1,4.7E1,2.894474E-1,5E1,1.3717787E0,1.18339725E-1,3.1E1,6.1860925E-1,5.677159E-1,1.435637E0,-5.0326265E-2,1.9251847E0,2E0,1.2084122E0,1.2902708E-1,-3.92055E-2,4.1E1,-6.1010305E-2,2.0934895E-1,4.6E1,2.8E1,3.1183454E-1,1.4104476E0,-4.6036154E-2,2.42E2,-6.1179552E-2,4E0,3.35276E-2,2.1090066E0,4E0,2.84E2,1E0,1E0,5E1,1E0,-5.0339807E-2,3.1E1,6.0578555E-1,1.5112687E0,3E0,5E0,4E1,2.1E1,6E0,4E0,5E1,5.1E1,1.0500895E0,2.9342584E-2,5.6378458E-2,3.8E1,5.6579836E-2,1E0,-1.4324684E-2,3.4302588E0,-4.1148636E-2,5.6579836E-2,5.6579836E-2,-5.7517175E-2,-2.6096657E-2,1.4561024E0,-8.878626E-3,1.7E1,2.0502266E-1,4.1E1,5E1,3.613626E-2,-4.430812E-2,5.1E1,5E0,-2.9205874E-2,-5.424441E-2,1.7E1,6.565395E-1,1.6895009E0,1.9843163E0,-6.1455313E-2,-5.1204544E-2,1E0,-6.1659697E-2,4.3E1,-6.119665E-2,3.1E1,-5.788628E-2,2.1E1,8.44193E-3,5E0,5E1,-1.3804165E-2,1.6306021E0,1E0,7.3374104E-1,2E0,8.403802E-1,1.7268612E0,4E0,6.1969075E-2,3.8E1,6.3E1,3.8E1,5E1,-3.0124137E-2,-9.3320835E-1,4.1E1,3.1E1,5.1E1,5.2E1,8.0206174E-1,7E0,-3.7578475E-3,1.5E1,1.5322412E0,5.1E1,5.593204E3,-5.9805185E-2,1E0,5.1E1,-1.2056676E0,1.6776086E0,5.043885E3,2E0,4E0,3.476716E-2,3.1E1,3.9298638E3,0E0,2E-1,3E0,-1.7246343E-2,5E1,1.0805085E0,5.1E1,-6.019832E-2,-5.0379638E-2,5E1,6E1,0E0,1.3154095E0,2.8683037E3,3.1E1,-5.8057033E-2,7.683856E-3,1E0,7.3374104E-1,4.1E1,-4.695151E-2,-6.072197E-2,2E0,-6.057397E-2,-3.3910978E-1,6.292348E-1,1.7950276E-2,2.4177816E-2,3.6E1,-5.0964862E-2,-1.5316672E-2,2.312398E-2,-1.5843356E-2,4.623751E-2,5.995164E-2,9.247354E-3,-3.30203E-2,-5.3631817E-3,5.4327212E-2,5.4329615E-2,2.3635946E-2,-8.781177E-3,3.4496624E-2,-5.880198E-2,6.0569616E-3,-5.3336164E-3,-5.620523E-2,-3.5176277E-2,8.586786E-3,-5.8930438E-2,-3.8241737E-2,-2.793286E-2,2.2116385E-2,5.712566E-2,8.41516E-3,-1.6008968E-2,-3.674148E-2,-5.727214E-2,-4.424131E-2,-4.4362567E-2,1.2785214E-2,-4.820741E-2,-1.0335894E-2,-6.0714256E-2,-5.6425225E-2,-5.354365E-2,-3.3432398E-2,-4.3265868E-2,-5.8124453E-2,-5.344331E-2,-2.2628454E-2,1.5311533E-2,4.5851357E-2,-4.1132882E-2,-1.4902212E-2,-1.0071297E-3,3.1113137E-2,-5.343077E-2,-3.739559E-2,-5.630079E-2,-4.045619E-2,-5.477111E-2,-6.0837924E-2,-5.8095805E-2,-4.169851E-2,-3.22783E-2,-5.3906105E-2,-3.6351483E-2,-5.487595E-2,-4.2238394E-3,-5.658718E-2,5.1280193E-2,5.9547532E-2,-4.5899905E-2,-5.6055788E-2,-4.734555E-2,-6.230068E-3,-3.2618955E-2,-5.6521274E-2,1.3866428E-2,-3.9316285E-2,6.1292417E-2,-2.5500334E-3,4.8063736E-2,6.0063872E-2,-3.3641814E-3,3.8053934E-2,-4.5506448E-2,-5.7273544E-2,6.1339878E-2,-5.0048426E-2,-4.4842932E-2,-1.0645591E-2,-4.6673767E-2,-1.5383948E-2,-5.341656E-2,-6.0473777E-2,-5.7775695E-2,-4.9763985E-2,-3.321797E-2,-6.123889E-2,-3.041306E-2,3.73766E-2,-6.148866E-2,-5.7885714E-2,-4.513228E-2,-5.745094E-2,-5.551139E-2,-3.5573434E-2,-4.8958827E-2,-2.2297071E-2,4.2788796E-2,5.856749E-2],"split_indices":[27,18,17,21,17,18,32,17,32,21,31,21,32,18,31,3,31,17,31,7,31,21,32,32,4,21,31,3,3,31,4,31,0,4,32,31,32,0,31,14,32,5,0,3,0,32,4,3,31,31,0,15,0,30,0,31,17,15,21,18,4,18,0,4,32,31,7,30,4,4,30,13,4,4,31,0,0,3,5,26,0,25,0,5,5,0,0,32,0,3,0,4,4,5,0,4,13,0,0,3,32,31,31,0,0,26,0,3,0,4,0,4,0,30,4,0,32,17,32,14,32,32,17,0,3,3,3,4,0,6,4,4,4,3,0,13,0,3,31,4,10,0,16,4,6,32,9,14,17,0,4,9,2,0,7,0,4,31,4,0,0,4,4,20,31,10,4,0,0,21,32,4,0,0,26,0,31,31,0,0,3,0,0,0,0,0,0,0,0,0,0,0,0,0,0,0,0,0,0,0,0,0,0,0,0,0,0,0,0,0,0,0,0,0,0,0,0,0,0,0,0,0,0,0,0,0,0,0,0,0,0,0,0,0,0,0,0,0,0,0,0,0,0,0,0,0,0,0,0,0,0,0,0,0,0,0,0,0,0,0,0,0,0,0,0,0,0,0,0,0,0,0,0,0,0,0,0,0,0,0,0,0,0,0,0],"split_type":[0,0,0,0,0,0,0,0,0,0,0,0,0,0,0,0,0,0,0,0,0,0,0,0,0,0,0,0,0,0,0,0,0,0,0,0,0,0,0,0,0,0,0,0,0,0,0,0,0,0,0,0,0,0,0,0,0,0,0,0,0,0,0,0,0,0,0,0,0,0,0,0,0,0,0,0,0,0,0,0,0,0,0,0,0,0,0,0,0,0,0,0,0,0,0,0,0,0,0,0,0,0,0,0,0,0,0,0,0,0,0,0,0,0,0,0,0,0,0,0,0,0,0,0,0,0,0,0,0,0,0,0,0,0,0,0,0,0,0,0,0,0,0,0,0,0,0,0,0,0,0,0,0,0,0,0,0,0,0,0,0,0,0,0,0,0,0,0,0,0,0,0,0,0,0,0,0,0,0,0,0,0,0,0,0,0,0,0,0,0,0,0,0,0,0,0,0,0,0,0,0,0,0,0,0,0,0,0,0,0,0,0,0,0,0,0,0,0,0,0,0,0,0,0,0,0,0,0,0,0,0,0,0,0,0,0,0,0,0,0,0,0,0,0,0,0,0,0,0,0,0,0,0,0,0,0,0,0,0,0,0,0,0,0,0,0,0,0,0,0,0,0,0,0,0,0,0,0,0,0,0,0,0,0,0],"sum_hessian":[2.8469512E5,1.8995266E5,9.474245E4,1.5035692E5,3.959573E4,2.3980988E4,7.076147E4,1.4118469E5,9.172246E3,1.3904993E4,2.5690738E4,1.4540243E4,9.440745E3,6.699897E4,3.7624983E3,1.13487195E5,2.7697486E4,8.829746E3,3.4249985E2,1.1210245E4,2.6947488E3,2.4517738E4,1.1729994E3,1.3058994E4,1.4812493E3,8.926746E3,5.1399976E2,3.4924234E4,3.2074734E4,1.7587491E3,2.003749E3,3.6849983E3,1.09802195E5,1.7743742E4,9.953745E3,2.5367488E3,6.292997E3,1.2824994E2,2.142499E2,1.0576995E4,6.332497E2,2.5397488E3,1.5499992E2,1.6949742E4,7.5679966E3,5.4274976E2,6.302497E2,9.975745E3,3.0832485E3,1.3079994E3,1.7324992E2,6.599497E3,2.3272488E3,3.1549985E2,1.9849991E2,1.7215992E4,1.7708242E4,1.3318243E4,1.875649E4,1.2064994E3,5.5224976E2,1.8459991E3,1.5774992E2,2.7559988E3,9.289996E2,2.4927488E3,1.07309445E5,7.960746E3,9.782995E3,2.5347488E3,7.4189966E3,1.7064991E3,8.3024963E2,5.870497E3,4.224998E2,1.0849995E2,1.0574995E2,9.269245E3,1.3077494E3,5.3174976E2,1.01499954E2,2.4327488E3,1.0699995E2,5.2362476E3,1.1713494E4,3.4449985E2,1.9824991E2,5.2524976E2,1.0499995E2,8.824996E2,9.093246E3,6.147497E2,2.4684988E3,1.2044994E3,1.03499954E2,4.9504976E3,1.6489993E3,1.5374992E2,1.6174992E2,1.6837242E4,3.7874982E2,1.3613243E4,4.094998E3,1.3153494E4,1.6474992E2,1.3724993E4,5.0314976E3,6.174997E2,5.889997E2,3.6674982E2,1.8549991E2,1.6772491E3,1.6874992E2,9.984995E2,1.7574991E3,1.7699991E2,7.5199963E2,2.011749E3,4.8099976E2,1.051507E5,2.158749E3,4.8914976E3,3.0692485E3,1.0679995E3,8.714996E3,5.4899976E2,1.985749E3,7.2899966E3,1.2899994E2,4.1224982E2,1.2942494E3,3.9074982E2,4.394998E2,5.3697476E3,5.0074976E2,3.2149985E2,1.00999954E2,4.787498E2,8.790496E3,1.0984995E3,2.092499E2,1.3574994E2,3.9599982E2,9.279996E2,1.5047493E3,4.540498E3,6.957497E2,1.0269745E4,1.4437493E3,1.02999954E2,4.222498E2,6.664997E2,2.159999E2,7.2624963E2,8.366996E3,1.9624991E2,4.184998E2,2.197499E3,2.7099988E2,1.0997495E3,1.0474995E2,3.880248E3,1.0702495E3,7.5549963E2,8.934996E2,8.974496E3,7.862746E3,2.174999E2,1.6124992E2,1.2529994E4,1.0832495E3,3.993748E3,1.01249954E2,4.499248E3,9.225745E3,3.0124985E2,3.1624985E2,2.084999E2,1.5824992E2,1.3449994E2,1.5427493E3,5.897497E2,4.0874982E2,6.812497E2,1.0762495E3,2.4124988E2,5.1074976E2,9.452496E2,1.0664995E3,1.02249954E2,3.7874982E2,1.008757E5,4.274998E3,1.3499994E3,8.0874963E2,4.472498E3,4.189998E2,2.129999E3,9.392496E2,2.6467488E3,6.068247E3,3.0099985E2,2.4799988E2,6.034997E2,1.3822494E3,7.0207466E3,2.6924988E2,1.6799992E2,2.4424988E2,5.3149976E2,7.6274963E2,1.3024994E2,2.6049988E2,3.2249985E2,1.1699995E2,2.8019988E3,2.5677488E3,3.5449982E2,1.4624992E2,1.3249994E2,1.8899991E2,2.192499E2,2.5949988E2,7.4272466E3,1.3632494E3,4.8649976E2,6.119997E2,1.02499954E2,1.0674995E2,2.0074991E2,1.9524991E2,7.2499963E2,2.0299991E2,2.4699988E2,1.2577494E3,4.312748E3,2.277499E2,2.8674988E2,4.0899982E2,7.3709966E3,2.8987485E3,1.2744994E3,1.6924992E2,1.5599992E2,2.6624988E2,2.9724985E2,3.6924982E2,1.0824995E2,1.0774995E2,5.0774976E2,2.184999E2,7.829246E3,5.3774976E2,1.02499954E2,3.1599985E2,4.0374982E2,1.7937491E3,1.5374992E2,1.1724995E2,1.5619993E3,2.3182488E3,1.0949995E2,9.607495E2,1.2849994E2,6.269997E2,7.9099963E2,1.02499954E2,9.262496E2,8.048246E3,4.138248E3,3.7244983E3,1.0398495E4,2.131499E3,5.1049976E2,5.7274976E2,3.3972483E3,5.964997E2,4.752498E2,8.750496E3,1.7449992E2,1.4174994E2,1.0749995E2,1.00999954E2,2.364999E2,1.3062494E3],"tree_param":{"num_deleted":"0","num_feature":"33","num_nodes":"285","size_leaf_vector":"1"}},{"base_weights":[-5.027571E-4,6.575391E-1,-1.320331E0,1.0884533E0,-9.78406E-1,-4.9046975E-1,-1.6010097E0,1.4220366E0,-1.5141894E-1,-1.0346488E-1,-1.4517543E0,1.4588754E-1,-1.4736853E0,-1.6895492E0,-2.0120762E-2,-1.6153066E-1,1.4832574E0,-6.187612E-1,1.2403659E0,5.809788E-1,-7.1319336E-1,-1.533994E0,-2.2813343E-1,1.4004076E0,-1.1885012E-1,-1.0641862E0,-1.6633549E0,-1.5168982E0,-1.8774842E0,5.1482284E-1,-1.8013133E0,-5.869766E-1,1.1232045E0,1.5467502E0,2.4317569E-1,-1.2671511E0,-9.47667E-2,1.4067051E0,-6.0741955E-1,7.806551E-1,-5.4491436E-1,-9.8711765E-1,-2.879765E-1,-1.1570305E0,-1.6822951E0,5.936642E-1,-1.5694772E0,-9.884067E-3,1.475432E0,-4.0600044E-1,1.159765E0,-5.3452665E-1,-1.2749196E0,-1.698553E0,1.3730442E-3,-4.207366E-2,-1.6109861E0,-1.7939693E0,-1.9002025E0,8.8249815E-1,-1.1291784E0,-1.8839301E0,-4.3554783E-2,-1.2351013E0,-2.0681629E-1,1.424801E0,-3.17604E-2,8.925066E-2,1.5802866E0,1.0557086E0,-4.9534416E-1,-4.1637415E-1,-1.4978194E0,6.0418554E-2,-3.5505086E-1,1.5593238E0,-5.83993E-1,-1.2681289E0,5.5237514E-1,8.6420697E-1,-1.1425109E0,-7.855915E-1,2.180295E-2,-6.382356E-1,-1.434211E0,3.0110246E-1,-5.375058E-1,-9.0904504E-1,-1.5998881E0,-1.733088E0,-1.2045729E0,-5.0183535E-1,9.835414E-1,-1.7682706E0,-3.4879E-2,8.3621335E-1,1.5791572E0,-1.3265005E0,-2.3194359E-1,1.5450059E0,-3.8444698E-1,-1.1226152E0,6.2449615E-2,-1.6136698E0,-6.963679E-1,-1.5028733E0,-1.765762E0,-1.5688152E0,3.0880642E-1,-1.8069199E0,-1.4257436E0,-1.8320428E0,-1.5672922E0,-1.9102893E0,-1.8284398E0,-8.654764E-1,1.1753587E0,5.2407025E-3,-1.535497E0,-5.9512172E-2,-5.1019274E-2,-4.553745E-1,-1.5660095E0,6.0726892E-2,-3.7576702E-1,8.053882E-3,1.5710331E0,-9.0634215E-1,1.4763924E0,1.5971961E0,-8.819705E-1,1.683053E0,7.097633E-1,-2.1003461E-1,-1.8889021E0,-1.1672148E0,1.484385E-1,-1.6925484E0,-7.0314074E-1,1.1061356E0,-5.9613734E-1,-1.8785977E-1,1.6749706E0,-1.1227667E0,2.2830093E-2,-5.4026924E-2,-7.896947E-1,6.132641E-2,-3.5401653E-2,4.9661424E-2,1.0490998E0,-1.7775087E-2,-5.0061453E-2,-1.2532389E0,-4.412578E-1,-8.7087375E-1,5.6327313E-2,-1.5194632E0,-5.4377224E-3,-5.537282E-1,6.1224118E-2,-9.0760696E-1,1.8882984E-1,-4.3767405E-1,-1.351107E0,-1.669465E0,-1.0542146E0,-1.8595215E0,-1.6364472E0,-7.1878415E-1,-1.5422423E0,-3.3558168E-2,8.418642E-3,-8.601036E-3,1.1850706E0,-5.8581743E-2,-4.6227675E-2,5.146348E-1,4.7072973E-2,1.6370454E0,1.337168E-2,-1.6855221E0,-9.7440356E-1,-1.3530524E-1,-1.5053897E0,1.1067255E0,1.7224994E0,-1.0881602E0,2.2260958E-2,-1.5698265E0,2.113133E-2,-5.6246534E-2,-1.3398718E0,6.1004642E-2,-1.414859E0,-9.1142046E-1,-1.5900187E0,-1.7815897E0,-4.0682595E-2,-3.321878E-2,-1.7345742E0,5.2434266E-1,-1.282499E0,-1.588435E0,-1.8557209E0,-1.2703352E0,-5.9566546E-2,-5.9566148E-2,-1.7853014E0,-1.689188E0,-1.5748743E-2,-1.888844E0,-5.9680264E-2,-1.8474014E0,-4.184068E-2,-1.2855453E0,3.693178E-3,-1.9424612E-2,1.3629432E0,-5.5715505E-2,-3.795218E-2,-3.0551802E-2,-5.580357E-4,-5.3251114E-2,-2.383116E-2,-5.368031E-3,-4.7287393E-2,3.6203004E-2,5.5969E-2,1.0295273E-2,-4.150317E-2,2.3475226E-2,5.3545743E-2,5.0349697E-2,7.334111E-3,-3.7196163E-2,3.265391E-2,3.6880516E-2,5.4593388E-2,4.234697E-2,1.1608966E-2,-1.5900958E-2,2.8322594E-2,-6.0596384E-2,-5.120115E-2,-5.3879984E-2,-2.5663078E-2,6.1903518E-2,-3.583023E-2,-2.2048447E-2,-5.3839438E-2,-9.959178E-3,-5.424274E-2,-3.049613E-2,4.0292196E-2,-4.854091E-2,-1.024472E-2,-2.9853594E-2,3.684531E-2,5.3408884E-2,-1.9622276E-2,-5.3706046E-2,-2.5343208E-2,-9.512012E-3,-4.004002E-2,-3.2429688E-2,1.2300839E-2,3.7606206E-2,5.508101E-3,-2.436856E-2,-4.8977047E-2,-3.0692923E-3,-3.2396678E-2,-3.2405008E-2,4.7423253E-3,-5.039784E-2,-3.503888E-2,-3.8058523E-2,2.5776222E-2,-1.5861098E-2,-3.966517E-2,6.130807E-2,-2.5516298E-2,-2.1760125E-2,1.1060486E-2,-4.643899E-2,-1.8189827E-2,-5.3586233E-2,-3.8493596E-2,-1.070081E-2,-4.9854223E-2,-5.549055E-2,-5.88303E-2,-4.6484645E-2,-5.7641238E-2,-4.395508E-2,-1.1403004E-2,-2.6326703E-2,-5.3215154E-2,4.35316E-2,1.1739721E-2,-3.881506E-3,3.18714E-2,5.309348E-2,3.3605315E-2,-4.1643646E-2,-5.5720236E-2,-3.939978E-2,6.7298237E-4,7.5041126E-3,-1.4175954E-2,-2.65927E-2,-5.151482E-2,2.4367845E-2,5.9790403E-2,3.4851767E-2,5.5046666E-2,-4.328292E-2,-2.4050161E-2,-3.0465955E-2,-5.257134E-2,-3.209882E-2,-5.458431E-2,-4.8645288E-2,-2.8685791E-2,-1.1584853E-2,-4.538924E-2,-5.3349476E-2,-4.2110313E-2,-5.6038763E-2,-4.9091853E-2,-5.7985246E-2,-4.513959E-2,3.3617217E-2,-5.8407197E-3,-4.730822E-2,-3.1550646E-2,-4.0343147E-2,-5.26614E-2,-5.857731E-2,-5.300473E-2,-4.3041937E-2,-1.480739E-2,-5.6393117E-2,-5.018819E-2,-5.5520736E-2,-3.6677245E-2,-5.7673387E-2,-5.9959043E-2,-5.5555046E-2,-5.9535913E-2,-4.8421025E-2,-2.9539673E-2,3.185664E-2,5.3130947E-2],"categories":[],"categories_nodes":[],"categories_segments":[],"categories_sizes":[],"default_left":[0,0,0,0,0,0,0,0,0,0,0,0,0,0,0,0,0,0,0,0,0,0,0,0,0,0,0,0,0,0,0,0,0,0,0,0,0,0,0,0,0,0,0,0,0,0,0,0,0,0,0,0,0,0,0,0,0,0,0,0,0,0,0,0,0,0,0,0,0,0,0,0,0,0,0,0,0,0,0,0,0,0,0,0,0,0,0,0,0,0,0,0,0,0,0,0,0,0,0,0,0,0,0,0,0,0,0,0,0,0,0,0,0,0,0,0,0,0,0,0,0,0,0,0,0,0,0,0,0,0,0,0,0,0,0,0,0,0,0,0,0,0,0,0,0,0,0,0,0,0,0,0,0,0,0,0,0,0,0,0,0,0,0,0,0,0,0,0,0,0,0,0,0,0,0,0,0,0,0,0,0,0,0,0,0,0,0,0,0,0,0,0,0,0,0,0,0,0,0,0,0,0,0,0,0,0,0,0,0,0,0,0,0,0,0,0,0,0,0,0,0,0,0,0,0,0,0,0,0,0,0,0,0,0,0,0,0,0,0,0,0,0,0,0,0,0,0,0,0,0,0,0,0,0,0,0,0,0,0,0,0,0,0,0,0,0,0,0,0,0,0,0,0,0,0,0,0,0,0,0,0,0,0,0,0,0,0,0,0,0,0,0,0,0,0,0,0,0,0,0,0,0,0,0,0,0,0,0,0,0,0,0,0,0,0,0,0,0,0,0,0,0,0,0,0,0,0,0,0,0,0,0,0,0,0,0,0,0,0,0,0,0,0,0,0,0,0,0,0,0,0,0,0,0,0],"id":1,"left_children":[1,3,5,7,9,11,13,15,17,19,21,23,25,27,29,31,33,35,37,39,41,43,45,47,49,51,53,55,57,59,61,63,65,67,69,71,73,75,77,79,81,83,85,87,89,91,93,-1,95,97,99,101,103,105,-1,107,109,111,113,115,117,119,-1,121,123,125,-1,127,129,131,133,135,137,-1,139,141,143,145,147,149,151,153,-1,155,157,159,161,163,165,167,169,171,173,175,-1,177,179,181,183,185,187,189,-1,191,193,195,197,199,201,203,205,207,209,211,213,215,217,-1,219,-1,-1,221,223,-1,225,-1,227,229,231,233,235,237,239,241,243,245,247,249,251,253,255,257,259,261,-1,-1,263,-1,-1,265,267,-1,-1,269,271,273,-1,275,-1,277,-1,279,281,283,285,287,289,291,293,295,297,-1,-1,-1,299,-1,-1,301,-1,303,-1,305,307,309,311,313,315,317,-1,319,-1,-1,321,-1,323,325,327,329,-1,-1,331,333,335,337,339,341,-1,-1,343,345,-1,347,-1,349,-1,351,-1,-1,353,-1,-1,-1,-1,-1,-1,-1,-1,-1,-1,-1,-1,-1,-1,-1,-1,-1,-1,-1,-1,-1,-1,-1,-1,-1,-1,-1,-1,-1,-1,-1,-1,-1,-1,-1,-1,-1,-1,-1,-1,-1,-1,-1,-1,-1,-1,-1,-1,-1,-1,-1,-1,-1,-1,-1,-1,-1,-1,-1,-1,-1,-1,-1,-1,-1,-1,-1,-1,-1,-1,-1,-1,-1,-1,-1,-1,-1,-1,-1,-1,-1,-1,-1,-1,-1,-1,-1,-1,-1,-1,-1,-1,-1,-1,-1,-1,-1,-1,-1,-1,-1,-1,-1,-1,-1,-1,-1,-1,-1,-1,-1,-1,-1,-1,-1,-1,-1,-1,-1,-1,-1,-1,-1,-1,-1,-1,-1,-1,-1,-1,-1,-1,-1,-1,-1,-1],"loss_changes":[2.4719523E5,1.3389078E5,2.205489E4,6.2177734E4,1.6398559E4,1.4976508E4,9.903516E3,1.1485266E4,2.0731092E4,5.8026133E3,2.5845156E3,4.8268906E3,7.273379E2,2.1696562E3,3.5786663E3,2.4107244E3,8.9786875E3,8.1059814E3,2.4637822E3,1.4731694E3,8.556218E2,1.3426289E3,1.7869432E3,3.2770996E2,4.405828E3,3.311194E2,3.8708984E2,4.846164E3,5.5617188E1,1.7463318E3,2.4113281E1,8.15494E2,7.122976E2,5.302203E3,3.3351719E3,2.091205E3,7.020545E3,2.2346914E3,5.0843463E2,8.9497314E2,2.9708856E2,6.955117E2,4.2410822E2,7.44291E2,4.1564062E2,4.2994415E2,5.0966797E1,0E0,1.58396E2,1.5690739E3,1.3102935E3,1.277207E3,4.1535986E2,7.8509766E1,0E0,1.1240177E3,1.1875703E3,5.4828125E1,1.28671875E1,1.209631E3,2.7944287E2,1.1469727E0,0E0,3.141941E2,7.647992E2,1.6266882E2,0E0,3.3736511E3,4.4174375E3,5.719436E2,1.15605E3,9.66088E2,1.2957227E3,0E0,4.12478E3,1.380666E3,3.737475E2,9.328461E1,5.8426324E2,8.026616E2,6.0314056E1,1.3196277E2,0E0,1.4370583E3,2.0905566E2,1.2294733E3,5.452486E2,9.077239E2,8.949902E1,1.8597266E2,2.7080273E2,1.1930487E2,1.892998E2,9.725952E0,0E0,7.316225E1,1.3689258E2,1.9394238E2,1.0134308E3,1.3372314E2,3.422882E2,5.599683E2,0E0,6.978906E1,1.513333E3,8.070337E1,2.969043E1,2.9059631E1,5.8507587E2,1.6541406E2,1.2968047E3,1.9320312E1,1.2698071E2,1.4921875E0,2.4361328E1,1.4098486E2,6.8489575E2,0E0,2.908252E1,0E0,0E0,8.450318E1,1.0134302E2,0E0,4.5077628E2,0E0,7.718677E1,7.624873E2,1.8162622E2,3.8664375E3,4.4665894E2,3.2590088E1,3.744344E2,8.2322833E2,2.687622E0,1.8670386E2,3.1360325E3,2.897754E2,6.5915814E2,6.7239136E2,2.5877246E3,4.539619E2,7.0958984E2,6.668048E1,0E0,0E0,5.0357986E1,0E0,0E0,3.7601086E2,6.202544E2,0E0,0E0,5.099475E1,9.8340034E1,4.109204E2,0E0,7.262451E1,0E0,5.319888E2,0E0,1.9622131E2,1.2410409E3,4.4419046E2,2.5082568E2,5.102246E1,1.0821838E2,1.2705078E1,2.6601758E2,1.6666232E2,1.1574219E2,0E0,0E0,0E0,1.11711426E2,0E0,0E0,7.753114E1,0E0,7.980469E1,0E0,2.5469482E1,2.338825E2,9.313773E2,5.6146973E1,1.3192523E2,3.637744E1,2.3734253E1,0E0,3.806604E1,0E0,0E0,7.018457E1,0E0,4.4320923E1,6.121245E1,3.8830322E1,1.8792969E1,0E0,0E0,6.654419E0,6.004867E2,1.0290619E1,8.879785E1,5.9367188E1,1.2022812E3,0E0,0E0,1.7185547E1,4.248535E1,0E0,6.2285156E0,0E0,6.8779297E0,0E0,1.9150452E1,0E0,0E0,2.1251025E2,0E0,0E0,0E0,0E0,0E0,0E0,0E0,0E0,0E0,0E0,0E0,0E0,0E0,0E0,0E0,0E0,0E0,0E0,0E0,0E0,0E0,0E0,0E0,0E0,0E0,0E0,0E0,0E0,0E0,0E0,0E0,0E0,0E0,0E0,0E0,0E0,0E0,0E0,0E0,0E0,0E0,0E0,0E0,0E0,0E0,0E0,0E0,0E0,0E0,0E0,0E0,0E0,0E0,0E0,0E0,0E0,0E0,0E0,0E0,0E0,0E0,0E0,0E0,0E0,0E0,0E0,0E0,0E0,0E0,0E0,0E0,0E0,0E0,0E0,0E0,0E0,0E0,0E0,0E0,0E0,0E0,0E0,0E0,0E0,0E0,0E0,0E0,0E0,0E0,0E0,0E0,0E0,0E0,0E0,0E0,0E0,0E0,0E0,0E0,0E0,0E0,0E0,0E0,0E0,0E0,0E0,0E0,0E0,0E0,0E0,0E0,0E0,0E0,0E0,0E0,0E0,0E0,0E0,0E0,0E0,0E0,0E0,0E0,0E0,0E0,0E0,0E0,0E0,0E0,0E0,0E0,0E0,0E0,0E0,0E0,0E0],"parents":[2147483647,0,0,1,1,2,2,3,3,4,4,5,5,6,6,7,7,8,8,9,9,10,10,11,11,12,12,13,13,14,14,15,15,16,16,17,17,18,18,19,19,20,20,21,21,22,22,23,23,24,24,25,25,26,26,27,27,28,28,29,29,30,30,31,31,32,32,33,33,34,34,35,35,36,36,37,37,38,38,39,39,40,40,41,41,42,42,43,43,44,44,45,45,46,46,48,48,49,49,50,50,51,51,52,52,53,53,55,55,56,56,57,57,58,58,59,59,60,60,61,61,63,63,64,64,65,65,67,67,68,68,69,69,70,70,71,71,72,72,74,74,75,75,76,76,77,77,78,78,79,79,80,80,81,81,83,83,84,84,85,85,86,86,87,87,88,88,89,89,90,90,91,91,92,92,93,93,95,95,96,96,97,97,98,98,99,99,100,100,101,101,103,103,104,104,105,105,106,106,107,107,108,108,109,109,110,110,111,111,112,112,113,113,114,114,115,115,116,116,118,118,121,121,122,122,124,124,126,126,127,127,128,128,129,129,130,130,131,131,132,132,133,133,134,134,135,135,136,136,137,137,138,138,139,139,140,140,141,141,142,142,143,143,146,146,149,149,150,150,153,153,154,154,155,155,157,157,159,159,161,161,162,162,163,163,164,164,165,165,166,166,167,167,168,168,169,169,170,170,174,174,177,177,179,179,181,181,182,182,183,183,184,184,185,185,186,186,187,187,189,189,192,192,194,194,195,195,196,196,197,197,200,200,201,201,202,202,203,203,204,204,205,205,208,208,209,209,211,211,213,213,215,215,218,218],"right_children":[2,4,6,8,10,12,14,16,18,20,22,24,26,28,30,32,34,36,38,40,42,44,46,48,50,52,54,56,58,60,62,64,66,68,70,72,74,76,78,80,82,84,86,88,90,92,94,-1,96,98,100,102,104,106,-1,108,110,112,114,116,118,120,-1,122,124,126,-1,128,130,132,134,136,138,-1,140,142,144,146,148,150,152,154,-1,156,158,160,162,164,166,168,170,172,174,176,-1,178,180,182,184,186,188,190,-1,192,194,196,198,200,202,204,206,208,210,212,214,216,218,-1,220,-1,-1,222,224,-1,226,-1,228,230,232,234,236,238,240,242,244,246,248,250,252,254,256,258,260,262,-1,-1,264,-1,-1,266,268,-1,-1,270,272,274,-1,276,-1,278,-1,280,282,284,286,288,290,292,294,296,298,-1,-1,-1,300,-1,-1,302,-1,304,-1,306,308,310,312,314,316,318,-1,320,-1,-1,322,-1,324,326,328,330,-1,-1,332,334,336,338,340,342,-1,-1,344,346,-1,348,-1,350,-1,352,-1,-1,354,-1,-1,-1,-1,-1,-1,-1,-1,-1,-1,-1,-1,-1,-1,-1,-1,-1,-1,-1,-1,-1,-1,-1,-1,-1,-1,-1,-1,-1,-1,-1,-1,-1,-1,-1,-1,-1,-1,-1,-1,-1,-1,-1,-1,-1,-1,-1,-1,-1,-1,-1,-1,-1,-1,-1,-1,-1,-1,-1,-1,-1,-1,-1,-1,-1,-1,-1,-1,-1,-1,-1,-1,-1,-1,-1,-1,-1,-1,-1,-1,-1,-1,-1,-1,-1,-1,-1,-1,-1,-1,-1,-1,-1,-1,-1,-1,-1,-1,-1,-1,-1,-1,-1,-1,-1,-1,-1,-1,-1,-1,-1,-1,-1,-1,-1,-1,-1,-1,-1,-1,-1,-1,-1,-1,-1,-1,-1,-1,-1,-1,-1,-1,-1,-1,-1,-1],"split_conditions":[1E0,1E0,1E0,2E0,1E0,1E0,1.8848816E0,1.8E1,1.3743526E0,1E0,1.7268612E0,1E0,1E0,1E0,5E1,1.2800153E0,2E0,3.1E1,5E1,2E0,1.0512084E3,1E0,5E1,2.9E1,1.4771643E0,5E1,2.2981129E0,1E0,1E0,1E0,6.084385E3,3.1E1,5E1,2.1E1,1E0,4.192615E3,4E1,4E0,5.1E1,3E0,5.6579836E-2,5E2,5E1,2E0,5.6579836E-2,4.7E1,1.537E3,-9.884067E-3,0E0,4.6E1,5E1,4.1E1,5.1E1,4E0,1.3730442E-3,1.9E1,4.3E1,1.0512084E3,5.1E1,2.1E1,1E0,1.0512084E3,-4.3554783E-2,4.258341E3,4E1,2.2E1,-3.17604E-2,1.2255386E0,3.1E1,1E0,5E0,2.1E1,7.594979E-1,6.0418554E-2,1E0,1.4E1,2.260237E0,5.8E1,6E1,0E0,1.0136192E-2,5.1E1,2.180295E-2,2.1E2,5.6579836E-2,4.1E1,5.1E1,2E0,5.6579836E-2,5.4E1,2E0,3.1E1,2.2E1,5.1E1,-3.4879E-2,1.1399751E0,3E0,1.8E1,3E0,1.8848816E0,5.1E1,1.3943974E0,6.2449615E-2,1.0512084E3,6E1,5E1,1.7268612E0,3.0035852E3,2E0,4.1125923E3,4E0,4.2E1,6.310849E3,2E0,6.436822E3,2.5641296E0,1.6E1,5.2407025E-3,5.9E1,-5.9512172E-2,-5.1019274E-2,2.1E2,8.129265E-1,6.0726892E-2,2E0,8.053882E-3,2.0009313E0,4.1467983E3,1.7780564E0,3E0,1.7268612E0,0E0,5E1,1.2800153E0,2.2717282E2,3.2E1,3E1,1E0,4E0,1.8E1,4.1E1,2.2251093E0,6E0,7.3E1,2.2830093E-2,-5.4026924E-2,8E0,6.132641E-2,-3.5401653E-2,-3.0200025E-1,2.8E1,-1.7775087E-2,-5.0061453E-2,1.39E2,1E0,1.2982421E0,5.6327313E-2,5.1E1,-5.4377224E-3,1.0751854E0,6.1224118E-2,9E0,6E1,5.1E1,5.1E1,1.0512084E3,5.5299023E3,2E0,1.68E2,5.2E1,4.2113545E3,-3.3558168E-2,8.418642E-3,-8.601036E-3,5E0,-5.8581743E-2,-4.6227675E-2,1.0512084E3,4.7072973E-2,2.8E1,1.337168E-2,4.0141558E3,0E0,5E1,4.1264697E3,4.1E1,4.2E1,1.0512084E3,2.2260958E-2,3.0597334E3,2.113133E-2,-5.6246534E-2,6E0,6.1004642E-2,6.1E1,3.3807405E3,1.0512084E3,5.1E1,-4.0682595E-2,-3.321878E-2,4.2777413E-1,2E0,6.0791914E3,2.313907E3,8.129265E-1,1.156766E0,-5.9566546E-2,-5.9566148E-2,8.96602E-1,9.541152E-1,-1.5748743E-2,1E0,-5.9680264E-2,2E0,-4.184068E-2,4.6E1,3.693178E-3,-1.9424612E-2,2.5147738E0,-5.5715505E-2,-3.795218E-2,-3.0551802E-2,-5.580357E-4,-5.3251114E-2,-2.383116E-2,-5.368031E-3,-4.7287393E-2,3.6203004E-2,5.5969E-2,1.0295273E-2,-4.150317E-2,2.3475226E-2,5.3545743E-2,5.0349697E-2,7.334111E-3,-3.7196163E-2,3.265391E-2,3.6880516E-2,5.4593388E-2,4.234697E-2,1.1608966E-2,-1.5900958E-2,2.8322594E-2,-6.0596384E-2,-5.120115E-2,-5.3879984E-2,-2.5663078E-2,6.1903518E-2,-3.583023E-2,-2.2048447E-2,-5.3839438E-2,-9.959178E-3,-5.424274E-2,-3.049613E-2,4.0292196E-2,-4.854091E-2,-1.024472E-2,-2.9853594E-2,3.684531E-2,5.3408884E-2,-1.9622276E-2,-5.3706046E-2,-2.5343208E-2,-9.512012E-3,-4.004002E-2,-3.2429688E-2,1.2300839E-2,3.7606206E-2,5.508101E-3,-2.436856E-2,-4.8977047E-2,-3.0692923E-3,-3.2396678E-2,-3.2405008E-2,4.7423253E-3,-5.039784E-2,-3.503888E-2,-3.8058523E-2,2.5776222E-2,-1.5861098E-2,-3.966517E-2,6.130807E-2,-2.5516298E-2,-2.1760125E-2,1.1060486E-2,-4.643899E-2,-1.8189827E-2,-5.3586233E-2,-3.8493596E-2,-1.070081E-2,-4.9854223E-2,-5.549055E-2,-5.88303E-2,-4.6484645E-2,-5.7641238E-2,-4.395508E-2,-1.1403004E-2,-2.6326703E-2,-5.3215154E-2,4.35316E-2,1.1739721E-2,-3.881506E-3,3.18714E-2,5.309348E-2,3.3605315E-2,-4.1643646E-2,-5.5720236E-2,-3.939978E-2,6.7298237E-4,7.5041126E-3,-1.4175954E-2,-2.65927E-2,-5.151482E-2,2.4367845E-2,5.9790403E-2,3.4851767E-2,5.5046666E-2,-4.328292E-2,-2.4050161E-2,-3.0465955E-2,-5.257134E-2,-3.209882E-2,-5.458431E-2,-4.8645288E-2,-2.8685791E-2,-1.1584853E-2,-4.538924E-2,-5.3349476E-2,-4.2110313E-2,-5.6038763E-2,-4.9091853E-2,-5.7985246E-2,-4.513959E-2,3.3617217E-2,-5.8407197E-3,-4.730822E-2,-3.1550646E-2,-4.0343147E-2,-5.26614E-2,-5.857731E-2,-5.300473E-2,-4.3041937E-2,-1.480739E-2,-5.6393117E-2,-5.018819E-2,-5.5520736E-2,-3.6677245E-2,-5.7673387E-2,-5.9959043E-2,-5.5555046E-2,-5.9535913E-2,-4.8421025E-2,-2.9539673E-2,3.185664E-2,5.3130947E-2],"split_indices":[27,18,17,17,17,18,32,3,32,19,32,19,19,18,4,32,14,4,4,14,22,19,4,3,32,4,32,19,19,18,10,4,4,4,17,11,4,17,4,7,5,22,4,14,5,3,8,0,20,3,4,4,4,13,0,3,3,22,4,4,19,22,0,11,4,4,0,32,20,19,14,4,32,0,19,3,32,3,4,20,5,4,0,22,5,4,4,17,5,3,17,4,4,4,0,32,7,3,7,32,4,32,0,22,4,4,32,9,14,11,17,3,11,17,11,32,3,0,3,0,0,22,32,0,14,0,32,11,32,7,32,20,4,32,22,3,4,19,17,3,4,32,30,3,0,0,12,0,0,32,20,0,0,3,16,32,0,4,0,32,0,12,4,4,4,22,9,17,3,3,11,0,0,0,30,0,0,22,0,20,0,11,2,4,11,4,3,22,0,10,0,0,13,0,4,10,22,4,0,0,32,17,9,9,32,32,0,0,32,32,0,14,0,14,0,3,0,0,32,0,0,0,0,0,0,0,0,0,0,0,0,0,0,0,0,0,0,0,0,0,0,0,0,0,0,0,0,0,0,0,0,0,0,0,0,0,0,0,0,0,0,0,0,0,0,0,0,0,0,0,0,0,0,0,0,0,0,0,0,0,0,0,0,0,0,0,0,0,0,0,0,0,0,0,0,0,0,0,0,0,0,0,0,0,0,0,0,0,0,0,0,0,0,0,0,0,0,0,0,0,0,0,0,0,0,0,0,0,0,0,0,0,0,0,0,0,0,0,0,0,0,0,0,0,0,0,0,0,0,0,0,0,0,0,0],"split_type":[0,0,0,0,0,0,0,0,0,0,0,0,0,0,0,0,0,0,0,0,0,0,0,0,0,0,0,0,0,0,0,0,0,0,0,0,0,0,0,0,0,0,0,0,0,0,0,0,0,0,0,0,0,0,0,0,0,0,0,0,0,0,0,0,0,0,0,0,0,0,0,0,0,0,0,0,0,0,0,0,0,0,0,0,0,0,0,0,0,0,0,0,0,0,0,0,0,0,0,0,0,0,0,0,0,0,0,0,0,0,0,0,0,0,0,0,0,0,0,0,0,0,0,0,0,0,0,0,0,0,0,0,0,0,0,0,0,0,0,0,0,0,0,0,0,0,0,0,0,0,0,0,0,0,0,0,0,0,0,0,0,0,0,0,0,0,0,0,0,0,0,0,0,0,0,0,0,0,0,0,0,0,0,0,0,0,0,0,0,0,0,0,0,0,0,0,0,0,0,0,0,0,0,0,0,0,0,0,0,0,0,0,0,0,0,0,0,0,0,0,0,0,0,0,0,0,0,0,0,0,0,0,0,0,0,0,0,0,0,0,0,0,0,0,0,0,0,0,0,0,0,0,0,0,0,0,0,0,0,0,0,0,0,0,0,0,0,0,0,0,0,0,0,0,0,0,0,0,0,0,0,0,0,0,0,0,0,0,0,0,0,0,0,0,0,0,0,0,0,0,0,0,0,0,0,0,0,0,0,0,0,0,0,0,0,0,0,0,0,0,0,0,0,0,0,0,0,0,0,0,0,0,0,0,0,0,0,0,0,0,0,0,0,0,0,0,0,0,0,0,0,0,0,0,0],"sum_hessian":[2.8462006E5,1.899264E5,9.4693664E4,1.5032966E5,3.9596758E4,2.3934102E4,7.075956E4,1.1845894E5,3.1870715E4,1.3902159E4,2.5694598E4,1.45302E4,9.403901E3,6.7006414E4,3.7531506E3,4.4088022E3,1.1405013E5,2.3859826E4,8.0108877E3,6.5494155E3,7.3527437E3,2.40758E4,1.618797E3,2.5315361E3,1.1998664E4,2.979776E3,6.4241255E3,3.4929406E4,3.2077008E4,2.8866396E3,8.665111E2,3.312714E3,1.0960881E3,1.08494516E5,5.555617E3,1.0663033E4,1.3196793E4,7.3497646E3,6.611229E2,5.5634863E3,9.859293E2,4.470411E3,2.8823323E3,6.8009043E3,1.7274896E4,1.00391534E3,6.1488165E2,1.0543744E2,2.4260986E3,9.79907E3,2.1995935E3,8.497966E2,2.1299792E3,6.2946777E3,1.2944797E2,2.0951296E3,3.2834277E4,6.881573E3,2.5195434E4,2.3596738E3,5.269657E2,7.128876E2,1.536235E2,1.2234033E3,2.0893108E3,9.616214E2,1.3446677E2,2.4406792E3,1.06053836E5,2.645375E3,2.9102422E3,2.275447E3,8.387587E3,1.4898756E3,1.1706918E4,6.826846E3,5.229186E2,4.21399E2,2.3972395E2,5.332621E3,2.308649E2,8.272041E2,1.5872522E2,2.5129878E3,1.9574236E3,8.569851E2,2.025347E3,4.362328E3,2.4385764E3,1.5611372E4,1.6635236E3,2.6309265E2,7.408227E2,4.2198734E2,1.9289427E2,3.4065506E2,2.0854436E3,1.5567423E3,8.242328E3,1.7606742E3,4.3891937E2,6.911066E2,1.5868996E2,1.3417262E3,7.8825305E2,1.6171442E3,4.6775337E3,3.9114447E2,1.7039851E3,1.5951104E4,1.6883174E4,5.88399E3,9.975832E2,2.2061883E4,3.1335518E3,3.3808838E2,2.0215856E3,1.254601E2,4.015056E2,6.117234E2,1.0116421E2,3.65665E2,8.5773834E2,1.5021234E2,1.9390985E3,1.0793367E2,8.5368774E2,1.420867E3,1.01981226E3,1.0533103E5,7.228063E2,9.3838257E2,1.7069923E3,2.4169238E3,4.9331848E2,9.767761E2,1.2986708E3,6.7353823E3,1.6522042E3,1.6572045E3,1.0049713E4,4.2351178E2,6.4033345E3,3.7176007E2,1.5115851E2,2.096793E2,2.1171968E2,1.3024419E2,1.09479774E2,9.8725256E2,4.3453687E3,1.0619391E2,1.2467099E2,3.490541E2,4.7815E2,2.2962625E3,2.1672528E2,1.8326997E3,1.2472385E2,5.6752527E2,2.8945984E2,1.3419839E3,6.833632E2,2.112688E3,2.24964E3,2.1601655E3,2.78411E2,6.7530493E3,8.858322E3,6.8403894E2,9.7948456E2,1.5040936E2,1.126833E2,1.0168828E2,6.3913446E2,2.8806992E2,1.3391743E2,2.3321805E2,1.07437004E2,1.984497E3,1.0094668E2,7.682133E2,7.88529E2,7.662352E3,5.7997614E2,5.104022E2,1.250272E3,2.6820215E2,1.7071724E2,5.541585E2,1.3694809E2,7.69855E2,5.718712E2,1.6690662E2,6.2134644E2,2.0988165E2,1.4072625E3,4.515864E3,1.6166995E2,1.0041174E2,2.9073273E2,1.5015858E3,2.0239934E2,2.9203464E3,1.3030757E4,1.2857287E4,4.0258862E3,2.0020287E3,3.8819617E3,8.936762E2,1.03906975E2,9.103642E3,1.2958241E4,3.0104148E3,1.2313692E2,2.3712492E2,1.00963455E2,1.9013367E2,1.8314519E3,2.1461354E2,1.8689209E2,1.6421422E2,2.0145079E2,7.190726E2,1.3866574E2,1.6499128E3,2.8918567E2,3.1684195E2,5.3684576E2,3.6751205E2,1.0533549E3,2.653238E2,7.5448846E2,1.03281875E5,2.049155E3,6.213746E2,1.0143172E2,1.3123273E2,8.0714984E2,5.756557E2,1.1313367E3,1.9045225E3,5.124013E2,3.788648E2,1.1445365E2,3.621018E2,6.146743E2,5.371906E2,7.614801E2,2.915718E2,6.4438105E3,1.2118333E3,4.4037094E2,1.3994583E2,1.5172587E3,2.1597185E3,7.8899946E3,2.7135565E2,1.5215614E2,6.273609E3,1.2972536E2,1.2192217E2,2.498379E2,1.0923807E2,1.0248161E2,2.366837E2,7.5056885E2,3.65628E3,6.890886E2,1.4567093E2,2.0338316E2,3.064422E2,1.7170778E2,1.9623711E3,3.3389142E2,1.4360824E3,3.9661728E2,3.8209503E2,1.8543024E2,6.5178326E2,6.902006E2,2.4673582E2,4.366274E2,1.5859076E3,5.2678046E2,1.8855719E3,3.6406796E2,1.8941405E3,2.6602496E2,1.2322516E2,1.5518585E2,2.4179712E3,4.335078E3,5.4937983E3,3.364524E3,2.2712201E2,4.5691693E2,1.986718E2,7.8081274E2,5.014711E2,1.3766333E2,1.0373524E2,1.2948282E2,1.7430558E3,2.4144127E2,1.9362534E2,5.7458795E2,6.078032E2,1.8072575E2,3.5271423E3,4.13521E3,1.1469791E2,4.6527823E2,3.690127E2,1.413895E2,1.0467642E2,1.1455956E3,1.3247441E2,1.3572772E2,1.00193504E2,4.5396503E2,3.3455286E2,2.3731836E2,4.6994485E2,1.514016E2,1.0769564E2,1.02186005E2,8.935587E2,5.137038E2,3.9802441E3,5.3561945E2,1.9032214E2,1.00410576E2,8.4094684E2,6.606389E2,1.0194806E2,1.0045127E2,8.155861E2,2.1047605E3,1.0563067E4,2.4676892E3,1.1188711E4,1.668577E3,3.215068E3,6.668934E2,7.4106683E2,1.5260942E2,5.628186E3,3.4754558E3,1.7323732E3,1.2780416E3,1.2666881E2,1.10456116E2,9.3934436E2,8.921075E2],"tree_param":{"num_deleted":"0","num_feature":"33","num_nodes":"355","size_leaf_vector":"1"}},{"base_weights":[-6.4638414E-4,6.379191E-1,-1.2823061E0,1.055873E0,-9.4881034E-1,-9.1748446E-1,-1.7298223E0,-2.5485548E-1,1.2701625E0,-2.6116666E-1,-1.3218167E0,8.24095E-1,-1.10912E0,-1.7426946E0,-5.3500164E-1,-6.717262E-1,1.1783882E0,-7.3125964E-1,1.3399413E0,7.628923E-2,-1.2507234E0,-1.3832841E0,9.4834514E-2,-1.296378E0,1.0470619E0,-1.2719016E0,3.8625002E-1,-1.7793303E0,-1.4189469E0,1.7728722E-2,-1.2326291E0,-1.2927265E0,-2.1640573E-1,1.3033715E0,-7.5417966E-1,-1.0223575E0,8.4304637E-1,1.0695041E0,1.6473216E0,-1.3366278E0,3.05419E-1,-1.3783642E0,-3.783915E-1,-1.5141857E0,-8.6215216E-1,3.404622E-1,-5.261163E-2,-1.6309948E0,-3.4334639E-3,-1.0564665E0,1.1638768E0,-1.6790389E0,-9.239617E-1,6.2765515E-1,-1.698725E0,-1.6417382E0,-1.8208811E0,-8.738132E-1,-1.6222961E0,-2.6805058E-2,-5.0328124E-2,-6.69637E-2,-1.3947941E0,1.2507153E0,-4.324399E-1,8.126477E-1,1.6366553E0,-8.064991E-3,-4.779396E-2,4.3470708E-1,-1.2252394E0,2.40097E-1,1.2614692E0,1.2108445E0,-1.9904058E-1,1.6891334E0,1.0302526E0,-1.6954376E0,-9.359675E-1,-1.4404178E0,4.269595E-1,-1.499813E0,-8.1138605E-1,-4.9777955E-2,-1.8031064E-2,-1.5844865E0,-9.008551E-1,-1.5835409E0,-6.273173E-1,6.821083E-1,-8.4021944E-1,-4.2264935E-2,-5.4922562E-2,-4.7710467E-2,-1.07857855E-2,1.2550895E0,-2.576923E-1,-1.4269646E0,-1.7435045E0,-1.3472953E0,-5.514908E-1,-1.2346135E0,8.544381E-1,-4.408641E-2,-5.7858013E-2,-1.7569973E0,-1.5076778E0,-5.7851624E-2,-1.7848134E0,-1.4591156E0,-6.6973215E-1,-1.4200938E0,-1.7344925E0,-4.075292E-1,2.5769444E-2,-1.7350147E0,-1.260843E0,1.3528882E0,9.824872E-3,-1.2433336E-1,-1.1890293E0,-8.6527355E-2,1.1685815E0,1.2806275E0,1.7197646E0,1.04717344E-1,3.7401926E-2,-1.366622E0,-6.4597845E-1,-6.445247E-3,1.8331842E-2,9.363818E-1,4.9279515E-2,1.7414254E0,1.0442858E0,1.2071253E0,-4.0941668E-1,1.5460724E0,1.8176792E0,1.1666654E0,-5.668927E-1,-1.7547915E0,-3.9881118E-2,-1.1253624E0,5.1591154E-3,-1.5971881E0,-2.0956729E-2,1.9672057E-1,1.2506975E0,-1.7760987E0,-1.3926473E0,-5.214976E-2,-5.523007E-1,1.8973235E-2,-1.7887576E-2,-1.7942426E0,-1.473459E0,2.824878E-1,-1.1242082E0,-1.663153E0,-3.5588596E-2,-1.4832481E0,-3.8488874E-1,-1.5705744E-2,9.3037564E-1,-3.807226E-2,-1.39465025E-2,1.0151061E0,1.6730533E0,-2.3513865E-2,1.1194253E-2,-1.6651814E0,-1.2361503E0,-1.7974663E0,-1.5162534E0,-1.6889473E0,-1.1108456E0,6.210689E-2,-6.8141514E-1,-1.4543653E0,-1.6714364E-2,1.0482763E0,-6.072502E-1,-1.796169E0,-1.4591702E0,-1.8157917E0,-1.4021214E0,-1.7505227E0,-1.8452328E0,-3.165182E-2,-5.193253E-2,-3.5951084E-1,-1.1619978E0,-1.7023078E0,-1.2600222E0,-5.78416E-2,-1.6639383E0,-3.0453138E-3,-3.738086E-2,-5.4712497E-2,-3.8141146E-2,-3.3667877E-2,-4.881377E-2,4.4864494E-2,1.5138013E-2,-1.6848272E-2,1.2871455E-2,-4.2407025E-2,-1.0885552E-2,-2.1135343E-2,1.6472317E-2,3.9225657E-2,3.3144571E-3,3.0397654E-2,5.1214486E-2,5.434499E-2,4.029194E-2,2.0380264E-2,-1.8428544E-2,-2.253653E-2,-4.6957776E-2,-1.2604869E-2,-4.1006852E-2,3.488922E-2,2.2702292E-2,5.4992016E-2,3.843769E-2,3.4914397E-2,-7.908074E-3,4.226737E-2,4.250813E-3,-2.0752814E-2,1.1277125E-2,4.940599E-2,2.3629598E-2,5.690045E-2,5.0110973E-2,3.8976755E-2,-6.587849E-3,-4.0916298E-3,-4.2550053E-2,-5.7144508E-2,-4.841587E-2,-4.4280745E-2,-9.4783865E-3,-3.1689283E-2,-5.6292634E-2,2.1504287E-2,-9.5045725E-3,3.0545322E-2,4.9453177E-2,-4.8769034E-2,-5.63036E-2,-4.0522754E-2,-5.811283E-2,-3.2898244E-2,3.2232255E-3,-5.72658E-2,-5.368892E-2,-4.2591836E-2,-5.612365E-2,2.1882249E-2,-1.979435E-2,1.8402033E-3,-3.9826892E-2,-5.3825945E-2,-3.1182464E-2,-2.2887902E-2,-4.9158957E-2,-3.7097475E-3,-3.3401135E-2,3.8938727E-2,1.1340067E-2,5.2050794E-3,3.7613302E-2,4.8701826E-2,5.7186007E-2,-4.6960957E-2,-5.550561E-2,-4.5366455E-2,-1.7602054E-2,-5.7009812E-2,-5.264263E-2,-5.003697E-2,-3.0407682E-2,-4.111938E-2,-5.422872E-2,6.1945684E-2,-3.7359934E-2,-3.1360842E-2,-3.0969412E-4,-5.344066E-2,-3.6814697E-2,-2.340139E-2,3.59438E-2,-8.863745E-3,-4.6989586E-2,-5.7968065E-2,-5.4724574E-2,-5.0212365E-2,-2.8296437E-2,-5.750043E-2,-4.4661943E-2,-3.658643E-2,-4.9264472E-2,-5.4643985E-2,-4.459104E-2,-5.736033E-2,-4.9937382E-2,-3.0556307E-3,-3.3526573E-2,-2.675153E-2,-5.2172475E-2,-4.781452E-2,-5.675563E-2,-3.2858714E-2,-5.3831454E-2,-5.4132774E-2,-4.6511866E-2],"categories":[],"categories_nodes":[],"categories_segments":[],"categories_sizes":[],"default_left":[0,0,0,0,0,0,0,0,0,0,0,0,0,0,0,0,0,0,0,0,0,0,0,0,0,0,0,0,0,0,0,0,0,0,0,0,0,0,0,0,0,0,0,0,0,0,0,0,0,0,0,0,0,0,0,0,0,0,0,0,0,0,0,0,0,0,0,0,0,0,0,0,0,0,0,0,0,0,0,0,0,0,0,0,0,0,0,0,0,0,0,0,0,0,0,0,0,0,0,0,0,0,0,0,0,0,0,0,0,0,0,0,0,0,0,0,0,0,0,0,0,0,0,0,0,0,0,0,0,0,0,0,0,0,0,0,0,0,0,0,0,0,0,0,0,0,0,0,0,0,0,0,0,0,0,0,0,0,0,0,0,0,0,0,0,0,0,0,0,0,0,0,0,0,0,0,0,0,0,0,0,0,0,0,0,0,0,0,0,0,0,0,0,0,0,0,0,0,0,0,0,0,0,0,0,0,0,0,0,0,0,0,0,0,0,0,0,0,0,0,0,0,0,0,0,0,0,0,0,0,0,0,0,0,0,0,0,0,0,0,0,0,0,0,0,0,0,0,0,0,0,0,0,0,0,0,0,0,0,0,0,0,0,0,0,0,0,0,0,0,0,0,0,0,0,0,0,0,0,0,0,0,0,0,0,0,0,0,0,0,0,0,0,0,0,0,0,0,0,0,0,0,0,0,0,0,0,0,0,0,0,0,0,0,0,0,0,0,0],"id":2,"left_children":[1,3,5,7,9,11,13,15,17,19,21,23,25,27,29,31,33,35,37,39,41,43,45,47,49,51,53,55,57,-1,59,61,63,65,67,69,71,73,75,77,79,81,83,85,87,89,-1,91,-1,93,95,97,99,101,103,105,107,109,111,-1,-1,113,115,117,119,121,123,-1,-1,125,127,129,131,133,135,137,139,141,143,145,147,149,151,-1,153,155,157,159,161,163,165,-1,-1,-1,-1,167,169,171,173,175,177,179,181,-1,-1,183,185,-1,187,189,191,193,195,197,-1,199,201,203,-1,205,207,209,211,213,215,217,-1,219,221,-1,-1,223,-1,225,227,229,231,233,235,237,239,241,-1,243,-1,245,-1,247,249,251,253,-1,255,-1,-1,257,259,261,263,265,-1,267,269,-1,271,-1,-1,273,275,-1,-1,277,279,281,283,285,287,-1,289,291,-1,293,295,297,299,301,303,305,307,-1,-1,309,311,313,315,-1,317,-1,-1,-1,-1,-1,-1,-1,-1,-1,-1,-1,-1,-1,-1,-1,-1,-1,-1,-1,-1,-1,-1,-1,-1,-1,-1,-1,-1,-1,-1,-1,-1,-1,-1,-1,-1,-1,-1,-1,-1,-1,-1,-1,-1,-1,-1,-1,-1,-1,-1,-1,-1,-1,-1,-1,-1,-1,-1,-1,-1,-1,-1,-1,-1,-1,-1,-1,-1,-1,-1,-1,-1,-1,-1,-1,-1,-1,-1,-1,-1,-1,-1,-1,-1,-1,-1,-1,-1,-1,-1,-1,-1,-1,-1,-1,-1,-1,-1,-1,-1,-1,-1,-1,-1,-1,-1,-1,-1,-1,-1,-1,-1,-1,-1,-1,-1,-1,-1,-1,-1,-1,-1],"loss_changes":[2.3254647E5,1.2577257E5,1.5423875E4,4.2163062E4,1.0140691E4,1.7375062E4,6.505469E2,1.2603359E4,1.8019516E4,4.644682E3,2.2329258E3,2.4411565E3,1.1416672E4,4.938047E2,3.517254E2,4.6195913E3,1.1492642E3,1.9930925E3,1.0360484E4,3.3574387E3,3.9242285E2,1.6734844E3,4.69367E2,1.938385E2,1.1489062E3,5.988508E3,2.318045E3,2.1085156E2,4.7111328E2,0E0,3.7500732E1,8.639844E2,2.9890015E3,7.276631E2,1.1117749E2,1.0856433E3,1.7015805E2,1.1892594E4,1.5023125E3,2.0512671E2,1.893908E3,2.1002979E2,1.9967075E2,8.4390234E2,8.3399585E2,3.7929852E2,0E0,1.0427246E1,0E0,8.263968E1,5.7463965E2,3.1259375E2,3.5946387E3,1.7440664E3,1.7860474E1,1.310586E2,4.2148438E1,1.3699646E2,6.653711E1,0E0,0E0,1.6310399E2,2.8709668E2,1.1421069E2,1.9155527E3,5.794315E2,7.492676E1,0E0,0E0,1.1355188E2,2.6194043E2,4.4335682E1,3.991394E1,5.270578E3,1.9671936E3,1.000375E3,8.0839233E2,1.4705566E1,1.4400885E2,6.739014E1,1.5817457E3,7.1104004E1,1.2138919E2,0E0,1.24233376E2,4.0590234E2,5.351852E2,3.8669678E1,7.7154944E2,2.1589377E2,3.0538162E1,0E0,0E0,0E0,0E0,4.141294E2,8.331854E1,1.772124E2,1.8584766E2,8.589844E2,4.0289387E3,6.6722534E1,1.0436067E3,0E0,0E0,5.0603516E1,1.27833984E2,0E0,2.8425781E1,2.5294067E1,1.3100006E2,4.684668E1,1.3617676E1,9.487621E1,0E0,2.3476074E1,2.4830762E2,8.725525E1,0E0,1.3218042E3,3.5525293E2,1.8926434E2,1.323219E2,5.368091E1,2.6270996E1,1.2254531E2,0E0,2.4300146E2,1.0141098E2,0E0,0E0,6.121216E0,0E0,2.2871484E2,4.839535E3,1.4381482E2,1.1635381E3,9.6421484E2,9.846875E1,4.2773682E2,1.0138575E2,6.7214355E0,0E0,1.4434802E2,0E0,5.7173218E1,0E0,1.6322335E3,1.6376294E2,1.1867676E0,7.154077E1,0E0,1.4206084E2,0E0,0E0,1.51484375E1,3.8242773E2,1.2585684E2,3.2398853E2,4.5961426E1,0E0,6.0407227E1,5.328767E2,0E0,1.097843E2,0E0,0E0,4.4335986E2,2.1921875E1,0E0,0E0,2.8868652E1,3.3425317E2,4.6820312E1,1.5346826E2,9.1618164E1,1.852835E3,0E0,2.5600962E3,2.090863E1,0E0,6.52761E2,1.2456117E2,4.3271484E0,4.580371E1,1.0784912E1,1.224458E2,3.5134766E1,2.2480469E0,0E0,0E0,9.972295E1,4.923758E1,3.7178955E0,6.5195435E1,0E0,1.3378174E1,0E0,0E0,0E0,0E0,0E0,0E0,0E0,0E0,0E0,0E0,0E0,0E0,0E0,0E0,0E0,0E0,0E0,0E0,0E0,0E0,0E0,0E0,0E0,0E0,0E0,0E0,0E0,0E0,0E0,0E0,0E0,0E0,0E0,0E0,0E0,0E0,0E0,0E0,0E0,0E0,0E0,0E0,0E0,0E0,0E0,0E0,0E0,0E0,0E0,0E0,0E0,0E0,0E0,0E0,0E0,0E0,0E0,0E0,0E0,0E0,0E0,0E0,0E0,0E0,0E0,0E0,0E0,0E0,0E0,0E0,0E0,0E0,0E0,0E0,0E0,0E0,0E0,0E0,0E0,0E0,0E0,0E0,0E0,0E0,0E0,0E0,0E0,0E0,0E0,0E0,0E0,0E0,0E0,0E0,0E0,0E0,0E0,0E0,0E0,0E0,0E0,0E0,0E0,0E0,0E0,0E0,0E0,0E0,0E0,0E0,0E0,0E0,0E0,0E0,0E0,0E0,0E0,0E0,0E0,0E0,0E0,0E0],"parents":[2147483647,0,0,1,1,2,2,3,3,4,4,5,5,6,6,7,7,8,8,9,9,10,10,11,11,12,12,13,13,14,14,15,15,16,16,17,17,18,18,19,19,20,20,21,21,22,22,23,23,24,24,25,25,26,26,27,27,28,28,30,30,31,31,32,32,33,33,34,34,35,35,36,36,37,37,38,38,39,39,40,40,41,41,42,42,43,43,44,44,45,45,47,47,49,49,50,50,51,51,52,52,53,53,54,54,55,55,56,56,57,57,58,58,61,61,62,62,63,63,64,64,65,65,66,66,69,69,70,70,71,71,72,72,73,73,74,74,75,75,76,76,77,77,78,78,79,79,80,80,81,81,82,82,84,84,85,85,86,86,87,87,88,88,89,89,90,90,95,95,96,96,97,97,98,98,99,99,100,100,101,101,102,102,105,105,106,106,108,108,109,109,110,110,111,111,112,112,113,113,115,115,116,116,117,117,119,119,120,120,121,121,122,122,123,123,124,124,125,125,127,127,128,128,131,131,133,133,134,134,135,135,136,136,137,137,138,138,139,139,140,140,141,141,143,143,145,145,147,147,148,148,149,149,150,150,152,152,155,155,156,156,157,157,158,158,159,159,161,161,162,162,164,164,167,167,168,168,171,171,172,172,173,173,174,174,175,175,176,176,178,178,179,179,181,181,182,182,183,183,184,184,185,185,186,186,187,187,188,188,191,191,192,192,193,193,194,194,196,196],"right_children":[2,4,6,8,10,12,14,16,18,20,22,24,26,28,30,32,34,36,38,40,42,44,46,48,50,52,54,56,58,-1,60,62,64,66,68,70,72,74,76,78,80,82,84,86,88,90,-1,92,-1,94,96,98,100,102,104,106,108,110,112,-1,-1,114,116,118,120,122,124,-1,-1,126,128,130,132,134,136,138,140,142,144,146,148,150,152,-1,154,156,158,160,162,164,166,-1,-1,-1,-1,168,170,172,174,176,178,180,182,-1,-1,184,186,-1,188,190,192,194,196,198,-1,200,202,204,-1,206,208,210,212,214,216,218,-1,220,222,-1,-1,224,-1,226,228,230,232,234,236,238,240,242,-1,244,-1,246,-1,248,250,252,254,-1,256,-1,-1,258,260,262,264,266,-1,268,270,-1,272,-1,-1,274,276,-1,-1,278,280,282,284,286,288,-1,290,292,-1,294,296,298,300,302,304,306,308,-1,-1,310,312,314,316,-1,318,-1,-1,-1,-1,-1,-1,-1,-1,-1,-1,-1,-1,-1,-1,-1,-1,-1,-1,-1,-1,-1,-1,-1,-1,-1,-1,-1,-1,-1,-1,-1,-1,-1,-1,-1,-1,-1,-1,-1,-1,-1,-1,-1,-1,-1,-1,-1,-1,-1,-1,-1,-1,-1,-1,-1,-1,-1,-1,-1,-1,-1,-1,-1,-1,-1,-1,-1,-1,-1,-1,-1,-1,-1,-1,-1,-1,-1,-1,-1,-1,-1,-1,-1,-1,-1,-1,-1,-1,-1,-1,-1,-1,-1,-1,-1,-1,-1,-1,-1,-1,-1,-1,-1,-1,-1,-1,-1,-1,-1,-1,-1,-1,-1,-1,-1,-1,-1,-1,-1,-1,-1,-1],"split_conditions":[1E0,1E0,1E0,3.8E1,1E0,1E0,2.4559407E0,1.4302349E0,1.18339725E-1,2E0,1.9843163E0,1.9E1,1.6428838E0,2.42E2,1E0,1.4E1,6E0,1.5112687E0,7.960144E-1,4.1E1,5.6579836E-2,1.0512084E3,6E0,1.0805085E0,1.18339725E-1,5.1E1,6E0,1E0,1E0,1.7728722E-2,4.4133472E0,1E0,1E0,2.0455337E0,3.8318647E3,1E0,1.9843163E0,1.1E1,6E0,1.9E1,1.18339725E-1,1.0512084E3,4.7E1,5.6579836E-2,6.5E1,1E0,-5.261163E-2,3.9593337E3,-3.4334639E-3,5.072388E-1,2E0,4.1624395E3,6.0497296E-1,1.8E1,3.2156125E-1,1.26E2,5.4E1,1.0512084E3,5E0,-2.6805058E-2,-5.0328124E-2,1.0512084E3,4.0666646E-1,2E0,1.1E1,1.4E1,1.2E1,-8.064991E-3,-4.779396E-2,2.09E2,7.960144E-1,1.24E2,2.4999626E0,1E0,1E0,1.6895009E0,2.1342981E1,1.2092354E0,4.755512E-2,1.1113187E0,1.279179E0,2.0502266E-1,1E0,-4.9777955E-2,5.357413E3,4.8E1,3.263295E3,2.68E2,1E0,4.5E1,6.0497296E-1,-4.2264935E-2,-5.4922562E-2,-4.7710467E-2,-1.07857855E-2,1.0347968E0,5.609033E3,1.5E1,7.699673E-1,2.0502266E-1,7E-1,2.3695047E0,1E0,-4.408641E-2,-5.7858013E-2,2.1E2,4.6E1,-5.7851624E-2,1E0,3.2156125E-1,4.841183E3,1.0512084E3,1.0512084E3,5E2,2.5769444E-2,2.35E2,1.1E1,1.3E1,9.824872E-3,0E0,8.4962946E-1,1.44E2,8.209088E-1,2.7045524E0,1E0,4.6507335E-1,3.7401926E-2,4E0,6.928394E-1,-6.445247E-3,1.8331842E-2,3.9737216E-1,4.9279515E-2,2E0,2E0,1E0,1.0512084E3,8.3910376E-1,1E0,8.2566655E-1,5.568533E-1,5E0,-3.9881118E-2,5.126831E2,5.1591154E-3,4E0,-2.0956729E-2,5E0,2.0455337E0,3.1609776E0,5E0,-5.214976E-2,6.9435747E3,1.8973235E-2,-1.7887576E-2,8.714022E-2,2E0,7.007144E0,6.1260325E-1,3.9117843E-2,-3.5588596E-2,3.797869E3,7.196211E-1,-1.5705744E-2,1.34E2,-3.807226E-2,-1.39465025E-2,1.14E2,2.1090066E0,-2.3513865E-2,1.1194253E-2,4.092287E-1,0E0,3.3E1,4.2E1,4.1374053E3,3E-1,6.210689E-2,1.0512084E3,6.0497296E-1,-1.6714364E-2,1.18339725E-1,3E0,2.0502266E-1,5.621099E3,1.297516E0,4.4947284E-1,1.7390733E0,2.31E2,-3.165182E-2,-5.193253E-2,7E0,7.1154966E3,4.8412183E-1,5.003067E3,-5.78416E-2,8.0206174E-1,-3.0453138E-3,-3.738086E-2,-5.4712497E-2,-3.8141146E-2,-3.3667877E-2,-4.881377E-2,4.4864494E-2,1.5138013E-2,-1.6848272E-2,1.2871455E-2,-4.2407025E-2,-1.0885552E-2,-2.1135343E-2,1.6472317E-2,3.9225657E-2,3.3144571E-3,3.0397654E-2,5.1214486E-2,5.434499E-2,4.029194E-2,2.0380264E-2,-1.8428544E-2,-2.253653E-2,-4.6957776E-2,-1.2604869E-2,-4.1006852E-2,3.488922E-2,2.2702292E-2,5.4992016E-2,3.843769E-2,3.4914397E-2,-7.908074E-3,4.226737E-2,4.250813E-3,-2.0752814E-2,1.1277125E-2,4.940599E-2,2.3629598E-2,5.690045E-2,5.0110973E-2,3.8976755E-2,-6.587849E-3,-4.0916298E-3,-4.2550053E-2,-5.7144508E-2,-4.841587E-2,-4.4280745E-2,-9.4783865E-3,-3.1689283E-2,-5.6292634E-2,2.1504287E-2,-9.5045725E-3,3.0545322E-2,4.9453177E-2,-4.8769034E-2,-5.63036E-2,-4.0522754E-2,-5.811283E-2,-3.2898244E-2,3.2232255E-3,-5.72658E-2,-5.368892E-2,-4.2591836E-2,-5.612365E-2,2.1882249E-2,-1.979435E-2,1.8402033E-3,-3.9826892E-2,-5.3825945E-2,-3.1182464E-2,-2.2887902E-2,-4.9158957E-2,-3.7097475E-3,-3.3401135E-2,3.8938727E-2,1.1340067E-2,5.2050794E-3,3.7613302E-2,4.8701826E-2,5.7186007E-2,-4.6960957E-2,-5.550561E-2,-4.5366455E-2,-1.7602054E-2,-5.7009812E-2,-5.264263E-2,-5.003697E-2,-3.0407682E-2,-4.111938E-2,-5.422872E-2,6.1945684E-2,-3.7359934E-2,-3.1360842E-2,-3.0969412E-4,-5.344066E-2,-3.6814697E-2,-2.340139E-2,3.59438E-2,-8.863745E-3,-4.6989586E-2,-5.7968065E-2,-5.4724574E-2,-5.0212365E-2,-2.8296437E-2,-5.750043E-2,-4.4661943E-2,-3.658643E-2,-4.9264472E-2,-5.4643985E-2,-4.459104E-2,-5.736033E-2,-4.9937382E-2,-3.0556307E-3,-3.3526573E-2,-2.675153E-2,-5.2172475E-2,-4.781452E-2,-5.675563E-2,-3.2858714E-2,-5.3831454E-2,-5.4132774E-2,-4.6511866E-2],"split_indices":[27,18,18,3,19,19,31,31,0,14,31,3,31,15,19,3,30,31,31,3,5,22,30,31,0,3,30,19,19,0,25,19,19,31,11,19,31,13,30,3,0,22,3,5,3,14,0,9,0,31,14,11,0,3,1,15,3,22,13,0,0,22,0,14,13,3,3,0,0,15,31,15,31,19,19,31,6,31,5,31,31,0,26,0,9,3,10,15,26,3,0,0,0,0,0,31,10,3,31,0,0,31,14,0,0,22,3,0,14,1,10,22,22,22,0,15,13,13,0,2,31,15,1,31,14,1,0,13,1,0,0,1,0,14,14,14,22,1,14,1,1,30,0,22,0,13,0,13,31,25,14,0,9,0,0,31,14,25,5,5,0,11,1,0,3,0,0,15,31,0,0,1,2,3,3,11,0,0,22,0,0,0,14,0,11,31,1,31,15,0,0,13,9,1,10,0,0,0,0,0,0,0,0,0,0,0,0,0,0,0,0,0,0,0,0,0,0,0,0,0,0,0,0,0,0,0,0,0,0,0,0,0,0,0,0,0,0,0,0,0,0,0,0,0,0,0,0,0,0,0,0,0,0,0,0,0,0,0,0,0,0,0,0,0,0,0,0,0,0,0,0,0,0,0,0,0,0,0,0,0,0,0,0,0,0,0,0,0,0,0,0,0,0,0,0,0,0,0,0,0,0,0,0,0,0,0,0,0,0,0,0,0,0,0,0,0,0,0,0],"split_type":[0,0,0,0,0,0,0,0,0,0,0,0,0,0,0,0,0,0,0,0,0,0,0,0,0,0,0,0,0,0,0,0,0,0,0,0,0,0,0,0,0,0,0,0,0,0,0,0,0,0,0,0,0,0,0,0,0,0,0,0,0,0,0,0,0,0,0,0,0,0,0,0,0,0,0,0,0,0,0,0,0,0,0,0,0,0,0,0,0,0,0,0,0,0,0,0,0,0,0,0,0,0,0,0,0,0,0,0,0,0,0,0,0,0,0,0,0,0,0,0,0,0,0,0,0,0,0,0,0,0,0,0,0,0,0,0,0,0,0,0,0,0,0,0,0,0,0,0,0,0,0,0,0,0,0,0,0,0,0,0,0,0,0,0,0,0,0,0,0,0,0,0,0,0,0,0,0,0,0,0,0,0,0,0,0,0,0,0,0,0,0,0,0,0,0,0,0,0,0,0,0,0,0,0,0,0,0,0,0,0,0,0,0,0,0,0,0,0,0,0,0,0,0,0,0,0,0,0,0,0,0,0,0,0,0,0,0,0,0,0,0,0,0,0,0,0,0,0,0,0,0,0,0,0,0,0,0,0,0,0,0,0,0,0,0,0,0,0,0,0,0,0,0,0,0,0,0,0,0,0,0,0,0,0,0,0,0,0,0,0,0,0,0,0,0,0,0,0,0,0,0,0,0,0,0,0,0,0,0,0,0,0,0,0,0,0,0,0,0],"sum_hessian":[2.8413712E5,1.8964819E5,9.448893E4,1.5010919E5,3.9538996E4,5.2056168E4,4.2432758E4,2.1092385E4,1.29016805E5,1.3906031E4,2.5632965E4,5.1596333E3,4.6896535E4,4.1979617E4,4.5314362E2,1.6340496E4,4.751888E3,4.3460234E3,1.2467078E5,1.0370075E4,3.5359565E3,2.4567383E4,1.0655818E3,4.9024265E2,4.6693906E3,4.2293113E4,4.603422E3,3.7706652E4,4.272963E3,1.7497758E2,2.7816602E2,6.9113467E3,9.429149E3,4.4637896E3,2.880986E2,3.6683867E3,6.776365E2,6.6324086E4,5.834669E4,1.446052E3,8.924022E3,3.0836057E3,4.523507E2,1.9632969E4,4.9344146E3,9.38087E2,1.2749479E2,3.8171436E2,1.0852828E2,2.4501352E2,4.4243774E3,1.9486262E4,2.2806852E4,4.1265728E3,4.7684906E2,8.757952E3,2.8948701E4,1.1629935E3,3.1099695E3,1.4559561E2,1.3257042E2,5.317647E2,6.3795815E3,1.2093263E3,8.219823E3,1.807452E3,2.6563374E3,1.7825108E2,1.09847534E2,4.479167E2,3.22047E3,2.7873984E2,3.9889664E2,5.9675523E4,6.648563E3,5.4641688E4,3.705004E3,7.605053E2,6.855467E2,5.798569E2,8.344166E3,2.5375305E3,5.4607526E2,1.01570175E2,3.5078055E2,1.7611873E4,2.0210962E3,1.2098882E3,3.7245264E3,7.282142E2,2.0987279E2,1.3644417E2,2.4527019E2,1.4462944E2,1.0038408E2,4.1580513E3,2.6632623E2,3.97481E3,1.5511452E4,1.0672739E4,1.2134112E4,4.4725012E2,3.6793225E3,1.8467178E2,2.921773E2,4.7006826E3,4.057269E3,1.280333E4,1.614537E4,2.9844797E2,8.6454553E2,1.1162886E3,1.9936808E3,3.8637418E2,1.4539052E2,1.7977676E3,4.581814E3,1.0891672E3,1.2015904E2,5.8424307E3,2.3773928E3,5.12388E2,1.2950641E3,5.0697137E2,2.149366E3,3.1501428E2,1.3290239E2,2.5868618E3,6.336083E2,1.220521E2,1.5668774E2,2.0309746E2,1.957992E2,1.425454E4,4.542098E4,8.6431525E2,5.7842476E3,2.5868771E4,2.8772918E4,3.4139956E3,2.9100833E2,6.601754E2,1.0032993E2,5.8540466E2,1.0014201E2,4.7972583E2,1.00131035E2,6.5228438E3,1.8213221E3,7.03524E2,1.8340066E3,1.2350722E2,4.2256802E2,1.644401E2,1.8634044E2,6.0888984E3,1.1522974E4,3.205092E2,1.700587E3,1.01955035E3,1.9033786E2,8.204882E2,2.904038E3,1.2528314E2,6.02931E2,1.03542946E2,1.0632984E2,2.6443577E3,1.5136934E3,1.4751677E2,1.1880948E2,1.7632208E3,2.211589E3,1.2527614E4,2.983838E3,4.361885E3,6.3108545E3,5.863028E2,1.154781E4,3.384829E2,1.0876721E2,3.2490789E3,4.302438E2,4.14836E3,5.5232263E2,1.0299514E3,3.0273179E3,1.0324195E4,5.8211753E3,1.01250725E2,1.9719724E2,5.320184E2,3.325272E2,3.9938873E2,7.168999E2,6.852586E2,1.3084222E3,2.797413E2,1.0663289E2,1.6939032E3,1.0386443E2,2.9466155E3,1.6351987E3,9.808689E2,1.08298416E2,3.2885447E3,2.5538862E3,1.9580085E3,4.1938428E2,2.6133347E2,2.5105455E2,1.1862811E3,1.08783E2,2.8319412E2,2.2377725E2,1.9874377E3,1.6192827E2,1.7636873E2,1.3864557E2,4.8821353E2,2.0986482E3,4.6979645E2,1.6381181E2,1.0180074E2,1.0129671E2,1.3383403E4,8.711372E2,4.2725707E4,2.6952761E3,7.534822E2,1.1083306E2,4.329124E3,1.4551234E3,2.4384158E4,1.4846134E3,2.6422205E4,2.3507134E3,3.203866E3,2.1012968E2,1.9015088E2,1.0085745E2,4.4485144E2,2.1532394E2,4.263935E2,1.5901117E2,1.3438884E2,3.4533698E2,3.2824473E3,3.2403965E3,1.031914E3,7.894082E2,1.2490144E2,5.7862256E2,1.5618141E3,2.7219254E2,2.3808282E2,1.844852E2,3.2700496E3,2.8188489E3,8.900683E3,2.6222913E3,2.201038E2,1.0040538E2,2.0281003E2,1.497777E3,9.1525995E2,1.0429042E2,1.0084467E2,7.196435E2,2.101255E3,8.027833E2,3.810079E2,2.2192317E2,5.0223267E2,2.142125E3,9.575968E2,5.560965E2,8.0944666E2,9.537742E2,1.648906E3,5.626831E2,8.815954E3,3.7116604E3,2.520282E3,4.6355597E2,6.271199E2,3.734765E3,1.8505154E2,6.125803E3,7.7398774E3,3.8079321E3,1.6473003E2,1.737529E2,1.881343E2,3.0609446E3,3.1921323E2,1.11030594E2,1.201199E3,2.947161E3,4.2463995E2,1.276827E2,9.280294E2,1.0192196E2,1.3892069E3,1.6381108E3,9.930203E3,3.9399243E2,5.688346E3,1.3282928E2,3.921255E2,1.3989288E2,2.1356001E2,1.1896717E2,1.8549126E2,2.1389746E2,5.079113E2,2.089886E2,8.620266E2,4.4639563E2],"tree_param":{"num_deleted":"0","num_feature":"33","num_nodes":"319","size_leaf_vector":"1"}},{"base_weights":[-2.9518438E-4,6.200103E-1,-1.2465199E0,1.0256039E0,-9.2253065E-1,-4.571159E-1,-1.5136521E0,1.1931278E0,-1.5441867E0,-8.204123E-2,-1.3762822E0,1.4733775E-1,-1.3937955E0,-1.5987628E0,-2.7451662E-3,1.4642191E0,8.3930954E-2,-1.6114591E0,1.8331823E-1,3.0315867E-1,-1.686016E0,-1.4458412E0,6.381826E-2,3.621696E-1,-1.744091E0,-1.2462448E0,-5.6534633E-2,-1.4357896E0,-1.776394E0,-1.4436191E0,1.2682844E0,-2.3265958E-1,1.506688E0,-4.7755954E-1,1.2295263E0,-1.2385818E0,-1.7617186E0,-4.729909E-2,1.2832613E0,-3.1047674E-2,7.434015E-1,-1.7131045E0,-3.1074228E-2,-1.2746187E0,-5.667767E-2,-1.3787684E0,1.3171343E0,6.9689244E-2,1.311181E0,-1.7861614E0,-4.379113E-2,-1.3281119E0,-7.440312E-2,-1.6755869E0,-1.1951051E0,-1.8211066E0,-1.7509396E0,-1.7232575E0,-8.2504475E-1,1.5043559E0,-4.5750037E-2,-5.50402E-1,1.157284E0,1.347618E-1,1.5508697E0,-1.1936628E0,9.823471E-2,-3.070633E-1,1.6065845E0,-1.4606749E0,-7.8115124E-1,-2.4843717E-2,-1.7783026E0,2.7805079E-2,5.0966926E-2,1.0911699E-1,-1.1142706E0,8.658263E-1,-4.600056E-1,-1.7395588E0,-3.9077893E-2,-1.645844E0,-1.1090657E0,-1.739378E0,-7.505063E-1,1.6241571E0,-9.019041E-3,-1.3556356E0,2.0825304E-1,1.044569E-1,1.6080488E0,-1.818032E0,-4.289236E-2,-1.462383E0,-9.1822904E-1,-1.0458579E0,4.0062595E-2,-1.7136463E0,-1.8335058E-1,6.334889E-2,-1.3466231E0,-5.6573465E-2,-4.4113863E-2,-1.7210588E0,-5.6762774E-2,-5.593822E-2,-1.5424545E0,-3.5708383E-1,-5.3297557E-2,1.6217736E0,1.02573875E-2,1.6690709E-1,-1.1150757E0,-1.0751953E-2,1.5940584E0,-2.8969434E-1,1.317119E0,1.5661471E0,-8.410725E-1,-3.9556298E-1,-1.4860873E0,5.7738584E-2,-1.2954888E-1,-1.5932792E0,6.2511094E-2,1.6509789E0,-2.7194628E-2,-9.678376E-1,-1.6179885E0,-2.576091E-1,-1.2359453E0,-1.8050772E0,-1.3714086E0,2.2679685E-1,-1.1092571E0,-1.3387889E0,-6.194184E-1,1.3398768E0,6.081159E-1,4.4327658E-3,-6.9634384E-1,-1.6098306E0,-5.637821E-2,-1.695686E0,-1.3219537E0,-1.2249317E0,-2.8649905E-1,-5.6323633E-2,-4.7515374E-2,1.0485726E-3,-4.769521E-2,3.427438E-2,5.405353E-2,-1.5303437E0,-8.118649E-1,-1.2053597E0,3.3229575E-1,-2.8658539E-2,3.245717E-1,1.7509007E0,4.8307043E-1,-5.7249967E-2,-4.6354942E-2,-1.5597874E0,-1.1087484E0,-4.6914732E-1,-1.2946446E0,-1.7576046E-2,-4.690977E-2,-1.4134846E0,-1.7839915E0,-1.6147785E0,1.0694134E0,-1.6384825E0,-1.0750703E0,-1.6951053E0,-5.6928586E-2,-5.538081E-2,-1.3380128E0,-1.1235626E0,1.9593718E-2,2.202506E-2,1.7014058E0,1.164216E-2,-2.1261185E-2,-2.711096E-2,-5.314972E-2,3.294005E-2,5.5268314E-2,-3.1081995E-2,2.8755846E-3,-1.0403013E-2,5.2650474E-2,9.070019E-3,4.9335714E-2,-3.733453E-2,3.6251027E-2,-3.607042E-2,7.362627E-3,-5.0873768E-2,6.4929505E-3,-3.3399314E-2,8.036524E-3,-5.7321943E-2,-3.911992E-2,-3.1934224E-2,1.4853248E-2,5.2910104E-2,6.972968E-3,-4.2273574E-2,-1.6859112E-2,-4.6330497E-2,-5.9691347E-2,-4.4612154E-2,1.0119362E-2,-4.7817413E-2,-1.2668918E-2,-5.672385E-2,-4.7503833E-2,-5.30762E-2,-1.3447313E-2,-3.8517833E-2,1.0208364E-2,-2.2263335E-2,-5.5927888E-2,-5.386897E-2,-3.732542E-2,-3.243328E-2,-4.133438E-3,2.3138387E-2,5.9731103E-2,4.856142E-3,3.4703612E-2,-2.9963432E-2,-6.599033E-3,-5.297415E-2,-3.854226E-2,-5.3164374E-2,-3.4992512E-2,-1.8162979E-2,-4.7160026E-2,-4.8931118E-2,-3.1844385E-2,-3.0245292E-3,-5.2317735E-2,-3.9821405E-2,-5.3080074E-2,-1.1389573E-2,-3.779385E-2,-1.1238058E-2,-4.399792E-2,1.40673E-2,-2.7623273E-2,-9.20788E-3,1.853518E-2,4.4843994E-2,5.6165274E-2,-1.7847822E-3,3.7496872E-2,-4.2049084E-2,-5.2582327E-2,6.001531E-2,-4.531463E-2,-4.0497936E-2,-6.3802074E-3,-5.360646E-2,-3.5109684E-2,-5.4305E-2,-3.5688527E-2,-5.6150008E-2,-4.2172305E-2,-5.7872236E-2,-4.1646775E-2,1.6961236E-2,4.536327E-2,-5.32055E-2,-4.5049198E-2,-2.8531425E-2,-5.7000905E-2,-5.3073786E-2,-4.406051E-2,-2.833527E-2,-5.3063616E-2,-4.6452664E-2,-2.230156E-2,4.0621016E-2,5.489039E-2],"categories":[],"categories_nodes":[],"categories_segments":[],"categories_sizes":[],"default_left":[0,0,0,0,0,0,0,0,0,0,0,0,0,0,0,0,0,0,0,0,0,0,0,0,0,0,0,0,0,0,0,0,0,0,0,0,0,0,0,0,0,0,0,0,0,0,0,0,0,0,0,0,0,0,0,0,0,0,0,0,0,0,0,0,0,0,0,0,0,0,0,0,0,0,0,0,0,0,0,0,0,0,0,0,0,0,0,0,0,0,0,0,0,0,0,0,0,0,0,0,0,0,0,0,0,0,0,0,0,0,0,0,0,0,0,0,0,0,0,0,0,0,0,0,0,0,0,0,0,0,0,0,0,0,0,0,0,0,0,0,0,0,0,0,0,0,0,0,0,0,0,0,0,0,0,0,0,0,0,0,0,0,0,0,0,0,0,0,0,0,0,0,0,0,0,0,0,0,0,0,0,0,0,0,0,0,0,0,0,0,0,0,0,0,0,0,0,0,0,0,0,0,0,0,0,0,0,0,0,0,0,0,0,0,0,0,0,0,0,0,0,0,0,0,0,0,0,0,0,0,0,0,0,0,0,0,0,0,0,0,0,0,0,0,0,0,0,0,0,0,0,0,0,0,0,0,0,0,0,0,0,0,0,0,0,0,0,0,0,0,0,0,0,0,0,0,0,0,0,0,0,0,0,0,0,0,0],"id":3,"left_children":[1,3,5,7,9,11,13,15,17,19,21,23,25,27,29,31,33,35,37,39,41,43,45,47,49,51,-1,53,55,57,59,61,63,65,67,69,71,-1,73,75,77,79,-1,81,-1,83,85,87,89,91,-1,93,95,97,99,101,103,105,107,109,-1,111,113,115,117,119,121,123,125,127,129,-1,131,-1,-1,133,135,137,139,141,-1,143,145,147,149,151,-1,153,155,157,159,161,-1,163,165,167,-1,169,171,-1,173,-1,-1,175,-1,-1,177,179,-1,181,-1,183,185,-1,187,189,191,193,195,197,199,-1,201,203,205,207,-1,209,211,213,215,217,219,221,223,225,227,229,231,-1,233,235,-1,237,239,241,243,-1,-1,-1,-1,-1,-1,245,247,249,251,-1,253,255,257,-1,-1,259,261,263,265,-1,-1,267,269,271,273,275,277,279,-1,-1,281,283,-1,-1,285,-1,-1,-1,-1,-1,-1,-1,-1,-1,-1,-1,-1,-1,-1,-1,-1,-1,-1,-1,-1,-1,-1,-1,-1,-1,-1,-1,-1,-1,-1,-1,-1,-1,-1,-1,-1,-1,-1,-1,-1,-1,-1,-1,-1,-1,-1,-1,-1,-1,-1,-1,-1,-1,-1,-1,-1,-1,-1,-1,-1,-1,-1,-1,-1,-1,-1,-1,-1,-1,-1,-1,-1,-1,-1,-1,-1,-1,-1,-1,-1,-1,-1,-1,-1,-1,-1,-1,-1,-1,-1,-1,-1,-1,-1,-1,-1,-1,-1,-1,-1,-1,-1,-1,-1],"loss_changes":[2.1908422E5,1.1838607E5,1.9859531E4,6.4502234E4,1.5023477E4,1.3484586E4,9.048453E3,4.2294062E4,1.0666465E3,8.535673E3,2.5634922E3,5.8817896E3,5.887246E2,1.9243281E3,6.876876E3,8.1466094E3,1.7771734E4,4.9084375E2,6.491253E2,1.6392612E3,4.6466797E1,1.5943242E3,2.1341482E3,3.607552E3,1.6464844E1,6.6674805E2,0E0,2.0021094E3,3.1289062E1,3.0175586E2,1.2945186E3,1.2194628E3,6.683E3,7.6453843E3,5.266328E3,2.5573096E2,9.742383E1,0E0,2.655838E1,9.620549E2,7.088838E2,2.708789E1,0E0,1.0330977E3,0E0,1.2173877E2,3.1306506E2,1.962588E3,1.0959531E3,1.2625977E1,0E0,3.553877E2,6.0645514E2,9.871172E2,8.51466E3,1.3421875E1,4.376953E1,1.3317383E1,2.2868552E2,2.5167236E2,0E0,9.111142E2,3.3862653E2,1.7282373E3,3.9055781E3,1.9271221E3,4.131429E3,8.5229645E2,8.065039E2,1.2953223E2,1.9724805E2,0E0,6.326172E1,0E0,0E0,8.037752E2,7.8852234E1,5.3139526E2,6.367935E1,2.0245605E1,0E0,8.015527E1,1.1107031E3,1.102417E0,1.2585724E2,2.9547241E1,0E0,8.122583E1,1.588498E3,1.3724586E2,3.9291602E2,6.7424316E0,0E0,1.6558594E2,2.7038867E2,5.7908447E1,0E0,3.541953E2,7.8075006E2,0E0,1.3103262E3,0E0,0E0,3.9539062E1,0E0,0E0,1.5204651E1,2.7614313E2,0E0,1.1875342E2,0E0,1.763461E2,1.7861731E2,0E0,3.6667175E1,6.9127625E2,5.744971E2,3.4227656E3,4.9692032E2,1.0790101E3,1.5902998E3,0E0,3.355299E3,3.0027344E1,6.33905E2,5.691621E2,0E0,6.819495E1,4.4472656E1,2.6941922E2,1.1122931E2,3.458008E1,1.2177399E2,7.702739E2,1.3160413E2,2.3197266E1,4.6810295E1,5.320947E2,6.524828E2,0E0,4.099553E1,3.0143066E1,0E0,4.5856445E1,1.0062036E2,7.11583E2,3.8071997E2,0E0,0E0,0E0,0E0,0E0,0E0,2.601294E1,3.8024506E1,1.3034631E2,1.2381709E3,0E0,8.5338844E1,3.613086E1,1.1008787E2,0E0,0E0,1.0257129E2,1.1439674E3,1.6114645E2,5.815747E1,0E0,0E0,2.8290576E2,1.5485938E2,9.789185E0,4.592511E1,1.1105664E2,1.0115928E3,5.2296875E1,0E0,0E0,3.1036896E1,2.8897491E1,0E0,0E0,3.7690918E1,0E0,0E0,0E0,0E0,0E0,0E0,0E0,0E0,0E0,0E0,0E0,0E0,0E0,0E0,0E0,0E0,0E0,0E0,0E0,0E0,0E0,0E0,0E0,0E0,0E0,0E0,0E0,0E0,0E0,0E0,0E0,0E0,0E0,0E0,0E0,0E0,0E0,0E0,0E0,0E0,0E0,0E0,0E0,0E0,0E0,0E0,0E0,0E0,0E0,0E0,0E0,0E0,0E0,0E0,0E0,0E0,0E0,0E0,0E0,0E0,0E0,0E0,0E0,0E0,0E0,0E0,0E0,0E0,0E0,0E0,0E0,0E0,0E0,0E0,0E0,0E0,0E0,0E0,0E0,0E0,0E0,0E0,0E0,0E0,0E0,0E0,0E0,0E0,0E0,0E0,0E0,0E0,0E0,0E0,0E0,0E0,0E0,0E0,0E0,0E0,0E0,0E0,0E0,0E0],"parents":[2147483647,0,0,1,1,2,2,3,3,4,4,5,5,6,6,7,7,8,8,9,9,10,10,11,11,12,12,13,13,14,14,15,15,16,16,17,17,18,18,19,19,20,20,21,21,22,22,23,23,24,24,25,25,27,27,28,28,29,29,30,30,31,31,32,32,33,33,34,34,35,35,36,36,38,38,39,39,40,40,41,41,43,43,45,45,46,46,47,47,48,48,49,49,51,51,52,52,53,53,54,54,55,55,56,56,57,57,58,58,59,59,61,61,62,62,63,63,64,64,65,65,66,66,67,67,68,68,69,69,70,70,72,72,75,75,76,76,77,77,78,78,79,79,81,81,82,82,83,83,84,84,85,85,87,87,88,88,89,89,90,90,91,91,93,93,94,94,95,95,97,97,98,98,100,100,103,103,106,106,107,107,109,109,111,111,112,112,114,114,115,115,116,116,117,117,118,118,119,119,120,120,122,122,123,123,124,124,125,125,127,127,128,128,129,129,130,130,131,131,132,132,133,133,134,134,135,135,136,136,137,137,138,138,140,140,141,141,143,143,144,144,145,145,146,146,153,153,154,154,155,155,156,156,158,158,159,159,160,160,163,163,164,164,165,165,166,166,169,169,170,170,171,171,172,172,173,173,174,174,175,175,178,178,179,179,182,182],"right_children":[2,4,6,8,10,12,14,16,18,20,22,24,26,28,30,32,34,36,38,40,42,44,46,48,50,52,-1,54,56,58,60,62,64,66,68,70,72,-1,74,76,78,80,-1,82,-1,84,86,88,90,92,-1,94,96,98,100,102,104,106,108,110,-1,112,114,116,118,120,122,124,126,128,130,-1,132,-1,-1,134,136,138,140,142,-1,144,146,148,150,152,-1,154,156,158,160,162,-1,164,166,168,-1,170,172,-1,174,-1,-1,176,-1,-1,178,180,-1,182,-1,184,186,-1,188,190,192,194,196,198,200,-1,202,204,206,208,-1,210,212,214,216,218,220,222,224,226,228,230,232,-1,234,236,-1,238,240,242,244,-1,-1,-1,-1,-1,-1,246,248,250,252,-1,254,256,258,-1,-1,260,262,264,266,-1,-1,268,270,272,274,276,278,280,-1,-1,282,284,-1,-1,286,-1,-1,-1,-1,-1,-1,-1,-1,-1,-1,-1,-1,-1,-1,-1,-1,-1,-1,-1,-1,-1,-1,-1,-1,-1,-1,-1,-1,-1,-1,-1,-1,-1,-1,-1,-1,-1,-1,-1,-1,-1,-1,-1,-1,-1,-1,-1,-1,-1,-1,-1,-1,-1,-1,-1,-1,-1,-1,-1,-1,-1,-1,-1,-1,-1,-1,-1,-1,-1,-1,-1,-1,-1,-1,-1,-1,-1,-1,-1,-1,-1,-1,-1,-1,-1,-1,-1,-1,-1,-1,-1,-1,-1,-1,-1,-1,-1,-1,-1,-1,-1,-1,-1,-1],"split_conditions":[1E0,1E0,1E0,1E0,1E0,1E0,1.8848816E0,2E0,2.0937455E0,1E0,1.9539919E0,1E0,1E0,1E0,9.1877705E-1,1.18339725E-1,1.1926948E0,1E0,8.6303806E-1,1.0512084E3,8.6035204E-1,1E0,9.541152E-1,1.3358777E0,5.1E1,1.7268612E0,-5.6534633E-2,3.1E1,4.1E1,2.894474E-1,5E1,1.5112687E0,1.7E1,3.1E1,4.2777413E-1,5.677159E-1,1E0,-4.729909E-2,1.9251847E0,8.209088E-1,8.4317994E-1,1.6662756E0,-3.1074228E-2,4.1E1,-5.667767E-2,2.0934895E-1,4.7E1,2.8E1,3.1183454E-1,1.4500055E0,-4.379113E-2,2.42E2,1.0655676E0,2.177821E0,4E1,2.88E2,1E0,-1.8012294E-1,5E1,1E0,-4.5750037E-2,1E0,7.3374104E-1,1.3526553E0,3.1E1,4.241631E3,4E1,2.1E1,6E0,4E0,5E1,-2.4843717E-2,1.4561024E0,2.7805079E-2,5.0966926E-2,3E1,6.3093114E-1,5E1,5E1,3.4302588E0,-3.9077893E-2,5.6579836E-2,5.6579836E-2,5.210375E3,5E1,1.435637E0,-9.019041E-3,1.7E1,2.0502266E-1,-1.0103655E0,5E1,3.613626E-2,-4.289236E-2,5.1E1,5E0,4E0,4.0062595E-2,4.175706E3,7.3374104E-1,6.334889E-2,5.3E1,-5.6573465E-2,-4.4113863E-2,4E0,-5.6762774E-2,-5.593822E-2,4.5E1,3.1E1,-5.3297557E-2,2.1E1,1.02573875E-2,9E0,2E0,-1.0751953E-2,1.5849997E0,3.1E1,6.0578555E-1,2.1E1,1.8161601E0,2.1E1,1.7268612E0,5.7738584E-2,3.7E1,6.5E1,3.3E1,5E1,-2.7194628E-2,1.0512084E3,7.4544966E-1,3.1E1,5.1E1,5.1E1,9.045611E-1,3.7E1,3.1E1,4.1E1,3.678838E-1,4.1E1,5.1E1,4.4327658E-3,1.446E3,5.1E1,-5.637821E-2,1.8848816E0,4.2235264E3,4.0666646E-1,4E0,-5.6323633E-2,-4.7515374E-2,1.0485726E-3,-4.769521E-2,3.427438E-2,5.405353E-2,3.7269866E-1,4.331045E3,4.1125923E3,8.472114E-1,-2.8658539E-2,4.1E1,1.0347968E0,5.1E1,-5.7249967E-2,-4.6354942E-2,5E1,6E1,1.0512084E3,1.0512084E3,-1.7576046E-2,-4.690977E-2,2.1E1,1.4899832E0,-2.2951876E-1,6E1,3.6E1,1E0,6.310849E3,-5.6928586E-2,-5.538081E-2,1E0,6.168452E-1,1.9593718E-2,2.202506E-2,3.6E1,1.164216E-2,-2.1261185E-2,-2.711096E-2,-5.314972E-2,3.294005E-2,5.5268314E-2,-3.1081995E-2,2.8755846E-3,-1.0403013E-2,5.2650474E-2,9.070019E-3,4.9335714E-2,-3.733453E-2,3.6251027E-2,-3.607042E-2,7.362627E-3,-5.0873768E-2,6.4929505E-3,-3.3399314E-2,8.036524E-3,-5.7321943E-2,-3.911992E-2,-3.1934224E-2,1.4853248E-2,5.2910104E-2,6.972968E-3,-4.2273574E-2,-1.6859112E-2,-4.6330497E-2,-5.9691347E-2,-4.4612154E-2,1.0119362E-2,-4.7817413E-2,-1.2668918E-2,-5.672385E-2,-4.7503833E-2,-5.30762E-2,-1.3447313E-2,-3.8517833E-2,1.0208364E-2,-2.2263335E-2,-5.5927888E-2,-5.386897E-2,-3.732542E-2,-3.243328E-2,-4.133438E-3,2.3138387E-2,5.9731103E-2,4.856142E-3,3.4703612E-2,-2.9963432E-2,-6.599033E-3,-5.297415E-2,-3.854226E-2,-5.3164374E-2,-3.4992512E-2,-1.8162979E-2,-4.7160026E-2,-4.8931118E-2,-3.1844385E-2,-3.0245292E-3,-5.2317735E-2,-3.9821405E-2,-5.3080074E-2,-1.1389573E-2,-3.779385E-2,-1.1238058E-2,-4.399792E-2,1.40673E-2,-2.7623273E-2,-9.20788E-3,1.853518E-2,4.4843994E-2,5.6165274E-2,-1.7847822E-3,3.7496872E-2,-4.2049084E-2,-5.2582327E-2,6.001531E-2,-4.531463E-2,-4.0497936E-2,-6.3802074E-3,-5.360646E-2,-3.5109684E-2,-5.4305E-2,-3.5688527E-2,-5.6150008E-2,-4.2172305E-2,-5.7872236E-2,-4.1646775E-2,1.6961236E-2,4.536327E-2,-5.32055E-2,-4.5049198E-2,-2.8531425E-2,-5.7000905E-2,-5.3073786E-2,-4.406051E-2,-2.833527E-2,-5.3063616E-2,-4.6452664E-2,-2.230156E-2,4.0621016E-2,5.489039E-2],"split_indices":[27,18,17,21,17,18,32,17,32,21,31,21,21,18,31,0,31,17,31,22,5,21,32,32,4,32,0,4,3,31,4,31,3,4,32,31,28,0,31,1,1,31,0,3,0,32,4,3,31,31,0,15,31,31,4,15,21,31,4,18,0,17,32,31,20,11,4,4,30,13,4,0,32,0,0,20,32,4,4,25,0,5,5,11,4,32,0,3,0,31,4,5,0,4,13,30,0,11,32,0,3,0,0,17,0,0,3,4,0,4,0,13,14,0,32,4,32,4,31,4,32,0,3,3,3,4,0,22,1,4,4,4,31,3,20,4,31,4,4,0,8,4,0,32,11,0,17,0,0,0,0,0,0,1,11,11,1,0,4,31,4,0,0,4,4,22,22,0,0,4,31,32,3,3,21,11,0,0,18,31,0,0,3,0,0,0,0,0,0,0,0,0,0,0,0,0,0,0,0,0,0,0,0,0,0,0,0,0,0,0,0,0,0,0,0,0,0,0,0,0,0,0,0,0,0,0,0,0,0,0,0,0,0,0,0,0,0,0,0,0,0,0,0,0,0,0,0,0,0,0,0,0,0,0,0,0,0,0,0,0,0,0,0,0,0,0,0,0,0,0,0,0,0,0,0,0,0,0,0,0,0,0,0,0,0,0,0],"split_type":[0,0,0,0,0,0,0,0,0,0,0,0,0,0,0,0,0,0,0,0,0,0,0,0,0,0,0,0,0,0,0,0,0,0,0,0,0,0,0,0,0,0,0,0,0,0,0,0,0,0,0,0,0,0,0,0,0,0,0,0,0,0,0,0,0,0,0,0,0,0,0,0,0,0,0,0,0,0,0,0,0,0,0,0,0,0,0,0,0,0,0,0,0,0,0,0,0,0,0,0,0,0,0,0,0,0,0,0,0,0,0,0,0,0,0,0,0,0,0,0,0,0,0,0,0,0,0,0,0,0,0,0,0,0,0,0,0,0,0,0,0,0,0,0,0,0,0,0,0,0,0,0,0,0,0,0,0,0,0,0,0,0,0,0,0,0,0,0,0,0,0,0,0,0,0,0,0,0,0,0,0,0,0,0,0,0,0,0,0,0,0,0,0,0,0,0,0,0,0,0,0,0,0,0,0,0,0,0,0,0,0,0,0,0,0,0,0,0,0,0,0,0,0,0,0,0,0,0,0,0,0,0,0,0,0,0,0,0,0,0,0,0,0,0,0,0,0,0,0,0,0,0,0,0,0,0,0,0,0,0,0,0,0,0,0,0,0,0,0,0,0,0,0,0,0,0,0,0,0,0,0,0,0,0,0,0,0],"sum_hessian":[2.8340362E5,1.8921994E5,9.4183695E4,1.4982566E5,3.9394285E4,2.3814346E4,7.036935E4,1.40657E5,9.168659E3,1.3812153E4,2.558213E4,1.447422E4,9.340126E3,6.66164E4,3.7529487E3,1.1303107E5,2.7625936E4,8.82534E3,3.4331937E2,1.1137858E4,2.6742947E3,2.4403738E4,1.1783934E3,1.2998858E4,1.4753606E3,6.957306E3,2.3828196E3,3.4747836E4,3.1868564E4,1.7590729E3,1.9938759E3,2.759434E3,1.1027163E5,1.8539379E4,9.086557E3,2.538495E3,6.286844E3,1.3410493E2,2.0921443E2,6.3313022E3,4.8065566E3,2.570213E3,1.04081894E2,1.686109E4,7.5426475E3,5.4759906E2,6.307943E2,9.937709E3,3.0611497E3,1.3039656E3,1.7139511E2,6.5024707E3,4.5483542E2,1.7401977E4,1.734586E4,1.15282E4,2.0340365E4,1.2096387E3,5.494343E2,1.8365161E3,1.5735965E2,2.2467815E3,5.1265265E2,3.4408887E3,1.0683074E5,8.262846E3,1.0276533E4,1.7901578E3,7.2963984E3,1.7066099E3,8.3188525E2,1.08075584E2,6.1787686E3,1.0339103E2,1.05823395E2,5.6063066E3,7.249957E2,4.36336E3,4.4319656E2,2.4245278E3,1.4568486E2,5.196605E3,1.1664484E4,3.4627814E2,2.0132095E2,5.299197E2,1.008746E2,8.7940375E2,9.058306E3,6.049902E2,2.4561597E3,1.2038898E3,1.00075714E2,4.8951196E3,1.6073514E3,2.6621545E2,1.8861996E2,1.6968707E4,4.3326978E2,7.745466E2,1.6571312E4,1.1413149E4,1.15050385E2,1.4835871E4,5.504493E3,8.266382E2,3.8300046E2,3.6196997E2,1.8746434E2,1.6687344E3,1.6778178E2,9.895579E2,1.2572235E3,1.15154816E2,3.974978E2,2.5321873E3,9.087014E2,1.061533E5,6.774489E2,2.216775E3,6.0460703E3,1.1744941E3,9.102039E3,3.991283E2,1.3910295E3,7.1688047E3,1.27593834E2,4.1543906E2,1.2911708E3,3.8795343E2,4.4393182E2,5.792915E3,3.8585355E2,5.1136187E3,4.92688E2,4.9685355E2,2.2814215E2,1.5345193E3,2.8288408E3,1.24309685E2,3.188869E2,9.287962E2,1.4957317E3,4.498563E3,6.980421E2,1.0223336E4,1.4411487E3,2.443856E2,1.0189252E2,1.0106015E2,1.00260796E2,1.0195845E2,4.2796124E2,6.634955E2,2.1590825E2,7.297054E2,8.3286E3,1.0565143E2,4.993387E2,2.1785254E3,2.776341E2,1.0996787E3,1.0421117E2,3.8342078E3,1.0609116E3,7.345603E2,8.727911E2,1.3310757E2,1.3310786E2,3.2270654E3,1.3741642E4,2.0226674E2,2.3100304E2,7.9837075E3,8.5876045E3,1.212723E4,2.7086409E3,1.6995572E2,2.1304474E2,2.0414706E2,1.5782289E2,1.3540446E2,1.53333E3,7.959543E2,1.9360364E2,8.995585E2,3.57665E2,1.06620476E2,2.9087735E2,8.8399E2,1.6481971E3,1.7011864E2,7.3858276E2,2.0705513E3,1.0408274E5,5.7432465E2,1.0312423E2,1.00162067E3,1.2151542E3,5.5399487E3,5.061217E2,2.6473901E3,6.4546484E3,2.21799E2,1.7732932E2,3.8324768E2,1.0077818E3,6.898337E3,2.704679E2,2.1310072E2,2.0233832E2,9.2666296E2,3.6450784E2,1.281343E2,2.5981912E2,3.2283408E2,1.2109776E2,5.3044336E3,4.8848163E2,2.8201257E2,1.0384096E2,3.3243942E2,4.781179E3,3.170176E2,1.7567038E2,1.2150854E2,3.7534503E2,1.2031524E2,1.0782691E2,7.645591E2,7.6996014E2,1.503613E3,1.3252277E3,2.0325288E2,1.15634E2,7.2730066E2,2.0149551E2,4.347685E3,1.5087782E2,1.501314E2,5.479107E2,3.6633923E3,6.559944E3,1.2711707E3,1.6997806E2,2.868079E2,3.766876E2,1.0473989E2,1.1116835E2,1.4873717E2,5.809682E2,7.5771772E3,7.514228E2,1.5192595E2,3.4741278E2,3.686755E2,1.80985E3,1.5931168E2,1.1832244E2,1.5452345E3,2.2889734E3,1.0961207E2,9.512995E2,1.7435641E2,5.6020386E2,2.336124E2,6.391787E2,1.4058907E3,1.8211746E3,1.2905473E4,8.361693E2,1.0085243E2,1.0141431E2,1.0089263E2,1.301104E2,5.614493E3,2.3692146E3,7.1433794E3,1.444225E3,1.1413485E4,7.1374493E2,1.0205252E2,1.1099221E2,1.0385903E2,1.0028803E2,2.347715E2,1.2985583E3],"tree_param":{"num_deleted":"0","num_feature":"33","num_nodes":"287","size_leaf_vector":"1"}},{"base_weights":[-3.738387E-4,6.019134E-1,-1.2101163E0,9.9706835E-1,-8.979149E-1,-1.3248545E0,4.403607E-1,1.160441E0,-1.5004821E0,-5.959774E-1,-1.7437805E0,-1.0368092E0,-1.6592704E0,-1.1197478E0,1.3640015E0,-8.1938314E-1,1.2890098E0,-1.565654E0,1.9628417E-1,4.529066E-2,-1.0184815E0,-1.7510005E0,-3.182773E-2,6.0346997E-1,-1.1956716E0,-1.4690932E0,-1.7183567E0,-1.4176934E0,-4.013209E-1,1.5768037E0,-1.0968882E0,-1.3553505E0,1.0477456E0,-3.9868054E-1,1.3801124E0,-4.8922312E-1,-1.6322058E0,-4.8111252E-2,1.2115213E0,3.7528366E-1,-1.0286448E0,-1.5319335E0,-7.728751E-1,-1.6388909E0,-1.7838731E0,-1.347016E0,8.53204E-1,-1.5888659E0,-8.6277413E-1,-1.5970672E0,-1.0196984E0,-1.73518E0,-1.5491872E0,-1.5799937E0,-8.117116E-1,1.5579166E-1,-1.4186739E0,1.377138E-2,1.6347324E0,-1.2589404E-2,-5.2299365E-2,-1.4702526E0,2.405838E-1,-1.3251613E0,1.5503212E0,-7.621532E-1,1.0010148E0,-3.3262566E-1,1.4254944E0,-8.3171934E-1,1.055353E-2,-1.6849405E0,-1.2689372E0,2.562868E-2,4.9588438E-2,-1.1271826E0,5.9573865E-1,-1.6151111E0,-8.23733E-1,-1.5669001E0,3.6544332E-3,-9.9786866E-1,-9.248829E-2,-1.7009145E0,-1.3396239E0,-4.902863E-2,-5.542124E-2,-1.5366721E0,-1.9875264E-2,-8.3476436E-1,1.0353472E0,-1.3254375E0,-1.6518397E0,-1.4540486E0,-5.771013E-1,-5.4253314E-2,-1.522525E0,-8.068381E-1,-5.558891E-2,-1.7481906E0,-1.6500753E0,-1.4359173E0,-5.5312514E-2,-1.6520945E0,-3.301316E-2,-4.9016822E-2,-3.6210287E-1,-3.008617E-1,3.1976197E-2,-5.3485267E-2,-3.0647088E-2,1.7011255E0,9.9849004E-1,-5.2421534E-1,-1.6757269E0,-3.8858097E-2,1.2125093E0,-5.4071322E-2,-2.934288E-2,6.5096366E-1,1.7008096E0,6.2153805E-2,-8.5388106E-1,-6.7203206E-1,1.5649984E0,-6.454605E-1,9.580774E-1,1.4614067E0,-8.043396E-2,-5.07477E-2,-4.395935E-1,-1.7546921E0,-1.5274113E0,-1.3932153E0,-1.2457149E-2,-1.5580192E0,-6.336757E-1,-1.2745394E0,7.182994E-1,-1.7105143E0,-1.3812773E0,-1.0001144E0,1.09287955E-1,-1.6176033E0,-1.1983646E0,-1.1438048E0,2.577086E-1,-1.1113682E0,1.3144855E-1,-1.7330399E0,-3.433071E-2,-2.4171416E-2,-1.6295233E0,-3.706683E-2,-5.3474426E-2,-1.3719264E0,-1.8444265E-3,1.1451514E0,-3.3922885E-2,-1.0675488E0,-1.5371772E0,-1.6750706E0,-6.829103E-1,-1.5329881E0,5.954664E-1,6.0987096E-2,-7.453679E-1,-1.7586757E0,-1.4419914E0,-1.1040491E0,-2.218E-1,-5.5225614E-2,-1.7306266E0,-1.6718324E0,-3.0097857E-2,-1.5271329E0,-9.645438E-1,-1.6916077E0,-3.9649118E-2,6.1244816E-3,-2.8351054E-2,-3.0476412E-2,2.7627302E-3,3.4408055E-2,1.7351185E0,3.7641982E-3,4.9731568E-2,-4.210494E-2,-4.3727322E-3,-5.4049723E-2,-3.8875137E-2,2.319506E-2,4.579789E-2,-8.4297167E-4,4.3957993E-2,4.6077337E-2,5.522016E-2,-4.8142966E-2,-1.6525453E-2,-8.114201E-3,-4.5834705E-2,3.3355083E-2,5.37094E-2,2.197247E-2,-2.7313985E-2,-1.9826448E-2,4.957808E-2,4.5849096E-2,-2.8770361E-2,-1.2554727E-2,3.729258E-2,-3.0941397E-2,2.1355513E-3,-5.5133663E-2,-4.557828E-2,6.1029375E-2,-5.3040575E-2,-5.4302447E-2,-3.373979E-2,-5.119866E-2,-3.7134405E-2,-2.7117122E-2,3.1022024E-3,-4.549391E-2,-1.708864E-2,2.5104798E-2,-3.8439035E-2,-4.3634236E-2,-5.5284277E-2,-5.085898E-2,-3.4724023E-2,-4.082534E-2,-1.7223282E-2,-1.4661719E-2,1.8687285E-2,-5.1042195E-2,-3.574539E-2,-1.2872335E-2,-4.4619475E-2,-4.0552363E-2,-1.8861918E-2,-2.9778073E-2,4.0805724E-2,-2.2939468E-2,-4.533837E-2,-1.4263593E-2,1.427776E-2,-4.039828E-2,-5.4552656E-2,-5.6657337E-2,-4.3804064E-2,-3.155204E-2,-5.19212E-2,-3.2078322E-2,3.7880354E-2,-2.878552E-2,-5.3985443E-2,-4.9502622E-2,-3.0347336E-2,-5.4641936E-2,-4.8350327E-2,-4.9977686E-2,1.7916562E-2,-2.8983897E-2,-5.1661678E-2,-3.3467405E-2,5.021216E-2,-1.716308E-2,-5.5460293E-2,-4.481557E-2,-5.531161E-2,-4.2027753E-2,-5.440377E-2,-3.781239E-2,-8.808076E-3,5.123425E-3,-2.9815385E-2,-5.2985493E-2,-5.5295486E-2,-4.991008E-2,-5.4697286E-2,-5.3802233E-2,-4.3900926E-2,-4.543848E-2,-2.016447E-2,-5.61339E-2,-5.0334312E-2,4.9661025E-2,5.5306606E-2],"categories":[],"categories_nodes":[],"categories_segments":[],"categories_sizes":[],"default_left":[0,0,0,0,0,0,0,0,0,0,0,0,0,0,0,0,0,0,0,0,0,0,0,0,0,0,0,0,0,0,0,0,0,0,0,0,0,0,0,0,0,0,0,0,0,0,0,0,0,0,0,0,0,0,0,0,0,0,0,0,0,0,0,0,0,0,0,0,0,0,0,0,0,0,0,0,0,0,0,0,0,0,0,0,0,0,0,0,0,0,0,0,0,0,0,0,0,0,0,0,0,0,0,0,0,0,0,0,0,0,0,0,0,0,0,0,0,0,0,0,0,0,0,0,0,0,0,0,0,0,0,0,0,0,0,0,0,0,0,0,0,0,0,0,0,0,0,0,0,0,0,0,0,0,0,0,0,0,0,0,0,0,0,0,0,0,0,0,0,0,0,0,0,0,0,0,0,0,0,0,0,0,0,0,0,0,0,0,0,0,0,0,0,0,0,0,0,0,0,0,0,0,0,0,0,0,0,0,0,0,0,0,0,0,0,0,0,0,0,0,0,0,0,0,0,0,0,0,0,0,0,0,0,0,0,0,0,0,0,0,0,0,0,0,0,0,0,0,0,0,0,0,0,0,0,0,0,0,0,0,0,0,0,0,0,0,0,0,0,0,0,0,0,0,0,0,0,0,0,0,0,0,0,0,0,0,0,0,0],"id":4,"left_children":[1,3,5,7,9,11,13,15,17,19,21,23,25,27,29,31,33,35,37,39,41,43,-1,45,47,49,51,53,55,57,59,61,63,65,67,69,71,-1,73,75,77,79,81,83,85,87,89,91,93,95,97,99,101,103,105,107,109,-1,111,-1,-1,113,115,117,119,121,123,125,127,129,-1,131,133,-1,-1,135,137,139,141,143,-1,145,147,149,151,-1,-1,153,-1,155,157,159,161,163,165,-1,167,169,-1,171,173,175,-1,177,-1,-1,179,181,-1,-1,-1,183,185,187,189,-1,191,-1,-1,193,195,-1,197,199,201,203,205,207,209,-1,211,213,215,217,-1,219,221,223,225,227,229,231,233,235,237,239,241,243,245,247,-1,-1,249,-1,-1,251,-1,253,-1,255,257,259,261,263,265,-1,267,269,271,273,275,-1,277,279,-1,281,283,285,-1,-1,-1,-1,-1,-1,287,-1,-1,-1,-1,-1,-1,-1,-1,-1,-1,-1,-1,-1,-1,-1,-1,-1,-1,-1,-1,-1,-1,-1,-1,-1,-1,-1,-1,-1,-1,-1,-1,-1,-1,-1,-1,-1,-1,-1,-1,-1,-1,-1,-1,-1,-1,-1,-1,-1,-1,-1,-1,-1,-1,-1,-1,-1,-1,-1,-1,-1,-1,-1,-1,-1,-1,-1,-1,-1,-1,-1,-1,-1,-1,-1,-1,-1,-1,-1,-1,-1,-1,-1,-1,-1,-1,-1,-1,-1,-1,-1,-1,-1,-1,-1,-1,-1,-1,-1,-1,-1,-1,-1,-1],"loss_changes":[2.0577736E5,1.11748086E5,1.7777984E4,6.0893453E4,1.0039572E4,8.451703E3,8.794736E3,3.565561E4,1.01421875E3,7.8515566E3,5.035547E1,1.2289543E4,4.522578E2,4.843296E2,2.0095493E3,8.549596E3,2.0224297E4,6.302949E2,6.043292E2,4.0789238E3,2.200586E3,3.3091797E1,0E0,2.0294149E3,5.6251953E3,5.5125195E2,8.383594E1,1.5521558E2,3.790111E2,2.2976855E2,1.228262E2,1.2181113E3,2.2745603E3,3.428083E3,9.701E3,1.4705841E2,1.5556836E2,0E0,2.9651978E1,2.9169463E3,3.2254663E2,3.2688477E2,1.8086543E3,3.9575195E1,1.7382812E0,6.1227173E1,1.1362627E3,3.2329688E2,3.9313574E3,8.123047E1,3.4951343E2,2.6601562E1,7.076221E1,4.3782715E1,1.1657515E2,1.7330975E2,2.812735E1,0E0,1.3873926E2,0E0,0E0,1.2016738E3,6.4964716E2,4.9904114E1,2.1062012E2,1.3588301E3,1.3120784E3,1.3013606E3,6.575703E3,1.1372598E2,0E0,7.536328E1,1.1261926E2,0E0,0E0,2.3748279E2,1.7609648E3,1.1680298E1,3.3091187E2,1.0005469E2,0E0,1.6280889E3,6.711605E2,3.3467285E1,6.362787E1,0E0,0E0,2.0325684E1,0E0,1.4909518E2,7.8083203E2,2.050708E2,3.556211E2,1.2284229E3,6.72372E3,0E0,9.193945E1,2.912295E2,0E0,9.4296875E0,5.2583984E1,7.9217285E1,0E0,1.2643799E1,0E0,0E0,6.769745E1,7.6134E1,0E0,0E0,0E0,5.7688477E1,1.6911182E2,3.5274356E2,1.4176074E2,0E0,3.1121185E1,0E0,0E0,1.1911673E2,1.8958252E1,0E0,1.1595007E3,1.1477167E2,8.189575E1,8.2854126E2,6.454995E2,4.994328E3,1.1798641E3,0E0,7.08888E1,2.9743164E1,1.4379819E3,9.7753174E1,0E0,1.6822632E1,9.376282E1,6.412958E1,1.2928198E3,6.7218018E0,1.0950134E1,2.361847E2,9.2190674E1,6.1996094E1,1.2572443E2,6.98292E2,1.1947202E3,6.6940796E1,4.693849E2,1.7184082E1,0E0,0E0,7.2418213E0,0E0,0E0,1.9712982E1,0E0,5.322012E2,0E0,1.5832373E2,6.672998E1,1.524961E2,4.4028238E2,5.803047E2,4.8545804E2,0E0,2.9450767E3,6.038574E0,9.79541E1,1.0451892E2,1.6319443E2,0E0,1.3421875E1,1.630664E1,0E0,3.283618E1,4.719397E1,3.3962402E0,0E0,0E0,0E0,0E0,0E0,0E0,1.4157227E1,0E0,0E0,0E0,0E0,0E0,0E0,0E0,0E0,0E0,0E0,0E0,0E0,0E0,0E0,0E0,0E0,0E0,0E0,0E0,0E0,0E0,0E0,0E0,0E0,0E0,0E0,0E0,0E0,0E0,0E0,0E0,0E0,0E0,0E0,0E0,0E0,0E0,0E0,0E0,0E0,0E0,0E0,0E0,0E0,0E0,0E0,0E0,0E0,0E0,0E0,0E0,0E0,0E0,0E0,0E0,0E0,0E0,0E0,0E0,0E0,0E0,0E0,0E0,0E0,0E0,0E0,0E0,0E0,0E0,0E0,0E0,0E0,0E0,0E0,0E0,0E0,0E0,0E0,0E0,0E0,0E0,0E0,0E0,0E0,0E0,0E0,0E0,0E0,0E0,0E0,0E0,0E0,0E0,0E0,0E0,0E0,0E0,0E0,0E0,0E0,0E0,0E0,0E0,0E0],"parents":[2147483647,0,0,1,1,2,2,3,3,4,4,5,5,6,6,7,7,8,8,9,9,10,10,11,11,12,12,13,13,14,14,15,15,16,16,17,17,18,18,19,19,20,20,21,21,23,23,24,24,25,25,26,26,27,27,28,28,29,29,30,30,31,31,32,32,33,33,34,34,35,35,36,36,38,38,39,39,40,40,41,41,42,42,43,43,44,44,45,45,46,46,47,47,48,48,49,49,50,50,51,51,52,52,53,53,54,54,55,55,56,56,58,58,61,61,62,62,63,63,64,64,65,65,66,66,67,67,68,68,69,69,71,71,72,72,75,75,76,76,77,77,78,78,79,79,81,81,82,82,83,83,84,84,87,87,89,89,90,90,91,91,92,92,93,93,94,94,96,96,97,97,99,99,100,100,101,101,103,103,106,106,107,107,111,111,112,112,113,113,114,114,116,116,119,119,120,120,122,122,123,123,124,124,125,125,126,126,127,127,128,128,130,130,131,131,132,132,133,133,135,135,136,136,137,137,138,138,139,139,140,140,141,141,142,142,143,143,144,144,145,145,146,146,147,147,148,148,149,149,152,152,155,155,157,157,159,159,160,160,161,161,162,162,163,163,164,164,166,166,167,167,168,168,169,169,170,170,172,172,173,173,175,175,176,176,177,177,184,184],"right_children":[2,4,6,8,10,12,14,16,18,20,22,24,26,28,30,32,34,36,38,40,42,44,-1,46,48,50,52,54,56,58,60,62,64,66,68,70,72,-1,74,76,78,80,82,84,86,88,90,92,94,96,98,100,102,104,106,108,110,-1,112,-1,-1,114,116,118,120,122,124,126,128,130,-1,132,134,-1,-1,136,138,140,142,144,-1,146,148,150,152,-1,-1,154,-1,156,158,160,162,164,166,-1,168,170,-1,172,174,176,-1,178,-1,-1,180,182,-1,-1,-1,184,186,188,190,-1,192,-1,-1,194,196,-1,198,200,202,204,206,208,210,-1,212,214,216,218,-1,220,222,224,226,228,230,232,234,236,238,240,242,244,246,248,-1,-1,250,-1,-1,252,-1,254,-1,256,258,260,262,264,266,-1,268,270,272,274,276,-1,278,280,-1,282,284,286,-1,-1,-1,-1,-1,-1,288,-1,-1,-1,-1,-1,-1,-1,-1,-1,-1,-1,-1,-1,-1,-1,-1,-1,-1,-1,-1,-1,-1,-1,-1,-1,-1,-1,-1,-1,-1,-1,-1,-1,-1,-1,-1,-1,-1,-1,-1,-1,-1,-1,-1,-1,-1,-1,-1,-1,-1,-1,-1,-1,-1,-1,-1,-1,-1,-1,-1,-1,-1,-1,-1,-1,-1,-1,-1,-1,-1,-1,-1,-1,-1,-1,-1,-1,-1,-1,-1,-1,-1,-1,-1,-1,-1,-1,-1,-1,-1,-1,-1,-1,-1,-1,-1,-1,-1,-1,-1,-1,-1,-1,-1],"split_conditions":[1E0,1E0,1.8848816E0,1E0,1E0,1E0,7.8288233E-1,2.1E1,2.0937455E0,1E0,2.3783393E0,1E0,1E0,2.894474E-1,5E1,1.5112687E0,1.8E1,1E0,7.960144E-1,2E0,5.2E1,1E0,-3.182773E-2,2.1E1,5.1E1,1.0512084E3,2.45E2,1.0512084E3,1E0,1.7E1,1E0,1.8042461E0,4.8493716E-1,1.4302349E0,1.18339725E-1,7.8288233E-1,2.43E2,-4.8111252E-2,1.9251847E0,4.1E1,2.0502266E-1,2.290017E0,1.0512084E3,2.19E2,7.885298E-1,9.616738E-1,2.0502266E-1,4.1264697E3,3.1E1,4.8E1,1E0,5.1E1,1E0,5.1E1,8E1,1.0512084E3,1.49E2,1.377138E-2,1E0,-1.2589404E-2,-5.2299365E-2,4.1125923E3,5.551505E-1,-3.5194346E-1,1.1741366E0,3E1,6.949636E-1,1.4147407E0,3E0,4.1E1,1.055353E-2,8.0206174E-1,5.1E1,2.562868E-2,4.9588438E-2,1.9E1,1.18339725E-1,1.18339725E-1,5.6579836E-2,5.6579836E-2,3.6544332E-3,1.5538164E0,1E0,1.1454482E0,3.1609776E0,-4.902863E-2,-5.542124E-2,3.9876306E3,-1.9875264E-2,1.18339725E-1,1E0,3.8492543E-1,2.1090066E0,2.177821E0,4E1,-5.4253314E-2,2.0502266E-1,2.54E2,-5.558891E-2,4E1,6.668794E3,5.1E1,-5.5312514E-2,2.7839282E0,-3.301316E-2,-4.9016822E-2,4.5734334E-1,4.2E1,3.1976197E-2,-5.3485267E-2,-3.0647088E-2,2.1E1,1.7141206E0,2.9E1,5.6579836E-2,-3.8858097E-2,1.0347968E0,-5.4071322E-2,-2.934288E-2,2.177821E0,1.8848816E0,6.2153805E-2,3.1E1,5E1,1.4561024E0,1E0,8.9059895E-1,3.1E1,1.5194267E0,-5.07477E-2,1.76E2,1.3554149E0,9E-1,6.8399115E-3,-1.2457149E-2,8.403802E-1,5.126831E2,9.905433E-1,3E0,3.6795478E0,5.2898336E-2,2.1E2,5.3850405E3,1.6306021E0,4.2235264E3,5.1E1,8.8241225E-1,4.898405E3,2.17E2,3.1372644E3,-3.433071E-2,-2.4171416E-2,7.018278E-1,-3.706683E-2,-5.3474426E-2,4.6892515E-1,-1.8444265E-3,2.1E1,-3.3922885E-2,1E0,5.6579836E-2,3.1E1,7.3374104E-1,4.1264697E3,8.96602E-1,6.0987096E-2,1E0,1.6121416E3,1E0,6.310849E3,4.841183E3,-5.5225614E-2,1E0,2E0,-3.0097857E-2,1.0512084E3,6.0497296E-1,4.0666646E-1,-3.9649118E-2,6.1244816E-3,-2.8351054E-2,-3.0476412E-2,2.7627302E-3,3.4408055E-2,1.5757512E0,3.7641982E-3,4.9731568E-2,-4.210494E-2,-4.3727322E-3,-5.4049723E-2,-3.8875137E-2,2.319506E-2,4.579789E-2,-8.4297167E-4,4.3957993E-2,4.6077337E-2,5.522016E-2,-4.8142966E-2,-1.6525453E-2,-8.114201E-3,-4.5834705E-2,3.3355083E-2,5.37094E-2,2.197247E-2,-2.7313985E-2,-1.9826448E-2,4.957808E-2,4.5849096E-2,-2.8770361E-2,-1.2554727E-2,3.729258E-2,-3.0941397E-2,2.1355513E-3,-5.5133663E-2,-4.557828E-2,6.1029375E-2,-5.3040575E-2,-5.4302447E-2,-3.373979E-2,-5.119866E-2,-3.7134405E-2,-2.7117122E-2,3.1022024E-3,-4.549391E-2,-1.708864E-2,2.5104798E-2,-3.8439035E-2,-4.3634236E-2,-5.5284277E-2,-5.085898E-2,-3.4724023E-2,-4.082534E-2,-1.7223282E-2,-1.4661719E-2,1.8687285E-2,-5.1042195E-2,-3.574539E-2,-1.2872335E-2,-4.4619475E-2,-4.0552363E-2,-1.8861918E-2,-2.9778073E-2,4.0805724E-2,-2.2939468E-2,-4.533837E-2,-1.4263593E-2,1.427776E-2,-4.039828E-2,-5.4552656E-2,-5.6657337E-2,-4.3804064E-2,-3.155204E-2,-5.19212E-2,-3.2078322E-2,3.7880354E-2,-2.878552E-2,-5.3985443E-2,-4.9502622E-2,-3.0347336E-2,-5.4641936E-2,-4.8350327E-2,-4.9977686E-2,1.7916562E-2,-2.8983897E-2,-5.1661678E-2,-3.3467405E-2,5.021216E-2,-1.716308E-2,-5.5460293E-2,-4.481557E-2,-5.531161E-2,-4.2027753E-2,-5.440377E-2,-3.781239E-2,-8.808076E-3,5.123425E-3,-2.9815385E-2,-5.2985493E-2,-5.5295486E-2,-4.991008E-2,-5.4697286E-2,-5.3802233E-2,-4.3900926E-2,-4.543848E-2,-2.016447E-2,-5.61339E-2,-5.0334312E-2,4.9661025E-2,5.5306606E-2],"split_indices":[27,18,32,21,21,18,31,4,32,19,32,19,19,31,4,31,3,19,31,14,3,19,0,3,3,22,15,22,18,3,18,32,32,31,0,31,15,0,31,3,0,31,22,15,25,31,0,11,4,3,21,4,21,4,3,22,15,0,18,0,0,11,31,32,32,4,32,32,7,4,0,0,4,0,0,3,0,0,5,5,0,31,26,5,25,0,0,9,0,0,21,1,31,31,4,0,0,15,0,3,11,4,0,32,0,0,1,3,0,0,0,4,31,3,5,0,31,0,0,31,32,0,4,4,32,19,31,20,32,0,15,32,0,31,0,32,22,31,7,25,31,22,10,32,11,4,32,11,15,11,0,0,0,0,0,1,0,4,0,14,5,4,32,11,32,0,21,9,21,11,10,0,21,14,0,22,0,0,0,0,0,0,0,0,31,0,0,0,0,0,0,0,0,0,0,0,0,0,0,0,0,0,0,0,0,0,0,0,0,0,0,0,0,0,0,0,0,0,0,0,0,0,0,0,0,0,0,0,0,0,0,0,0,0,0,0,0,0,0,0,0,0,0,0,0,0,0,0,0,0,0,0,0,0,0,0,0,0,0,0,0,0,0,0,0,0,0,0,0,0,0,0,0,0,0,0,0,0,0,0,0,0,0,0,0,0,0,0,0],"split_type":[0,0,0,0,0,0,0,0,0,0,0,0,0,0,0,0,0,0,0,0,0,0,0,0,0,0,0,0,0,0,0,0,0,0,0,0,0,0,0,0,0,0,0,0,0,0,0,0,0,0,0,0,0,0,0,0,0,0,0,0,0,0,0,0,0,0,0,0,0,0,0,0,0,0,0,0,0,0,0,0,0,0,0,0,0,0,0,0,0,0,0,0,0,0,0,0,0,0,0,0,0,0,0,0,0,0,0,0,0,0,0,0,0,0,0,0,0,0,0,0,0,0,0,0,0,0,0,0,0,0,0,0,0,0,0,0,0,0,0,0,0,0,0,0,0,0,0,0,0,0,0,0,0,0,0,0,0,0,0,0,0,0,0,0,0,0,0,0,0,0,0,0,0,0,0,0,0,0,0,0,0,0,0,0,0,0,0,0,0,0,0,0,0,0,0,0,0,0,0,0,0,0,0,0,0,0,0,0,0,0,0,0,0,0,0,0,0,0,0,0,0,0,0,0,0,0,0,0,0,0,0,0,0,0,0,0,0,0,0,0,0,0,0,0,0,0,0,0,0,0,0,0,0,0,0,0,0,0,0,0,0,0,0,0,0,0,0,0,0,0,0,0,0,0,0,0,0,0,0,0,0,0,0,0,0,0,0,0,0],"sum_hessian":[2.8242125E5,1.8854939E5,9.387186E4,1.492323E5,3.931709E4,8.77707E4,6.101158E3,1.4007058E5,9.161725E3,2.8976152E4,1.0340937E4,4.715763E4,4.061307E4,2.2685796E3,3.8325789E3,8.540871E3,1.315297E5,8.823202E3,3.385232E2,1.1508498E4,1.7467654E4,1.0235737E4,1.0519923E2,4.1634453E3,4.2994184E4,9.635212E3,3.097786E4,1.6023743E3,6.6620526E2,3.5280571E3,3.0452173E2,6.6364043E3,1.9044667E3,6.7359688E3,1.24793734E5,5.1466736E2,8.308534E3,1.2398947E2,2.1453372E2,8.804282E3,2.7042153E3,5.649607E3,1.1818048E4,2.3357764E3,7.899961E3,4.7184225E2,3.691603E3,1.9709488E4,2.3284695E4,7.4967095E3,2.1385024E3,2.8164758E4,2.8131003E3,1.2619525E3,3.4042166E2,4.3070328E2,2.35502E2,1.7251471E2,3.3555425E3,1.4147241E2,1.6304932E2,6.19106E3,4.453442E2,3.3240192E2,1.5720647E3,5.348011E3,1.3879579E3,3.2208257E3,1.2157291E5,3.6470975E2,1.4995761E2,7.2509243E3,1.05761E3,1.0994581E2,1.04587906E2,1.1257284E3,7.678554E3,6.977899E2,2.0064255E3,5.532699E3,1.1690771E2,8.880274E3,2.9377734E3,1.9295245E3,4.0625192E2,1.5986049E2,7.7401E3,3.7042953E2,1.0141273E2,3.589346E2,3.3326685E3,3.8083992E3,1.590109E4,7.58328E3,1.5701416E4,2.4459163E3,5.0507935E3,1.6791108E3,4.593916E2,2.4407922E4,3.7568364E3,1.9046406E3,9.0845984E2,1.1042004E3,1.5775209E2,1.24212E2,2.1620966E2,2.8313922E2,1.4756406E2,1.3503758E2,1.0046442E2,3.0362449E3,3.1929758E2,1.1057928E3,5.085267E3,1.7520702E2,2.701372E2,1.5543263E2,1.7696928E2,2.265846E2,1.3454801E3,1.7075027E2,5.1772607E3,3.496498E2,1.0383081E3,2.5931877E3,6.27638E2,1.187416E5,2.8313003E3,1.1797544E2,2.467343E2,5.0164165E3,2.234508E3,9.239933E2,1.336167E2,5.993337E2,5.263947E2,4.7140652E2,7.2071475E3,4.8958707E2,2.0820285E2,1.6878185E3,3.1860703E2,4.8593975E3,6.7330164E2,7.9560303E3,9.2424426E2,5.2903076E2,2.4087427E3,1.82782E3,1.0170452E2,1.4043512E2,2.658168E2,1.3535315E2,2.3507639E2,2.1119121E2,1.4774341E2,3.1699238E3,1.627445E2,1.720867E3,2.087532E3,1.5527559E4,3.7353134E2,7.302511E3,2.807686E2,9.731011E2,1.4728315E4,1.2775508E3,3.7732424E3,1.112299E3,5.6681195E2,8.387045E3,1.6020877E4,3.6380942E3,1.1874238E2,1.5930654E3,3.115752E2,9.940485E2,1.1015196E2,1.0727256E2,1.089371E2,1.0289399E2,1.8024522E2,1.6771954E2,2.8685254E3,1.3126556E2,1.88032E2,3.4688715E2,7.589057E2,4.3770645E3,7.0820264E2,1.0019803E2,1.6993918E2,1.2042578E2,1.0615882E2,3.741876E2,9.7129254E2,1.6267386E3,3.5505222E3,2.3304196E2,1.1660786E2,2.6763315E2,7.706749E2,3.8372238E2,2.2094653E3,1.7953497E2,4.48103E2,1.1787416E5,8.6744745E2,2.2606826E3,5.706177E2,1.1759192E2,1.2914238E2,4.6224E3,3.9401654E2,1.1085617E2,2.1236519E3,4.2170016E2,5.0229312E2,4.7180173E2,1.27531944E2,3.9658667E2,1.2980804E2,3.7075314E2,1.0065337E2,6.88612E3,3.2102737E2,1.0017498E2,3.8941208E2,1.0085292E2,1.0734992E2,9.836448E2,7.041737E2,1.4572012E2,1.7288692E2,4.5711963E3,2.8820123E2,1.5955841E2,5.137432E2,6.085585E3,1.8704451E3,4.2953537E2,4.947089E2,2.5931326E2,2.6971753E2,8.603829E2,1.5483599E3,1.1098585E2,1.7168341E3,1.3370073E2,1.3211607E2,1.0014364E2,1.1104756E2,1.0722512E2,3.0626987E3,1.4292327E3,2.9163434E2,1.8834158E3,2.0411638E2,8.817042E3,6.7105166E3,2.1511021E2,1.5842111E2,1.3349669E3,5.967544E3,1.0633357E2,1.7443501E2,1.2444333E4,2.2839822E3,1.0230338E2,1.1752474E3,2.963423E3,8.0981934E2,9.7378284E2,1.385161E2,3.7221494E2,1.9459702E2,1.1446574E4,4.5743027E3,2.1957197E3,1.4423745E3,5.4685626E2,1.0462091E3,1.18003235E2,1.9357196E2,3.4889877E2,6.451497E2,7.8307434E2,2.085451E3],"tree_param":{"num_deleted":"0","num_feature":"33","num_nodes":"289","size_leaf_vector":"1"}},{"base_weights":[-9.1044465E-4,5.8461946E-1,-1.178819E0,9.694314E-1,-8.723736E-1,-8.40139E-1,-1.5973216E0,1.1284562E0,-1.4574008E0,-5.774042E-1,-1.7001148E0,7.799635E-1,-1.0194341E0,-1.3873862E0,-1.6629843E0,-7.955267E-1,1.2535977E0,-2.414799E-1,-1.5403222E0,4.681752E-2,-9.868682E-1,-3.9176088E-2,-1.7083392E0,-1.1756859E0,9.8815775E-1,-1.4889814E0,-6.6220117E-1,-1.5253901E0,-9.0780866E-1,-1.6805208E0,-1.4873264E0,-1.3564645E0,-3.947245E-1,-3.8752785E-1,1.3420706E0,-6.591578E-1,4.6979406E-1,-1.7188535E0,-1.4135562E0,3.646778E-1,-9.9003613E-1,-1.5224229E0,-7.581626E-1,-1.595246E0,-5.397673E-2,-1.3684216E0,-1.8254466E-2,1.093673E0,-1.2215986E0,-1.648995E0,-1.3250357E0,-4.9429515E-1,-1.7424041E0,-1.6987063E0,-1.4416856E0,-6.854498E-1,-5.4154914E-2,-5.3552803E-2,-1.6432325E0,-1.3642046E0,-5.4046392E-2,-9.558987E-3,-1.4138523E0,9.6315044E-1,-5.368972E-1,5.823249E-2,-5.117544E-1,-3.2564497E-1,1.3866012E0,-4.1658953E-2,-2.7179682E-1,2.8710306E-2,-1.4804371E-3,-1.7351454E0,-1.4629648E0,-1.5565255E0,-1.1334726E0,-1.1743692E0,5.6772345E-1,-1.5609101E0,-7.8979975E-1,-1.5752982E0,-1.1459997E0,-9.712212E-1,-9.732269E-2,-1.4209036E0,-1.6914599E0,-1.5152546E0,-2.9758474E-2,-8.28906E-1,1.1947144E0,-4.8729535E-2,-2.5385253E-2,-1.4648174E0,-1.6708809E0,-1.4338468E0,-9.749716E-1,-9.95568E-1,-7.2843805E-2,-5.4696266E-2,-1.3680649E0,-5.380693E-2,-1.6264385E0,-1.7081053E0,-1.3524368E0,-9.618963E-1,-1.3271944E-1,-1.6062243E0,-5.388138E-2,-1.6397054E0,-1.2238544E0,-1.505786E0,-1.0378238E0,1.1749641E0,5.281779E-3,-1.2148547E0,-3.0235252E-1,7.007272E-1,-6.7316675E-1,9.124245E-1,-5.6272256E-1,1.4216641E0,-7.72612E-2,-1.8702194E-2,1.9530368E-3,-1.6246186E0,-5.4749805E-2,-3.6714274E-2,-5.3217717E-2,-1.4499596E0,-1.7636615E0,5.8819015E-2,-1.4599404E0,-1.5727558E0,-7.294158E-1,-1.2240491E0,6.8547E-1,-1.6627547E0,-1.3153546E0,-9.5617485E-1,8.627991E-2,-1.6708049E0,-1.4529712E0,-1.0724689E-2,-1.2919894E0,-1.0890795E0,-1.4705627E-1,-1.0951995E0,1.2085331E-1,-1.5548699E0,-2.6767114E-2,-1.5390552E0,-5.4490574E-2,-5.0893813E-2,-4.041348E-2,-3.7065696E-2,-1.5851637E-2,3.4020358E-1,1.3324058E0,-1.5427487E0,-2.28177E-2,-1.571429E0,-1.7021217E0,-1.3661683E0,-5.468993E-2,4.9222283E-2,-1.1353204E0,-1.4520012E0,-6.9468874E-1,5.9363864E-2,-2.1590373E-1,-3.0099249E-2,-5.4230165E-2,-5.179532E-2,-4.2804625E-2,-4.12223E-2,-5.3883072E-2,-1.2561302E0,-1.7098106E0,-3.7696964E-1,-1.2437975E0,1.900757E-1,-7.46538E-1,-1.7107707E0,-1.5634989E0,-5.2425124E-2,-4.1384336E-2,-9.073302E-1,-1.4077863E0,-4.875707E-2,-3.4996364E-2,-4.116323E-2,-2.1524003E-2,2.4008272E-2,4.2208686E-2,-4.1098736E-2,-1.6506078E-2,-1.5149791E-2,1.7924096E-2,3.3868697E-2,3.2926516E-3,-3.8029637E-2,-1.2477687E-2,1.1177911E-2,3.7435327E-2,-4.046143E-3,-3.3139236E-2,4.4603396E-2,-2.7725812E-2,1.2459553E-2,-2.107632E-2,-5.5475798E-2,-4.5556378E-2,-4.6293557E-2,-2.3707766E-2,-5.575582E-2,-4.3843932E-2,-4.0363636E-2,-5.330775E-2,-4.5148782E-2,-5.324805E-2,8.8978495E-4,-3.0559808E-2,-1.840974E-2,-4.553849E-2,2.4027862E-2,-3.693942E-2,-4.2693615E-2,-5.3715404E-2,-4.8784222E-2,-3.178655E-2,-3.9567117E-2,-1.5677039E-2,2.1294001E-2,-1.4118047E-2,-4.9074214E-2,-5.3224325E-2,-3.6726978E-2,-5.119382E-2,-5.1294595E-2,-3.0268593E-2,-2.8973704E-2,-5.142339E-2,-5.12804E-2,1.3591723E-3,-2.5241608E-2,-4.4975888E-2,-1.3848975E-2,1.3578804E-2,-4.0043887E-2,-5.2263215E-2,-5.4101784E-2,-4.0488154E-2,-2.5060235E-2,2.6754422E-2,4.364736E-2,-2.0244184E-3,-5.3053204E-2,-4.16591E-2,-3.6435988E-2,-4.96534E-2,-5.3679112E-2,-5.0814398E-2,-5.270278E-2,-3.9501637E-2,-4.4339973E-2,-2.1916235E-2,-4.9736388E-2,-3.5210747E-2,5.9065517E-2,-2.54324E-2,-4.8967894E-2,-4.9542108E-5,-4.499101E-2,-3.174013E-2,-5.4248743E-2,-4.4652425E-2,-2.7657803E-2,1.4583015E-2,-4.4737335E-2,-2.590757E-2,1.5126176E-2,-1.0358582E-2,-9.683653E-3,-3.5844155E-2,-5.3414095E-2,-4.893819E-2,-4.6553437E-2,-5.200357E-2,-2.0499127E-2,-4.7145095E-2,-4.7137562E-2,-3.6906775E-2],"categories":[],"categories_nodes":[],"categories_segments":[],"categories_sizes":[],"default_left":[0,0,0,0,0,0,0,0,0,0,0,0,0,0,0,0,0,0,0,0,0,0,0,0,0,0,0,0,0,0,0,0,0,0,0,0,0,0,0,0,0,0,0,0,0,0,0,0,0,0,0,0,0,0,0,0,0,0,0,0,0,0,0,0,0,0,0,0,0,0,0,0,0,0,0,0,0,0,0,0,0,0,0,0,0,0,0,0,0,0,0,0,0,0,0,0,0,0,0,0,0,0,0,0,0,0,0,0,0,0,0,0,0,0,0,0,0,0,0,0,0,0,0,0,0,0,0,0,0,0,0,0,0,0,0,0,0,0,0,0,0,0,0,0,0,0,0,0,0,0,0,0,0,0,0,0,0,0,0,0,0,0,0,0,0,0,0,0,0,0,0,0,0,0,0,0,0,0,0,0,0,0,0,0,0,0,0,0,0,0,0,0,0,0,0,0,0,0,0,0,0,0,0,0,0,0,0,0,0,0,0,0,0,0,0,0,0,0,0,0,0,0,0,0,0,0,0,0,0,0,0,0,0,