tree
version=v4
num_class=1
num_tree_per_iteration=1
label_index=0
max_feature_idx=30
objective=binary sigmoid:1
feature_names=income name_email_similarity prev_address_months_count current_address_months_count customer_age days_since_request intended_balcon_amount payment_type zip_count_4w velocity_6h velocity_24h velocity_4w bank_branch_count_8w date_of_birth_distinct_emails_4w employment_status credit_risk_score email_is_free housing_status phone_home_valid phone_mobile_valid bank_months_count has_other_cards proposed_credit_limit foreign_request source session_length_in_minutes device_os keep_alive_session device_distinct_emails_8w device_fraud_count month
feature_infos=[0.10000000000000001:0.90000000000000002] [0.0001064244645685:0.99999986413599962] [-1:374] [-1:423] [10:90] [1.373748526392604e-08:75.554325187951932] [-15.537328698846196:112.88109687448107] [0:4] [2:6587] [-75.120622148735947:16750.981741514857] [1328.3061250905007:9501.0928948653] [2978.7878985790448:7019.2010299005897] [0:2360] [0:38] [0:6] [-155:373] [0:1] [0:6] [0:1] [0:1] [-1:32] [0:1] [190:2100] [0:1] [0:1] [-1:85.567847802750109] [0:4] [0:1] [-1:2] none [0:7]
tree_sizes=3556 3569 3577 3587 3569 3572 3562 3571 3554 3544 3586 3562 3559 3539 3575 3572 3571 3563 3559 3544 3567 3575 3565 3594 3559 3572 3589 3566 3579 3564 3564 3578 3564 3554 3552 3535 3589 3546 3585 3546 3576 3580 3538 3566 3557 3556 3553 3549 3546 3561 3561 3522 3541 3577 3532 3545 3566 3557 3554 3560 3560 3537 3542 3547 3547 3544 3570 3553 3558 3562 3559 3541 3548 3533 3566 3556 3574 3571 3542 3567 3558 3555 3577 3554 3557 3544 3566 3565 3567 3551 3571 3564 3577 3541 3565 3556 3569 3551 3558 3568

Tree=0
num_leaves=31
num_cat=0
split_feature=27 18 17 17 21 17 3 18 21 0 17 4 21 18 3 17 21 21 3 0 3 0 21 3 14 14 20 0 7 7
split_gain=276589 127241 79451.4 38019.2 36877.8 25536.3 28632.6 19478.9 16192.6 14377.5 10880 8866.56 7465.75 7368.01 6635.82 8870.12 5526.5 5345.91 5053.22 4822.63 4490.61 4076.4 4073.73 3520.95 3428.42 3299.93 2909.81 2775.5 2607.85 2414.96
threshold=1.0000000180025095e-35 1.0000000180025095e-35 1.5000000000000002 1.0000000180025095e-35 1.0000000180025095e-35 3.5000000000000004 39.500000000000007 1.0000000180025095e-35 1.0000000180025095e-35 0.10004211241595962 1.0000000180025095e-35 20.500000000000004 1.0000000180025095e-35 1.0000000180025095e-35 38.500000000000007 3.5000000000000004 1.0000000180025095e-35 1.0000000180025095e-35 15.500000000000002 0.10004211241595962 14.500000000000002 0.10004211241595962 1.0000000180025095e-35 18.500000000000004 1.0000000180025095e-35 4.5000000000000009 30.500000000000004 0.10004211241595962 2.5000000000000004 2.5000000000000004
decision_type=2 2 2 2 2 2 2 2 2 2 2 2 2 2 2 2 2 2 2 2 2 2 2 2 2 2 2 2 2 2
left_child=1 2 4 7 9 6 18 12 21 -1 17 -11 23 14 -5 16 19 -3 -4 -16 -13 -8 -20 -2 -21 26 29 -25 -29 -22
right_child=3 10 5 13 -6 -7 8 -9 -10 11 -12 20 -14 -15 15 -17 -18 -19 22 24 25 -23 -24 27 -26 -27 -28 28 -30 -31
leaf_value=-0.045239857981606832 -0.053217090397578673 0.0089203725793305412 -0.068034207270184333 -0.086525673919467569 -0.056227758711146117 -0.078798879523506532 -0.0437890822047452 -0.079196059525797988 -0.089962949590075891 0.022642778821160916 -0.076445604753326568 0.028855295859554493 -0.092217146703020544 -0.097371305165292119 -0.091784858724220639 -0.09681313426541989 -0.10047857968400459 -0.089724995097447219 0.0036095389585566011 -0.0058420812775057812 0.088183762868604201 0.063224464849392412 -0.098866306048827832 -0.076316090942542006 -0.060714026538869106 -0.0752533821850115 -0.028990084853191846 0.047057128674212315 -0.047893738762296093 0.032554399839029247
leaf_weight=2309.2488988637924 1152.2494505643845 6924.496698141098 7657.7463485002518 25663.737762570381 5329.9974584579468 9014.4957015514374 926.99955797195435 6771.4967710971832 1981.9990549087524 6201.2470430135727 23036.989015102386 3553.4983055591583 1337.2493623495102 33370.734087586403 2480.2488173246384 8161.746108174324 2900.9986166954041 1713.2491830587387 6777.9967679977417 13711.243461966515 101269.7017108202 22233.489398241043 1131.7494603395462 515.49975419044495 3592.4982869625092 316.24984920024872 542.49974131584167 13142.743733048439 765.24963510036469 1989.249051451683
leaf_count=9237 4609 27698 30631 102655 21320 36058 3708 27086 7928 24805 92148 14214 5349 133483 9921 32647 11604 6853 27112 54845 405079 88934 4527 2062 14370 1265 2170 52571 3061 7957
internal_value=-0.00141085 0.0335585 0.0505875 -0.0638915 0.0723746 -0.00265354 0.0142075 -0.00753423 0.047203 0.0782744 -0.0585018 0.0807792 0.0211572 -0.0787422 -0.0677413 -0.0521131 -0.0360306 -0.0106454 -0.0390824 -0.0265804 0.0841275 0.0589412 -0.011053 0.0308909 -0.0172343 0.086014 0.0865053 0.03761 0.0418327 0.0871121
internal_weight=0 202911 171236 113566 121512 49724.5 40710 23684.5 25142.5 116182 31674.7 113872 16913 89881.2 56510.5 30846.7 22685 8637.75 15567.5 19784 107671 23160.5 7909.75 15575.7 17303.7 104118 103801 14423.5 13908 103259
internal_count=1265907 811644 684945 454263 486047 198898 162840 94738 100570 464727 126699 455490 67652 359525 226042 123387 90740 34551 62270 79136 430685 92642 31639 62303 69215 416471 415206 57694 55632 413036
is_linear=0
shrinkage=1


Tree=1
num_leaves=31
num_cat=0
split_feature=17 18 18 4 4 4 4 21 19 17 17 7 0 19 21 21 19 14 3 0 0 3 17 14 17 3 17 3 21 20
split_gain=213443 85640.3 60547.7 55531.1 57604.2 41764.3 68006 23897.1 13855.1 8256.56 8030.82 7591.46 6118.13 5956.83 5401.67 4884.18 4797.46 4428.05 4340.8 4194.14 3681.27 3672.27 3571.09 3417.85 3353.09 6853.21 4295.87 3054.82 2867.58 2847.3
threshold=1.0000000180025095e-35 1.0000000180025095e-35 1.0000000180025095e-35 20.500000000000004 29.500000000000004 30.500000000000004 39.500000000000007 1.0000000180025095e-35 1.0000000180025095e-35 1.5000000000000002 1.5000000000000002 2.5000000000000004 0.10004211241595962 1.0000000180025095e-35 1.0000000180025095e-35 1.0000000180025095e-35 1.0000000180025095e-35 1.0000000180025095e-35 14.500000000000002 0.20000063887073202 0.10004211241595962 45.500000000000007 3.5000000000000004 1.0000000180025095e-35 3.5000000000000004 48.500000000000007 2.5000000000000004 17.500000000000004 1.0000000180025095e-35 30.500000000000004
decision_type=2 2 2 2 2 2 2 2 2 2 2 2 2 2 2 2 2 2 2 2 2 2 2 2 2 2 2 2 2 2
left_child=2 3 7 13 -5 9 -7 11 -8 15 14 12 -1 -2 19 17 -4 20 -14 -10 -6 -11 28 -21 25 -15 -27 -22 -23 -20
right_child=1 -3 16 4 5 6 8 -9 10 21 -12 -13 18 24 -16 -17 -18 -19 29 23 27 22 -24 -25 -26 26 -28 -29 -30 -31
leaf_value=-0.032666414769821663 0.018302508987519537 -0.083212750871405075 -0.0002952936634867977 0.097827133731138549 -0.086075673620193305 0.097371609375985324 0.059204502645714044 -0.048604276787402909 -0.068546230977241038 -0.078795674036486574 -0.056802901335419792 -0.012063164115739308 0.015165978086713706 -0.077524047057751455 -0.088383782122398891 -0.091985862141451005 -0.058407699265564765 -0.066166097976168056 0.080796421202913193 0.032433765189649071 -0.040453249013992339 -0.0096768709039378037 -0.087580873663203204 -0.03722717128214776 -0.08917229265350185 -0.035767365124193699 0.063859125965489413 0.032577622602242715 -0.092093931335409829 -0.038850810368841499
leaf_weight=1261.4083023965359 2079.4070209264755 56295.153292834759 5558.3214258998632 15122.431952387094 917.09985190629959 19073.965031400323 4755.0279666185379 4123.955538213253 1613.83228944242 14999.448921129107 16040.924969851971 2474.2402236461639 2650.0819781720638 14140.422340139747 1704.952989757061 1831.4698177874088 9836.7406698167324 2376.5837543904781 87382.495004177094 8458.9932437539101 1762.6042910218239 6576.5307705700397 2933.3350582271814 2223.6978413760662 12773.53301179409 6337.4128790944815 1304.8173519074917 7631.7880002707243 1257.1596857011318 500.08820714056492
leaf_count=5050 8326 225631 22249 60561 3674 76397 19046 16516 6464 60084 64246 9901 10604 56633 6830 7337 39388 9520 350118 33886 7059 26326 11757 8908 51192 25368 5224 30571 5040 2001
internal_value=0 -0.0308259 0.0547801 -0.0106147 0.00724478 -0.00730347 0.0214933 0.0692073 -0.0200989 -0.0458111 -0.0326508 0.0743612 0.0766907 -0.0638875 -0.00498071 -0.0156572 -0.0374265 -0.00463954 0.0782144 0.0065834 0.00954105 -0.062803 -0.0405238 0.0179332 -0.0688333 -0.0569063 -0.0187574 0.0188753 -0.0229033 0.0801156
internal_weight=0 202211 113787 145915 109280 94157.4 53871.4 98392.3 34797.4 40286 30042.4 94268.3 91794.1 36635.6 14001.5 14519.5 15395.1 12688.1 90532.7 12296.5 10311.5 25766.5 10767 10682.7 34556.2 21782.7 7642.23 9394.39 7833.69 87882.6
internal_count=1265907 810080 455827 584449 437706 377145 215777 394190 139380 161368 120334 377674 367773 146743 56088 58161 61637 50824 362723 49258 41304 103207 43123 42794 138417 87225 30592 37630 31366 352119
is_linear=0
shrinkage=0.05


Tree=2
num_leaves=31
num_cat=0
split_feature=27 18 17 17 21 17 3 18 21 0 17 4 21 18 19 21 3 3 21 0 3 17 19 21 0 14 19 14 20 3
split_gain=234786 103707 65028.9 30337.1 30326.5 21319.1 23931.9 15858.3 13716.9 11911.5 9168.98 7286.65 6118.29 5859.87 11264.2 4781.14 4317.83 3696.93 3681.53 3537.33 3512.17 4702 3276.77 3052.08 2824.07 2781.43 2632.4 2483.21 2402.29 2360.32
threshold=1.0000000180025095e-35 1.0000000180025095e-35 1.5000000000000002 1.0000000180025095e-35 1.0000000180025095e-35 3.5000000000000004 39.500000000000007 1.0000000180025095e-35 1.0000000180025095e-35 0.10004211241595962 1.0000000180025095e-35 20.500000000000004 1.0000000180025095e-35 1.0000000180025095e-35 1.0000000180025095e-35 1.0000000180025095e-35 13.500000000000002 15.500000000000002 1.0000000180025095e-35 0.10004211241595962 40.500000000000007 3.5000000000000004 1.0000000180025095e-35 1.0000000180025095e-35 0.10004211241595962 4.5000000000000009 1.0000000180025095e-35 1.0000000180025095e-35 30.500000000000004 18.500000000000004
decision_type=2 2 2 2 2 2 2 2 2 2 2 2 2 2 2 2 2 2 2 2 2 2 2 2 2 2 2 2 2 2
left_child=1 2 4 7 9 6 16 12 19 -1 15 -11 22 14 -5 -3 -4 -13 -18 -8 -16 23 -2 24 -22 28 -12 29 -19 -24
right_child=3 10 5 13 -6 -7 8 -9 -10 11 26 17 -14 -15 20 -17 18 25 -20 -21 21 -23 27 -25 -26 -27 -28 -29 -30 -31
leaf_value=-0.039676463273729992 0.075125774535100845 0.011390380124349717 -0.063365691779476152 0.023222970672601359 -0.04932030635239934 -0.070336571290955677 -0.039848162121026182 -0.072088654015817807 -0.08153681510398389 0.022438975746158801 -0.037973820433080646 0.030036339600282947 -0.084263719275338503 -0.087737632918715183 -0.080510349237305032 -0.082075651997655749 0.0031290778885695973 0.081021623127578796 -0.089965721347997976 0.059918200992361864 -0.085884156857849892 -0.087623401090340794 -0.053147476627636386 -0.091239982320613852 -0.025541768128616523 -0.069051004468275098 -0.077282608423542148 -0.050057013487582014 -0.024886104398211442 0.030568304725432045
leaf_weight=2303.7077952921391 2925.1085973829031 6922.1687349081039 6905.4672308713198 3689.9255971461535 5310.7903247773647 8958.6145506352186 925.59674936532974 6745.6162723600864 1969.8992337435484 6193.0596750229597 5657.1220650672913 3837.7673288434744 1330.6421873867512 33100.161395832896 25410.589217662811 1705.320431008935 7367.8835939466953 102288.85769355297 1240.8320460170507 22156.654187306762 2238.0446863621473 7729.5949128568172 916.03233754634857 2662.1902051270008 14509.592037513852 311.9859267771244 17233.690917491913 1265.1654065847397 538.25692485272884 10413.792517647147
leaf_count=9237 11745 27698 27748 14784 21320 36058 3708 27086 7928 24805 22773 15371 5349 133483 102242 6853 29524 411907 4998 88934 8999 31173 3666 10733 58111 1252 69375 5077 2155 41815
internal_value=0 0.0323028 0.0477214 -0.057728 0.0675052 -0.00052865 0.0148876 -0.00730365 0.0451093 0.0728782 -0.0510118 0.0751693 0.0186308 -0.071046 -0.0612221 -0.00708423 -0.033914 0.078222 -0.0102893 0.0559176 -0.0671517 -0.0546439 0.0274526 -0.0415105 -0.0336055 0.080015 -0.067568 0.0163809 0.0804672 0.0237998
internal_weight=0 201828 170309 112936 120784 49524.9 40566.3 23596.4 25052.2 115474 31518.3 113170 16850.7 89340.1 56239.9 8627.49 15514.2 106977 8608.72 23082.3 52550 27139.4 15520.1 19409.8 16747.6 103139 22890.8 12595 102827 11329.8
internal_count=1265907 811644 684945 454263 486047 198898 162840 94738 100570 464727 126699 455490 67652 359525 226042 34551 62270 430685 34522 92642 211258 109016 62303 77843 67110 415314 92148 50558 414062 45481
is_linear=0
shrinkage=0.05


Tree=3
num_leaves=31
num_cat=0
split_feature=27 18 17 17 21 17 3 18 21 17 14 3 21 18 19 21 3 3 17 21 20 19 21 1 14 19 14 1 3 1
split_gain=213321 94199.2 59259.7 27689.3 27595.2 19362.4 21684.8 14391.5 12442.8 8374.17 7831.88 6375.44 5553.91 5456.4 10255.6 4345.86 3972.88 3264.36 4191.12 3140.76 3109.2 2983.79 2925.51 2474.22 2463.08 2422.75 2242.04 2138.35 2134.17 2014.1
threshold=1.0000000180025095e-35 1.0000000180025095e-35 1.5000000000000002 1.0000000180025095e-35 1.0000000180025095e-35 3.5000000000000004 39.500000000000007 1.0000000180025095e-35 1.0000000180025095e-35 1.0000000180025095e-35 2.5000000000000004 15.500000000000002 1.0000000180025095e-35 1.0000000180025095e-35 1.0000000180025095e-35 1.0000000180025095e-35 16.500000000000004 34.500000000000007 3.5000000000000004 1.0000000180025095e-35 30.500000000000004 1.0000000180025095e-35 1.0000000180025095e-35 0.84652168257435301 1.0000000180025095e-35 1.0000000180025095e-35 1.0000000180025095e-35 0.82323747749547205 18.500000000000004 0.70483336913050187
decision_type=2 2 2 2 2 2 2 2 2 2 2 2 2 2 2 2 2 2 2 2 2 2 2 2 2 2 2 2 2 2
left_child=1 2 4 7 10 6 16 12 27 15 11 -1 21 14 -5 -3 -4 -16 22 -18 23 -2 24 -13 29 -11 28 -8 -23 -19
right_child=3 9 5 13 -6 -7 8 -9 -10 25 -12 20 -14 -15 17 -17 19 18 -20 -21 -22 26 -24 -25 -26 -27 -28 -29 -30 -31
leaf_value=0.01464999737591839 0.07178010067684755 0.010819794825347206 -0.057052160758452465 0.022063734081956575 -0.047019615814378968 -0.067268918756488716 0.057834823088289335 -0.068881438755535124 -0.078083571920975592 -0.036200478157927922 -0.025559470593505863 0.076551709390034695 -0.080683167413270973 -0.084192169428636915 -0.078758698907825497 -0.078545823717447616 0.0066916702581994066 -0.01413184527727163 -0.084236404048648739 -0.086082612414832463 -0.034348065553008483 -0.050573421861518489 -0.087731736949593575 0.043466478416379753 -0.067935322186602018 -0.073995167589390773 -0.047492918337407326 0.0017944010340986292 0.029095889894423563 -0.056612860975628371
leaf_weight=4716.8090587854385 2908.7680030316114 6922.8319026827812 7921.3452740758657 3689.6097967326641 5292.5671954751015 8900.2278218865395 21145.758638486266 6707.6354545652866 1954.5405099987984 5638.0173291116953 2115.3619553148746 101156.44784815609 1320.4546049237251 32777.240841448307 22148.314675733447 1693.1527598500252 6485.4854133278131 10868.779551237822 8090.5677085071802 1061.5858833789825 657.63207785785198 914.5563281327486 3034.3044754266739 5985.1543170958757 4339.0697640627623 17102.585351094604 1266.7483348697424 1851.2436169981956 10394.242603465915 3753.8332805037498
leaf_count=18909 11745 27698 31969 14784 21320 36058 85198 27086 7928 22773 8524 410404 5349 133483 89811 6853 25983 43607 32946 4318 2635 3666 12353 24255 17471 69375 5077 7444 41815 15070
internal_value=0 0.0308812 0.0456293 -0.0552063 0.064603 -0.000506047 0.0141947 -0.00696494 0.04303 -0.04872 0.0697566 0.0715486 0.0177491 -0.0679938 -0.0584999 -0.00674171 -0.0323184 -0.0641905 -0.0534662 -0.00635814 0.0740382 0.0261431 -0.0421482 0.0747035 -0.0348538 -0.0646248 0.0155871 0.0533236 0.0226529 -0.0250373
internal_weight=0 200601 169244 112214 119924 49320.2 40420 23512.4 24951.5 31356.6 114631 112516 16804.8 88701.7 55924.5 8615.98 15468.4 52234.9 30086.6 7547.07 107799 15484.3 21996 107142 18961.7 22740.6 12575.5 22997 11308.8 14622.6
internal_count=1265907 811644 684945 454263 486047 198898 162840 94738 100570 126699 464727 456203 67652 359525 226042 34551 62270 211258 121447 30301 437294 62303 88501 434659 76148 92148 50558 92642 45481 58677
is_linear=0
shrinkage=0.05


Tree=4
num_leaves=31
num_cat=0
split_feature=27 18 17 17 17 3 0 18 4 17 18 19 14 0 3 19 3 3 17 19 14 17 1 19 19 14 0 5 4 4
split_gain=194230 85717.2 54136.7 25363.3 17619.5 19671.9 13679.6 13088 8624.86 7673.76 5126.98 9364.81 4659.67 3721.05 3627.08 3520.03 3180.24 3086.04 4182.19 2871.31 2641.3 2573.53 2833.35 2251.31 2247 2238.58 2230.19 2075.02 2038.68 2829.88
threshold=1.0000000180025095e-35 1.0000000180025095e-35 1.5000000000000002 1.0000000180025095e-35 3.5000000000000004 39.500000000000007 0.10004211241595962 1.0000000180025095e-35 20.500000000000004 1.0000000180025095e-35 1.0000000180025095e-35 1.0000000180025095e-35 1.0000000180025095e-35 0.10004211241595962 13.500000000000002 1.0000000180025095e-35 15.500000000000002 43.500000000000007 3.5000000000000004 1.0000000180025095e-35 4.5000000000000009 2.5000000000000004 0.80852706423779053 1.0000000180025095e-35 1.0000000180025095e-35 1.0000000180025095e-35 0.10004211241595962 0.062845934493902564 49.500000000000007 50.500000000000007
decision_type=2 2 2 2 2 2 2 2 2 2 2 2 2 2 2 2 2 2 2 2 2 2 2 2 2 2 2 2 2 2
left_child=1 2 6 7 5 14 -1 15 -8 19 11 -5 16 -7 -4 -2 -10 -13 26 -3 -14 22 -15 -16 -11 -17 -19 -28 -18 -30
right_child=3 9 4 10 -6 13 8 -9 12 24 -12 17 20 21 23 25 28 18 -20 -21 -22 -23 -24 -25 -26 -27 27 -29 29 -31
leaf_value=-0.048134667414082885 0.06663701950233665 0.027444317567695331 -0.058019261934263634 0.020967622824776225 -0.064467110907544964 -0.048075403115940205 0.0096938847464437313 -0.065962515905861149 0.02597164184020552 -0.034527913567248186 -0.081052312359619891 -0.073431653349022755 0.041922236484274247 0.042588254560161784 0.063611243474627932 0.013375105906014734 0.074707289641792893 -0.08093703854563751 -0.080865589141930941 -0.031069741008019122 -0.073094629252982643 0.074970444241104703 -0.024582378051139338 -0.018196783323203677 -0.07102485493887449 -0.051372346756801759 -0.036175357956536612 0.018254114849922856 -0.0048470636525273616 0.074665223631376926
leaf_weight=2756.7253441214561 2936.508536323905 3622.5091853886843 6828.7542700022459 3688.3929135799408 8824.5793841481209 1117.262318611145 6746.3467836529016 6655.5278062522411 3725.1155102550983 5616.1303105205297 32355.136224061251 26467.702659249306 9872.8982349038124 16382.987598255277 945.07763549685478 12308.263392105699 90651.260182484984 2400.4588104188442 7329.2173070013523 4976.8956331312656 525.73498795926571 5585.7412515878677 1736.32167519629 7634.800095975399 16931.209350004792 1497.3610061556101 13608.030056670308 2009.623088285327 1963.7012064754963 2601.5075233131647
leaf_count=11074 11953 14519 27748 14784 36058 4494 27131 27086 14958 22773 133483 108328 40293 66397 3790 49678 371781 9795 30238 20032 2124 22670 7009 30732 69375 6021 54827 8070 8024 10662
internal_value=0 0.0295735 0.0437057 -0.0529128 -0.000485431 0.0135488 0.0619467 -0.00665168 0.0645608 -0.0466072 -0.0652327 -0.0560108 0.0679462 0.0410958 -0.0308276 0.0169263 0.0712924 -0.0614904 -0.0490213 -0.00642063 0.0361072 0.0452986 0.0361515 -0.00918559 -0.0619341 0.00635258 -0.036068 -0.0291716 0.0730654 0.0404634
internal_weight=0 199046 167899 111256 49055.5 40230.9 118843 23397.7 116087 31146.7 87858.6 55503.4 109340 24822.3 15408.6 16742.1 98941.6 51815 25347.3 8599.4 10398.6 23705.1 18119.3 8579.88 22547.3 13805.6 18018.1 15617.7 95216.5 4565.21
internal_count=1265907 811644 684945 454263 198898 162840 486047 94738 474973 126699 359525 226042 447842 100570 62270 67652 405425 211258 102930 34551 42417 96076 73406 34522 92148 55699 72692 62897 390467 18686
is_linear=0
shrinkage=0.05


Tree=5
num_leaves=31
num_cat=0
split_feature=17 18 18 4 4 4 4 21 19 7 19 3 21 0 19 3 21 21 0 19 17 3 14 17 17 17 3 0 19 14
split_gain=148963 58936.5 42078.8 41216.3 46979.9 31804 55110 17465.2 10434.8 6645.95 6002.38 5847.95 5407.57 4762.15 4411.22 4062.96 3986.46 3728.71 3492.52 3206.01 3203.76 3167.62 3005.16 2853.27 2092.21 5412 2268.98 2091.01 2034.59 1868.47
threshold=1.0000000180025095e-35 1.0000000180025095e-35 1.0000000180025095e-35 20.500000000000004 29.500000000000004 30.500000000000004 39.500000000000007 1.0000000180025095e-35 1.0000000180025095e-35 2.5000000000000004 1.0000000180025095e-35 40.500000000000007 1.0000000180025095e-35 0.10004211241595962 1.0000000180025095e-35 43.500000000000007 1.0000000180025095e-35 1.0000000180025095e-35 0.20000063887073202 1.0000000180025095e-35 3.5000000000000004 17.500000000000004 1.0000000180025095e-35 1.5000000000000002 3.5000000000000004 2.5000000000000004 48.500000000000007 0.20000063887073202 1.0000000180025095e-35 2.5000000000000004
decision_type=2 2 2 2 2 2 2 2 2 2 2 2 2 2 2 2 2 2 2 2 2 2 2 2 2 2 2 2 2 2
left_child=2 3 7 14 -5 10 -7 9 -8 13 -6 -10 18 -1 -2 -12 19 20 -13 -4 22 -15 27 29 25 26 -16 -17 -3 -20
right_child=1 28 16 4 5 6 8 -9 11 -11 15 12 -14 21 24 17 -18 -19 23 -21 -22 -23 -24 -25 -26 -27 -28 -29 -30 -31
leaf_value=-0.031133416536379434 0.015202186739837238 -0.051702877891768743 0.014200205110128287 0.089128082050770496 0.030577299551068082 0.087783493192778839 0.05020986853059152 -0.042508778936432026 -0.061264527132622072 -0.017983802089803363 -0.062179099423174747 -0.060886927159803109 -0.079898337820460463 0.018258631219571286 -0.070445507213671085 -0.051521365404747201 -0.079894485461730225 -0.082524560759297511 0.030942363128725676 -0.038723633400216742 -0.073440074457303772 0.068676946644824072 -0.061984961144115058 -0.019509524856330129 -0.07652245600787716 0.028642642712346889 -0.033917648642678142 0.011839373650221021 -0.075501517787765246 -0.076601960942097286
leaf_weight=1258.647995904088 2065.0159891843796 11365.367094248533 4773.4924280643463 14756.694058865309 2729.1436367630959 18558.841012895107 4665.9377402663231 4082.233458340168 10033.718516647816 2453.5782712846994 19174.675198435783 2300.2635182887316 2701.9086550921202 3234.5124308615923 13128.940735772252 1530.0263672173023 3263.7343175262213 2730.3510390073061 7624.7556352317333 7144.3618256151676 2278.0566138923168 84507.490506723523 2200.4222883731127 6385.6391828209162 12289.70154812932 1955.9178913384676 6287.1609448194504 8742.2207705229521 42803.179959341884 426.46858873963356
leaf_count=5050 8326 46969 19234 60561 11073 76397 19046 16516 41123 9901 78886 9384 11101 13031 53870 6220 13401 11280 31164 29002 9503 349692 8928 25836 51192 7987 25368 35478 178662 1726
internal_value=0 -0.0261109 0.0463909 -0.009242 0.00630434 -0.0069686 0.0184348 0.0586785 -0.0192652 0.0631951 -0.0409587 -0.0302641 -0.0142628 0.0654331 -0.0557326 -0.0462848 -0.0309339 -0.0288507 -0.00366712 -0.0175259 -0.0189157 0.0668183 -0.00895716 0.00544986 -0.0600842 -0.0506315 -0.0586174 0.00240194 -0.0705082 0.0252458
internal_weight=0 196734 110718 142566 106839 92082.4 52697.5 95536.5 34138.7 91454.2 39384.9 29472.8 19439 89000.7 35726.7 36655.8 15181.6 17481.1 16737.1 11917.9 14750.7 87742 12472.7 14436.9 33661.7 21372 19416.1 10272.2 54168.5 8051.22
internal_count=1265907 810080 455827 584449 437706 377145 215777 394190 139380 377674 161368 120334 79211 367773 146743 150295 61637 71409 68110 48236 60129 362723 50626 58726 138417 87225 79238 41698 225631 32890
is_linear=0
shrinkage=0.05


Tree=6
num_leaves=31
num_cat=0
split_feature=27 21 4 18 17 3 18 0 17 3 17 4 17 21 18 19 4 20 14 18 17 3 17 21 19 0 0 4 14 14
split_gain=167516 76875.5 51069.6 36969.4 20744.1 15055 10752.7 9691.73 6016.4 6880.47 5938.39 5329.64 5307.95 4545.62 4415.33 7682.45 4335.4 4002.13 3566.74 3333.52 3302.9 2682.24 3206.25 2586.67 2481.65 2395.55 2259.25 2158.44 2060.39 2032.81
threshold=1.0000000180025095e-35 1.0000000180025095e-35 20.500000000000004 1.0000000180025095e-35 1.0000000180025095e-35 17.500000000000004 1.0000000180025095e-35 0.10004211241595962 3.5000000000000004 44.500000000000007 3.5000000000000004 29.500000000000004 1.0000000180025095e-35 1.0000000180025095e-35 1.0000000180025095e-35 1.0000000180025095e-35 29.500000000000004 30.500000000000004 1.0000000180025095e-35 1.0000000180025095e-35 1.5000000000000002 24.500000000000004 3.5000000000000004 1.0000000180025095e-35 1.0000000180025095e-35 0.10004211241595962 0.1973405355111443 29.500000000000004 4.5000000000000009 1.0000000180025095e-35
decision_type=2 2 2 2 2 2 2 2 2 2 2 2 2 2 2 2 2 2 2 2 2 2 2 2 2 2 2 2 2 2
left_child=1 2 8 5 6 16 13 -7 9 -1 17 -5 -13 24 15 -6 -4 18 -9 -11 -18 -17 23 25 -2 -23 -27 -12 -20 -28
right_child=4 -3 3 11 14 7 -8 10 -10 19 27 12 -14 -15 -16 21 20 -19 28 -21 -22 22 -24 -25 -26 26 29 -29 -30 -31
leaf_value=-0.048981212530518521 0.063708687651936019 -0.068978911850991351 0.093933528434420044 0.11689428303316465 0.017415487048431558 -0.03113602079634667 -0.061905590564859517 0.068981029368710103 -0.069537411045976244 0.027355232277283526 0.10492338984873306 0.012663876927018475 -0.044660913973591843 -0.076057602424188755 -0.075957270646948238 -0.073631306511615854 0.015612138375786594 -0.041607193429852189 0.043667655707883841 -0.061793735539263234 -0.048073151975747741 -0.076168150296883327 -0.076316487764472085 -0.080681174630553201 0.011804443428985123 0.10452079067596504 -0.021265065708587102 -0.049274777370210139 -0.070964323747438954 -0.061122350479577349
leaf_weight=7679.5662585496902 2824.9542593955994 18595.135580182076 997.70526751875877 699.24604094028473 3674.5497526675463 2731.5755352526903 6547.5702417194843 108834.87556031346 6953.2190026342869 7818.6862286329269 266.6615542024374 6334.420677870512 11139.475617468357 1298.1747108995914 31331.792606964707 17026.659271970391 4038.3789666742086 867.16326870024204 10987.183031365275 1211.0183020085096 4105.7857472002506 2944.8179071545601 8283.6988409012556 3462.8628773391247 12461.570169374347 317.61815144121647 14672.780403122306 1523.7342489510775 406.4949212372303 4090.9869617670774
leaf_count=31377 11745 77006 4042 2877 14784 11051 27086 456253 29173 31652 1069 25385 46559 5349 133483 71608 16301 3484 45489 5020 16917 12287 35262 14635 50558 1282 59403 6331 1658 16781
internal_value=0 0.0277207 0.0379029 0.0484794 -0.0496733 0.0575071 -0.00765127 0.0620155 -0.0304539 -0.0141901 0.0640861 -0.0184637 -0.0238802 0.0137681 -0.061002 -0.0524001 -0.00444246 0.0654226 0.0661946 0.015399 -0.0164941 -0.0574502 -0.0492925 -0.0405099 0.0213964 -0.0341944 -0.0277166 -0.0263085 0.0395779 -0.029955
internal_weight=0 195190 176595 152933 108938 134760 23132.3 125618 23662.5 16709.3 122886 18173.1 17473.9 16584.7 85805.8 54474 9141.87 121096 120229 9029.7 8144.16 50799.4 33772.8 25489.1 15286.5 22026.2 19081.4 1790.4 11393.7 18763.8
internal_count=1265907 811644 734638 637416 454263 562595 94738 525335 97222 68049 514284 74821 71944 67652 359525 226042 37260 506884 503400 36672 33218 211258 139650 104388 62303 89753 77466 7400 47147 76184
is_linear=0
shrinkage=0.05


Tree=7
num_leaves=31
num_cat=0
split_feature=27 21 17 18 17 17 3 18 0 18 4 18 19 21 22 0 14 3 17 21 3 3 0 3 0 0 18 14 19 3
split_gain=153251 70298.8 46776.2 20959.3 19192.4 17036.2 16674.3 9821.18 8562.45 6746.02 5248 4234.6 7064.53 4148.02 3522.46 2923.06 2575.37 2550.27 3084.75 2441.65 2367.26 2365.91 2235.14 2167.35 2040.66 1987.96 1969.34 1894.2 1891.61 1843.22
threshold=1.0000000180025095e-35 1.0000000180025095e-35 1.5000000000000002 1.0000000180025095e-35 1.0000000180025095e-35 3.5000000000000004 35.500000000000007 1.0000000180025095e-35 0.10004211241595962 1.0000000180025095e-35 20.500000000000004 1.0000000180025095e-35 1.0000000180025095e-35 1.0000000180025095e-35 1000.0649826309074 0.10004211241595962 2.5000000000000004 26.500000000000004 3.5000000000000004 1.0000000180025095e-35 13.500000000000002 16.500000000000004 0.10004211241595962 13.500000000000002 0.10004211241595962 0.1973405355111443 1.0000000180025095e-35 1.0000000180025095e-35 1.0000000180025095e-35 16.500000000000004
decision_type=2 2 2 2 2 2 2 2 2 2 2 2 2 2 2 2 2 2 2 2 2 2 2 2 2 2 2 2 2 2
left_child=1 2 3 8 7 6 20 13 -1 15 -10 12 29 21 28 -8 23 -14 19 22 -4 -2 -19 -12 -23 -24 -22 -27 -5 -6
right_child=4 -3 5 14 11 -7 9 -9 10 -11 16 -13 17 -15 -16 -17 -18 18 -20 -21 26 24 25 -25 -26 27 -28 -29 -30 -31
leaf_value=-0.035317721372825552 -0.052502085727217256 -0.066427430550628441 -0.052740948068398491 0.0056418848477928158 -0.065592674377924792 -0.060932380800867027 -0.039790866012249397 -0.059541479119915343 0.017615143222895979 -0.028498612987468471 0.025105590077401194 -0.073663623613779067 -0.070730274750602062 -0.073325983660942798 0.033689560429571545 0.047506183345049288 -0.0017365473623808412 -0.073591210988518924 -0.073968272823673784 -0.078223231889045119 4.4052058613013373e-05 -0.071773593643838937 0.098988869720617503 0.067513377123219948 0.029409451737694426 -0.019477764911262865 -0.065271914576525342 -0.05862795975501809 -0.041547913027369696 0.03184305060549792
leaf_weight=2284.4544372111559 1037.1810329407454 18350.100770518184 7151.3386272490025 3388.5831835865974 575.65540553629398 10250.503347963095 1001.2702460289001 6469.1564030349255 6136.6997871547937 3734.1506413519382 3109.9800384640694 30707.778241351247 17451.16843777895 1279.6743270456791 3747.1479478627443 22667.104770436883 1415.278805077076 2817.9496015012264 8034.8740967214108 3314.9837096482515 6023.7698228508234 517.14158803224564 313.76684848964214 96474.24375474453 13681.147797510028 14285.88377648592 1427.5358502417803 3942.1269443482161 5688.7033658921719 3095.0174630731344
leaf_count=9237 4169 77006 29899 13784 2306 43461 4036 27086 24805 15737 12535 133483 74656 5349 15179 93790 5805 11952 34898 14296 24340 2076 1265 412345 56058 57873 6036 16318 23649 12478
internal_value=0 0.0266646 0.036454 0.0533792 -0.0478327 -0.00314034 0.0109626 -0.00731946 0.060467 0.0339592 0.0625094 -0.0588473 -0.0503954 0.0131365 -0.00709552 0.0438132 0.0652372 -0.0552953 -0.0470604 -0.0382984 -0.0321915 0.0203987 -0.0321021 0.066189 0.0257241 -0.0257967 -0.0124693 -0.0279447 -0.0239318 0.0165626
internal_weight=0 192851 174501 122245 107524 52255.7 42005.2 22984.3 109421 27402.5 107136 84539.2 53831.4 16515.1 12824.4 23668.4 101000 50160.8 32709.6 24674.7 14602.6 15235.5 21359.7 99584.2 14198.3 18541.8 7451.31 18228 9077.29 3670.67
internal_count=1265907 811644 734638 517339 454263 217299 173838 94738 464727 113563 455490 359525 226042 67652 52612 97826 430685 211258 136602 101704 60275 62303 87408 424880 58134 75456 30376 74191 37433 14784
is_linear=0
shrinkage=0.05


Tree=8
num_leaves=31
num_cat=0
split_feature=27 21 4 18 17 3 18 17 17 3 7 4 22 18 19 4 21 14 20 18 17 1 3 17 19 4 21 7 19 17
split_gain=140395 64370.9 43730.9 31265.2 17793.2 12874.9 8981.58 6320.47 5062.91 5927.32 4858.95 4788.93 4614.19 4077.23 6506.38 4069.1 3791.82 3752.68 3084.8 2873.73 2841.14 2557.85 2464.11 3259.78 2279.04 2251.14 2109.16 2048.43 1834.11 1801.84
threshold=1.0000000180025095e-35 1.0000000180025095e-35 20.500000000000004 1.0000000180025095e-35 1.0000000180025095e-35 18.500000000000004 1.0000000180025095e-35 3.5000000000000004 3.5000000000000004 44.500000000000007 2.5000000000000004 29.500000000000004 1000.0649826309074 1.0000000180025095e-35 1.0000000180025095e-35 29.500000000000004 1.0000000180025095e-35 2.5000000000000004 30.500000000000004 1.0000000180025095e-35 1.5000000000000002 0.83758748814438733 43.500000000000007 3.5000000000000004 1.0000000180025095e-35 29.500000000000004 1.0000000180025095e-35 2.5000000000000004 1.0000000180025095e-35 1.0000000180025095e-35
decision_type=2 2 2 2 2 2 2 2 2 2 2 2 2 2 2 2 2 2 2 2 2 2 2 2 2 2 2 2 2 2
left_child=1 2 8 5 6 15 16 10 9 -1 17 -5 28 14 -6 -4 24 18 21 -11 -17 -7 -16 26 -2 -9 -24 -26 -13 -3
right_child=4 29 3 11 13 7 -8 25 -10 19 -12 12 -14 -15 22 20 -18 -19 -20 -21 -22 -23 23 -25 27 -27 -28 -29 -30 -31
leaf_value=-0.046239111303591103 0.060461870238375529 -0.035890973087754338 0.08956106430074906 0.11088799800280885 0.015771421592882719 0.064793897462297287 -0.057342063666546976 0.10291873326917876 -0.065167000744007594 0.024878775267109861 -0.0032456976118816839 -0.010193108442471075 0.022228486224223042 -0.071580753163252339 -0.06432472053803566 0.014684191004699754 -0.070845328729419996 -0.0085887345435342478 -0.036620704632930705 -0.058534522216019472 -0.043304917920729075 0.033289766207015195 -0.024053711631511585 -0.071403378843546389 0.015757133686907659 -0.049526295160581352 -0.075885546248485675 -0.065409661371481173 -0.050330444676784936 -0.072917925385435331
leaf_weight=7596.6682297587395 2770.5678735673428 4316.0597577095032 1066.6624074280262 705.82430475950241 3662.4883567690849 106850.66760118306 6383.6025285422802 280.2196152806282 6734.0604601055384 7770.9750085473061 3014.0402406603098 4247.42016518116 4398.386127948761 30038.220216691494 25020.326773107052 4258.6515375673771 1258.78611330688 1902.6310861557722 784.10618315637112 1190.78335288167 4190.793316245079 6856.2903106957674 15390.364400997758 6804.0775980204344 11567.736799314618 1783.3750065714121 2249.5978049337864 833.32384300231934 8627.6982454806566 13762.548362672329
leaf_count=31377 11745 18020 4392 2877 14784 461927 27086 1122 29173 31652 12485 17406 17967 133483 108328 17328 5349 7813 3155 5020 17549 29234 62771 30238 47212 7590 9921 3346 36571 58986
internal_value=0 0.0256773 0.0350972 0.0450589 -0.0461271 0.0535454 -0.00701093 0.057933 -0.0286131 -0.0137472 0.0594323 -0.0167689 -0.0219852 -0.0568576 -0.048533 -0.00246064 0.0125439 0.0610554 0.0622127 0.0137953 -0.0140775 0.0628943 -0.0532943 -0.0420038 0.0194627 -0.0288255 -0.0306637 0.0103029 -0.0370894 -0.0640782
internal_weight=0 190338 172259 148967 105979 130987 22814 121471 23292.5 16558.4 119408 17979.3 17273.5 83165.1 53126.9 9516.11 16430.4 116394 114491 8961.76 8449.44 113707 49464.4 24444 15171.6 2063.59 17640 12401.1 12875.1 18078.6
internal_count=1265907 811644 734638 637416 454263 562595 94738 523326 97222 68049 514614 74821 71944 359525 226042 39269 67652 502129 494316 36672 34877 491161 211258 102930 62303 8712 72692 50558 53977 77006
is_linear=0
shrinkage=0.05


Tree=9
num_leaves=31
num_cat=0
split_feature=17 18 18 4 4 4 4 21 3 7 21 17 0 0 21 1 0 3 21 17 17 17 3 20 14 3 4 4 4 7
split_gain=108464 42768.7 30060.1 29921.1 38310.2 24776.4 45877 11551.7 6086.57 5678.95 4931.52 4305.91 3769.95 3466.8 3275.75 2831.56 2730.73 2535.69 2469.18 2395.74 2299.18 5640.56 2249.58 2110.71 1961.04 1883.99 1783.92 5201.59 2457.69 1741.29
threshold=1.0000000180025095e-35 1.0000000180025095e-35 1.0000000180025095e-35 20.500000000000004 29.500000000000004 30.500000000000004 39.500000000000007 1.0000000180025095e-35 40.500000000000007 2.5000000000000004 1.0000000180025095e-35 1.5000000000000002 0.10004211241595962 0.20000063887073202 1.0000000180025095e-35 0.82323747749547205 0.4000238797509531 13.500000000000002 1.0000000180025095e-35 3.5000000000000004 3.5000000000000004 2.5000000000000004 50.500000000000007 30.500000000000004 1.0000000180025095e-35 48.500000000000007 49.500000000000007 40.500000000000007 50.500000000000007 2.5000000000000004
decision_type=2 2 2 2 2 2 2 2 2 2 2 2 2 2 2 2 2 2 2 2 2 2 2 2 2 2 2 2 2 2
left_child=2 3 7 20 -5 11 -7 9 -8 12 13 16 -1 -10 29 19 -6 -14 24 26 21 22 -2 -19 -18 -13 27 -15 -28 -4
right_child=1 -3 14 4 5 6 8 -9 10 -11 -12 25 17 15 -16 -17 18 23 -20 -21 -22 -23 -24 -25 -26 -27 28 -29 -30 -31
leaf_value=-0.028657242086844611 -0.059598812803571349 -0.06213890394462257 -0.0075696440230857524 0.082007054720023134 -0.048646822543790595 0.081193739782310259 -0.050313232303018811 -0.032379964030516628 -0.050724911674306483 -0.020179177778402772 -0.067760434056157698 -0.061671751121040008 0.0083243296892755187 0.011032784737565282 -0.071370842017292477 -0.048696541973383328 0.018906495021690325 0.06083724634070023 -0.072271927100955521 -0.065875078263931103 -0.066729626990079824 0.035228240865666852 -0.023846449453436613 -0.042208526164414596 -0.048536201522589972 -0.033053034834183689 -0.066717079067872109 0.082970051173959197 0.039573637759297592 -0.076845697577156535
leaf_weight=1254.3847380429506 13458.018839672208 50575.459134757519 10691.764795392752 14018.248332902789 4228.3372601866722 17562.47497536242 10499.067700773478 3936.5091009289026 2483.1573687493801 2428.6414555460215 2682.7811789363623 14539.388296410441 2427.04436416924 9041.2443836480379 3085.4328329116106 1704.3407486379147 7145.2106801271439 79930.18362249434 1059.1562878340483 785.52394600212574 11796.434637874365 2271.9356978833675 6536.8680840432644 500.05308620631695 1269.3216372281313 9513.5050612092018 1183.8738733679056 3480.0884097963572 1005.9663184434175 991.16950643062592
leaf_count=5050 57687 225631 44096 60561 18011 76397 44801 16516 10453 9901 11749 62786 9793 37944 13401 7071 30197 350922 4615 3415 52861 9452 26743 2008 5338 40421 4891 14805 4251 4140
internal_value=0 -0.0228726 0.0405919 -0.00829876 0.00522759 -0.0069778 0.0159543 0.0513879 -0.0189074 0.0551983 -0.00416542 -0.0376078 0.0573747 0.00450201 -0.0255485 0.0124746 -0.0152357 0.0586772 -0.000323467 0.0192023 -0.0488825 -0.0394276 -0.0479104 0.0601966 0.00873285 -0.0503524 0.0237451 0.0310265 -0.0178894 -0.013447
internal_weight=0 186840 105245 136265 102202 88183.4 50428.5 90476.8 32866 86540.3 22367 37754.9 84111.7 19684.2 14768.4 17201 13702 82857.3 9473.69 15496.7 34063.3 22266.8 19994.9 80430.2 8414.53 24052.9 14711.2 12521.3 2189.84 11682.9
internal_count=1265907 810080 455827 584449 437706 377145 215777 394190 139380 377674 94579 161368 367773 82830 61637 72377 58161 362723 40150 65306 146743 93882 84430 352930 35535 103207 61891 52749 9142 48236
is_linear=0
shrinkage=0.05


Tree=10
num_leaves=31
num_cat=0
split_feature=27 21 17 18 17 17 3 18 4 18 18 19 14 21 19 7 3 18 3 17 5 19 3 1 17 14 4 3 14 21
split_gain=122446 55203.8 37429.8 15926.2 14701 13335.9 13216.1 7433.99 5990.43 3971.12 3702.33 5728.9 3227.67 3185.49 2909.14 2728.09 2718.91 2299.4 2270.5 2605.99 2186.29 2118.21 1852.06 1838.54 1726.31 1672.88 1576.41 1571.36 1512.24 1507.49
threshold=1.0000000180025095e-35 1.0000000180025095e-35 1.5000000000000002 1.0000000180025095e-35 1.0000000180025095e-35 3.5000000000000004 43.500000000000007 1.0000000180025095e-35 20.500000000000004 1.0000000180025095e-35 1.0000000180025095e-35 1.0000000180025095e-35 2.5000000000000004 1.0000000180025095e-35 1.0000000180025095e-35 2.5000000000000004 14.500000000000002 1.0000000180025095e-35 19.500000000000004 3.5000000000000004 0.062845934493902564 1.0000000180025095e-35 12.500000000000002 0.83758748814438733 1.0000000180025095e-35 1.0000000180025095e-35 49.500000000000007 17.500000000000004 1.5000000000000002 1.0000000180025095e-35
decision_type=2 2 2 2 2 2 2 2 2 2 2 2 2 2 2 2 2 2 2 2 2 2 2 2 2 2 2 2 2 2
left_child=1 2 3 8 7 6 16 13 -1 26 11 27 15 21 28 22 -4 -18 -13 20 29 -2 -10 25 -3 -23 -8 -6 -5 -20
right_child=4 24 5 14 10 -7 9 -9 12 -11 -12 18 -14 -15 -16 -17 17 -19 19 -21 -22 23 -24 -25 -26 -27 -28 -29 -30 -31
leaf_value=0.0091881703916559462 0.056507650009830303 -0.032401742234413132 -0.046664589726462299 0.035791833188798472 -0.059090315522703586 -0.055289397007342568 0.044604503231969045 -0.054293987364959745 0.020483118722271612 -0.018581868187772601 -0.068119248202092364 -0.067088240588517867 -0.011853704092578068 -0.067581668116858562 -0.024401708658985291 0.0042874621707402628 0.0046918450925680488 -0.057553933036079787 -0.035913427612775967 -0.068680662131655079 0.0035091997959428192 0.020281515620135328 0.061966572207925098 -0.052001607647684835 -0.069068821909752068 -0.044216009179364045 -0.037504025301152356 0.029346925657374574 -0.038879350996411044 -0.072953301813035804
leaf_weight=6639.4881277531385 2686.4041003882885 4235.4726707190275 7269.6925908327103 4414.9420222938061 601.6736846268177 9756.3983804285526 19821.516773059964 6239.8014723658562 2772.5768342912197 3096.3575583249331 28681.538927048445 14198.638858661056 1613.7660602927208 1224.7091756016016 7422.3673302829266 2190.11700502038 8236.9836649000645 1809.6128380894661 19827.914997205138 7778.7621437013149 3127.5441031605005 9981.4614625871181 90967.754756480455 1174.3982007354498 13258.182565569878 1117.959015801549 602.32775722444057 3040.4935899972916 801.06579519808292 3188.7521053701639
leaf_count=27070 11745 18020 31462 17962 2415 43461 84737 27086 11262 13434 133483 64302 6665 5349 31348 9104 33771 7968 83152 36091 13044 41219 410626 4823 58986 4516 2466 12369 3302 14669
internal_value=0 0.0243236 0.0331548 0.0487132 -0.0437295 -0.00277041 0.00977709 -0.00792929 0.0551431 0.0341835 -0.0537091 -0.0457246 0.0582711 0.00994576 -0.00429205 0.0594508 -0.0233734 -0.00651999 -0.0503008 -0.0432743 -0.0357151 0.0162925 0.0607396 0.00749049 -0.0601912 0.0137852 0.042183 0.0147374 0.024324 -0.041045
internal_weight=0 184909 167415 116822 102870 50592.9 40836.5 22424.7 104184 23520.2 80445.3 51763.8 97544.2 16184.9 12638.4 95930.4 17316.3 10046.6 48121.6 33923 26144.2 14960.2 93740.3 12273.8 17493.7 11099.4 20423.8 3642.17 5216.01 23016.7
internal_count=1265907 811644 734638 517339 454263 217299 173838 94738 464727 100637 359525 226042 437657 67652 52612 430992 73201 41739 211258 146956 110865 62303 421888 50558 77006 45735 87203 14784 21264 97821
is_linear=0
shrinkage=0.05


Tree=11
num_leaves=31
num_cat=0
split_feature=27 21 4 18 17 0 17 4 18 4 4 4 17 22 18 19 17 21 17 7 4 4 4 4 19 19 4 14 7 17
split_gain=112436 50703.2 34767.4 23796.9 13695.8 10297.8 7613.69 8296.9 6818.89 4430.75 8555.36 4332.71 4069.5 4023.28 3619.43 5287.52 3045.49 2923.22 2618.65 2471.63 2213.11 14338.6 2046.97 16721.7 2034.94 1960.03 1943.53 1930.34 1670.81 1656.52
threshold=1.0000000180025095e-35 1.0000000180025095e-35 20.500000000000004 1.0000000180025095e-35 1.0000000180025095e-35 0.10004211241595962 1.5000000000000002 29.500000000000004 1.0000000180025095e-35 30.500000000000004 39.500000000000007 29.500000000000004 3.5000000000000004 1000.0649826309074 1.0000000180025095e-35 1.0000000180025095e-35 2.5000000000000004 1.0000000180025095e-35 1.0000000180025095e-35 2.5000000000000004 20.500000000000004 29.500000000000004 30.500000000000004 39.500000000000007 1.0000000180025095e-35 1.0000000180025095e-35 29.500000000000004 1.0000000180025095e-35 2.5000000000000004 1.0000000180025095e-35
decision_type=2 2 2 2 2 2 2 2 2 2 2 2 2 2 2 2 2 2 2 2 2 2 2 2 2 2 2 2 2 2
left_child=1 2 12 5 8 26 19 -8 17 -9 -11 -5 16 -13 15 -6 18 25 -1 27 -17 -22 -23 -24 -12 -2 -4 -7 -27 -3
right_child=4 29 3 11 14 6 7 9 -10 10 24 13 -14 -15 -16 20 -18 -19 -20 -21 21 22 23 -25 -26 28 -28 -29 -30 -31
leaf_value=0.019225573545371761 0.054620766709813431 -0.031031887594675706 0.093967309810300478 0.10811343709421942 0.014046716641457372 0.061527528659138457 0.077861994159453496 -0.015477691507716065 -0.052419181759544145 0.078350555397365268 0.055302927168562277 -0.032769353795992585 -0.059546059353725866 0.022954784594746057 -0.066497921103234867 -0.064400513067464096 0.050361825095980042 -0.065574816367976116 -0.031334949822949119 0.0050390578726621062 0.10065692826731786 -0.060473198364241115 0.099271852818096709 -0.057610675186698913 -0.016026638384463481 0.012108419084083539 -0.049386694611997184 0.036519098480039397 -0.061398332583079356 -0.067156931785695331
leaf_weight=3317.4336650669575 2641.3968221396208 4202.180273771286 256.31536461412907 705.47616332769394 3630.5576537549496 83246.039891898632 6412.2375627607107 8320.5993909686804 6142.3185822218657 5515.5656773000956 1197.4272870868444 12524.8274820894 6347.3130043894053 4369.1065226942301 27930.870851770043 15050.869497701526 1730.3892090767622 1199.7160005569458 11229.935698986053 2155.1745521426201 1688.5409948825836 17143.220004096627 1992.877714574337 11499.687376111746 6061.1913909763098 11419.837465837598 3048.2696311473846 8504.4518683850765 829.19197680056095 12961.389462158084
leaf_count=13698 11745 18020 1037 2877 14784 384044 28386 35063 27086 24473 5108 53977 29173 17967 133483 69170 7328 5349 47023 8969 6806 76770 8019 50493 25258 47212 12585 37672 3346 58986
internal_value=0 0.0234753 0.031986 0.0411389 -0.0422663 0.0488193 0.0511896 0.0280552 -0.00760178 0.0129153 0.0314093 -0.0132884 -0.0255876 -0.018358 -0.0520296 -0.0441067 -0.0123459 0.00950701 -0.0198049 0.0579662 -0.0485633 -0.0411891 -0.0490072 -0.0344388 -0.00425967 0.0155563 -0.0382676 0.0592095 0.00713242 -0.0583124
internal_weight=0 182105 164942 142317 101169 124717 121413 27507 22232.5 21094.8 12774.2 17599.4 22625.1 16893.9 78936.6 51005.8 16277.8 16090.1 14547.4 93905.7 47375.2 32324.3 30635.8 13492.6 7258.62 14890.4 3304.58 91750.5 12249 17163.6
internal_count=1265907 811644 734638 637416 454263 562595 548973 118288 94738 89902 54839 74821 97222 71944 359525 226042 68049 67652 60721 430685 211258 142088 135282 58512 30366 62303 13622 421716 50558 77006
is_linear=0
shrinkage=0.05


Tree=12
num_leaves=31
num_cat=0
split_feature=27 21 17 17 0 17 3 14 21 3 1 0 14 3 14 3 17 21 0 19 0 1 5 14 20 3 3 3 17 5
split_gain=103400 46619.4 32321.3 12806.9 11768.5 11400.3 11622 7411.29 4402.35 4174.76 2859.45 2719.7 2637.27 2581.8 2413.66 2348.63 3002.71 3496.11 2723.5 2951.85 2322.37 2140.32 2052.77 2022.25 1983.51 1964.32 1774.91 1770.45 1595.53 1571.92
threshold=1.0000000180025095e-35 1.0000000180025095e-35 1.5000000000000002 1.0000000180025095e-35 0.10004211241595962 3.5000000000000004 45.500000000000007 1.0000000180025095e-35 1.0000000180025095e-35 14.500000000000002 0.83758748814438733 0.10004211241595962 4.5000000000000009 16.500000000000004 1.0000000180025095e-35 17.500000000000004 3.5000000000000004 1.0000000180025095e-35 0.10004211241595962 1.0000000180025095e-35 0.1973405355111443 0.82798277482683813 0.062845934493902564 1.0000000180025095e-35 30.500000000000004 21.500000000000004 176.50000000000003 42.500000000000007 1.0000000180025095e-35 0.062845934493902564
decision_type=2 2 2 2 2 2 2 2 2 2 2 2 2 2 2 2 2 2 2 2 2 2 2 2 2 2 2 2 2 2
left_child=1 2 4 8 -1 6 13 9 14 -6 24 -8 27 -4 21 -5 17 18 -17 -20 -21 25 -22 -13 -11 -2 -27 -9 -3 -15
right_child=3 28 5 15 7 -7 11 12 -10 10 -12 23 -14 29 -16 16 -18 -19 19 20 22 -23 -24 -25 -26 26 -28 -29 -30 -31
leaf_value=-0.046663061762685913 -0.044881484423801077 -0.029723698377301669 -0.042744575827526263 -0.065576802620265051 0.0050110457505642882 -0.0522656030162338 -0.043106774070118245 -0.025656919748448793 -0.06852341674598382 0.058437093603675577 0.022644631323259702 0.043109852482804224 -0.070204034279170754 -0.0139036272222175 -0.04390764534500663 -0.067452568862275145 -0.067224496091864358 -0.070254684223631902 0.0091047132324223786 0.099482787790442131 -0.040487876985531031 -0.041973440607454213 0.0021956091640684175 -0.0017425178479297599 -0.031186222851753233 0.028217280571016835 -0.018695686589117241 0.027274005487242049 -0.06539012158350592 0.036977345153652995
leaf_weight=3348.5503252744675 1286.3440275043249 4168.6375345885754 7829.8339583277702 19367.99002623558 4295.3569190055132 9424.1140217483044 1117.3269887268543 1880.489675834775 2590.3396347165108 85702.500093907118 6202.7569745033979 18251.250438332558 895.44502586126328 8130.0183130502701 2606.5387955456972 5046.6008681803942 12447.80317234993 7684.7346100062132 4607.8072666227818 321.81007018685341 24649.025938123465 1914.4731924831867 3180.2653388679028 2914.3500039428473 621.83150447905064 11176.190911889076 2459.9683302044868 9880.3499753475189 12653.841243773699 1866.4375271350145
leaf_count=13906 5346 18020 34418 92498 17706 43461 4645 8037 11897 399803 27949 80204 3797 34188 11093 23659 60753 37397 20528 1328 109672 8134 13690 12541 2533 47695 10573 43608 58986 7842
internal_value=0 0.02268 0.0308893 -0.040919 0.0456708 -0.00277984 0.0088474 0.0484949 -0.00729174 0.0531984 0.0554354 0.0329205 0.0125128 -0.0212441 0.000865784 -0.0505034 -0.0454646 -0.0395103 -0.0332608 -0.0279935 -0.0340658 0.00779718 -0.0356101 0.036934 0.0577915 0.0141825 0.0197542 0.0188107 -0.0565519 -0.00440364
internal_weight=0 179183 162361 99339.9 112827 49533.3 40109.2 109479 22033.9 96822.4 92527.1 22282.9 12656.3 17826.3 19443.5 77306 57938 45490.2 37805.5 32758.9 28151.1 16837 27829.3 21165.6 86324.3 14922.5 13636.2 11760.8 16822.5 9996.46
internal_count=1265907 811644 734638 454263 517339 217299 173838 503433 94738 447991 430285 97390 55442 76448 82841 359525 267027 206274 168877 145218 124690 71748 123362 92745 402336 63614 58268 51645 77006 42030
is_linear=0
shrinkage=0.05


Tree=13
num_leaves=31
num_cat=0
split_feature=27 21 4 18 3 18 19 0 3 4 4 7 4 4 4 22 4 18 19 20 1 0 3 3 0 0 4 4 19 4
split_gain=94926 42844.6 30450.6 21789.2 9382.26 9238.99 9425.83 6249.69 5958.03 4939.56 8412.22 4020.75 3839.81 3780.83 16368.1 3499.01 3391.82 3131.12 3286.32 2887.07 2406.09 2340.38 2343.83 1881.65 1743.99 2992.57 1717.23 3102.01 1559.37 1513.8
threshold=1.0000000180025095e-35 1.0000000180025095e-35 20.500000000000004 1.0000000180025095e-35 19.500000000000004 1.0000000180025095e-35 1.0000000180025095e-35 0.10004211241595962 44.500000000000007 20.500000000000004 29.500000000000004 2.5000000000000004 29.500000000000004 30.500000000000004 39.500000000000007 1000.0649826309074 29.500000000000004 1.0000000180025095e-35 1.0000000180025095e-35 30.500000000000004 0.84217691704420361 0.10004211241595962 33.500000000000007 17.500000000000004 0.80000122777328386 0.89999657564925994 49.500000000000007 50.500000000000007 1.0000000180025095e-35 29.500000000000004
decision_type=2 2 2 2 2 2 2 2 2 2 2 2 2 2 2 2 2 2 2 2 2 2 2 2 2 2 2 2 2 2
left_child=1 2 17 4 16 6 23 29 -8 -10 -11 19 -5 -12 -15 28 -4 18 -1 20 26 -20 -23 -2 -18 -26 -9 -28 -14 -6
right_child=5 -3 3 12 7 -7 8 11 9 10 13 -13 15 14 -16 -17 24 -19 21 -21 -22 22 -24 -25 25 -27 27 -29 -30 -31
leaf_value=0.049501942503791051 -0.047308126443961332 -0.05489472535507875 0.081824955575055258 0.1005582975434979 0.092040436333721581 -0.061303883649958958 -0.052965873235328302 0.057941183653070029 -0.05710846264610784 0.089729259234176448 -0.043504900299888447 -0.0051669665168351045 -0.0070287338957372774 0.087582427339823424 -0.033808925696922253 0.02008610759286257 -0.029103537410774552 -0.064206600288784374 -0.068814563045566421 -0.039450799411012635 0.024138879585933113 -0.04466892357713028 -0.00087196822647211112 0.039455654681534835 0.091609285306013061 -0.014496199307281896 -0.021541121550470572 0.057875146924177889 -0.044524038549964617 -0.038068832229014103
leaf_weight=1748.3044522851706 704.17878928780556 16473.579336360097 1089.8376611918211 707.13462242484093 246.67407283186913 32530.257848680019 25678.224622264504 92810.655044451356 7342.3076067119837 1931.6144422143698 9380.5910023003817 2980.7413335442543 4177.2027352452278 3728.4890728145838 10880.67533172667 4372.6456160992384 5390.1454977542162 4066.3813342750072 2348.2954264730215 824.88632914423943 6156.63336789608 4492.1030035316944 9547.128726631403 5549.6033823490143 954.94255611300468 2185.036753937602 1945.8202568292618 3340.5590941458941 8248.2319476008415 2385.7018807828426
leaf_count=7329 2857 77006 4728 2877 1002 160569 120873 441979 34509 7915 41315 12615 17406 15386 46959 17967 23138 18609 10560 3369 27956 19485 41239 23880 4065 9332 8781 15743 36571 9887
internal_value=0 0.021885 0.0297893 0.0385437 0.0461272 -0.0395397 -0.0286801 0.0502435 -0.0348728 -0.0209057 -0.0106512 0.0520978 -0.0135769 -0.0187336 -0.00282794 -0.0183816 -0.00123592 -0.0245527 -0.0156615 0.0537222 0.0544594 -0.0226135 -0.0148856 0.029686 -0.0118481 0.017773 0.0563624 0.0286435 -0.0319188 -0.0258766
internal_weight=0 176493 160019 137817 120312 97725.9 65195.7 110692 58941.9 33263.7 25921.4 108059 17505.2 23989.8 14609.2 16798.1 9619.96 22202.2 18135.8 105079 104254 16387.5 14039.2 6253.78 8530.12 3139.98 98097 5286.38 12425.4 2632.38
internal_count=1265907 811644 734638 637416 562595 454263 293694 521332 266957 146084 111575 510443 74821 103660 62345 71944 41263 97222 78613 497828 494459 71284 60724 26737 36535 13397 466503 24524 53977 10889
is_linear=0
shrinkage=0.05


Tree=14
num_leaves=31
num_cat=0
split_feature=27 18 17 17 17 0 18 19 17 19 14 18 19 4 4 4 4 4 19 17 4 4 19 22 17 4 4 0 1 17
split_gain=87286.1 38746.3 26377.9 11696.7 7645.59 7266.74 5631.98 5596.82 5134.4 4571.68 4457.27 3513.48 4320.17 3418.27 7948.63 3441.7 9109.32 2864.13 2371.41 2055.97 2041.55 2616.58 2037.75 1771.59 1614.64 1613.68 6355.19 1581 1527.84 1515.69
threshold=1.0000000180025095e-35 1.0000000180025095e-35 1.5000000000000002 1.0000000180025095e-35 3.5000000000000004 0.10004211241595962 1.0000000180025095e-35 1.0000000180025095e-35 2.5000000000000004 1.0000000180025095e-35 1.0000000180025095e-35 1.0000000180025095e-35 1.0000000180025095e-35 20.500000000000004 29.500000000000004 30.500000000000004 39.500000000000007 20.500000000000004 1.0000000180025095e-35 1.5000000000000002 49.500000000000007 50.500000000000007 1.0000000180025095e-35 1000.0649826309074 1.0000000180025095e-35 39.500000000000007 30.500000000000004 0.20000063887073202 0.99124721007078831 1.0000000180025095e-35
decision_type=2 2 2 2 2 2 2 2 2 2 2 2 2 2 2 2 2 2 2 2 2 2 2 2 2 2 2 2 2 2
left_child=1 2 5 6 7 -1 22 -4 13 23 17 12 -5 -9 -15 -16 -17 -7 -12 27 28 -22 -2 -3 -20 26 -24 -14 -19 -11
right_child=3 9 4 11 -6 10 -8 8 -10 29 18 -13 19 14 15 16 -18 20 24 -21 21 -23 25 -25 -26 -27 -28 -29 -30 -31
leaf_value=-0.036428213254970247 0.049960952080011937 -0.016725232147186641 0.057358753948648936 0.01291261920875054 -0.046353257127514744 0.016900851736283889 -0.047869211162746506 -0.041959988171667142 0.047669348371134963 -0.021677880682180659 0.059505073646650725 -0.062614011481366083 -0.060068642872061366 0.074675503448590114 -0.03584132303222267 0.074954485220357817 -0.026634910585091237 0.055966084712457391 0.024599968241322902 -0.051308031366704213 -0.02378521965587331 0.0561985950436679 -0.015206957841341221 0.033182545089370963 -0.021059327741352673 -0.018791077336154316 0.082085378728666586 -0.019587697238892577 -0.063980333821258659 -0.054134141851294587
leaf_weight=2628.8541090041399 2600.1189541965723 6287.5349650382996 5105.3341573476791 3601.8518765866756 7587.0195150226355 5627.9135887622833 5861.8173778057098 5735.4003562033176 4953.4122090935707 4774.3983282595873 2441.5549672693014 25796.916357249022 3075.3407489359379 3159.7605835050344 7946.8995973914862 3372.4482010751963 6383.272802144289 78373.725007355213 4095.3418591618538 30604.969181314111 1892.0432182848454 2224.9264135211706 5148.634575009346 2479.3090476989746 3672.5963666290045 5617.9450190514326 2490.3027899712324 11181.685983076692 266.3897700458765 14587.579650044441
leaf_count=11074 11953 26981 23022 14784 36058 23346 27086 24963 22345 20032 11291 133483 14671 14616 34693 15727 27474 384780 18872 147039 8559 10894 21594 10311 16039 23524 10581 49548 1192 69375
internal_value=0 0.0211511 0.0315385 -0.0382677 -0.000666477 0.045615 -0.00599209 0.00878959 0.000930555 -0.0325672 0.0478025 -0.0477072 -0.0397725 -0.0077738 0.00162453 -0.0114144 0.00848345 0.0514157 0.0165226 -0.0440024 0.0537629 0.0194403 0.00948853 -0.00261105 0.00301275 0.00155053 0.0165105 -0.0283197 0.0555598 -0.0461309
internal_weight=0 173596 145467 95979.6 44243.5 101223 21718.8 36656.5 31551.2 28128.8 98594.5 74260.8 48463.8 26597.8 20862.4 17702.6 9755.72 88385 10209.5 44862 82757.1 4116.97 15857 8766.84 7767.94 13256.9 7638.94 14257 78640.1 19362
internal_count=1265907 811644 684945 454263 198898 486047 94738 162840 139818 126699 474973 359525 226042 117473 92510 77894 43201 428771 46202 211258 405425 19453 67652 37292 34911 55699 32175 64219 385972 89407
is_linear=0
shrinkage=0.05


Tree=15
num_leaves=31
num_cat=0
split_feature=27 18 17 17 17 0 18 19 17 19 14 18 19 4 4 4 4 4 19 4 4 4 4 19 4 4 0 1 17 1
split_gain=80245.3 35580.8 24402.3 10925.3 7026.88 6702.3 5176.41 5138.81 4688.9 4251.96 4216.2 3474.37 3993.4 3111.84 7362.36 3120.26 8419.17 2751.42 2200 2084.54 12447.4 1935.73 2415.2 1879.09 1867.02 14431.8 1638.82 1546.48 1463.19 1462.93
threshold=1.0000000180025095e-35 1.0000000180025095e-35 1.5000000000000002 1.0000000180025095e-35 3.5000000000000004 0.10004211241595962 1.0000000180025095e-35 1.0000000180025095e-35 2.5000000000000004 1.0000000180025095e-35 1.0000000180025095e-35 1.0000000180025095e-35 1.0000000180025095e-35 20.500000000000004 29.500000000000004 30.500000000000004 39.500000000000007 20.500000000000004 1.0000000180025095e-35 20.500000000000004 29.500000000000004 49.500000000000007 50.500000000000007 1.0000000180025095e-35 30.500000000000004 39.500000000000007 0.20000063887073202 0.82323747749547205 1.0000000180025095e-35 0.85064982365560993
decision_type=2 2 2 2 2 2 2 2 2 2 2 2 2 2 2 2 2 2 2 2 2 2 2 2 2 2 2 2 2 2
left_child=1 2 5 6 7 -1 23 -4 13 26 17 12 -5 -9 -15 -16 -17 -7 -12 -14 -21 29 -23 -2 -22 -26 -3 -25 -20 -19
right_child=3 9 4 11 -6 10 -8 8 -10 -11 18 -13 19 14 15 16 -18 21 28 20 24 22 -24 27 25 -27 -28 -29 -30 -31
leaf_value=-0.034849139640133669 0.048327375277750183 -0.053347149639472097 0.055380202904573898 0.012284078464353467 -0.044856909485588167 0.016077496017570771 -0.046316438910607896 -0.040187462602950696 0.045842229162840309 -0.04460075081411604 0.057735509056485307 -0.061377781476029597 -0.058645021598411541 0.072946929789598283 -0.0341881517253542 0.073235747162353426 -0.02533021956464479 0.055724512931848914 0.023551942767014424 0.09735281788103628 -0.054343198845833864 -0.022479287852342839 0.054674301166504818 0.0076905508440707872 0.095573575291163268 -0.051402869359778426 0.006721480069020987 -0.045648394432558748 -0.019971865632388869 0.025861126946309845
leaf_weight=2611.0325924754143 2554.7724662423134 1341.0509562492371 5025.3906867802143 3596.9682228416204 7451.5848246365786 5620.5133956521749 5758.0835162848234 5690.1152524501085 4894.8044635653496 19034.521720439196 2391.8384156227112 25020.41940023005 13764.818086668849 3075.0501092523336 7915.4222183972597 3281.3245419412851 6376.6217751055956 72514.520787730813 4064.5015405118465 1673.7610643953085 15922.831877484918 1901.6087984442711 2173.9130222648382 11680.761678576469 1975.5355166196823 10805.705451324582 7406.9676705151796 1537.8323914408684 3678.7741446942091 4346.7747951000929
leaf_count=11074 11953 5852 23022 14784 36058 23346 27086 24963 22345 89407 11291 133483 69170 14616 34693 15727 27474 365507 18872 6806 76770 8559 10894 49260 8019 50493 31440 6439 16039 20465
internal_value=0 0.0204374 0.0304959 -0.037027 -0.000634624 0.0441987 -0.00574028 0.00845356 0.000903147 -0.0313402 0.0463332 -0.0462855 -0.0383757 -0.00744842 0.00157353 -0.0109156 0.00815795 0.0499059 0.0158211 -0.0425037 -0.0351897 0.0522551 0.018675 0.00907209 -0.0429184 -0.0286854 -0.0024869 0.00148517 0.0028741 0.0540356
internal_weight=0 170796 143014 94291.5 43710.3 99303.5 21531.5 36258.7 31233.3 27782.5 96692.4 72760 47739.6 26338.5 20648.4 17573.4 9657.95 86557.3 10135.1 44142.7 30377.8 80936.8 4075.52 15773.4 28704.1 12781.2 8748.02 13218.6 7743.28 76861.3
internal_count=1265907 811644 684945 454263 198898 486047 94738 162840 139818 126699 474973 359525 226042 117473 92510 77894 43201 428771 46202 211258 142088 405425 19453 67652 135282 58512 37292 55699 34911 385972
is_linear=0
shrinkage=0.05


Tree=16
num_leaves=31
num_cat=0
split_feature=27 21 17 18 17 17 3 0 18 7 18 19 3 4 21 4 18 0 3 17 4 4 21 3 0 19 14 4 4 4
split_gain=73894.6 36715.8 24901.2 10292.8 10283.9 8665.76 9245.14 4923.23 4757.77 3665.49 3384.5 3719.45 2958.05 2502.18 2316.19 2254.04 2185.15 2152.79 2149.12 2466.33 2124.67 2425.76 2023.81 1988.45 1884.99 1882.64 1858.96 1715.08 2288.54 3683.03
threshold=1.0000000180025095e-35 1.0000000180025095e-35 1.5000000000000002 1.0000000180025095e-35 1.0000000180025095e-35 3.5000000000000004 45.500000000000007 0.10004211241595962 1.0000000180025095e-35 2.5000000000000004 1.0000000180025095e-35 1.0000000180025095e-35 19.500000000000004 39.500000000000007 1.0000000180025095e-35 30.500000000000004 1.0000000180025095e-35 0.20000063887073202 20.500000000000004 3.5000000000000004 29.500000000000004 20.500000000000004 1.0000000180025095e-35 11.500000000000002 0.10004211241595962 1.0000000180025095e-35 2.5000000000000004 20.500000000000004 39.500000000000007 30.500000000000004
decision_type=2 2 2 2 2 2 2 2 2 2 2 2 2 2 2 2 2 2 2 2 2 2 2 2 2 2 2 2 2 2
left_child=1 2 3 7 8 6 16 -1 14 12 11 -6 -9 15 27 20 23 -5 -13 22 21 -8 24 -4 -20 -19 -14 -2 29 -29
right_child=4 -3 5 17 10 -7 13 9 -10 -11 -12 18 26 -15 -16 -17 -18 25 19 -21 -22 -23 -24 -25 -26 -27 -28 28 -30 -31
leaf_value=-0.02710965908539914 -0.05149566692945963 -0.052694965680088746 -0.038801859628143545 -0.054661588331814538 0.011686216522096338 -0.047461180468654524 0.013945177524189431 0.013784223091258169 -0.044829961777171405 -0.011949359617453123 -0.060216806829375871 -0.058627053135634488 0.053390738684337996 0.00049802238214644902 -0.060588919345030148 0.073133101196293529 -0.056997324833621632 0.03068093126197019 -0.06129132534197123 -0.061147287434999122 0.00075838730516515813 0.070449068549288604 -0.066036802623858651 0.001636405669952155 -0.015721367087055568 -0.011815942553004619 -0.0044747784564548336 0.0068209695946487561 -0.0045993183686256879 0.077057929476228998
leaf_weight=2211.4083069562912 936.17067162692547 15839.876589685678 4466.0525114834309 1677.9631316810846 3592.0659345686436 8840.2529600411654 3486.8758221119642 5275.6010360270739 5654.2285743355751 2447.7529277950525 24247.327479735017 12619.357420921326 81184.190718472004 5515.1948564499617 1121.5633155107498 3807.0574661642313 3213.746408611536 4536.3587609380484 2585.8906058818102 6610.4218388348818 4285.0098402500153 4172.312076985836 2871.7945242524147 9520.3205371201038 18535.799870103598 6124.7118224799633 1412.0787872672081 4398.5142129212618 6018.3925909996033 3242.2322752028704
leaf_count=9237 3876 77006 20503 7462 14784 43461 14922 22730 27086 10423 133483 65838 416395 23860 5349 19284 15309 18584 12920 35933 18268 21056 15292 40636 81275 26566 5942 18570 25402 14455
internal_value=0 0.0197517 0.0272926 0.040877 -0.0359088 -0.00282152 0.00743742 0.0465972 -0.00549717 0.0484018 -0.0450547 -0.0372018 0.050083 0.0294821 0.00865301 0.0396306 -0.0198189 -0.00201877 -0.0412646 -0.0341053 0.0289522 0.0447254 -0.0266549 -0.0112761 -0.0213004 0.00626677 0.0524015 0.0139738 0.018461 0.0366249
internal_weight=0 168017 152177 104870 92433.8 47306.8 38466.6 92531 21371.1 90319.6 71062.7 46815.3 87871.9 21266.5 15716.9 15751.3 17200.1 12339 43223.3 30603.9 11944.2 7659.19 23993.5 13986.4 21121.7 10661.1 82596.3 14595.3 13659.1 7640.75
internal_count=1265907 811644 734638 517339 454263 217299 173838 464727 94738 455490 359525 226042 445067 97390 67652 73530 76448 52612 211258 145420 54246 35978 109487 61139 94195 45150 422337 62303 58427 33025
is_linear=0
shrinkage=0.05


Tree=17
num_leaves=31
num_cat=0
split_feature=27 21 4 18 17 17 4 18 4 4 4 18 19 17 17 0 17 7 21 4 4 18 4 4 0 7 19 14 0 7
split_gain=68053.2 33816.3 23506.2 15522.5 9631.86 6896.8 7930.27 4375.66 3536.38 7748.53 3390.38 3330.29 3452.07 3137.72 2733.4 2623.65 2324.56 2192.46 2133.45 1988.99 11351.1 1791.74 1755.63 13149.5 1686.34 1675.05 1608.7 1598.9 1573.75 1465.11
threshold=1.0000000180025095e-35 1.0000000180025095e-35 20.500000000000004 1.0000000180025095e-35 1.0000000180025095e-35 1.5000000000000002 29.500000000000004 1.0000000180025095e-35 30.500000000000004 39.500000000000007 29.500000000000004 1.0000000180025095e-35 1.0000000180025095e-35 1.0000000180025095e-35 3.5000000000000004 0.10004211241595962 2.5000000000000004 2.5000000000000004 1.0000000180025095e-35 20.500000000000004 29.500000000000004 1.0000000180025095e-35 30.500000000000004 39.500000000000007 0.10004211241595962 2.5000000000000004 1.0000000180025095e-35 1.0000000180025095e-35 0.10004211241595962 2.5000000000000004
decision_type=2 2 2 2 2 2 2 2 2 2 2 2 2 2 2 2 2 2 2 2 2 2 2 2 2 2 2 2 2 2
left_child=1 2 14 5 7 15 -7 18 -8 -10 -5 12 -6 -12 16 -4 21 27 28 -14 -21 24 -22 -24 -1 -26 -11 -17 -2 -30
right_child=4 -3 3 10 11 6 8 -9 9 26 13 -13 19 -15 -16 17 -18 -19 -20 20 22 -23 23 -25 25 -27 -28 -29 29 -31
leaf_value=-0.067114320665016769 -0.067494473838171976 -0.051186950229753829 -0.013671705429505229 0.097513771500591373 0.011117448625059386 0.071367870147690401 -0.018622959611526782 -0.043403092518019402 0.071617663019379149 0.045166334422113374 0.013174408767554269 -0.059122465466001667 -0.056173494439562682 -0.031958008826727662 -0.052042134306595968 0.053285080850896095 0.044624334098596528 -0.00087646748360242506 -0.059054224145413496 0.094096269733354818 -0.051703568538920434 -0.059577998046969366 0.092359883025083758 -0.048709822535014727 0.0019471753607156702 -0.06875736747361115 -0.018865755442165663 0.029650927414792014 0.020865409018577887 -0.046484933682907209
leaf_weight=1179.5811403393745 577.92437653243542 15499.91387757659 1670.1419084668159 702.68041577935219 3587.1714791059494 5781.2052301317453 8941.8642342090607 5550.7646211981773 4894.426363915205 1157.6860056072474 6244.6822721660137 23480.822653263807 13086.629597052932 10046.800749346614 5638.9743347615004 72319.758788228035 1653.0882816761732 2094.179391682148 1093.8806694895029 1664.0922906845808 15278.055203124881 2192.8735158443451 1962.5438678115606 10435.954559624195 9766.5669563263655 916.25769557058811 6422.8789734393358 7942.0815749913454 13080.167327791452 860.60858252644539
leaf_count=5154 2366 77006 6972 2877 14784 28868 38812 27086 24694 5262 25385 133483 69170 46559 29173 384044 7328 8969 5349 6806 76770 10336 8019 50493 41313 3918 27302 37672 56393 3544
internal_value=0 0.0191132 0.0263986 0.0344866 -0.0348065 0.0412868 0.0194025 -0.00527363 0.00537518 0.0225766 -0.0100202 -0.0438002 -0.0359813 -0.0146583 -0.0221804 0.0483705 -0.0114606 0.0496287 0.0082826 -0.0399634 -0.0327334 -0.018057 -0.0403592 -0.0263801 -0.0103815 -0.0041171 -0.00908693 0.0509464 0.0133559 0.0167077
internal_weight=0 165066 149566 128218 90658.6 111224 27198.1 21163.3 21416.9 12475 16994.2 69495.3 46014.4 16291.5 21347.3 84026.2 15708.4 82356 15612.6 42427.3 29340.6 14055.3 27676.6 12398.5 11862.4 10682.8 7580.56 80261.8 14518.7 13940.8
internal_count=1265907 811644 734638 637416 454263 562595 124938 94738 96070 57258 74821 359525 226042 71944 97222 437657 68049 430685 67652 211258 142088 60721 135282 58512 50385 45231 32564 421716 62303 59937
is_linear=0
shrinkage=0.05


Tree=18
num_leaves=31
num_cat=0
split_feature=27 21 4 18 17 3 0 18 7 18 19 4 3 4 20 17 3 1 3 17 0 21 21 0 18 4 4 4 4 20
split_gain=62764.6 31167.8 21670.7 14426 9062.23 7844.4 4500.84 4023.61 3417.54 3246.08 3220.8 3081.24 2879.07 2826.31 2641.91 2573.36 3470.44 2332.79 2069.25 2333.96 2046.01 1965.71 1938.61 1776.35 1762.29 1670.82 3572.14 1894.65 6739.6 1652.64
threshold=1.0000000180025095e-35 1.0000000180025095e-35 20.500000000000004 1.0000000180025095e-35 1.0000000180025095e-35 19.500000000000004 0.10004211241595962 1.0000000180025095e-35 2.5000000000000004 1.0000000180025095e-35 1.0000000180025095e-35 29.500000000000004 46.500000000000007 29.500000000000004 30.500000000000004 3.5000000000000004 41.500000000000007 0.83758748814438733 17.500000000000004 3.5000000000000004 0.20000063887073202 1.0000000180025095e-35 1.0000000180025095e-35 0.10004211241595962 1.0000000180025095e-35 49.500000000000007 40.500000000000007 39.500000000000007 30.500000000000004 1.5000000000000002
decision_type=2 2 2 2 2 2 2 2 2 2 2 2 2 2 2 2 2 2 2 2 2 2 2 2 2 2 2 2 2 2
left_child=1 2 15 5 7 13 -7 21 14 10 -6 -5 -13 -4 17 16 -1 -8 -12 22 -14 -2 23 -20 -18 26 27 28 -22 -25
right_child=4 -3 3 11 9 6 8 -9 -10 -11 18 12 20 -15 -16 -17 24 -19 19 -21 25 -23 -24 29 -26 -27 -28 -29 -30 -31
leaf_value=-0.038342594595113827 0.012750140914858763 -0.049744123704606985 0.074923240637543895 0.093256866268869226 0.010576291064459308 -0.021277000323264093 0.050405623107234988 -0.042030079957870267 -0.0074276120988143544 -0.058087197628874022 -0.057392413910477696 -0.047889945050780619 -0.05404389418367387 -0.013678130326848238 -0.042302726590162022 -0.050735731834599819 0.01780060932277458 0.018212457710361788 -0.059083339237386692 -0.059187086519460121 -0.025753028963110009 -0.05760628815853569 -0.06416394933047645 -0.032136429772230586 -0.048689838513261599 -0.032275803368534486 0.10833222117974176 -0.020872272430287782 0.1143216485014828 -0.0020750975531594195
leaf_weight=6646.0290608406067 14449.698567926884 15160.704797238111 1010.6365558803082 698.12361694872379 3582.3075446933508 2559.006296351552 87357.948874145746 5448.1287820637226 2914.013418212533 22723.602008774877 11031.777985751629 4522.5721287280321 1567.0021884143353 8227.6924734711647 811.00742521882057 5498.5562011748552 7825.381638661027 6014.582957804203 2549.318341717124 6313.9402909129858 2117.1664861738682 1066.0172761976719 2799.9793919473886 7840.6450529843569 1141.9802903085947 2103.7578180581331 958.95559483766556 3464.2124760448933 1444.7001814991236 10966.755327284336
leaf_count=29684 62303 77006 4728 2877 14784 10889 465046 27086 12615 133483 60954 21312 7158 36535 3369 29173 33064 29413 13451 36482 9397 5349 15838 35570 5301 9045 3985 15013 6034 48963
internal_value=0 0.0185106 0.0255556 0.0334242 -0.0337952 0.0400905 0.0441764 -0.0050639 0.0459015 -0.0426779 -0.0349112 -0.00959035 -0.0140284 -0.00398549 0.0475515 -0.0213199 -0.0109606 0.0483319 -0.0388375 -0.0321198 -0.00088973 0.00791626 -0.0250451 -0.0199164 0.00933315 0.00736623 0.0178104 0.00545554 0.0310615 -0.0146074
internal_weight=0 162044 146883 125771 88772.2 108895 99656.6 20963.8 97097.6 67808.3 45084.7 16876.5 16178.4 9238.33 94183.5 21111.9 15613.4 93372.5 41502.4 30470.6 11655.8 15515.7 24156.7 21356.7 8967.36 10088.8 7985.03 7026.08 3561.87 18807.4
internal_count=1265907 811644 734638 637416 454263 562595 521332 94738 510443 359525 226042 74821 71944 41263 497828 97222 68049 494459 211258 150304 50632 67652 113822 97984 38365 43474 34429 30444 15431 84533
is_linear=0
shrinkage=0.05


Tree=19
num_leaves=31
num_cat=0
split_feature=27 21 4 18 3 18 3 4 4 4 4 4 0 3 14 4 4 0 0 18 19 4 4 4 4 4 4 4 3 19
split_gain=57806.7 28716.1 19952.7 13375.5 7476.84 7116.02 6999.94 5066.41 6876.47 4292.35 3798.07 13197.5 3275.18 2813.81 2704.08 2449.94 6308.51 2438.36 2433.34 2126.16 2167.68 2068.26 3779.92 2627.96 6167.46 2885.26 1771.55 2189.54 1693.23 1584.31
threshold=1.0000000180025095e-35 1.0000000180025095e-35 20.500000000000004 1.0000000180025095e-35 35.500000000000007 1.0000000180025095e-35 44.500000000000007 20.500000000000004 29.500000000000004 29.500000000000004 30.500000000000004 39.500000000000007 0.10004211241595962 40.500000000000007 1.0000000180025095e-35 30.500000000000004 39.500000000000007 0.10004211241595962 0.1973405355111443 1.0000000180025095e-35 1.0000000180025095e-35 49.500000000000007 40.500000000000007 39.500000000000007 30.500000000000004 29.500000000000004 49.500000000000007 50.500000000000007 25.500000000000004 1.0000000180025095e-35
decision_type=2 2 2 2 2 2 2 2 2 2 2 2 2 2 2 2 2 2 2 2 2 2 2 2 2 2 2 2 2 2
left_child=1 2 17 4 9 6 -2 -8 -9 -4 -10 -12 -6 -5 26 -11 -17 -1 -19 20 -20 22 23 24 25 -15 -14 -28 -22 -16
right_child=5 -3 3 13 12 -7 7 8 10 15 11 -13 14 21 29 16 -18 18 19 -21 28 -23 -24 -25 -26 -27 27 -29 -30 -31
leaf_value=-0.06274767493376103 -0.043734169255162929 -0.048359315665349477 0.070465995624186914 -0.046334084636710016 -0.014918452323224311 -0.053895624265398179 -0.047417276513662454 0.081794238583779044 -0.032313307992140154 -0.023713185810082991 0.077967646900163196 -0.020663961629184855 0.050922629861705683 0.088453952500447408 0.056393974243766277 0.072549666517220307 -0.017880724363508089 0.094995550924272171 0.048658787849978576 -0.055718310924983444 -0.045552031879873445 -0.037169094974931018 0.10389645538587021 -0.026602907573453301 0.10907571223234883 -0.032751684969548236 -0.027389668820242286 0.051071348658599129 -0.0046277292785001107 0.0088994239309337052
leaf_weight=2935.498430877924 24340.080659225583 14823.738559424877 2421.0824723094702 3909.131379827857 2246.9714956283569 27324.627666771412 6879.602299451828 2377.7496549338102 9466.6273881196976 6704.1122138351202 4736.1625956892967 11946.393604516983 74327.585105061531 597.48533068597317 2343.3971440345049 3146.1275465637445 4983.434746876359 501.51856300234795 1470.3574686050415 2910.3712836056948 3428.226415976882 2656.3390285223722 1015.5886705219746 4242.7505350261927 1564.5826112180948 2754.8965905606747 1649.4724019467831 1929.0583291202784 9620.0220353007317 7003.4083076864481
leaf_count=14780 127624 77006 12261 18757 9609 160569 36176 10161 44537 30302 21127 54069 408501 2491 12058 15800 22648 2197 6392 14783 15861 11643 4220 18700 6500 12510 7652 10643 43209 33121
internal_value=0 0.0179123 0.0247174 0.0323582 0.0388744 -0.0327592 -0.0230927 -0.00890277 0.000385454 0.00873795 -0.00701706 0.00733746 0.0446845 -0.00919508 0.0462194 -0.00133701 0.0171157 -0.0205047 -0.0135888 -0.0167134 -0.0088945 0.00211923 0.0123757 0.00222833 0.0271062 -0.0111496 0.0492682 0.0149059 -0.01538 0.0208071
internal_weight=0 159185 144361 123495 106755 87071.2 59746.6 35406.5 28526.9 17254.8 26149.2 16682.6 89499.9 16740.8 87252.9 14833.7 8129.56 20866 17930.5 17429 14518.6 12831.6 10175.3 9159.72 4916.96 3352.38 77906.1 3578.53 13048.2 9346.81
internal_count=1265907 811644 734638 637416 562595 454263 293694 166070 129894 81011 119733 75196 481584 74821 471975 68750 38448 97222 82442 80245 65462 56064 44421 40201 21501 15001 426796 18295 59070 45179
is_linear=0
shrinkage=0.05


Tree=20
num_leaves=31
num_cat=0
split_feature=27 17 18 19 17 4 4 4 4 18 18 18 3 17 19 4 4 7 5 5 19 4 19 14 20 4 22 4 4 4
split_gain=53223.1 26327.8 13409.8 8855.07 8335.72 7420.64 10801.3 6081.35 13963.7 6076.78 3418.89 3116.75 2961.62 3385.96 3051 2213.44 7272.15 2072.48 1795.31 1736.09 1618.51 1551.56 1399.47 1373.96 1349.62 1349.24 1342.98 1336.47 1838.62 1618.02
threshold=1.0000000180025095e-35 1.0000000180025095e-35 1.0000000180025095e-35 1.0000000180025095e-35 1.0000000180025095e-35 20.500000000000004 29.500000000000004 30.500000000000004 39.500000000000007 1.0000000180025095e-35 1.0000000180025095e-35 1.0000000180025095e-35 17.500000000000004 3.5000000000000004 1.0000000180025095e-35 40.500000000000007 49.500000000000007 2.5000000000000004 0.062845934493902564 0.062845934493902564 1.0000000180025095e-35 50.500000000000007 1.0000000180025095e-35 1.0000000180025095e-35 30.500000000000004 59.500000000000007 1000.0649826309074 49.500000000000007 40.500000000000007 39.500000000000007
decision_type=2 2 2 2 2 2 2 2 2 2 2 2 2 2 2 2 2 2 2 2 2 2 2 2 2 2 2 2 2 2
left_child=1 9 3 -3 10 -5 -7 18 -9 17 20 12 -6 14 -14 26 -17 24 -8 -16 -2 -18 -4 27 -1 -23 -10 28 29 -22
right_child=4 2 22 5 11 6 7 8 15 -11 -12 -13 13 -15 19 16 21 -19 -20 -21 23 25 -24 -25 -26 -27 -28 -29 -30 -31
leaf_value=0.048907737559116184 0.04523290161260702 0.052160086157372658 -0.016460390195473452 -0.02911455041045934 -0.055245647373913832 0.067031068327291388 -0.030491939363341228 0.067004783226594228 -0.036178164524239415 0.00036837096115036451 -0.039012154457036721 -0.056219895596933439 0.032672272209381022 -0.058480419988931179 -0.028339012521517794 0.075657117274806507 -0.070877208461490135 -0.010059117688271472 0.014698829330749483 0.01276230648631977 0.019294910561794412 0.076878782033609247 -0.047627875091420857 -0.04563714288331757 -0.037790277903791893 -0.045619758687350576 0.0100023728618229 -0.051760793771886998 0.084733571084799508 -0.024440982755835186
leaf_weight=56754.955624163151 2435.4715604186058 10318.763233661652 4982.2272000163794 14529.780794873834 11043.400387272239 7441.6555564701557 12995.280664339662 8849.3433067947626 7614.562542244792 8058.6203741431236 5214.0728068947792 21286.796580553055 2723.5624549984932 6210.4185309112072 20636.206031650305 2478.2230261862278 1751.9117616713047 1567.1527696549892 2645.0951281487942 2934.5804235488176 6744.5144134312868 409.68192167580128 12997.489128872752 1418.1737267225981 452.46302062273026 498.06303173303604 1984.649071931839 906.37592677772045 792.89412258565426 3080.5980728715658
leaf_count=318006 11953 53831 22773 69247 63369 41637 61242 50326 35690 34551 27086 133483 11381 37470 100411 12316 7940 6658 12283 13411 29458 2002 69375 6021 1874 2304 9589 3866 3294 13060
internal_value=0 0.0173407 -0.000390902 0.00931342 -0.0317377 0.00208895 0.0118039 0.0013268 0.0173582 0.0410853 -0.00402379 -0.0405399 -0.0328753 -0.0252751 -0.0174324 -0.0124537 0.0140328 0.046668 -0.0228493 -0.0232219 0.00783937 -0.0433877 -0.0389913 0.000802822 0.048222 0.00966608 -0.0266303 0.00651766 0.0114924 0.00558181
internal_weight=0 156330 89496.7 71517 85427.1 61198.2 46668.5 39226.8 23586.4 66833.2 20592.1 64835 43548.2 32504.8 26294.3 14737.1 5137.88 58774.6 15640.4 23570.8 15378 2659.66 17979.7 12942.6 57207.4 907.745 9599.21 11524.4 10618 9825.11
internal_count=1265907 811644 450555 358407 454263 304576 235329 193692 120167 361089 94738 359525 226042 162673 125203 69841 24562 326538 73525 113822 67652 12246 92148 55699 319880 4306 45279 49678 45812 42518
is_linear=0
shrinkage=0.05


Tree=21
num_leaves=31
num_cat=0
split_feature=27 17 18 19 17 4 4 18 4 4 18 18 3 17 19 4 4 7 14 5 19 5 4 19 1 6 4 22 20 7
split_gain=49013.7 24325.5 12335.4 8176.77 7814.19 6771.86 10154.9 5738.58 5542.91 13093.9 3144.26 3077.75 2850.94 3249.51 2775.74 2000.52 6731.8 1948.75 1641.52 1587.59 1494.13 1455.01 1412.34 1337.63 1302.76 1266.66 1243.11 1209.13 1197.47 1179.31
threshold=1.0000000180025095e-35 1.0000000180025095e-35 1.0000000180025095e-35 1.0000000180025095e-35 1.0000000180025095e-35 20.500000000000004 29.500000000000004 1.0000000180025095e-35 30.500000000000004 39.500000000000007 1.0000000180025095e-35 1.0000000180025095e-35 17.500000000000004 3.5000000000000004 1.0000000180025095e-35 40.500000000000007 49.500000000000007 2.5000000000000004 1.0000000180025095e-35 0.062845934493902564 1.0000000180025095e-35 0.062845934493902564 50.500000000000007 1.0000000180025095e-35 0.82323747749547205 47.160478146457343 59.500000000000007 1000.0649826309074 1.5000000000000002 2.5000000000000004
decision_type=2 2 2 2 2 2 2 2 2 2 2 2 2 2 2 2 2 2 2 2 2 2 2 2 2 2 2 2 2 2
left_child=1 7 3 -3 10 -5 -7 17 18 -10 20 12 -6 14 -14 27 -17 25 21 28 -2 -8 -18 -4 -22 -1 -24 -11 -16 -9
right_child=4 2 23 5 11 6 8 29 9 15 -12 -13 13 -15 19 16 22 -19 -20 -21 24 -23 26 -25 -26 -27 -28 -29 -30 -31
leaf_value=0.048228416881884097 0.04380346265210866 0.050612726785251742 -0.015717636376976478 -0.027864292779771496 -0.054116035481376161 0.065991670284122991 -0.022222490571156269 0.005225281345895302 0.065993489801477609 -0.03432477466388674 -0.037786431468614094 -0.055322645836842071 0.031236048761958471 -0.057488019624146618 -0.041281919108817261 0.074045246030176093 -0.067954593394074336 -0.0095413121756900074 -0.058369678787955286 0.012091835868822239 0.0065349246502818537 0.021758552827664399 0.075161694279065439 -0.046343146023040363 -0.042987609359598576 0.0026051621076544577 -0.043322876116653787 0.0095201726921743581 -0.016795563143011848 -0.074689768736925774
leaf_weight=54289.555264934897 2390.3609948009253 10107.934875160456 4957.4314385354519 14425.351817026734 10718.508933797479 7187.3691703081131 10793.021824762225 7567.2183029353619 8543.4598783552647 7624.1640623062849 5116.559371650219 20568.69469550252 2706.7846595942974 6006.9220465123653 8676.6423075348139 2407.3597316592932 1736.2901419103146 1569.5290121287107 2556.3307365775108 2942.2302691340446 11403.136395156384 2277.2882568836212 398.37587462365627 12697.606079369783 1503.0433677583933 1565.2033687829971 498.239680737257 1981.0092441141605 11760.334242999554 491.64317645132542
leaf_count=311324 11953 53831 22773 69247 63369 41637 51221 32429 50326 35690 27086 133483 11381 37470 43424 12316 7940 6658 11626 13411 49260 10678 2002 69375 6439 8556 2304 9589 56987 2122
internal_value=0 0.016775 -0.000366642 0.00898874 -0.0307613 0.00202623 0.0113991 0.039861 0.00129039 0.016801 -0.00385654 -0.0394267 -0.0317895 -0.0243328 -0.016698 -0.0118956 0.0136148 0.0454059 -0.0217263 -0.0222477 0.00749271 -0.0145595 -0.041639 -0.0377437 0.00076757 0.0469499 0.00932108 -0.025282 -0.0271914 0.000349941
internal_weight=0 153674 88191.2 70536.2 83793.2 60428.3 46002.9 65483.1 38815.5 23188.9 20413.1 63380.1 42811.4 32092.9 26086 14645.4 5040.27 57424.3 15626.6 23379.2 15296.5 13070.3 2632.91 17655 12906.2 55854.8 896.616 9605.17 20437 8058.86
internal_count=1265907 811644 450555 358407 454263 304576 235329 361089 193692 120167 94738 359525 226042 162673 125203 69841 24562 326538 73525 113822 67652 61899 12246 92148 55699 319880 4306 45279 100411 34551
is_linear=0
shrinkage=0.05


Tree=22
num_leaves=31
num_cat=0
split_feature=27 21 17 17 14 17 3 0 3 18 21 3 17 21 1 19 4 4 4 4 14 7 4 0 3 4 4 14 1 4
split_gain=45135.7 24632.4 17612.8 7336.02 6631.56 6093.57 6789.82 4164.95 3194.59 3036.19 3004.16 2743.48 3117.78 2711.96 2580.86 2455.93 2094.47 3163 2583.76 6933.64 2041.37 1929.46 1872.03 1711.44 1627.01 1603.5 1856.03 1596.65 1569.93 1550.97
threshold=1.0000000180025095e-35 1.0000000180025095e-35 1.5000000000000002 1.0000000180025095e-35 1.0000000180025095e-35 3.5000000000000004 49.500000000000007 0.10004211241595962 14.500000000000002 1.0000000180025095e-35 1.0000000180025095e-35 17.500000000000004 3.5000000000000004 1.0000000180025095e-35 0.83758748814438733 1.0000000180025095e-35 49.500000000000007 40.500000000000007 39.500000000000007 30.500000000000004 4.5000000000000009 2.5000000000000004 39.500000000000007 0.10004211241595962 12.500000000000002 49.500000000000007 50.500000000000007 1.0000000180025095e-35 0.70483336913050187 30.500000000000004
decision_type=2 2 2 2 2 2 2 2 2 2 2 2 2 2 2 2 2 2 2 2 2 2 2 2 2 2 2 2 2 2
left_child=1 2 4 10 7 6 24 -1 -9 11 16 -5 13 15 21 -13 17 18 19 -2 -6 25 29 -17 -4 -10 -27 28 -25 -8
right_child=3 -3 5 9 20 -7 22 8 14 -11 -12 12 -14 -15 -16 23 -18 -19 -20 -21 -22 -23 -24 27 -26 26 -28 -29 -30 -31
leaf_value=-0.028706134255819617 -0.011646287354475537 -0.046499470981313407 -0.039043960941980843 -0.053029221248788165 0.0070657042692205537 -0.042802182770955023 0.027190686214756565 -0.001111348551366896 0.050334389538772062 -0.054462264152379508 -0.059609369486684709 0.035520503317530421 -0.056539143089853777 -0.063604307053063081 0.011209905536304972 -0.056238955428316285 -0.045538883438025042 0.086408434454909394 -0.025726802176702007 0.078538110668076949 -0.066284839428716588 -0.0015687543883113793 0.00041641032664851654 0.0059233506682417943 -0.0063737314817715624 -0.022126297891745986 0.04986926373491142 -0.040185342628506954 -0.032117781271774538 0.067941001682684091
leaf_weight=2132.4555170834064 6509.8599893003702 14180.312052950263 5640.4541809111834 10399.411291763186 11332.937834993005 8029.3677088320255 10338.265245452523 4054.3637001514435 63588.347898036242 19866.800751209259 2147.4900602400303 2577.3692891299725 5807.4222223013639 2681.6943961083889 5411.8299252837896 2368.0914987623692 1984.2454537004232 1216.9268030971289 5234.109505802393 3168.660018786788 1035.1833824515343 1981.0516619682312 4957.8934493511915 10893.820969954133 11748.689517304301 1690.2890098690987 1903.0499534010887 3740.4493604749441 3611.1932294368744 3016.1946647763252
leaf_count=9373 29085 77006 28134 63369 55199 43461 50754 17706 374675 133483 11897 10930 37470 16289 27949 13451 9227 5440 23774 15315 4776 8688 22319 49291 54392 7942 11031 18439 16803 18239
internal_value=0 0.0162301 0.0227297 -0.02981 0.0350209 -0.00344587 0.00540548 0.0402423 0.0421122 -0.0383522 -0.00369326 -0.0307462 -0.0234315 -0.0160001 0.0444621 -0.0104953 0.0029359 0.00889923 0.00257419 0.0178793 0.000926432 0.047064 0.0266537 -0.0162488 -0.0169709 0.0484981 0.0160029 -0.0110585 -0.00354743 0.0363944
internal_weight=0 151041 136860 82207.5 93129.5 43730.9 35701.5 80761.4 78628.9 61946.3 20261.3 42079.5 31680 25872.6 74574.6 23190.9 18113.8 16129.6 14912.6 9678.52 12368.1 69162.7 18312.4 20613.6 17389.1 67181.7 3593.34 18245.5 14505 13354.5
internal_count=1265907 811644 734638 454263 517339 217299 173838 457364 447991 359525 94738 226042 162673 125203 430285 108914 82841 73614 68174 44400 59975 402336 91312 97984 82526 393648 18973 84533 66094 68993
is_linear=0
shrinkage=0.05


Tree=23
num_leaves=31
num_cat=0
split_feature=27 21 17 17 18 17 3 3 18 21 3 17 14 21 20 20 1 20 18 20 22 5 7 14 3 14 17 20 20 20
split_gain=41584.4 22686.6 16289.4 6888.03 6497.27 5618.08 6207.13 3535.29 2980.42 2805.11 2638.39 3024.74 2581.3 2548.42 2158.67 4092.94 2113.67 2111.92 1880.88 1789.74 1627.84 1591.7 1589.72 1519.9 1450.54 1405.93 1397.07 1305.21 1192.53 1171.33
threshold=1.0000000180025095e-35 1.0000000180025095e-35 1.5000000000000002 1.0000000180025095e-35 1.0000000180025095e-35 3.5000000000000004 51.500000000000007 18.500000000000004 1.0000000180025095e-35 1.0000000180025095e-35 21.500000000000004 3.5000000000000004 2.5000000000000004 1.0000000180025095e-35 -1.0000000180025095e-35 1.0000000180025095e-35 0.83758748814438733 1.5000000000000002 1.0000000180025095e-35 27.500000000000004 1000.0649826309074 0.062845934493902564 2.5000000000000004 1.0000000180025095e-35 16.500000000000004 1.0000000180025095e-35 1.0000000180025095e-35 29.500000000000004 30.500000000000004 -1.0000000180025095e-35
decision_type=2 2 2 2 2 2 2 2 2 2 2 2 2 2 2 2 2 2 2 2 2 2 2 2 2 2 2 2 2 2
left_child=1 2 4 9 7 6 21 -1 10 18 -5 13 16 14 -12 -16 22 -17 24 25 -6 -4 28 -8 -2 -19 -3 -26 29 -9
right_child=3 26 5 8 20 -7 23 12 -10 -11 11 -13 -14 -15 15 17 -18 19 -20 -21 -22 -23 -24 -25 27 -27 -28 -29 -30 -31
leaf_value=5.7049893189542526e-05 -0.046478040506031354 -0.019494599948741659 -0.022758321497824262 -0.050418208812375333 -0.012790387395523224 -0.041536308975297552 0.032514926633595252 0.034485224302691513 -0.053634535884704494 -0.058506509083824154 -0.037902668921689649 -0.055543060463634997 -0.019633681088919913 -0.062731779649627617 0.10416756549344504 -0.042819579413145743 0.012432826172372244 0.022711185357221525 -0.028140885874256002 -0.030278637093890684 0.027341579150924607 0.015284513328721008 0.00073450052445630251 -0.0086240132325511292 0.019728942041746599 -0.024147356950808462 -0.055021167943338216 -0.046229407850099671 -0.030331711857848356 0.051049898136111993
leaf_weight=5408.0669041574001 1009.7763001918793 3820.5073618739843 14497.478205740452 11266.05884025991 8266.2605889290571 7864.6071595549583 14896.531325504184 13468.170881703496 19182.140854477882 2080.2818274199963 5034.9831488579512 5503.771473839879 1664.2661317437887 2466.2775196582079 883.25474217534065 3189.125321701169 5136.772007226944 7807.022440597415 3853.7402718365192 3136.8455828726292 3639.2166541963816 3393.0228909701109 1909.1661515980959 2643.6058904975653 12318.36628703773 2013.6463005840778 10037.997480988503 798.66527615487576 494.48922343552113 51407.548536852002
leaf_count=24104 4169 18020 69233 70058 37433 43461 75955 81437 133483 11897 24367 36753 7301 15541 3793 15556 26910 35247 20538 14785 15179 16184 8300 12466 54739 9942 58986 3395 2037 314638
internal_value=0 0.0156886 0.0219564 -0.0289273 0.0339243 -0.00330713 0.00517867 0.0390837 -0.0373482 -0.00353842 -0.0297841 -0.0220442 0.0419328 -0.0145285 -0.00914062 -0.000636963 0.0433477 -0.00636999 0.00282118 0.00260105 -0.000523015 -0.0155433 0.045708 0.0263146 0.0112675 0.0131032 -0.0452272 0.0157129 0.0470215 0.0476111
internal_weight=0 148548 134689 80544 91394 43295.2 35430.6 79488.5 60483.1 20060.8 41301 30034.9 74080.4 24531.2 22064.9 17029.9 72416.1 16146.6 17980.5 12957.5 11905.5 17890.5 67279.4 17540.1 14126.8 9820.67 13858.5 13117 65370.2 64875.7
internal_count=1265907 811644 734638 454263 517339 217299 173838 464727 359525 94738 226042 155984 440623 119231 103690 79323 433322 75530 82841 59974 52612 85417 406412 88421 62303 45189 77006 58134 398112 396075
is_linear=0
shrinkage=0.05


Tree=24
num_leaves=31
num_cat=0
split_feature=27 21 17 0 3 17 17 18 14 0 1 14 18 21 4 4 7 4 4 4 7 17 6 14 0 7 19 3 17 17
split_gain=38303.5 20911.4 15386 9032.4 6940.13 6632.04 6407.43 5690.75 5251.35 3661.81 3408.48 3102.4 2983.64 2700.87 2298.62 2622.55 2093.63 1825.77 5757.45 1769.16 1434.87 1360.11 1286.92 1284.33 1243.38 1168.73 1133.5 1123.97 2158.37 1400.51
threshold=1.0000000180025095e-35 1.0000000180025095e-35 1.0000000180025095e-35 0.10004211241595962 21.500000000000004 1.5000000000000002 3.5000000000000004 1.0000000180025095e-35 1.0000000180025095e-35 0.20000063887073202 0.82323747749547205 1.0000000180025095e-35 1.0000000180025095e-35 1.0000000180025095e-35 20.500000000000004 29.500000000000004 2.5000000000000004 30.500000000000004 39.500000000000007 49.500000000000007 2.5000000000000004 1.0000000180025095e-35 28.403443935702843 4.5000000000000009 0.1973405355111443 2.5000000000000004 1.0000000180025095e-35 46.500000000000007 3.5000000000000004 2.5000000000000004
decision_type=2 2 2 2 2 2 2 2 2 2 2 2 2 2 2 2 2 2 2 2 2 2 2 2 2 2 2 2 2 2
left_child=1 2 12 -4 -5 7 8 9 10 -2 16 13 20 14 -11 -16 19 -17 -19 22 -1 -3 -6 26 -8 -14 -10 -7 29 -29
right_child=5 21 3 4 6 27 24 -9 23 11 -12 -13 25 -15 15 17 -18 18 -20 -21 -22 -23 -24 -25 -26 -27 -28 28 -30 -31
leaf_value=0.046140942639932347 -0.047398573552796718 -0.018658244792908573 -0.052174529057828128 -0.023626439206817774 0.04306835556063035 -0.051058805916159793 0.14121207090283069 -0.043743339014513084 0.028013026457199827 -0.035073429722786563 -0.013760383885688596 -0.036373442206276932 0.014478798272570504 -0.054943935245996812 0.08184592358579651 -0.0079794732772508776 -0.018841267528983501 0.075351839932001313 0.00050248426782659454 -0.01706992814409548 -0.0043761570653279413 -0.053955050949014177 0.010011546355364659 -0.072819866051045054 -0.036399497122653751 -0.073870743977130823 -0.016683133815340975 -0.027609510777256742 -0.055592342207934548 0.022435277509926382
leaf_weight=49614.88114438951 3874.9295848011971 3792.8927818089724 6080.0045770555735 11724.312519147992 32924.892362445593 20190.564845949411 100.39745418727398 11476.715357661247 1878.5914082229137 1913.8208544105291 3853.0100737959146 3868.3527678698301 6308.1245489269495 1395.2657841742039 1690.3095697760582 5214.7232257723808 1694.673106238246 4052.8546464145184 7018.0288390815258 1405.2173308432102 1446.6340491473675 9732.3158594071865 3233.3502347916365 786.65003505349159 5317.8802129775286 397.93419420719147 5791.4524582475424 9566.8995717316866 7060.9168961793184 1637.2527430355549
leaf_count=309278 20755 18020 30843 57280 183349 130171 460 74641 9389 9291 18494 19167 26035 8395 7465 23514 7813 19300 30724 6779 6093 58986 17114 3708 29325 1663 27015 52652 49846 8342
internal_value=0 0.0151665 0.0212092 0.00623826 0.011407 -0.0280568 0.0186148 -0.0139374 0.0240494 -0.00215329 0.0311162 0.00481684 0.0405917 0.0123028 0.0170202 0.0225663 0.0355207 0.0164136 0.0279035 0.0379732 0.0447097 -0.0440567 0.0401123 -0.0119761 -0.0331085 0.00923618 -0.00573589 -0.0429285 -0.0339412 -0.0202965
internal_weight=0 146083 132558 74790.4 68710.4 78960.6 56986.1 40505 51567.8 29028.3 43111.1 25153.4 57767.6 21285 19889.7 17975.9 39258.1 16285.6 11070.9 37563.5 51061.5 13525.2 36158.2 8456.69 5418.28 6706.06 7670.04 38455.6 18265.1 11204.2
internal_count=1265907 811644 734638 391569 360726 454263 303446 213252 273661 138611 233549 117856 343069 98689 90294 81003 215055 73538 50024 207242 315371 77006 200463 40112 29785 27698 36404 241011 110840 60994
is_linear=0
shrinkage=0.05


Tree=25
num_leaves=31
num_cat=0
split_feature=27 21 17 4 4 17 4 4 18 14 18 21 4 4 22 22 22 4 4 14 5 7 17 5 3 17 21 17 18 7
split_gain=35277.6 19281.2 14361.1 7462.32 10792.6 6231.39 5515.26 16559.5 5316.9 3218.2 2866.13 2588.37 2641.36 3113.5 2362.51 3726.56 2950.24 2139.31 6661.08 1863.33 1461 1361.43 1324.45 1315.44 1104.11 2080.69 1310.97 1262.34 1090.8 1065.62
threshold=1.0000000180025095e-35 1.0000000180025095e-35 1.0000000180025095e-35 20.500000000000004 29.500000000000004 1.5000000000000002 30.500000000000004 39.500000000000007 1.0000000180025095e-35 1.0000000180025095e-35 1.0000000180025095e-35 1.0000000180025095e-35 20.500000000000004 29.500000000000004 200.01284464084438 499.99694178748172 1000.0649826309074 30.500000000000004 39.500000000000007 1.0000000180025095e-35 0.062845934493902564 2.5000000000000004 1.0000000180025095e-35 0.062845934493902564 44.500000000000007 3.5000000000000004 1.0000000180025095e-35 2.5000000000000004 1.0000000180025095e-35 2.5000000000000004
decision_type=2 2 2 2 2 2 2 2 2 2 2 2 2 2 2 2 2 2 2 2 2 2 2 2 2 2 2 2 2 2
left_child=1 2 10 20 -5 8 19 28 9 11 21 12 -2 -14 -9 -16 -17 -15 -19 23 -4 -1 -3 -6 -7 26 27 -26 -8 -12
right_child=5 22 3 4 6 24 7 14 -10 -11 29 -13 13 17 15 16 -18 18 -20 -21 -22 -23 -24 -25 25 -27 -28 -29 -30 -31
leaf_value=0.04505286018286532 -0.038605687317016302 -0.017854779546598247 -0.029959348544737491 0.065807648991085918 -0.01675955216905238 -0.050353040279373817 0.063675583442267578 -0.024023695609261625 -0.042716306079412632 -0.03938795093248889 0.013760001656199242 -0.055235546392085902 0.079864468893939222 -0.014209820599688616 0.077611281679822508 -0.041188562436716841 0.022027292302547782 0.073855526356888426 -0.0048382459137537685 -0.05267103971032297 0.010514111957568593 -0.0041538797127322882 -0.052929320801310437 0.022281269544607202 -0.020923130303911172 -0.054862285781001954 -0.060476204883161792 0.028395350373535674 0.12481946890439409 -0.071123628354548205
leaf_weight=48306.012957945466 2492.275185406208 3766.0930664390326 13968.662346228957 8709.5812942832708 11791.666313394904 18894.003697291017 9978.2400157004595 11138.725133955479 11172.805644795299 4808.4298543184996 6305.8244977742434 1637.2087309956551 1741.2108222097158 6109.2235594540834 1676.8375425636768 3204.8132562935352 4351.8095981627703 4094.6022519618273 7833.9072204977274 3042.7178940027952 2653.2308154553175 1447.811375617981 9432.5165223479271 2640.8287878930569 8408.7477660924196 6947.1335781812668 1729.7757563889027 1534.1978412419558 786.95278123021126 392.7691026031971
leaf_count=309278 12633 18020 70583 53751 57385 125960 65020 54796 74641 24824 26035 10240 7852 28316 8739 15809 22097 20004 34742 14219 12941 6093 58986 12898 44493 50848 12175 7535 3331 1663
internal_value=0 0.0146674 0.0204964 0.00599803 0.0145513 -0.0272085 0.0053681 0.0179849 -0.0134508 -0.00206449 0.0394871 0.00544195 0.00990249 0.0160148 -0.00852117 0.0101802 -0.00478297 0.00985133 0.0221743 -0.0171125 -0.0234989 0.043621 -0.0429211 -0.00961594 -0.0418376 -0.0331968 -0.0203023 -0.0133133 0.0681453 0.00878289
internal_weight=0 143595 130396 73944.1 57322.2 77403.5 48612.6 31137.4 39889.7 28716.9 56452.4 23908.4 22271.2 19778.9 20372.2 9233.46 7556.62 18037.7 11928.5 17475.2 16621.9 49753.8 13198.6 14432.5 37513.9 18619.9 11672.7 9942.95 10765.2 6698.59
internal_count=1265907 811644 734638 391569 308045 454263 254294 169792 213252 138611 343069 113787 103547 90914 101441 46645 37906 83062 54746 84502 83524 315371 77006 70283 241011 115051 64203 52028 68351 27698
is_linear=0
shrinkage=0.05


Tree=26
num_leaves=31
num_cat=0
split_feature=27 17 18 19 17 3 18 18 17 14 14 1 1 4 4 4 4 20 19 7 20 6 7 5 6 20 19 19 3 17
split_gain=32508.8 17320.4 9610.45 6926.89 5863.18 5046.98 4966.9 4722.34 4648.46 3389.83 2943.8 2566.24 2367.22 2127.85 2752.77 1839.1 5803.04 1551.75 1417.24 1436.18 1277.28 1690.13 1358.57 1263.57 1182.26 1298.15 1168.53 1100.25 1077.59 1999.88
threshold=1.0000000180025095e-35 1.0000000180025095e-35 1.0000000180025095e-35 1.0000000180025095e-35 1.5000000000000002 35.500000000000007 1.0000000180025095e-35 1.0000000180025095e-35 3.5000000000000004 1.0000000180025095e-35 1.0000000180025095e-35 0.82323747749547205 0.83758748814438733 20.500000000000004 29.500000000000004 30.500000000000004 39.500000000000007 30.500000000000004 1.0000000180025095e-35 2.5000000000000004 -1.0000000180025095e-35 22.261958115719018 2.5000000000000004 0.062845934493902564 47.160478146457343 -1.0000000180025095e-35 1.0000000180025095e-35 1.0000000180025095e-35 42.500000000000007 3.5000000000000004
decision_type=2 2 2 2 2 2 2 2 2 2 2 2 2 2 2 2 2 2 2 2 2 2 2 2 2 2 2 2 2 2
left_child=1 7 3 -3 6 23 10 17 9 11 12 20 13 -2 -15 -16 -17 18 -1 24 -7 22 -22 -5 25 -20 -4 -9 -6 -30
right_child=4 2 26 5 28 8 -8 27 -10 -11 -12 -13 -14 14 15 16 -18 -19 19 -21 21 -23 -24 -25 -26 -27 -28 -29 29 -31
leaf_value=0.057437933498303312 -0.035515849670904508 0.047941671788319408 -0.013938098961430202 -0.028047393226316011 -0.04970326263138157 0.0058250946593744329 -0.041710124963945314 0.02051698809377283 -0.034946391276911667 -0.019307605705508081 -0.037908580043775883 -0.020552240750352165 -0.039326573864678291 0.078200108538684601 -0.012423223908014926 0.072594937569322004 -0.0032460888485289757 -0.046829333551644065 0.02269770240926626 -0.015340838442718602 0.043533305682979417 0.0016191272545667949 -0.015558758537552821 0.007120835756400181 -0.010189657431193296 0.045243978446320589 -0.043270068942489741 -0.017068240321552363 -0.020343222576342437 -0.05416711138966266
leaf_weight=10767.846201658249 2214.1327021420002 9287.629685074091 4782.4284169375896 13766.855076789856 17612.766021847725 4846.9887266755104 10877.774841174483 3408.3828509747982 4808.6150489151478 5297.2782359272242 4747.8409176319838 2895.1188388168812 2647.1613919883966 1639.75875172019 5831.1911939680576 3791.0371467322111 7536.2504631578922 503.90179811418056 8183.5191160291433 1269.3940833359957 17266.44597312808 3359.0150215029716 1030.7321135550737 3135.9049587994814 1197.3477571159601 29039.243444353342 11707.859893068671 4541.7025142759085 12132.092777505517 6830.6438284814358
leaf_count=70710 11559 53831 22773 70031 121483 26987 74641 14519 28120 25184 24824 14238 13097 7582 27964 19108 34477 2117 51686 5394 101213 18486 4761 15556 7114 189517 69375 20032 67673 51855
internal_value=0 0.0141954 -0.000636477 0.00792986 -0.026392 0.00134176 -0.0129796 0.0348867 0.0111249 0.0175101 -0.00197803 0.0241443 0.00523228 0.0108459 0.0163065 0.0103916 0.0221365 0.040478 0.0413499 0.0369852 0.0290268 0.0342196 0.0402045 -0.0215228 0.038714 0.0402871 -0.0347634 -0.000954596 -0.0407982 -0.0325271
internal_weight=0 141096 82184.9 65694.6 75860.7 56407 39285.1 58911.3 39504.2 34695.6 28407.4 29398.3 23659.5 21012.4 18798.2 17158.5 11327.3 50961.3 50457.4 39689.5 26503.2 21656.2 18297.2 16902.8 38420.1 37222.8 16490.3 7950.09 36575.5 18962.7
internal_count=1265907 811644 450555 358407 454263 304576 213252 361089 218989 190869 138611 165685 113787 100690 89131 81549 53585 326538 324421 253711 151447 124460 105974 85587 248317 241203 92148 34551 241011 119528
is_linear=0
shrinkage=0.05


Tree=27
num_leaves=31
num_cat=0
split_feature=27 21 4 4 4 4 22 17 3 18 14 1 3 17 21 21 0 18 0 0 0 0 0 0 0 0 19 0 0 4
split_gain=29909.9 17282.9 12918.4 8449.7 10129.8 18173.3 6143.88 5516.6 2973.22 2952.49 2848.68 2490.94 2440 2607.46 2379.45 2321.94 2234.7 2146.39 2122.16 4921.87 3183.07 4544.14 2845.21 3933.29 2494.72 2929.55 2041.01 1879.22 2035.44 1678.81
threshold=1.0000000180025095e-35 1.0000000180025095e-35 20.500000000000004 29.500000000000004 30.500000000000004 39.500000000000007 1000.0649826309074 1.0000000180025095e-35 40.500000000000007 1.0000000180025095e-35 1.0000000180025095e-35 0.82323747749547205 16.500000000000004 3.5000000000000004 1.0000000180025095e-35 1.0000000180025095e-35 0.10004211241595962 1.0000000180025095e-35 0.80000122777328386 0.89999657564925994 0.79964387591637809 0.70000068033432028 0.69999734324092089 0.60000325059610393 0.59863263827301461 0.5000042815469482 1.0000000180025095e-35 0.10004211241595962 0.1973405355111443 49.500000000000007
decision_type=2 2 2 2 2 2 2 2 2 2 2 2 2 2 2 2 2 2 2 2 2 2 2 2 2 2 2 2 2 2
left_child=1 2 27 -4 10 -6 8 15 -7 12 18 17 -9 14 16 29 -14 -10 20 -20 21 22 23 24 25 -5 -18 -1 -29 -2
right_child=7 -3 3 4 5 6 -8 9 11 -11 -12 -13 13 -15 -16 -17 26 -19 19 -21 -22 -23 -24 -25 -26 -27 -28 28 -30 -31
leaf_value=-0.058044879644589167 0.0087381710148597327 -0.04171634373152544 0.063802287669375096 -0.020420633187869811 0.064666450512879142 -0.035659115125099249 0.035382520257548421 -0.049166553100040977 0.019984437947638777 -0.050971971711280629 -0.046730912232835181 -0.045817807170906388 -0.0537421385575663 -0.052329971760108354 -0.060433807527757268 -0.055355183080226182 0.041281994691720031 -0.019794428210106959 0.072414379453121736 -0.010236656422439108 -0.075939837360217352 0.072890681985969361 -0.091823488114957455 0.072751447893948606 -0.087504417804740234 0.073821182752213041 -0.007910607691004129 0.090172570559991838 -0.015197483297892694 -0.041063729795863174
