tree
version=v4
num_class=1
num_tree_per_iteration=1
label_index=0
max_feature_idx=32
objective=binary sigmoid:1
feature_names=income name_email_similarity prev_address_months_count current_address_months_count customer_age days_since_request intended_balcon_amount payment_type zip_count_4w velocity_6h velocity_24h velocity_4w bank_branch_count_8w date_of_birth_distinct_emails_4w employment_status credit_risk_score email_is_free housing_status phone_home_valid phone_mobile_valid bank_months_count has_other_cards proposed_credit_limit foreign_request source session_length_in_minutes device_os keep_alive_session device_distinct_emails_8w device_fraud_count month x1 x2
feature_infos=[0.10000000000000001:0.90000000000000002] [1.8874059222628865e-05:0.99999835395224956] [-1:368] [-1:420] [10:90] [8.779116730019957e-07:76.083700277893158] [-12.61151057460966:112.06972420635068] [0:4] [1:6470] [-16.472334913557688:16715.565404174275] [1297.7213998415632:9390.1833256515056] [2858.7457482358209:6941.960129474015] [0:2331] [0:37] [0:6] [-147:386] [0:1] [0:6] [0:1] [0:1] [-1:32] [0:1] [190:2100] [0:1] [0:1] [-1:79.338796844670199] [0:4] [0:1] [-1:2] none [0:7] [-4.3713143951118285:5.6460351750954541] [-4.4266917655538967:6.2847770112519061]
tree_sizes=3528 3558 3558 3547 3538 3555 3574 3548 3527 3583 3555 3555 3536 3565 3566 3585 3540 3559 3541 3556 3551 3560 3542 3555 3537 3573 3553 3553 3551 3537 3547 3545 3556 3550 3547 3566 3541 3532 3540 3582 3527 3566 3536 3545 3538 3517 3544 3567 3555 3555 3542 3551 3558 3533 3551 3562 3544 3559 3542 3574 3547 3545 3571 3525 3565 3547 3557 3549 3573 3557 3568 3555 3570 3575 3583 3551 3569 3562 3537 3551 3586 3526 3591 3566 3542 3555 3572 3568 3558 3550 3557 3573 3589 3578 3560 3563 3563 3542 3590 3567

Tree=0
num_leaves=31
num_cat=0
split_feature=27 18 21 4 3 32 0 21 18 19 32 19 7 3 4 20 14 4 4 14 32 3 21 32 4 4 22 22 3 18
split_gain=291997 158198 79516.1 47648.8 27833.2 24233 16584.2 13126.8 11500.1 15922.5 10856.3 10291 8290.3 7747.76 7268.5 6237.79 5427.13 5044.09 8010.64 5002.1 4411.64 3900.67 3726.54 3698.31 5144 6921.88 3198.2 3054.98 2732.67 2696.98
threshold=1.0000000180025095e-35 1.0000000180025095e-35 1.0000000180025095e-35 20.500000000000004 17.500000000000004 1.8475179464518678 0.10002065842219807 1.0000000180025095e-35 1.0000000180025095e-35 1.0000000180025095e-35 1.5976129583442373 1.0000000180025095e-35 2.5000000000000004 50.500000000000007 49.500000000000007 30.500000000000004 1.5000000000000002 30.500000000000004 39.500000000000007 1.5000000000000002 1.6202800002182405 40.500000000000007 1.0000000180025095e-35 0.97567733427444836 30.500000000000004 29.500000000000004 1000.0938026452615 1000.0938026452615 19.500000000000004 1.0000000180025095e-35
decision_type=2 2 2 2 2 2 2 2 2 2 2 2 2 2 2 2 2 2 2 2 2 2 2 2 2 2 2 2 2 2
left_child=1 2 3 10 20 8 -6 11 9 28 -1 16 15 -11 29 19 21 -15 -19 23 -5 -3 26 24 25 -8 -20 -13 -2 -7
right_child=5 7 -4 4 6 14 12 -9 -10 13 -12 27 -14 17 -16 -17 -18 18 22 -21 -22 -23 -24 -25 -26 -27 -28 -29 -30 -31
leaf_value=-0.071708060351399663 -0.079918875508152992 -0.064813072073272068 -0.080400703888212854 -0.040325562766304703 -0.040395354394238053 0.061353149965781985 0.098725773303752484 -0.097372321880922236 -0.094259781073183682 -0.090195131260392802 0.060397961624405978 -0.068237245505028285 -0.0017393175590938903 -0.081567082147579933 -0.075415787815389657 -0.046251111900802055 -0.059213435318811132 0.098725773303752484 -0.049542765285120763 0.034869519202620984 0.062867577317238646 0.029500367596465221 -0.098684053952607403 0.092844414023903629 0.079604074561204663 -0.011750861134034304 0.0018765651112780679 -0.019077145957913447 0.042529217541123536 -0.032529416437003647
leaf_weight=7596.4963777065277 512.74975550174713 1257.4994003772736 10216.245128512383 6260.9970145225525 3014.998562335968 4685.2477658987045 2317.9988946914673 11622.244458079338 45519.728294491768 22099.989461898804 1955.4990675449371 15582.492569684982 3171.7484875917435 8453.7459689378738 1579.7492467164993 970.49953722953796 3022.9985585212708 1059.7494946718216 9326.9955525398254 5633.74731361866 1240.9994082450867 8552.4959218502045 2547.9987850189209 54604.723962426186 66570.968256473541 3650.9982590675354 4474.997866153717 3964.2481096982956 4090.9980492591858 914.24956405162811
leaf_count=30386 2051 5030 40865 25044 12060 18741 9272 46489 182079 88400 7822 62330 12687 33815 6319 3882 12092 4239 37308 22535 4964 34210 10192 218419 266284 14604 17900 15857 16364 3657
internal_value=-0.00134134 0.0325649 0.0547635 0.0635594 0.0705708 -0.0693714 0.0756009 -0.051789 -0.0758617 -0.0599301 -0.0446631 -0.0354276 0.0781551 -0.0684556 0.0193024 0.0800497 -0.000639193 -0.0498795 -0.0344927 0.0809729 -0.0232551 0.0174107 -0.0431275 0.0830157 0.0756171 0.0311516 -0.0328712 -0.0582672 0.0288914 0.0460246
internal_weight=0 211208 167206 156990 147438 105266 139936 44002 98087 52567.2 9552 32379.7 136921 47963.5 7179.25 133749 12833 25863.5 17409.7 132778 7502 9810 16350 127145 72540 5969 13802 19546.7 4603.75 5599.5
internal_count=1265897 844832 668824 627959 589751 421065 559743 176008 392348 210269 38208 129519 547683 191854 28717 534996 51332 103454 69639 531114 30008 39240 65400 508579 290160 23876 55208 78187 18415 22398
is_linear=0
shrinkage=1


Tree=1
num_leaves=31
num_cat=0
split_feature=27 18 21 17 17 32 17 18 0 32 21 4 3 21 4 7 32 14 3 19 4 19 17 32 17 20 11 18 19 4
split_gain=263985 143000 71881.4 51947.8 24688.6 19161.9 18711.2 16274.1 12437.6 10551 9774.27 9070.68 7884.54 6743.42 5427.39 4553.28 4353.46 4028.21 3927.94 3724.89 3709.73 3543.21 3105.55 2916.9 2772.6 2657.82 2510.64 2381.09 4991.13 2315.92
threshold=1.0000000180025095e-35 1.0000000180025095e-35 1.0000000180025095e-35 1.5000000000000002 1.0000000180025095e-35 1.2017690263876235 1.0000000180025095e-35 1.0000000180025095e-35 0.10002065842219807 1.9344630659686677 1.0000000180025095e-35 30.500000000000004 15.500000000000002 1.0000000180025095e-35 39.500000000000007 2.5000000000000004 1.3446301817400468 1.5000000000000002 36.500000000000007 1.0000000180025095e-35 49.500000000000007 1.0000000180025095e-35 3.5000000000000004 1.7160470948200197 3.5000000000000004 30.500000000000004 4189.9337106397334 1.0000000180025095e-35 1.0000000180025095e-35 20.500000000000004
decision_type=2 2 2 2 2 2 2 2 2 2 2 2 2 2 2 2 2 2 2 2 2 2 2 2 2 2 2 2 2 2
left_child=1 2 3 8 7 11 10 13 -1 27 19 26 -10 16 -13 17 21 25 -16 -3 -11 -2 -7 -8 -20 29 -5 28 -6 -14
right_child=4 6 -4 5 9 22 23 -9 12 20 -12 14 15 -15 18 -17 -18 -19 24 -21 -22 -23 -24 -25 -26 -27 -28 -29 -30 -31
leaf_value=-0.034571201736151934 0.065743693664786426 0.042305652453807484 -0.075229966939583656 -0.011772141804853288 -0.0039387255915927918 0.07017386170299976 -0.076153537751424596 -0.071706470261899247 0.0051758390714213929 0.027799335183395266 -0.085021977327137649 0.096712675881579793 0.031770588749938093 -0.087667688904478236 -0.054585331420127031 0.012403694966122814 0.068776992802110082 0.036861855108781837 0.023723458654761304 -0.012447836060999713 -0.090174729983274943 -0.0088525820775212909 -0.038810479008308064 -0.011015770777856926 -0.076371599188675254 -0.022446942088297384 -0.073746310187937536 -0.092349973796207574 -0.079015412196094981 0.085239095459072795
leaf_weight=2493.9357663244009 1926.0591904520988 6434.815561234951 10199.757578670979 2109.0043230205774 2356.4064186513424 8879.92152094841 26699.375692263246 10454.226271435618 3588.03103941679 3010.5309682041407 2974.1945665329695 1449.5660099983215 2063.1608206629753 1641.7980443537235 3019.4363510757685 2412.7898026704788 3397.1702861636877 4785.3800296783447 6562.1868718117476 6004.8645743876696 855.78258222341537 9173.950855076313 705.5972892343998 1836.9297535419464 773.36677595973015 586.66040234267712 7258.6381002813578 35698.952694833279 36567.424884214997 110054.68403621018
leaf_count=9981 7708 25748 40865 8446 9432 35583 106942 41907 14361 12052 11925 5807 8262 6581 12087 9652 13602 19148 26285 24037 3428 36728 2826 7356 3097 2348 29063 143112 146515 441013
internal_value=0 0.0322602 0.0533856 0.0617551 -0.0647441 0.00349888 -0.0479834 -0.0231077 0.0759777 -0.0788511 -0.00359354 -0.0230555 0.0782102 0.00837275 0.00609841 0.0803958 0.0192493 0.0817921 -0.00658643 0.0158751 0.00168657 0.00409127 0.0621514 -0.0719605 0.0131707 0.0836998 -0.0597936 -0.0830238 -0.0744704 0.0842552
internal_weight=0 210892 166942 156742 105082 30757.7 43950.2 26593.2 125985 78489.1 15413.9 21172.2 123491 16139 11804.6 119903 14497.2 117490 10355 12439.7 3866.31 11100 9585.52 28536.3 7335.55 112705 9367.64 74622.8 38923.8 112118
internal_count=1265897 844832 668824 627959 421065 123194 176008 106526 504765 314539 61710 84785 494784 64619 47276 480423 58038 470771 41469 49785 15480 44436 38409 114298 29382 451623 37509 299059 155947 449275
is_linear=0
shrinkage=0.05


Tree=2
num_leaves=31
num_cat=0
split_feature=27 18 21 17 17 31 17 18 32 21 3 4 31 32 21 14 4 32 7 3 19 31 19 4 17 31 17 32 31 18
split_gain=239346 129612 65166.5 47218.7 22490.9 20696.7 16976.5 14766.4 9626.34 8870.13 8617.51 7851.65 6716.16 6559.16 6113.94 6017.82 4510.87 3943.04 3907.1 3484.79 3364.37 3213.37 3151.55 3045.68 2794.12 2659.89 2568.44 2460.09 2381.06 2360.69
threshold=1.0000000180025095e-35 1.0000000180025095e-35 1.0000000180025095e-35 1.5000000000000002 1.0000000180025095e-35 1.0907601279906045 1.0000000180025095e-35 1.0000000180025095e-35 2.0276942687412318 1.0000000180025095e-35 16.500000000000004 30.500000000000004 0.92694262098699365 0.63162084527881446 1.0000000180025095e-35 1.5000000000000002 39.500000000000007 1.2880513641983062 2.5000000000000004 43.500000000000007 1.0000000180025095e-35 1.980246259229709 1.0000000180025095e-35 20.500000000000004 1.0000000180025095e-35 0.80590347210227509 3.5000000000000004 0.95988807691991451 1.3921846286029507 1.0000000180025095e-35
decision_type=2 2 2 2 2 2 2 2 2 2 2 2 2 2 2 2 2 2 2 2 2 2 2 2 2 2 2 2 2 2
left_child=1 2 3 10 7 11 9 14 29 20 28 -5 -10 -7 17 18 -13 22 23 -18 -3 -8 -2 25 -17 -12 -21 -23 -1 -6
right_child=4 6 -4 5 8 13 21 -9 12 -11 15 16 -14 -15 -16 24 19 -19 -20 26 -22 27 -24 -25 -26 -27 -28 -29 -30 -31
leaf_value=-0.020693641292693427 0.06227040694477836 0.040220651818726881 -0.071793502841464282 -0.061958744392372783 -0.070523054772443014 -0.0081654143991087436 -0.072217165354819049 -0.068441738843186953 -0.074291634981901652 -0.081263147096396315 -0.04005117929472992 0.092547209045554829 0.069273448305375018 0.081491502389590839 -0.083759333189389301 0.059203722102293743 -0.050617111712865981 0.064052474082527761 0.013152059078708176 0.023062330171166497 -0.011829562520624285 -0.066949864653311306 -0.0088229112702210739 0.079837466423563846 -0.012594575389349336 0.068619321410077996 -0.079176146084857221 0.0740639779812831 0.067513469306451329 -0.088311992318096
leaf_weight=3079.9308404177427 1883.3992587327957 6430.070388391614 10154.637251421809 8877.8908284753561 39094.610623016953 2726.0095176249743 27185.829104140401 10406.393909230828 1423.029591858387 2956.5919663757086 991.91150166094303 1205.2172246128321 1905.426674798131 8105.671781167388 1632.6978338062763 2720.8574809283018 3425.5489422380924 3554.253495618701 2322.6329772919416 5657.2704847753048 6002.8258727192879 567.80727499723434 9046.4453592449427 111254.27208355069 2699.4522843658924 1302.5088898539543 689.12977886199951 679.33097252249718 1017.9348942786455 35663.074341982603
leaf_count=12327 7555 25748 40865 35632 157298 10936 109292 41907 5712 11925 3971 4854 7638 32594 6581 10897 13727 14259 9292 22692 24037 2283 36224 448173 10811 5218 2759 2723 4076 143891
internal_value=0 0.0307738 0.0509398 0.0589251 -0.0617931 0.00333293 -0.0457217 -0.0220133 -0.0753049 -0.00342124 0.0725303 -0.026996 0.00789443 0.0589275 0.00796493 0.0749396 0.00128041 0.0183044 0.0773484 -0.00997592 0.0150899 -0.068617 0.00342768 0.0786615 0.0234463 0.0216395 0.0119607 0.00986205 0.00121754 -0.0790092
internal_weight=0 210053 166231 156076 104609 30686.7 43822.5 26523.2 78086.1 15389.5 125390 19855.1 3328.46 10831.7 16116.8 121292 10977.2 14484.1 115871 9771.95 12432.9 28433 10929.8 113549 5420.31 2294.42 6346.4 1247.14 4097.87 74757.7
internal_count=1265897 844832 668824 627959 421065 123194 176008 106526 314539 61710 504765 79664 13350 43530 64619 488362 44032 58038 466654 39178 49785 114298 43779 457362 21708 9189 25451 5006 16403 301189
is_linear=0
shrinkage=0.05


Tree=3
num_leaves=31
num_cat=0
split_feature=27 18 21 17 17 32 17 18 0 32 21 4 3 3 21 17 14 20 32 7 4 19 19 17 32 4 3 4 32 18
split_gain=217548 117761 59225.1 43089.4 20589.3 15977.1 15457.8 13432 11137 8849.84 8073.17 7905.57 6579.26 6151.25 5558.9 4372.73 3868.01 3751.04 3607.74 3257.06 3186.1 3041.4 2993.97 2660.11 2546.69 2215.99 2194.64 2190.27 2155.35 2074.79
threshold=1.0000000180025095e-35 1.0000000180025095e-35 1.0000000180025095e-35 1.5000000000000002 1.0000000180025095e-35 1.2017690263876235 1.0000000180025095e-35 1.0000000180025095e-35 0.10002065842219807 1.9344630659686677 1.0000000180025095e-35 20.500000000000004 16.500000000000004 44.500000000000007 1.0000000180025095e-35 3.5000000000000004 4.5000000000000009 30.500000000000004 1.4874641778215683 2.5000000000000004 49.500000000000007 1.0000000180025095e-35 1.0000000180025095e-35 3.5000000000000004 1.6920847091195643 29.500000000000004 16.500000000000004 20.500000000000004 1.2189342900207534 1.0000000180025095e-35
decision_type=2 2 2 2 2 2 2 2 2 2 2 2 2 2 2 2 2 2 2 2 2 2 2 2 2 2 2 2 2 2
left_child=1 2 3 8 7 11 10 14 -1 29 21 -5 -10 25 18 -15 17 19 22 27 -11 -3 -2 26 -8 -13 -7 28 -14 -6
right_child=4 6 -4 5 9 23 24 -9 12 20 -12 13 16 15 -16 -17 -18 -19 -20 -21 -22 -23 -24 -25 -26 -27 -28 -29 -30 -31
leaf_value=-0.035192927825961479 0.06028886178689357 0.038269520691873248 -0.068684459912468895 -0.076403592382802921 -0.067969457950650986 -0.016237838505950088 -0.069618470713993394 -0.065471538915084573 0.0070781669037618435 0.02595248768341122 -0.077917073574760881 0.1007078274978479 -0.021981082348724854 0.032629435490598324 -0.080297725354106175 -0.06857214341080653 -0.089982250319138646 -0.037945332475739051 0.066336769335759438 0.015914579409696285 -0.083898828827020488 -0.011242629325628049 -0.0070629680840791007 -0.036480991366563312 -0.0096840948398576251 -0.049436409867905914 0.072231013578382811 0.076999061104344013 0.078103651076572467 -0.084774420269399478
leaf_weight=2492.9918850958347 1998.059476852417 6420.2415591776371 10085.280055403709 4943.3576792180538 38513.84595797956 768.08451102674007 26362.588445842266 10336.297937437892 3831.4024589657784 3001.9503678381443 2930.0338257104158 256.35181167721748 1119.4773351550102 8722.1593244969845 1618.2808435857296 1216.2136279791594 360.03844079375267 741.56637087464333 2989.9090404361486 2297.251601472497 846.11112996935844 6000.4590449929237 9472.4955821931362 704.32394170761108 1900.1581537425518 5941.4515310525894 8027.1649623662233 112596.53987926245 1035.4997702389956 35111.468994677067
leaf_count=9981 8049 25748 40865 19949 155947 3087 106664 41907 15348 12052 11925 1027 4483 35059 6581 4884 1442 2967 12048 9191 3428 24037 37941 2826 7634 23866 32496 457190 4163 143112
internal_value=0 0.0294236 0.0487228 0.0563594 -0.0591228 0.00318017 -0.0436513 -0.0210024 0.0694237 -0.0721203 -0.00326115 -0.0210819 0.0715618 -0.00413398 0.00758476 0.0202448 0.0736529 0.0741531 0.0174198 0.0748633 0.0017984 0.0143501 0.00466907 0.0570177 -0.065589 -0.0432262 0.0645051 0.0760434 0.0261112 -0.0759836
internal_weight=0 208753 165139 155054 103888 30579.1 43613.5 26415 124475 77473.4 15350.7 21079.5 121982 16136.2 16078.7 9938.37 118150 117790 14460.5 117049 3848.06 12420.7 11470.6 9499.57 28262.7 6197.8 8795.25 114752 2154.98 73625.3
internal_count=1265897 844832 668824 627959 421065 123194 176008 106526 504765 314539 61710 84785 494784 64836 64619 39943 479436 477994 58038 475027 15480 49785 45990 38409 114298 24893 35583 465836 8646 299059
is_linear=0
shrinkage=0.05


Tree=4
num_leaves=31
num_cat=0
split_feature=27 18 21 17 17 31 17 18 0 31 21 32 4 3 21 32 4 14 32 4 4 4 4 7 31 19 19 20 32 14
split_gain=198191 107236 53952.4 39466.7 18935.8 17823.9 14115.6 12244.6 10186 8460.41 7366.48 6973.5 6876.49 6106.21 5066.7 5048.94 4230.44 3890.39 3286.59 3212.43 7375.51 4689.28 3626.35 2997.75 2890.59 2751.47 2718.14 2260.79 2167.55 2066.06
threshold=1.0000000180025095e-35 1.0000000180025095e-35 1.0000000180025095e-35 1.5000000000000002 1.0000000180025095e-35 1.1886571630071592 1.0000000180025095e-35 1.0000000180025095e-35 0.10002065842219807 1.8661740828789593 1.0000000180025095e-35 1.021808954015585 30.500000000000004 13.500000000000002 1.0000000180025095e-35 0.44891729893800164 39.500000000000007 1.5000000000000002 1.4658945627178401 40.500000000000007 49.500000000000007 50.500000000000007 59.500000000000007 2.5000000000000004 1.980246259229709 1.0000000180025095e-35 1.0000000180025095e-35 30.500000000000004 0.95988807691991451 4.5000000000000009
decision_type=2 2 2 2 2 2 2 2 2 2 2 2 2 2 2 2 2 2 2 2 2 2 2 2 2 2 2 2 2 2
left_child=1 2 3 8 7 12 10 14 -1 -6 25 -11 -5 -10 18 -7 -14 23 26 -18 -21 -22 -23 27 -8 -3 -2 -15 -26 -19
right_child=4 6 -4 5 9 15 24 -9 13 11 -12 -13 16 17 -16 -17 19 29 -20 20 21 22 -24 -25 28 -27 -28 -29 -30 -31
leaf_value=-0.03346161517035786 0.057606463060430324 0.036438256020120179 -0.065850817864650524 -0.056110579977376875 -0.073195838211364703 -0.012597023907282746 -0.066272204344992938 -0.062750524111164954 -0.0011237359431440224 -0.063934875983823386 -0.074914269442293444 0.066505238093670954 0.087783555937090543 0.074093251980957814 -0.077206326084521965 0.075692015298636312 -0.067358083825447154 0.036382369311526309 0.062957268883688286 0.094091341146407839 -0.053872330386321589 0.094483725423640197 -0.028430908380819471 0.015314814822492438 -0.061017736438188003 -0.010685313710203495 -0.006870093843684805 -0.023781926853955571 0.071846080504932713 -0.085916787352314714
leaf_weight=2490.9284436404705 1977.3849796801805 6406.1068435460329 9995.5411641299725 9096.5973092466593 72574.238947018981 2032.507700830698 26799.649642750621 10247.504830285907 3053.3150864541531 2069.7796883881092 2895.9553979337215 2029.1590537577868 1282.2075786590576 109901.99747376144 1599.3941669762135 7965.0653692781925 1891.9266350418329 4593.4538113772869 3021.370970800519 1806.8754652142525 3952.9149630665779 1233.8660818338394 1168.2143512219191 2253.5499259829521 559.86380410194397 5997.8222761005163 9428.9554778337479 593.18994109332561 679.57897365093231 373.40324047207832
leaf_count=9981 8013 25748 40865 36827 297828 8177 109292 41907 12229 8495 11925 8216 5236 451154 6581 32476 7617 18514 12252 7283 15908 4969 4701 9018 2283 24037 37773 2374 2723 1495
internal_value=0 0.028194 0.0467107 0.0540313 -0.0566956 0.00303707 -0.0417411 -0.0200639 0.0666207 -0.0692486 -0.00311176 0.000638848 -0.0237302 0.068685 0.00722939 0.0577428 0.0022535 0.0704957 0.0165896 -0.00865455 0.00495297 -0.0203912 0.0347061 0.0724035 -0.0628197 0.013652 0.00430746 0.0735678 0.0118307 0.027188
internal_weight=0 207025 163686 153690 102948 30430.2 43339 26274.6 123260 76673.2 15299.9 4098.94 20432.6 120769 16027.1 9997.57 11336 117716 14427.7 10053.8 8161.87 6355 2402.08 112749 28039.1 12403.9 11406.3 110495 1239.44 4966.86
internal_count=1265897 844832 668824 627959 421065 123194 176008 106526 504765 314539 61710 16711 82541 494784 64619 40653 45714 482555 58038 40478 32861 25578 9670 462546 114298 49785 45786 453528 5006 20009
is_linear=0
shrinkage=0.05


Tree=5
num_leaves=31
num_cat=0
split_feature=27 18 21 17 17 31 17 18 0 32 31 21 4 3 32 3 21 17 14 32 7 31 19 19 20 31 32 18 19 14
split_gain=180875 97837.1 49244 36245.6 17467.1 16247.1 12927.4 11182.8 9340.58 7872.75 7030.9 6736.56 6013.08 5704.8 5363.99 4740.44 4628.07 3811.47 3462.18 3016.51 2674.16 2645.86 2490.75 2358.96 2005.52 1979.45 1963.79 1948.99 4607.07 1798.57
threshold=1.0000000180025095e-35 1.0000000180025095e-35 1.0000000180025095e-35 1.5000000000000002 1.0000000180025095e-35 1.0585696166614973 1.0000000180025095e-35 1.0000000180025095e-35 0.10002065842219807 1.8767874769582358 0.92694262098699365 1.0000000180025095e-35 20.500000000000004 17.500000000000004 0.7345463958614018 37.500000000000007 1.0000000180025095e-35 3.5000000000000004 1.5000000000000002 1.2880513641983062 2.5000000000000004 1.980246259229709 1.0000000180025095e-35 1.0000000180025095e-35 30.500000000000004 1.3531523280677316 0.95988807691991451 1.0000000180025095e-35 1.0000000180025095e-35 4.5000000000000009
decision_type=2 2 2 2 2 2 2 2 2 2 2 2 2 2 2 2 2 2 2 2 2 2 2 2 2 2 2 2 2 2
left_child=1 2 3 8 7 12 11 16 -1 27 -11 22 -5 25 -7 -14 19 -17 20 23 24 -8 -3 -2 -15 -10 -23 28 -6 -20
right_child=4 6 -4 5 9 14 21 -9 13 10 -12 -13 15 18 -16 17 -18 -19 29 -21 -22 26 -24 -25 -26 -27 -28 -29 -30 -31
leaf_value=-0.031832850415497348 0.054266690612408887 0.034714988566972055 -0.063250738503087503 -0.074153217326511353 0.0057569312900965838 -0.0042538802397442468 -0.063614068246081498 -0.060242014036227302 -0.013379595962859623 -0.068607965187872849 0.061157565849343044 -0.072199633947604244 -0.049024203254866588 0.071549570705380358 0.07386275810256536 0.022336763274228316 -0.074424788433087682 -0.075361541342990002 0.035418552131362746 0.056221643055094632 0.015582316576145111 -0.058519733088230497 -0.010156008271184298 -0.0076903798682277221 -0.021466211912620783 0.065371943744150798 0.068276697160509575 -0.079181428776284382 -0.067143172162617434 -0.08134667068076
leaf_weight=2487.5435764938593 1850.8301026374102 6388.3512364923954 9888.803825750947 4641.5836395770311 2309.334473118186 3059.0913532674313 26530.287716045976 10143.143106892705 2967.197032481432 1974.1055689454079 2215.0989942401648 2855.6137070059776 4909.3579513132572 107585.37467026711 7803.0410158634186 8706.5171098262072 1576.7793153524399 1127.5838000178337 4527.9338325560093 3495.5620847791433 2217.5988730788231 554.70462556183338 5994.9665187299252 9040.6477628797293 582.63872331380844 1091.4444774538279 679.34924192726612 34022.579025045037 35223.872008979321 355.69984592497349
leaf_count=9981 7555 25748 40865 19024 9328 12328 109292 41907 11889 8039 8952 11925 19867 447550 32186 35215 6581 4574 18312 14259 8877 2283 24037 36224 2333 4394 2723 142537 145683 1429
internal_value=0 0.0270649 0.0448662 0.0518971 -0.0544578 0.00290851 -0.0399752 -0.0191886 0.0640612 -0.066614 7.32751e-06 -0.00297184 -0.0245223 0.0660602 0.0518628 -0.0088974 0.00689604 0.0111346 0.0681116 0.0158086 0.0699343 -0.0602851 0.0129922 0.00283822 0.0710485 0.00779816 0.011282 -0.0705143 -0.0626578 0.0269139
internal_weight=0 204955 161951 152063 101852 30247.2 43003.3 26107 121815 75745 4189.2 15238.9 19385 119328 10862.1 14743.5 15963.8 9834.1 115269 14387 110386 27764.3 12383.3 10891.5 108168 4058.64 1234.05 71555.8 37533.2 4883.63
internal_count=1265897 844832 668824 627959 421065 123194 176008 106526 504765 314539 16991 61710 78680 494784 44514 59656 64619 39789 478501 58038 458760 114298 49785 43779 449883 16283 5006 297548 155011 19741
is_linear=0
shrinkage=0.05


Tree=6
num_leaves=31
num_cat=0
split_feature=27 18 21 17 17 31 17 18 0 31 21 32 17 3 3 32 21 14 3 7 31 32 32 19 18 19 31 13 19 0
split_gain=165410 89411.6 45023.9 33386.8 16196.3 14832.3 11868.3 10229.4 8586.84 7480.87 6172.49 5978.7 5825.64 7985.67 5310.06 4257.41 4235.34 3325.04 2886.75 2564.87 2465.71 2611.77 2367.56 2255.93 1998.27 4883.39 1992.91 2303.05 1831.42 1792.03
threshold=1.0000000180025095e-35 1.0000000180025095e-35 1.0000000180025095e-35 1.5000000000000002 1.0000000180025095e-35 1.205997535764886 1.0000000180025095e-35 1.0000000180025095e-35 0.10002065842219807 1.8661740828789593 1.0000000180025095e-35 1.0844134745945346 3.5000000000000004 46.500000000000007 15.500000000000002 0.42481067493749453 1.0000000180025095e-35 1.5000000000000002 19.500000000000004 2.5000000000000004 1.7126386712872257 0.95988807691991451 1.0691089281240025 1.0000000180025095e-35 1.0000000180025095e-35 1.0000000180025095e-35 0.80590347210227509 10.500000000000002 1.0000000180025095e-35 0.10002065842219807
decision_type=2 2 2 2 2 2 2 2 2 2 2 2 2 2 2 2 2 2 2 2 2 2 2 2 2 2 2 2 2 2
left_child=1 2 3 8 7 12 10 16 -1 24 23 -11 13 -5 -10 -7 18 19 -2 26 -8 -22 28 -3 25 -6 27 -16 -20 -15
right_child=4 6 -4 5 9 15 20 -9 14 11 -12 -13 -14 29 17 -17 -18 -19 22 -21 21 -23 -24 -25 -26 -27 -28 -29 -30 -31
leaf_value=-0.030297400360364463 -0.069552569700701741 0.033089563508507551 -0.060850204363156871 -0.046184480129773262 0.0087171684755000031 -0.012902139244269499 -0.061985996486021128 -0.05791602721107128 0.0036976158853715374 -0.057089783124209287 -0.069728884878177438 0.064764260471798327 -0.077713720411197729 -0.068815508919894922 0.064710803508881434 0.070195367395169808 -0.071904845847354071 0.025216768945079876 0.055350310449719831 0.014309113440902882 -0.058482516704344213 0.060266255857633635 0.053268882321072734 -0.0096532118738445871 -0.076918948151495692 -0.064833532013680875 0.075528049584254187 0.025285376283890715 -0.0028151502662544345 0.028824781701705712
leaf_weight=2483.0427985787392 941.61493374407291 6367.5800694972277 9768.0329494178295 7663.1498748511076 2413.0383048206568 1923.0727842599154 25590.464363083243 10025.957415103912 3579.9160711467266 2075.4446919858456 2810.1094041019678 1954.664846599102 3753.4045853316784 497.64573426544666 51412.33828663826 7765.9170616567135 1551.0853447765112 4892.9878955483437 1638.9060169458389 2232.8201884031296 979.14720380306244 878.4612063318491 3994.1805357635021 5991.937566280365 33348.531127259135 34848.598993688822 51571.415994718671 3991.7659217864275 7765.9626053571701 8435.7437188178301
leaf_count=9981 3793 25748 40865 31244 9747 7740 106669 41907 14361 8733 11925 7978 15502 2009 216937 32416 6581 19858 6750 8942 4079 3550 16376 24037 142183 145898 217937 16749 31119 34283
internal_value=0 0.0260225 0.0431673 0.0499318 -0.0524217 0.00278381 -0.0383329 -0.0183685 0.061718 -0.0642462 -0.00284033 0.00201129 -0.0214594 -0.00873711 0.0636595 0.0537022 0.00658171 0.0655408 0.0150708 0.0673475 -0.0579484 -0.00232634 0.0210177 0.0123677 -0.0680278 -0.0600704 0.0684545 0.0618703 0.00732085 0.0233856
internal_weight=0 202589 159971 150203 100558 30038.9 42617.7 25917.7 120164 74640.3 15169.6 4030.11 20349.9 16596.5 117681 9688.99 15891.7 114101 14340.7 109208 27448.1 1857.61 13399 12359.5 70610.2 37261.6 106976 55404.1 9404.87 8933.39
internal_count=1265897 844832 668824 627959 421065 123194 176008 106526 504765 314539 61710 16711 83038 67536 494784 40156 64619 480423 58038 460565 114298 7629 54245 49785 297828 155645 451623 233686 37869 36292
is_linear=0
shrinkage=0.05


Tree=7
num_leaves=31
num_cat=0
split_feature=27 18 17 21 31 17 17 18 0 32 31 19 21 4 32 21 17 3 3 21 31 4 4 22 32 21 31 32 3 4
split_gain=151479 81820.8 41310.3 22604.7 16229.8 15060.5 10919.6 9370.03 7908.9 7012.49 6040.87 5726.42 5665.34 5004.74 4153.28 3882.4 3799.85 6335.31 3357.26 3319.2 3081.94 2929.64 5107.42 3393.97 2640.57 2426.69 2606.66 2635.36 2281.28 2105.98
threshold=1.0000000180025095e-35 1.0000000180025095e-35 1.5000000000000002 1.0000000180025095e-35 1.3921846286029507 1.0000000180025095e-35 1.0000000180025095e-35 1.0000000180025095e-35 0.10002065842219807 1.8767874769582358 0.84583322232100355 1.0000000180025095e-35 1.0000000180025095e-35 20.500000000000004 0.60692762927520205 1.0000000180025095e-35 3.5000000000000004 48.500000000000007 13.500000000000002 1.0000000180025095e-35 1.3342847307604031 49.500000000000007 50.500000000000007 1000.0938026452615 1.6920847091195643 1.0000000180025095e-35 1.4327355931035635 0.82838198697140653 27.500000000000004 59.500000000000007
decision_type=2 2 2 2 2 2 2 2 2 2 2 2 2 2 2 2 2 2 2 2 2 2 2 2 2 2 2 2 2 2
left_child=1 2 3 8 11 7 12 15 -1 -7 -11 -4 -3 20 -6 24 17 -13 -15 -19 -10 -20 23 -23 28 26 -8 -28 -2 -24
right_child=5 6 4 -5 14 9 25 -9 13 10 -12 16 -14 18 -16 -17 -18 19 21 -21 -22 22 29 -25 -26 -27 27 -29 -30 -31
leaf_value=-0.02884727440700088 -0.06693640930118723 0.01177595784432014 0.042613317335397798 -0.046387019465077436 -0.013410687060756746 -0.065834460659230834 -0.052751295888240693 -0.055747821814754697 -0.045736053773188033 -0.065698765885147101 0.05585805234776086 -0.053799839982722725 -0.067466024956537862 0.0075733376040784776 0.07013306432203073 -0.069607421926541305 -0.07694359519139006 0.016936159726718584 0.070809210104413864 -0.07171415734324009 0.062078941232815335 0.012250710856562215 0.079917326222855245 0.054958530409066675 0.062036703648284133 -0.078653654529166686 -0.049526499047487849 0.059259461534908464 0.0113867486454496 0.047962673907375221
leaf_weight=2477.6077845543623 1016.7480307221413 12333.099708020687 2633.4642336219549 5259.6793049275875 1903.9366110861301 69306.284901618958 16748.313639983535 9898.3550654053688 1733.7334751188755 1856.3759603053331 2274.160435795784 9468.2953227311373 2760.4052480310202 2660.8012621253729 6804.1017574518919 1522.880304723978 4410.0216885656118 7742.5704261362553 68271.554352968931 1222.6054512709379 1073.0978851020336 8930.182002350688 15878.859204590321 9710.167485833168 2414.7291487753391 8122.0576135665178 1114.2040579169989 1112.6625753194094 10857.660243749619 7635.5665078014135
leaf_count=9981 4104 49785 10803 22306 7724 297548 70506 41907 6983 7707 9284 39080 11925 10671 28896 6581 18504 31561 292756 5185 4459 37983 67962 41512 10068 34564 4690 4538 43866 32458
internal_value=0 0.0250521 0.0415874 0.0550391 -0.00706112 -0.0505321 -0.0367989 -0.0175975 0.0595458 -0.0620625 0.0012271 -0.0272028 -0.00271637 0.0614355 0.051867 0.00628472 -0.0352514 -0.0252769 0.0630724 0.00484667 -0.0045166 0.0644097 0.0540455 0.0344982 0.014373 -0.0557832 -0.0459939 0.00482883 0.00468032 0.0695411
internal_weight=0 200007 157816 123631 34185 99147.2 42190.7 25710.4 118372 73436.8 4130.54 25477 15093.5 115894 8708.04 15812 22843.5 18433.5 113087 8965.18 2806.83 110426 42154.8 18640.3 14289.1 27097.2 18975.2 2226.87 11874.4 23514.4
internal_count=1265897 844832 668824 527071 141753 421065 176008 106526 504765 314539 16991 105133 61710 494784 36620 64619 94330 75826 483342 36746 11442 472671 179915 79495 58038 114298 79734 9228 47970 100420
is_linear=0
shrinkage=0.05


Tree=8
num_leaves=31
num_cat=0
split_feature=17 31 21 32 21 4 4 7 3 0 14 4 4 4 4 4 4 4 4 4 31 30 22 32 4 4 32 11 32 30
split_gain=132414 53654.3 38729.9 25024.2 13957.1 16636.4 26051.7 11148.4 9683.53 9177.82 8178.64 7886.77 23701.7 13271.4 11102.5 7360.94 11261.4 7764 5732.21 5608.75 11060.8 5572.1 4694.4 4274.42 4260 3292.71 3171.73 3149.3 2765.97 2370.66
threshold=1.0000000180025095e-35 1.4327355931035635 1.0000000180025095e-35 0.72172351003091262 1.0000000180025095e-35 30.500000000000004 39.500000000000007 2.5000000000000004 42.500000000000007 0.10002065842219807 1.5000000000000002 40.500000000000007 49.500000000000007 50.500000000000007 59.500000000000007 49.500000000000007 50.500000000000007 59.500000000000007 49.500000000000007 40.500000000000007 0.79183760525376101 4.5000000000000009 1000.0938026452615 0.87229815886223505 60.500000000000007 60.500000000000007 2.2969588524419495 4204.5404966883789 0.43721049876217771 5.5000000000000009
decision_type=2 2 2 2 2 2 2 2 2 2 2 2 2 2 2 2 2 2 2 2 2 2 2 2 2 2 2 2 2 2
left_child=2 4 7 -3 5 26 -7 9 -8 -1 11 -10 -13 -14 -15 19 22 -18 29 20 21 23 -17 -11 -19 -16 27 -2 -22 -5
right_child=1 3 -4 18 -6 6 8 -9 10 15 -12 12 13 14 25 16 17 24 -20 -21 28 -23 -24 -25 -26 -27 -28 -29 -30 -31
leaf_value=-0.044196627379271089 -0.03799164592135218 -0.035767073161185742 -0.059057049149667855 0.073757727613874516 -0.075359434654586832 0.088475190835576645 -0.056865386900141063 -0.034150671473062715 -0.056205427139539382 -0.075185227674933228 -0.058849468027273866 0.089633226191937199 -0.045137719304331844 0.090791960906489097 -0.051211978809293325 -0.01194775703596446 0.08151203558982624 -0.0069830490468918401 -0.032979808499891114 0.080480174562889154 0.021150307135814755 0.035909855822531977 0.0325401804680907 0.026054393364114671 0.059840624324416759 0.039008219208951721 0.024029387093192162 -0.071548839069452017 0.07555610127932233 -0.069031421020147699
leaf_weight=2586.5212321728468 9235.7757138311863 9195.3085763007402 9475.2991383075714 18125.991645470262 26021.289219290018 5094.7830089479685 21099.267462655902 4186.6794236898422 6418.9591892212629 2553.5736862868071 8990.9384342730045 6493.4369199573994 15808.388740941882 4158.9878832995892 3110.912738263607 11050.189413413405 15672.086454823613 5083.437712430954 1414.4683431982994 25501.240617230535 2615.3591701686382 8501.5198774635792 12796.673888549209 1762.0041203647852 4492.9813570976257 1498.4323981851339 1066.5636119544506 28775.119272023439 21880.723618552089 295.42051517963409
leaf_count=10577 39491 39313 41147 78016 113449 21753 90543 17077 27520 10628 38484 27810 67776 17807 13360 46426 67679 21365 6010 110482 11134 36133 54480 7547 19164 6415 4419 123471 95168 1253
internal_value=0 -0.0293624 0.0382216 0.0324134 -0.0423797 -0.0347003 -0.0205539 0.0459881 -0.0287736 0.0489184 -0.0160215 -0.00575019 0.00467365 -0.0177736 0.0315611 0.0510706 0.0365658 0.0598383 0.0640198 0.0624074 0.0500559 0.0124213 0.0119253 -0.0338502 0.0243687 -0.0218827 -0.0610091 -0.0633952 0.0697474 0.0714678
internal_weight=0 166804 128158 29031.2 137773 111752 72674.1 118683 67579.3 114496 46480.1 37489.1 31070.2 24576.7 8768.33 111910 49095.4 25248.5 19835.9 62814.4 37313.2 12817.1 23846.9 4315.58 9576.42 4609.35 39077.5 38010.9 24496.1 18421.4
internal_count=1265897 716890 549007 124592 592298 478849 311468 507860 289715 490783 199172 160688 133168 105358 37582 480206 209114 108208 85279 271092 160610 54308 100906 18175 40529 19775 167381 162962 106302 79269
is_linear=0
shrinkage=0.05


Tree=9
num_leaves=31
num_cat=0
split_feature=27 18 17 21 31 17 17 18 0 31 32 21 19 32 3 21 17 3 14 21 31 21 31 32 4 19 19 32 1 18
split_gain=131189 70686.9 35204.2 18930.7 13600.6 12633.3 9118.98 8139.15 6725.58 6227.45 5968.31 4713.24 4653.77 4535.98 4499.21 3232.01 2991.55 4741.56 2844.78 2544.22 2329.58 2182.92 2205.06 2211.07 2137.99 2050.46 1973.84 1825.79 1806.56 1755.7
threshold=1.0000000180025095e-35 1.0000000180025095e-35 1.5000000000000002 1.0000000180025095e-35 1.205997535764886 1.0000000180025095e-35 1.0000000180025095e-35 1.0000000180025095e-35 0.10002065842219807 1.6895529398219458 1.1159584916306209 1.0000000180025095e-35 1.0000000180025095e-35 0.87229815886223505 19.500000000000004 1.0000000180025095e-35 3.5000000000000004 48.500000000000007 1.5000000000000002 1.0000000180025095e-35 1.3531523280677316 1.0000000180025095e-35 1.4327355931035635 0.82838198697140653 20.500000000000004 1.0000000180025095e-35 1.0000000180025095e-35 1.2189342900207534 0.8431171233768372 1.0000000180025095e-35
decision_type=2 2 2 2 2 2 2 2 2 2 2 2 2 2 2 2 2 2 2 2 2 2 2 2 2 2 2 2 2 2
left_child=1 2 3 8 12 7 11 15 -1 29 -11 26 -4 -6 -10 20 17 -14 24 -19 25 22 -8 -24 27 -2 -3 -16 -26 -7
right_child=5 6 4 -5 13 9 21 -9 14 10 -12 -13 16 -15 18 -17 -18 19 -20 -21 -22 -23 23 -25 28 -27 -28 -29 -30 -31
leaf_value=-0.025656083273753644 0.049105873713360879 0.029344103103433845 0.039202027618631577 -0.042222769910345487 -0.006613085953341479 -0.054980322619322688 -0.049140561744736237 -0.053332805295803747 0.0087441102932950526 -0.052734509752995741 0.055616889344798331 -0.063633763764692083 -0.050344787518531053 0.066387928307324859 -0.030475994621747916 -0.065795596996385361 -0.072525345391229998 0.013381399039207542 0.022217724782815477 -0.067349538925170288 0.052253289225066529 -0.074356742849389451 -0.046345373786170645 0.053874218503078677 0.064350394013222165 -0.0076725338538276193 -0.010737018307479447 0.062575746406401081 0.034717679857919202 -0.07134048801684785
leaf_weight=2459.7233931273222 1914.8447091430426 6299.9763130396605 2409.4134143292904 5110.3688398301601 3111.5570590943098 34877.653086692095 16344.931825220585 9727.859955728054 4465.6661460399628 2927.8831032365561 2245.7742524594069 2657.2194669395685 8861.0945146381855 6731.1834099888802 1153.0335495620966 1464.9645520746708 4093.5752154886723 7123.8444234132767 4771.5131394416094 1130.8369445800781 2891.8323555737734 7787.8916555345058 1092.0053044110537 1109.5224911868572 95460.578106805682 9375.910922780633 5994.2531107664108 971.16993148624897 5436.3080911040306 30951.965656772256
leaf_count=9981 8065 25748 9974 22306 12747 152355 70506 41907 18200 12824 9357 11925 37364 29652 4638 6581 17811 29213 19638 4992 12123 34564 4690 4538 424179 37850 24037 4161 23968 140003
internal_value=0 0.0236345 0.0392745 0.0519366 -0.00606924 -0.0476995 -0.0344355 -0.0174185 0.0561311 -0.0585214 -0.00570148 -0.00324933 -0.0266474 0.0433103 0.0579232 0.00490893 -0.034128 -0.0249445 0.0599606 0.00232179 0.0122122 -0.0521416 -0.0428132 0.00416314 0.0617087 0.00195674 0.0098019 0.0120666 0.0627538 -0.0626726
internal_weight=0 194576 153290 119828 33461.5 96378.7 41285.8 25375.4 114718 71003.3 5173.66 14951.4 23618.8 9842.74 112258 15647.6 21209.4 17115.8 107793 8254.68 14182.6 26334.4 18546.5 2201.53 103021 11290.8 12294.2 2124.2 100897 65829.6
internal_count=1265897 844832 668824 527071 141753 421065 176008 106526 504765 314539 22181 61710 99354 42399 494784 64619 89380 71569 476584 34205 58038 114298 79734 9228 456946 45915 49785 8799 448147 292358
is_linear=0
shrinkage=0.05


Tree=10
num_leaves=31
num_cat=0
split_feature=27 18 21 17 32 31 17 17 31 0 18 32 21 4 4 14 4 32 19 7 4 4 4 4 4 21 31 32 30 7
split_gain=120489 64880.9 32572.1 24115.9 12091.1 10802.2 8689.73 8439.76 8387.47 6223.97 5600.54 4502.03 4344.77 4240.18 4191.26 3221.41 2681.84 2497.77 2427.46 2359.59 2282.51 4894.23 3290.86 2503.77 2267.97 2093.43 2027.62 2012.95 1982.33 1919.78
threshold=1.0000000180025095e-35 1.0000000180025095e-35 1.0000000180025095e-35 1.5000000000000002 1.7414437256336053 0.84583322232100355 1.0000000180025095e-35 1.0000000180025095e-35 0.77926919735042155 0.10002065842219807 1.0000000180025095e-35 0.9302455153266479 1.0000000180025095e-35 20.500000000000004 30.500000000000004 1.5000000000000002 39.500000000000007 1.2528648836559848 1.0000000180025095e-35 2.5000000000000004 40.500000000000007 49.500000000000007 50.500000000000007 59.500000000000007 49.500000000000007 1.0000000180025095e-35 1.4327355931035635 0.88658341312837352 4.5000000000000009 2.5000000000000004
decision_type=2 2 2 2 2 2 2 2 2 2 2 2 2 2 2 2 2 2 2 2 2 2 2 2 2 2 2 2 2 2
left_child=1 2 3 9 6 14 10 12 -6 -1 18 -7 29 17 28 19 -16 -11 -2 -15 -18 -22 -23 -24 -10 26 -9 -28 -5 -3
right_child=4 7 -4 5 8 11 -8 25 24 13 -12 -13 -14 15 16 -17 20 -19 -20 -21 21 22 23 -25 -26 -27 27 -29 -30 -31
leaf_value=-0.024450048192518632 0.045552163064027068 0.014181742904339358 -0.053139171039609356 -0.070708971312131247 -0.048826880102140466 0.00085270132820973454 -0.060721181406332717 -0.047343595962565883 0.068214415467041975 -0.042838267109207483 -0.054936687579692715 0.06411545337568815 -0.061823850093156898 0.060684582791369339 0.081070534582669468 0.018149631863758068 -0.062094503974028506 0.054780579055863747 -0.013119654474162037 0.0084296503915190241 0.087667319531528509 -0.046997023501257812 0.087709646152650367 -0.02187453650128535 -0.051786563004908776 -0.072434931829567825 -0.043061998263866204 0.05293133458599053 -0.018209138098459209 -0.071432824746233123
leaf_weight=2452.1944476217031 2092.8474714905024 11569.757718101144 9214.9464962184429 4591.5125070214272 3175.5747864097357 4571.1333213448524 64708.07958599925 16122.751828894019 4158.4643173515797 1693.879808306694 9015.0079964995384 7308.6432130038738 2599.7247476130724 100297.92190296948 916.14922617375851 4922.1657534390688 1634.4041393250227 1068.7075430899858 11183.024419009686 2207.8985816091299 1385.5722814053297 3493.4478742927313 1032.3390587419271 1052.8274247050285 434.91860558092594 7599.5625435858965 1114.4518313258886 1070.9133343547583 2955.3761508762836 694.06092569231987
leaf_count=9981 8921 46984 40865 19840 13795 18813 293560 70506 17724 6818 39458 32613 11925 454141 3912 20297 6761 4624 45758 8904 5781 14370 4302 4319 1849 34564 4838 4390 12483 2801
internal_value=0 0.0228174 0.0379475 0.0438758 -0.0461095 0.00316528 -0.0514465 -0.0331438 0.0136557 0.0543356 -0.024523 0.039773 -0.00310992 0.0560889 -0.0223242 0.0576617 -0.000253404 -0.00507439 -0.00387046 0.0595591 -0.00891818 0.00356161 -0.0173279 0.0323792 0.0568523 -0.0503746 -0.0412175 0.00397844 -0.0501499 0.00933646
internal_weight=0 191570 150799 141584 94767.9 28941.4 86999 40771.2 7768.96 112643 22290.9 11879.8 14863.5 110191 17061.6 107428 9514.74 2762.59 13275.9 102506 8598.59 6964.19 5578.61 2085.17 4593.38 25907.7 18308.1 2185.37 7546.89 12263.8
internal_count=1265897 844832 668824 627959 421065 123194 387697 176008 33368 504765 94137 51426 61710 494784 71768 483342 39445 11442 54679 463045 35533 28772 22991 8621 19573 114298 79734 9228 32323 49785
is_linear=0
shrinkage=0.05


Tree=11
num_leaves=31
num_cat=0
split_feature=27 18 17 21 31 17 17 18 0 31 32 4 4 4 4 3 21 32 20 21 19 31 4 30 3 0 21 4 4 4
split_gain=110736 59613.6 30198.3 15829.4 11530.6 11219.4 7829.65 6909.5 5767.12 5594.24 4944.85 4552.16 5809.29 4407.53 4368.91 4332.81 4008.68 3154.16 3125.08 2934.63 2834.96 2559.79 4694.42 4087.88 2274.93 2019.28 2016.08 1956.91 6831.15 3136.41
threshold=1.0000000180025095e-35 1.0000000180025095e-35 1.5000000000000002 1.0000000180025095e-35 1.3921846286029507 1.0000000180025095e-35 1.0000000180025095e-35 1.0000000180025095e-35 0.10002065842219807 1.7126386712872257 1.1159584916306209 20.500000000000004 29.500000000000004 30.500000000000004 39.500000000000007 17.500000000000004 1.0000000180025095e-35 0.20407919724931642 30.500000000000004 1.0000000180025095e-35 1.0000000180025095e-35 0.80590347210227509 30.500000000000004 4.5000000000000009 19.500000000000004 0.20000477467990743 1.0000000180025095e-35 40.500000000000007 49.500000000000007 50.500000000000007
decision_type=2 2 2 2 2 2 2 2 2 2 2 2 2 2 2 2 2 2 2 2 2 2 2 2 2 2 2 2 2 2
left_child=1 2 3 8 11 7 16 19 -1 -7 -11 -4 -13 -14 -15 -10 -3 -6 21 24 -16 22 23 -17 -2 -26 -8 -22 -29 -30
right_child=5 6 4 -5 17 9 26 -9 15 10 -12 12 13 14 20 18 -18 -19 -20 -21 27 -23 -24 -25 25 -27 -28 28 29 -31
leaf_value=-0.023304441382981798 -0.064117546136868042 0.0088782252734780215 -0.063368906541205805 -0.038650682478280345 -0.025324366377756626 -0.059057405091038975 -0.039704523463626455 -0.049645932836434037 0.0033717540094294896 -0.048456526091960439 0.053080948511244765 0.098577070833872238 -0.062446510654031999 0.079087103331562658 0.045319481273625152 -0.070072388407457747 -0.060131357602819527 0.059164781397818625 -0.045608380402532504 -0.063717308367200867 -0.064747572274083523 0.065421857180033904 0.053872638164660737 0.034152202581898924 -0.053002920605836716 0.0223748591975571 -0.070686109437955696 0.086757501197768469 -0.056382760056945251 0.016483367687772907
leaf_weight=2444.3069860339165 927.96598120033741 12252.20779491961 5408.2240973860025 4961.2625733911991 1315.6619159281254 63335.363034918904 18062.436956137419 9432.3235743939877 4011.6410095393658 2700.8661194443703 2156.4021272659302 1129.6149248033762 4303.7930349260569 1405.0666758418083 1730.3244428485632 1422.3271182179451 2540.7565701752901 6887.1826725453138 746.49273107945919 1426.3690191209316 2279.4117234051228 48551.378661796451 50555.771648049355 2778.9270178824663 958.3005368411541 12195.759878516197 7403.1819255501032 1434.6792324781418 4656.8979005515575 2162.6092765927315
leaf_count=9981 3793 49785 24037 22306 5379 293138 79734 41907 16283 12255 9146 4593 18552 6137 7234 6021 11925 31241 3013 6581 9707 225926 231334 12207 3905 50340 34564 6068 19722 9083
internal_value=0 0.0220489 0.036707 0.0487208 -0.00569962 -0.0445963 -0.0319053 -0.0159007 0.0526433 -0.0550915 -0.00337859 -0.0228723 -0.011407 -0.0183197 -0.00442599 0.0543611 -0.00297447 0.0456135 0.0563269 0.00462346 -0.013994 0.0570635 0.0496523 -0.00113285 0.0115457 0.0168834 -0.0487113 -0.0237373 -0.0124122 -0.0332754
internal_weight=0 188444 148186 115472 32713.5 93133.4 40258.6 24940.7 110511 68192.6 4857.27 24510.6 19102.4 17972.8 13669 108067 14793 8202.84 104055 15508.4 12263.9 103308 54757 4201.25 14082 13154.1 25465.6 10533.6 8254.19 6819.51
internal_count=1265897 844832 668824 527071 141753 421065 176008 106526 504765 314539 21401 105133 81096 76503 57951 494784 61710 36620 478501 64619 51814 475488 249562 18228 58038 54245 114298 44580 34873 28805
is_linear=0
shrinkage=0.05


Tree=12
num_leaves=31
num_cat=0
split_feature=27 21 17 31 32 4 32 4 17 31 14 4 4 4 4 7 21 20 11 4 4 4 4 22 4 22 4 4 4 31
split_gain=101837 52776.1 34840.7 21871.1 10852.2 9461.03 9400.65 7825.83 7738.78 7355.54 6308.59 6247.33 11787.7 9488.69 5625.76 4352.27 3570.29 3387.42 3115.34 3087.06 3021 4420.09 3275.74 2483.7 2479.18 2414.9 2144.78 2027.97 1745.92 4308.71
threshold=1.0000000180025095e-35 1.0000000180025095e-35 1.0000000180025095e-35 1.0746228917360854 1.7414437256336053 30.500000000000004 0.40089409252220792 39.500000000000007 1.0000000180025095e-35 0.77926919735042155 1.5000000000000002 40.500000000000007 49.500000000000007 50.500000000000007 59.500000000000007 2.5000000000000004 1.0000000180025095e-35 30.500000000000004 4149.3318160748931 49.500000000000007 49.500000000000007 50.500000000000007 59.500000000000007 1000.0938026452615 60.500000000000007 1000.0938026452615 60.500000000000007 49.500000000000007 40.500000000000007 0.6892490669918474
decision_type=2 2 2 2 2 2 2 2 2 2 2 2 2 2 2 2 2 2 2 2 2 2 2 2 2 2 2 2 2 2
left_child=1 2 15 5 8 18 -5 -7 16 -6 11 -9 -13 -14 -15 17 25 20 -4 -8 28 23 -23 -22 -16 -2 -24 -11 29 -1
right_child=4 -3 3 6 9 7 19 10 -10 27 -12 12 13 14 24 -17 -18 -19 -20 -21 21 22 26 -25 -26 -27 -28 -29 -30 -31
leaf_value=0.023114816219398756 -0.029567175969579709 -0.058551885687510498 -0.0048206632405413483 -0.013412023604855822 -0.045263013496953858 0.077805186707593996 0.06561445540766063 -0.053297903892908664 -0.057372920221561631 0.065714799905598184 -0.052619430623627617 0.080922635418348779 -0.035067716709725874 0.083340777791310869 -0.040312531275918932 -0.014099337546681049 -0.0686573475794333 -0.049716475104244255 -0.059902574404437942 -0.0066124213470261858 0.0030236836680504363 0.073813785771209228 0.0049442786666770442 0.041454976838122888 0.048429013163190447 0.0070960393903156567 0.058890490972649256 -0.04882862173576985 0.072826903065194501 0.066093155166900064
leaf_weight=8135.2945544570684 10525.328896790743 18605.481697127223 3313.2264019548893 5676.4811784178019 3096.1219099760056 2972.6716040074825 17966.373939886689 4092.8194449692965 61964.519431248307 4075.5556531399488 6139.7638078778982 5079.9341983348131 10695.426498830318 3602.1697002798319 2078.4113502651453 2486.5272376686335 3556.3887918591499 795.7907739430666 11397.566783085465 1612.1568167507648 7573.8586786240339 13119.862924531102 3652.507473140955 9448.9568249583244 1266.6968301087618 7834.5014193356037 3717.9518955796957 426.89782840013504 21246.851490601897 20593.858407124877
leaf_count=36521 44613 87354 14234 24509 13795 13702 83568 17848 293560 17724 26696 23243 46611 16420 9072 10072 16519 3211 50270 7064 33055 61736 15843 42889 5616 33005 16960 1849 100810 97528
internal_value=0 0.0213188 0.0302351 0.00523375 -0.0431576 -0.0137218 0.0432413 0.000107539 -0.0483409 0.0140605 -0.00690105 0.0035668 0.0138093 -0.0055149 0.0399821 0.0511386 -0.0228042 0.052976 -0.0474968 0.0596671 0.0539101 0.0431861 0.0588296 0.024356 -0.00670865 -0.0139223 0.0321569 0.0548544 0.0619598 0.0539229
internal_weight=0 185271 166665 75893.7 91479.3 50638.7 25255 35927.9 83880.7 7598.58 32955.2 26815.5 22722.6 17642.7 6947.28 90771.5 21916.2 88284.9 14710.8 19578.5 87489.1 37513.1 20490.3 17022.8 3345.11 18359.8 7370.46 4502.45 49976 28729.2
internal_count=1265897 844832 757478 338853 421065 223712 115141 159208 387697 33368 145506 118810 100962 77719 31108 418625 94137 408553 64504 90632 405342 170483 94539 75944 14688 77618 32803 19573 234859 134049
is_linear=0
shrinkage=0.05


Tree=13
num_leaves=31
num_cat=0
split_feature=27 18 17 31 17 4 32 17 18 21 21 31 32 26 30 21 21 3 19 4 4 4 4 4 3 18 19 4 4 4
split_gain=93677.7 52103 26429.5 17142.5 10069.1 9759.51 7535.77 6528.66 6227.15 5988.27 5938.61 5054.4 4425.4 4030.85 3316.9 3280.31 2539.06 2145.5 2064.79 2235.2 3076.11 4316.06 3356.52 2058.45 2040.62 1950.98 4353.53 1913.28 3680.19 3129.82
threshold=1.0000000180025095e-35 1.0000000180025095e-35 1.0000000180025095e-35 0.95540774954873864 1.0000000180025095e-35 30.500000000000004 0.74762452664644774 1.0000000180025095e-35 1.0000000180025095e-35 1.0000000180025095e-35 1.0000000180025095e-35 1.6895529398219458 1.021808954015585 1.0000000180025095e-35 4.5000000000000009 1.0000000180025095e-35 1.0000000180025095e-35 45.500000000000007 1.0000000180025095e-35 39.500000000000007 40.500000000000007 49.500000000000007 50.500000000000007 59.500000000000007 19.500000000000004 1.0000000180025095e-35 1.0000000180025095e-35 49.500000000000007 40.500000000000007 50.500000000000007
decision_type=2 2 2 2 2 2 2 2 2 2 2 2 2 2 2 2 2 2 2 2 2 2 2 2 2 2 2 2 2 2
left_child=1 2 10 5 8 14 17 15 16 13 -1 25 -13 -7 -4 -3 24 -5 -15 -20 -21 -22 -23 -24 -2 26 -6 28 -26 -29
right_child=4 7 3 6 11 9 -8 -9 -10 -11 -12 12 -14 18 -16 -17 -18 -19 19 20 21 22 23 -25 27 -27 -28 29 -30 -31
leaf_value=0.056373856903435507 -0.060739931846906764 0.0066851246957829562 -0.067166661536958203 -0.037781108932318515 0.020309030104611898 -0.024206175568678517 0.061589276277677366 -0.046036996917518683 -0.047050236349766697 -0.06028035226342076 -0.020928735839915384 -0.047477491801172354 0.04799175642889221 0.059165076596859684 -0.015165843310774793 -0.057040725413261731 -0.060370995718335208 0.019798358496593327 0.072605836779570457 -0.049856230906323948 0.0747583542751422 -0.024886990691641058 0.075960156563649225 -0.00025363733867370304 0.010340733739711526 -0.065627977602056395 -0.052571776168016483 -0.033145586331223588 0.088812701415266523 0.041142716038404921
leaf_weight=76830.11152240634 918.62950684130192 12192.029303133488 7535.0168850421906 2391.3079767227173 2198.6885759234428 4951.174575060606 17099.785446628928 24689.557886958122 9186.5793734043837 2906.6221500188112 2567.5119924098253 2610.596571162343 2268.7582304775715 3852.8912814408541 5171.0646217465401 2420.2887531369925 1355.2582190334797 5001.7743050456047 1658.8563961833715 1790.9544189870358 2774.0383439511061 4729.178987339139 1848.962430074811 1701.0274510830641 4982.7192066907883 28094.428737744689 30109.85336394608 3675.4651209712029 2133.9995805621147 2308.2036042362452
leaf_count=368840 3793 49785 33962 10170 9341 21601 81986 114298 41907 13686 11931 12351 9830 17521 22522 11925 6581 21903 7889 7676 13070 20137 8621 7309 20940 140003 143014 14892 8929 9484
internal_value=0 0.0206211 0.0346512 0.0105826 -0.0417703 -0.0100405 0.0433532 -0.0303594 -0.0144806 0.00739122 0.0538741 -0.0520373 -0.00308706 0.0158305 -0.0460036 -0.00387001 0.00498077 0.00117416 0.0266297 0.0179863 0.0109321 0.0207816 0.00269604 0.0394412 0.0112985 -0.0559915 -0.047612 0.01635 0.0338711 -0.00448883
internal_weight=0 182112 142810 63412.7 89843.2 38919.8 24492.9 39301.9 24560.9 26213.7 79397.6 65282.3 4879.35 23307.1 12706.1 14612.3 15374.3 7393.08 18355.9 14503 12844.2 11053.2 8279.17 3549.99 14019 60403 32308.5 13100.4 7116.72 5983.67
internal_count=1265897 844832 668824 288053 421065 173994 114059 176008 106526 117510 380771 314539 22181 103824 56484 61710 64619 32073 82223 64702 56813 49137 36067 15930 58038 292358 152355 54245 29869 24376
is_linear=0
shrinkage=0.05


Tree=14
num_leaves=31
num_cat=0
split_feature=18 17 21 31 0 32 4 17 19 30 31 32 19 19 1 7 14 17 4 2 21 2 26 31 19 4 0 21 21 11
split_gain=83871 52424.2 21130.5 14686.9 13295.2 8366.18 12319.3 8132.26 5590.86 5259.5 5158.88 5025.74 4690.13 4545.52 4071.63 3501.81 3100.88 3085.4 2698.62 2619.66 2696.97 2193.86 2018.91 1967.81 1803.88 1756.16 1659.2 1696.4 1476.48 1449.5
threshold=1.0000000180025095e-35 1.5000000000000002 1.0000000180025095e-35 1.4916690957279013 0.10002065842219807 0.66970503257384395 30.500000000000004 1.0000000180025095e-35 1.0000000180025095e-35 4.5000000000000009 0.29444437304806281 0.84310664045676487 1.0000000180025095e-35 1.0000000180025095e-35 0.8431171233768372 2.5000000000000004 1.5000000000000002 3.5000000000000004 30.500000000000004 8.5000000000000018 1.0000000180025095e-35 -1.0000000180025095e-35 1.0000000180025095e-35 0.42218648089596 1.0000000180025095e-35 49.500000000000007 0.10002065842219807 1.0000000180025095e-35 1.0000000180025095e-35 4284.860130127342
decision_type=2 2 2 2 2 2 2 2 2 2 2 2 2 2 2 2 2 2 2 2 2 2 2 2 2 2 2 2 2 2
left_child=1 2 4 8 -1 6 9 12 -3 -6 18 -5 26 -8 15 16 22 19 -7 20 21 23 -15 29 -9 -12 -2 -28 -14 -10
right_child=7 3 -4 11 5 10 13 24 17 -11 25 -13 28 14 -16 -17 -18 -19 -20 -21 -22 -23 -24 -25 -26 -27 27 -29 -30 -31
leaf_value=-0.043992726482972797 -0.07608271363267638 0.023136302878763792 -0.045812333124116832 -0.020290231027337791 -0.073149317231449948 -0.03207870263404284 0.062834826882128172 -0.039080936082931388 -0.0069703112054974306 0.0080854532712509985 0.067151538427288868 0.057584981725432673 -0.029009154353000489 0.013283278907840493 -0.024635269783287051 -0.041333686354809544 -0.017047680932596756 -0.068116445500086609 0.036528221776533303 -0.053204052909148342 -0.065392000265432085 0.081099407675669977 0.04586827508142792 0.0041887178448702924 -0.060328818701119537 0.03793988722275924 0.019826643160392243 -0.047552210928107019 -0.066797311579515781 -0.046532723226374868
leaf_weight=4657.267037332058 567.02947814762592 3607.0530296266079 7795.2116158008575 3070.3191103190184 3600.8450050503016 1635.244268655777 13786.068833455443 13339.664165869355 3631.7083916217089 4460.9548710137606 40487.991991847754 6370.2300335466862 10416.838324725628 5631.7652686536312 3175.4400005340576 1478.4939930289984 2476.554699793458 8745.325480401516 11608.145201057196 11773.100477069616 3201.2026923298836 570.46536965668201 30485.217765778303 5909.5351888537407 39765.711801201105 5894.0708042234182 8099.7608293443918 1055.9447191953659 3438.1579924076796 6386.8361071050167
leaf_count=20242 2523 15569 37386 13454 15930 7242 66007 64618 16206 19917 200476 30926 44362 26349 14471 6194 10735 42118 54919 55466 15651 2492 145568 26388 197092 27925 34576 5222 16934 28939
internal_value=0 0.0177882 0.0341356 -0.0243105 0.0389525 0.0420498 0.029656 -0.0441421 -0.0364961 -0.0281985 0.0555806 0.0322579 -0.0197053 0.0378339 0.0298643 0.034183 0.037076 -0.0418444 0.0280569 -0.0345442 -0.0233925 -0.0152434 0.0407873 -0.0186939 -0.0549915 0.0634394 0.00691548 0.0120557 -0.0383864 -0.0321914
internal_weight=0 190439 137173 53265.8 129378 124721 65095.3 76683.1 43825.2 8061.8 59625.5 9440.55 23577.7 57033.5 43247.5 40072 38593.5 40218.2 13243.4 31472.8 19699.7 16498.5 36117 15928.1 53105.4 46382.1 9722.74 9155.71 13855 10018.5
internal_count=1265897 900570 653361 247209 615975 595733 305171 365327 202829 35847 290562 44380 103617 269324 203317 188846 182652 187260 62161 145142 89676 74025 171917 71533 261710 228401 42321 39798 61296 45145
is_linear=0
shrinkage=0.05


Tree=15
num_leaves=31
num_cat=0
split_feature=27 18 17 31 32 4 32 17 31 19 21 21 18 26 14 11 17 21 3 19 0 4 18 19 4 7 4 21 4 14
split_gain=82316.8 43791.6 23222.5 14720.2 9181.41 8335.14 6687.08 6401.18 6356.6 5910.06 5157.45 4983.79 3962.63 3562.76 3284.34 3092.28 2355.83 2051.58 2015.9 1965.52 1887.56 1825.77 1792.11 3516.21 1779.4 1764.54 1664.31 1635.14 1556.48 1451.84
threshold=1.0000000180025095e-35 1.0000000180025095e-35 1.0000000180025095e-35 0.95540774954873864 1.7160470948200197 30.500000000000004 0.55798115823870764 1.0000000180025095e-35 0.77926919735042155 1.0000000180025095e-35 1.0000000180025095e-35 1.0000000180025095e-35 1.0000000180025095e-35 1.0000000180025095e-35 1.5000000000000002 4157.3569299245746 1.5000000000000002 1.0000000180025095e-35 47.500000000000007 1.0000000180025095e-35 0.20000477467990743 49.500000000000007 1.0000000180025095e-35 1.0000000180025095e-35 30.500000000000004 2.5000000000000004 49.500000000000007 1.0000000180025095e-35 49.500000000000007 1.5000000000000002
decision_type=2 2 2 2 2 2 2 2 2 2 2 2 2 2 2 2 2 2 2 2 2 2 2 2 2 2 2 2 2 2
left_child=1 2 11 5 7 15 24 12 -6 14 13 25 19 -7 16 -4 27 18 -11 -2 -15 -10 23 -9 -5 -1 -8 -3 -26 -20
right_child=4 9 3 6 8 10 26 22 21 17 -12 -13 -14 20 -16 -17 -18 -19 29 -21 -22 -23 -24 -25 28 -27 -28 -29 -30 -31
leaf_value=0.054882954189469514 0.041375508375697409 0.032904257990770104 0.0034213951948799132 -0.0407265481501458 -0.041958938726769375 -0.022830433913259614 0.061334980170943625 0.016383459016067036 0.062008229104053417 -0.059955530047279784 -0.057378338653534082 -0.018095752990832336 -0.048296265745460212 -0.027510650816368748 -0.04427933380100002 -0.056436224323189225 -0.031753689409009377 -0.065461464942589129 -0.014441288915593859 -0.012486173984338969 0.030176675236501468 -0.04577460733598996 -0.063046128101583609 -0.049950859394641202 0.046198898935310463 0.0044997327741500819 -5.735447348731318e-05 -0.039873493154607836 -0.014322100811117962 -0.058807231777230497
leaf_weight=71751.84584414959 2003.4149640500546 7226.4195013493299 2784.0504103302956 2087.7297577559948 3103.097458049655 4927.1868377178907 16086.523790761828 2145.3472422212362 3987.6375144124031 5052.0719349831343 2773.6117617189884 2501.9860303401947 8369.7262102812529 1552.5363433212042 3394.9434630870819 9589.5699786245823 2348.3502741158009 6941.1627619564533 10161.820622116327 10959.407879382372 16364.731929630041 435.84947888553143 26642.149617999792 29034.739593073726 2104.1818611174822 1780.931604385376 1185.283380612731 864.0714004188776 2145.6643448919058 2252.7890064865351
leaf_count=361569 8884 30755 12060 8926 14458 21601 80996 9037 18044 23569 13686 11931 39357 6793 15778 44424 10927 35921 44295 45580 75430 1951 140544 143210 9369 7271 5365 4440 9403 10323
internal_value=0 0.0196642 0.0328153 0.00999765 -0.0398691 -0.0092701 0.0410029 -0.044887 0.0129026 -0.0276682 0.00700626 0.0513014 -0.0214778 0.0148234 -0.0015591 -0.0429683 0.0123345 -0.0424662 -0.033328 -0.00416181 0.0251781 0.0513883 -0.0535235 -0.0453867 -0.00292629 0.0536627 0.0571219 0.0251315 0.015643 -0.0224921
internal_weight=0 175877 137636 61601.1 86681.4 37991.7 23609.4 79154.8 7526.58 38241.6 25618.1 76034.8 21332.5 22844.5 13833.8 12373.6 10438.8 24407.8 17466.7 12962.8 17917.3 4423.49 57822.2 31180.1 6337.58 73532.8 17271.8 8090.49 4249.85 12414.6
internal_count=1265897 844832 668824 288053 421065 173994 114059 386612 34453 176008 117510 380771 93821 103824 61900 56484 46122 114108 78187 54464 82223 19995 292791 152247 27698 368840 86361 35195 18772 54618
is_linear=0
shrinkage=0.05


Tree=16
num_leaves=31
num_cat=0
split_feature=27 21 17 31 32 4 31 32 26 17 4 4 4 4 4 4 4 4 4 4 21 4 4 31 30 32 4 4 26 4
split_gain=75850.4 39615.3 25529.7 16341.9 8561.82 7273.55 7069.2 6893.33 6454.59 5989.31 4192.01 5553.97 4443.12 6299.38 6199.95 4937.67 8050.26 3905.04 5500.85 4337.52 2760.37 2528.26 2516.27 5605.73 4267.64 2586.44 2512.17 2219.16 2135.56 1975.33
threshold=1.0000000180025095e-35 1.0000000180025095e-35 1.0000000180025095e-35 1.1724681826903305 1.5755165305996484 20.500000000000004 0.91367137627717232 0.27255742650471398 1.0000000180025095e-35 1.0000000180025095e-35 29.500000000000004 30.500000000000004 49.500000000000007 50.500000000000007 59.500000000000007 40.500000000000007 39.500000000000007 49.500000000000007 50.500000000000007 59.500000000000007 1.0000000180025095e-35 60.500000000000007 40.500000000000007 0.6892490669918474 4.5000000000000009 0.81513828667033428 49.500000000000007 60.500000000000007 1.0000000180025095e-35 69.500000000000014
decision_type=2 2 2 2 2 2 2 2 2 2 2 2 2 2 2 2 2 2 2 2 2 2 2 2 2 2 2 2 2 2
left_child=1 2 17 5 9 -4 -6 -5 -7 20 -10 -12 15 -14 -15 16 -13 22 28 -20 -2 -21 23 24 25 -1 -9 -16 -19 -29
right_child=4 -3 3 7 6 8 -8 26 10 -11 11 12 13 14 27 -17 -18 18 19 21 -22 -23 -24 -25 -26 -27 -28 29 -30 -31
leaf_value=-0.083283056490645088 -0.013342097247511696 -0.053335942196974732 -0.058509421821488342 -0.016162266629437417 -0.038561303440887665 -0.036247747618340924 0.050489137088272198 0.060972749479439682 0.092834870155534405 -0.05270104928472507 -0.050029595307678455 0.074118496674852749 -0.030374694006239253 0.082155666409905681 -0.039696423881132509 0.077963857659187161 -0.044272804508503474 -0.029399858427024701 0.0700670481459858 -0.0064343798287775479 -0.063866942408337651 0.051944559722691158 0.068938738105458808 0.060323366141060403 0.035885168871347559 0.015979797058774347 -0.0062685066117341322 0.091055532657507668 0.020226058104926482 -0.02671172944503716
leaf_weight=1531.9547488540411 17473.936265572906 17049.032274723053 6845.0588845312595 4205.7387344390154 4295.5757767856121 10939.897010743618 4631.6000468432903 15979.82781650126 1399.0457168072462 55333.463152423501 4077.0042102783918 2573.967820584774 9396.7824927717447 3304.9740024060011 2465.764513745904 4466.249480009079 3247.3420811891556 2541.8495360016823 12132.070860117674 3867.7799221873283 3198.0825773924589 3563.0892320722342 19544.535289555788 19208.228582978249 5634.0221011787653 1148.0403013974428 1521.2871050387621 796.59498110413551 14734.635847270489 643.86111146211624
leaf_count=6568 75496 87354 32529 18516 20480 49735 21248 81542 5913 287626 18448 12865 42192 15939 11195 21966 14622 11452 62385 17247 16215 17412 102131 99913 26903 5440 6828 3625 69174 2938
internal_value=0 0.019024 0.0269438 0.00507147 -0.0386815 -0.0106142 0.00763987 0.0413152 -0.00304469 -0.0441221 0.00817621 0.00435213 0.0125957 -0.00339887 0.0317529 0.0384169 0.00807545 0.0456768 0.0334845 0.0516413 -0.0211586 0.0215582 0.0552198 0.0454775 0.0111784 -0.0407614 0.0551278 -0.0108919 0.0129247 0.0384154
internal_weight=0 172819 155770 71863.4 84932.7 50156.5 8927.18 21706.9 43311.5 76005.5 32371.6 30972.5 26895.5 16608 7211.19 10287.6 5821.31 83906.2 36839.4 19562.9 20672 7430.87 47066.8 27522.2 8314.02 2680 17501.1 3906.22 17276.5 1440.46
internal_count=1265897 844832 757478 338853 421065 231967 41728 106886 199438 379337 149703 143790 125342 75889 33697 49453 27487 418625 177670 97044 91711 34659 240955 138824 38911 12008 88370 17758 80626 6563
is_linear=0
shrinkage=0.05


Tree=17
num_leaves=31
num_cat=0
split_feature=27 18 17 32 18 3 4 21 17 31 21 21 3 31 21 4 4 4 4 4 0 11 0 14 17 32 1 4 4 4
split_gain=69872.9 38374.7 20351 12956.8 8532.76 9201.25 8523.52 5529.62 5492.08 5360.76 5179.96 5064.6 4630.83 4145.99 4101.37 4086.65 4487.56 7878.23 5812.35 3953.5 3576.51 3012.85 2933.67 2770.73 2707.64 2682.34 2111.02 2084.77 3203.51 2514.66
threshold=1.0000000180025095e-35 1.0000000180025095e-35 1.0000000180025095e-35 1.2528648836559848 1.0000000180025095e-35 45.500000000000007 30.500000000000004 1.0000000180025095e-35 3.5000000000000004 0.41001022326930908 1.0000000180025095e-35 1.0000000180025095e-35 46.500000000000007 1.0746228917360854 1.0000000180025095e-35 39.500000000000007 40.500000000000007 49.500000000000007 50.500000000000007 59.500000000000007 0.10002065842219807 4350.9255605292919 0.20000477467990743 1.5000000000000002 3.5000000000000004 0.36600693122184708 0.83023098521179162 30.500000000000004 39.500000000000007 40.500000000000007
decision_type=2 2 2 2 2 2 2 2 2 2 2 2 2 2 2 2 2 2 2 2 2 2 2 2 2 2 2 2 2 2
left_child=1 2 14 6 5 -2 21 15 11 -5 12 13 -3 22 -1 -8 -17 -18 -19 -20 -14 -4 -7 24 26 -15 -22 -24 -29 -30
right_child=4 10 3 9 -6 8 7 -9 -10 -11 -12 -13 20 25 -16 16 17 18 19 -21 23 -23 27 -25 -26 -27 -28 28 29 -31
leaf_value=0.051075517109084437 -0.052010758558910013 -0.052827660962315864 -0.0099664995975471387 -0.015254443562815363 -0.056194373901686738 -0.054327194574999876 0.070973322125977539 -0.055820884882559499 -0.064850675350889828 0.058204620023277975 -0.06064869512499356 -0.061247537090498121 -0.067675301179495703 -0.010637573465418328 -0.015016102418722158 -0.045194241656627651 0.072950056409313208 -0.027469191162810488 0.073271566240643488 -0.0063411520594440001 0.021668482457611705 -0.057714060526488323 -0.033878580604047186 -0.039164675852329744 -0.067003919999898021 0.062999454592368331 -0.037226438499572731 0.10737186814894828 -0.046558090814036786 0.017183513111345895
leaf_weight=70092.43849222362 18060.866450861096 6649.2791735976934 5618.0454576909542 2996.2643417418003 35185.333889916539 2479.5839541703463 3118.1128476113081 2873.288791179657 3595.2058445215225 14514.194935083389 8512.6749704629183 2908.118501201272 2077.702513858676 1687.1672064810991 2428.6782080233097 3175.7050470709801 5009.5966155081987 8213.2465391606092 3371.613353073597 2901.2493300288916 13733.964696615934 8020.3507624417543 2861.6926691830158 3500.100485175848 1072.7625277191401 4631.766370639205 1711.0758269131184 846.90431030094624 1859.6869166642427 9211.2654100358486
leaf_count=368840 91111 31784 25279 13904 189319 11843 15743 14677 18662 76695 46489 15272 9644 7650 11931 13949 24868 35225 16612 12619 59267 38482 13600 16141 5186 21216 7497 3580 8423 40389
internal_value=0 0.018435 0.0310552 0.00946442 -0.0374788 -0.0238003 -0.00550822 0.00997372 -0.00686278 0.0456348 -0.0263898 0.00100843 -0.0162442 0.00868708 0.0488622 0.0173041 0.0099227 0.0189008 0.000209503 0.03645 -0.00523506 -0.0380455 -0.00399944 0.00124575 0.00980867 0.0433382 0.0151438 0.00444412 0.0136461 0.00647627
internal_weight=0 169590 132333 59811.7 83327.6 48142.3 42301.2 28662.8 30081.4 17510.5 37257.6 26486.2 28744.9 23578.1 72521.1 25789.5 22671.4 19495.7 14486.1 6272.86 22095.6 13638.4 17259.1 20017.9 16517.8 6318.93 15445 14779.5 11917.9 11071
internal_count=1265897 844832 668824 288053 421065 231746 197454 133693 140635 90599 176008 121973 129519 106701 380771 119016 103273 89324 64456 29231 97735 63761 77835 88091 71950 28866 66764 65992 52392 48812
is_linear=0
shrinkage=0.05


Tree=18
num_leaves=31
num_cat=0
split_feature=27 18 17 32 18 3 4 19 19 4 31 4 4 4 4 31 32 11 14 4 4 1 4 17 31 4 4 4 4 20
split_gain=64430 35358.9 18982.2 11970.3 8134.66 8566.06 7796.62 6191.5 5137.69 5034.52 4947.11 4446.12 9521.5 6199.7 4793.64 4264.48 3291.75 2824.75 2695.21 2675.02 4533.12 2238.12 2104.17 1894.18 1767.4 1735.53 10113.3 2710.93 5327.27 1733.28
threshold=1.0000000180025095e-35 1.0000000180025095e-35 1.0000000180025095e-35 1.2709842976483223 1.0000000180025095e-35 42.500000000000007 30.500000000000004 1.0000000180025095e-35 1.0000000180025095e-35 39.500000000000007 0.41001022326930908 40.500000000000007 49.500000000000007 50.500000000000007 59.500000000000007 1.1724681826903305 0.72172351003091262 4256.6651210534246 1.5000000000000002 30.500000000000004 39.500000000000007 0.85096814841372637 60.500000000000007 1.5000000000000002 1.8940062114632357 40.500000000000007 49.500000000000007 50.500000000000007 59.500000000000007 30.500000000000004
decision_type=2 2 2 2 2 2 2 2 2 2 2 2 2 2 2 2 2 2 2 2 2 2 2 2 2 2 2 2 2 2
left_child=1 2 21 6 5 -2 17 -7 18 -8 -5 -11 -13 -14 -15 19 -17 -4 23 -9 -21 29 -16 -3 -19 -22 -27 -28 -29 -1
right_child=4 8 3 10 -6 7 9 15 -10 11 -12 12 13 14 22 16 -18 24 -20 20 25 -23 -24 -25 -26 26 27 28 -30 -31
leaf_value=0.050406129727005769 -0.051899220144589989 0.023369303822715251 -0.0021572824173663463 -0.014757190915218666 -0.054962032007614459 0.049384940603790423 0.070100407367811451 -0.052372296529786921 -0.039626379796556421 -0.046773890226286731 0.057010239809918588 0.072219269053131793 -0.031983212806774547 0.072987506062167487 -0.043815567037753689 -0.023759841778616814 0.055025924699416209 -0.058050258349103448 -0.04037684488546172 0.10613503529926582 -0.055002470647659299 0.010157316099718245 0.03810300822600729 -0.028542412034707389 0.020748843810390428 0.10926297561297452 -0.047782809686212693 0.10961996376017327 -0.040797914964570664 -0.039103201476700079
leaf_weight=66487.65369874239 16621.017876595259 7923.4364646077156 4186.1313138157129 2898.7224259972572 34200.655977159739 4158.0614827126265 3080.3301649540663 6754.7046488821507 23314.494859203696 3890.3011856526136 13991.726181894541 4940.5458937138319 9884.2277064174414 3317.964449480176 2024.5246476233006 2232.8234479278326 3263.6050708442926 8616.190302580595 3260.5514573603868 741.8892930150032 2913.0274835973978 3784.6654605716467 1279.1934069246054 2258.0070573091507 775.65558890998363 1492.9417227208614 6676.2072425484657 913.12050931155682 1656.4445701390505 545.27822840213776
leaf_count=359152 85803 35195 18651 13452 189319 18573 16049 34832 114108 17717 75913 25277 43950 16841 8867 10616 15200 41980 15778 3137 14123 19320 5817 10927 3539 6335 31540 3817 7770 2299
internal_value=0 0.0178562 0.0301237 0.00914711 -0.036375 -0.0229705 -0.00514971 -0.00736081 -0.0254323 0.00974225 0.0446936 0.00240418 0.0113249 -0.00690201 0.0305369 -0.0162163 0.0230206 -0.0363168 -0.000813462 -0.0264139 -0.0142321 0.0475659 -0.0120968 0.0118565 -0.0515424 -0.0207733 -0.0114881 -0.0309862 0.0126546 0.049678
internal_weight=0 166460 129703 58885.5 81624.5 47423.8 41995.1 30802.8 36756.5 28417.1 16890.4 25336.8 21446.5 16505.9 6621.68 26644.8 5496.43 13578 13442 21148.3 14393.6 70817.6 3303.72 10181.4 9391.85 13651.7 10738.7 9245.77 2569.57 67032.9
internal_count=1265897 844832 668824 288053 421065 231746 198688 145943 176008 134518 89365 118469 100752 75475 31525 127370 25816 64170 61900 101554 66722 380771 14684 46122 45519 63585 49462 43127 11587 361451
is_linear=0
shrinkage=0.05


Tree=19
num_leaves=31
num_cat=0
split_feature=27 21 18 3 17 18 3 19 0 3 32 31 31 13 0 19 17 32 19 4 4 20 21 4 1 0 4 14 20 7
split_gain=59439.2 32656.7 21479.9 14698 10842 7741.04 7966.53 5512.6 5076.3 4255.15 3986.99 3794.36 3475.03 3302.63 3291.96 2770.4 2665.16 2481.83 2236.19 2174.23 2182.13 2089.1 1901.3 1879.89 1781.23 1771.34 1725.9 1544.27 1380.44 1342.85
threshold=1.0000000180025095e-35 1.0000000180025095e-35 1.0000000180025095e-35 34.500000000000007 3.5000000000000004 1.0000000180025095e-35 44.500000000000007 1.0000000180025095e-35 0.10002065842219807 46.500000000000007 1.643293775493033 1.3531523280677316 0.55278200778596032 10.500000000000002 0.10002065842219807 1.0000000180025095e-35 1.5000000000000002 0.42481067493749453 1.0000000180025095e-35 30.500000000000004 39.500000000000007 29.500000000000004 1.0000000180025095e-35 49.500000000000007 0.8431171233768372 0.40001183429532022 50.500000000000007 1.5000000000000002 -1.0000000180025095e-35 2.5000000000000004
decision_type=2 2 2 2 2 2 2 2 2 2 2 2 2 2 2 2 2 2 2 2 2 2 2 2 2 2 2 2 2 2
left_child=1 2 3 10 8 6 -2 -8 -5 -4 19 16 13 18 -11 27 22 -13 -10 -1 -21 24 25 -14 28 -9 -25 -16 -20 -30
right_child=5 -3 9 4 -6 -7 7 11 12 14 -12 17 23 -15 15 -17 -18 -19 21 20 -22 -23 -24 26 -26 -27 -28 -29 29 -31
leaf_value=-0.047931629934813452 -0.049543494408650038 -0.050465891009590813 -0.050282359787391165 -0.024202839031764137 -0.051986955699437676 -0.053782486456061811 0.047463596968154421 -0.038107165519204497 0.059926618069701537 -0.065003091179487701 0.042706118735601456 -0.030300671310199673 0.059080298584213813 -0.0082271589699444894 0.033014791105673444 -0.014675431177557353 -0.048460716863932662 0.052105736272308092 0.016154452751649586 0.071856180856178772 -0.015424688948570874 -0.025716825551233436 -0.061958570108666448 0.014621609786438707 -0.0093182654237538767 0.0061701393456311511 0.053779794789809904 -0.020138870450470043 0.046774167584454823 -0.019470247125457672
leaf_weight=5286.1854604184628 16957.726879313588 16042.897153824568 6433.0030278414488 2692.3139416724443 3061.210531771183 33228.016507729888 4070.5871259570122 2972.2905175983906 10070.83207064867 2008.6841697692871 2776.3531256914139 1305.4500671923161 41308.36836604774 3985.0031267106533 7193.5678438693285 10935.529322057962 7260.9102723151445 3044.4569727778435 5340.6738735884428 803.52891306579113 6582.7858146131039 1452.4971449375153 1626.4850859045982 5126.1123513579369 2047.5605275481939 9410.0618122965097 6238.3655985742807 1686.901927575469 21670.52456830442 793.01023361086845
leaf_count=25058 89429 87354 31784 11422 15469 189319 18311 14080 53959 9644 14487 6275 234414 19008 31346 48992 39191 14365 27357 4053 29905 6851 9116 24991 9859 40979 34018 7753 113800 3308
internal_value=0 0.0172817 0.0246506 0.0339396 0.0407125 -0.0353397 -0.0222027 -0.00658686 0.0435298 -0.0145447 -0.0115612 -0.0151747 0.0453899 0.0352457 -0.00401071 0.00217189 -0.0238765 0.0273748 0.0394327 -0.0234503 -0.00592974 0.0328397 -0.0111343 0.0541258 0.0356889 -0.00445829 0.0361169 0.0229179 0.0390033 0.0444356
internal_weight=0 163536 147493 119235 103786 79876 46648 29690.2 100725 28257.7 15448.9 25619.7 98032.9 45360.1 21824.7 19816 21269.7 4349.91 41375.1 12672.5 7386.31 31304.3 14008.8 52672.8 29851.8 12382.4 11364.5 8880.47 27804.2 22463.5
internal_count=1265897 844832 757478 627959 554456 421065 231746 142317 538987 129519 73503 124006 527565 234142 97735 88091 103366 20640 215134 59016 33958 161175 64175 293423 154324 55059 59009 39099 144465 117108
is_linear=0
shrinkage=0.05


Tree=20
num_leaves=31
num_cat=0
split_feature=27 21 18 4 3 18 17 0 19 3 7 32 1 0 32 19 20 26 4 3 32 0 32 21 4 14 24 1 17 32
split_gain=54828.3 30156.3 19858.2 13902.9 8992.9 7389.08 7510.75 5143.12 4451.27 3970.3 3743.39 3291.73 3149.24 3101.21 2987.18 2746.43 2562.04 2153.02 2083.28 2053 1994.43 1720.09 1706.55 1652.86 1452.77 1413.07 1385.5 1344.85 1332.09 1329.78
threshold=1.0000000180025095e-35 1.0000000180025095e-35 1.0000000180025095e-35 20.500000000000004 17.500000000000004 1.0000000180025095e-35 1.5000000000000002 0.10002065842219807 1.0000000180025095e-35 40.500000000000007 2.5000000000000004 1.7414437256336053 0.83912000526995867 0.10002065842219807 1.2880513641983062 1.0000000180025095e-35 30.500000000000004 1.0000000180025095e-35 49.500000000000007 47.500000000000007 2.2969588524419495 0.40001183429532022 1.9956024917770521 1.0000000180025095e-35 29.500000000000004 1.5000000000000002 1.0000000180025095e-35 0.98942806803335459 3.5000000000000004 2.0901253290234023
decision_type=2 2 2 2 2 2 2 2 2 2 2 2 2 2 2 2 2 2 2 2 2 2 2 2 2 2 2 2 2 2
left_child=1 2 3 11 22 6 8 -6 -2 -4 12 -1 16 -11 19 25 17 -9 -16 -10 -8 -21 24 -23 -5 -15 28 -14 -19 -3
right_child=5 29 9 4 7 -7 20 10 14 13 -12 -13 27 15 18 -17 -18 26 -20 21 -22 23 -24 -25 -26 -27 -28 -29 -30 -31
leaf_value=-0.046769923853538259 0.045670554141930123 -0.051875897109990347 -0.05251593995609638 0.091162075639550574 -0.025619051598403927 -0.052649577310247747 -0.048430708132449971 0.028892707405469356 -0.047679927400862666 -0.06330197063133558 -0.012529144648097913 0.040073723014173876 0.016176792629642344 0.031125102112660764 0.043913197922419239 -0.01522139550038748 -0.042330248422982719 0.051938655093955871 -0.03806809653640672 -0.043012122074164327 0.034363601638786871 0.0064580635130006281 0.052529843733232967 -0.058292344733069462 -0.032804704026487073 -0.018867082183828859 -0.11617532515988649 -0.081836242183935884 -0.01928463438098247 0.031372899444653983
leaf_weight=6396.3019644469023 3827.7807098031044 15136.092347756028 5388.3368574976921 246.5782175809145 2803.0936276465654 32270.302457869053 18544.55665948987 12778.443297997117 5287.3314774483442 2056.6022890359163 2939.7485136985779 1315.5871817171574 5838.2914341986179 7379.5048322677612 3320.2203602343798 11445.767060816288 793.7081733494997 76147.246029227972 1010.8506469279528 3154.6116458326578 757.07059052586555 8932.2368602156639 747.08133998513222 1107.816009297967 5688.6518840491772 1748.4122937470675 123.6560949832201 372.30047781765461 662.20204661786556 495.39488735795021
leaf_count=31239 17445 84835 27288 1064 12060 189319 101854 68061 27706 10126 12687 6969 30193 32275 15967 51736 3365 427945 4682 15470 3602 38619 3619 6401 25325 8094 560 1722 3150 2519
internal_value=0 0.0167419 0.023861 0.0329257 0.0375102 -0.0343124 -0.0214323 0.0411755 -0.00422438 -0.0139436 0.0430543 -0.0319551 0.0447438 -0.00475942 -0.0125962 0.00109265 0.0471073 0.0478986 0.0247792 -0.0213547 -0.0451833 -0.0108058 -0.0186899 -0.000686474 -0.0276545 0.0215493 0.0510554 0.0103013 0.0513246 -0.0492376
internal_weight=0 160503 144872 116853 109141 78212.8 45942.5 102459 26640.8 28018.6 99655.6 7711.89 96715.8 22630.3 22813.1 20573.7 90505.3 89711.5 4331.07 18482 19301.6 13194.7 6682.31 10040.1 5935.23 9127.92 76933.1 6210.59 76809.4 15631.5
internal_count=1265897 844832 757478 627959 589751 421065 231746 559743 126290 129519 547683 38208 534996 102231 108845 92105 503081 499716 20649 88196 105456 60490 30008 45020 26389 40369 431655 31915 431095 87354
is_linear=0
shrinkage=0.05


Tree=21
num_leaves=31
num_cat=0
split_feature=17 31 18 27 32 21 27 4 4 4 4 4 4 4 4 4 21 21 4 4 22 30 7 18 19 7 21 1 22 22
split_gain=50678 23416.3 17767.4 10954.8 10686.4 8451.52 7795.93 6421.34 6210.6 5747.45 7091.34 6943.83 9060.42 6923.9 10856.6 3942.92 3111.1 3087.32 2505.36 2923.01 2310.57 1903.58 1680.83 1587.22 2785.41 1582.68 1636.76 1362.31 1340.6 3113.26
threshold=1.0000000180025095e-35 1.4916690957279013 1.0000000180025095e-35 1.0000000180025095e-35 0.50922751459903737 1.0000000180025095e-35 1.0000000180025095e-35 20.500000000000004 29.500000000000004 30.500000000000004 49.500000000000007 50.500000000000007 59.500000000000007 40.500000000000007 39.500000000000007 49.500000000000007 1.0000000180025095e-35 1.0000000180025095e-35 60.500000000000007 69.500000000000014 1000.0938026452615 5.5000000000000009 2.5000000000000004 1.0000000180025095e-35 1.0000000180025095e-35 2.5000000000000004 1.0000000180025095e-35 0.84712479082651715 200.02289599919123 499.54611562399174
decision_type=2 2 2 2 2 2 2 2 2 2 2 2 2 2 2 2 2 2 2 2 2 2 2 2 2 2 2 2 2 2
left_child=2 3 6 5 -3 7 16 -2 -9 -10 13 28 -13 14 -11 21 22 20 -14 -20 -4 -6 -1 24 -5 26 27 -8 -12 -30
right_child=1 4 17 23 15 -7 25 8 9 10 11 12 18 -15 -16 -17 -18 -19 19 -21 -22 -23 -24 -25 -26 -27 -28 -29 29 -31
leaf_value=0.047980739103976953 -0.053121625723267597 -0.02998062148676689 -0.020194685847205851 0.016139663200085159 0.059623036661402617 -0.057987114459103595 0.01875884224038521 0.085796177277354849 -0.049123207034924787 0.070405231847635794 -0.049964185900668638 0.079007020067625763 -0.046015406502099093 0.074600601556974608 -0.045156325312783747 -0.03108635248866197 -0.011920705812904112 -0.054651519252755798 0.088443716398746652 -0.03807605784493253 0.016220367064280285 -0.069560123503477775 -0.0018764782276169878 -0.057683268305543184 -0.044141872205660557 -0.057214175261353056 -0.051477203266693833 -0.038763033259092507 0.091579534293171103 -0.030644576268768417
leaf_weight=61943.747787922621 6780.9556806236506 5899.4548943191767 10465.362701758742 2077.2746346592903 13861.496335864067 9981.5137006044388 11405.989304959774 1973.6113587170839 6279.9682301878929 3450.2824782729149 8052.2607576996088 3756.5801315158606 3620.3995658010244 5476.3432698696852 4945.6032817512751 1396.8898256123066 2353.407597437501 3800.158606544137 922.23884700238705 903.9987980723381 7462.1403871923685 291.15626774728298 1737.9015500098467 21603.231014847755 24726.419740051031 980.90969666838646 1048.0017353892326 1131.4218838959932 578.96068334579468 5204.6685176491737
leaf_count=361569 34908 30278 47559 8888 78297 58668 49440 8940 30074 19518 37736 19923 17189 29964 23255 6835 11931 22635 4399 4298 33423 1439 7271 136710 139069 4272 6102 4805 2539 23963
internal_value=0 -0.0204857 0.0264132 -0.0297785 0.0273168 -0.0158492 0.0372305 -0.00775228 -0.000940635 -0.00490404 0.00261925 -0.0143865 0.0192702 0.0308625 0.0023336 0.0490553 0.0445338 -0.0137148 -0.0219307 0.0258157 -0.00503729 0.0569654 0.0466201 -0.0475983 -0.0394701 0.00412154 0.00855017 0.0135679 -0.0367738 -0.0184095
internal_weight=0 131783 102329 110334 21449 61927.4 80601.4 51945.9 45164.9 43191.3 36911.3 23039.1 9203.22 13872.2 8395.89 15549.5 66035.1 21727.7 5446.64 1826.24 17927.5 14152.7 63681.6 48406.9 26803.7 14566.3 13585.4 12537.4 13835.9 5783.63
internal_count=1265897 716890 549007 600041 116849 315374 445390 256706 221798 212858 182784 110047 45809 72737 42773 86571 380771 103617 25886 8697 80982 79736 368840 284667 147957 64619 60347 54245 64238 26502
is_linear=0
shrinkage=0.05


Tree=22
num_leaves=31
num_cat=0
split_feature=27 21 17 32 18 3 18 3 17 19 14 4 32 0 4 4 1 26 4 4 4 4 4 19 4 4 4 7 4 32
split_gain=47079.7 25861.2 17533.3 11442.8 6837.5 7022.66 6124.3 5872.51 6044.73 4711.85 4458.24 3955.65 3403.85 2869.36 2650.57 4548.94 2479.66 1965.18 1810.65 1667.67 9780.75 2681.83 5176.8 1644.23 1869.84 2819.95 1727.44 1501.26 1479.57 3287.64
threshold=1.0000000180025095e-35 1.0000000180025095e-35 1.0000000180025095e-35 1.3058990165964739 1.0000000180025095e-35 40.500000000000007 1.0000000180025095e-35 37.500000000000007 3.5000000000000004 1.0000000180025095e-35 1.5000000000000002 49.500000000000007 1.2880513641983062 0.10002065842219807 30.500000000000004 39.500000000000007 0.8346332730343774 1.0000000180025095e-35 49.500000000000007 40.500000000000007 49.500000000000007 50.500000000000007 59.500000000000007 1.0000000180025095e-35 49.500000000000007 50.500000000000007 59.500000000000007 2.5000000000000004 40.500000000000007 0.66970503257384395
decision_type=2 2 2 2 2 2 2 2 2 2 2 2 2 2 2 2 2 2 2 2 2 2 2 2 2 2 2 2 2 2
left_child=1 2 6 7 5 -2 23 -4 10 -7 13 -5 14 -9 -11 -16 17 -15 -14 -17 -21 -22 -23 -1 28 -26 -27 -8 29 -25
right_child=4 -3 3 11 -6 9 27 8 -10 12 -12 -13 18 16 15 19 -18 -19 -20 20 21 22 -24 24 25 26 -28 -29 -30 -31
leaf_value=0.059030780381091191 -0.048447051672044328 -0.046994514269570645 -0.036869254517372926 0.049617613577441655 -0.050717213122715821 0.043610840198560562 0.010679090068255454 -0.048664224507951007 -0.05769213055341138 -0.049039091084727371 -0.034882543581144496 -0.019918623121638973 0.039300149600842639 -0.0032790830924983461 0.10787838114313489 -0.051300212580624928 -0.02759070081097292 0.033377762800171178 -0.034660721970752775 0.10918724480486404 -0.044567127161131925 0.10900772562917427 -0.038240397354406541 0.0068773806015016235 0.0078062660147280695 0.063210630865593614 0.016668848695730366 -0.065868908002874524 0.06300131050998739 0.054312733255868509
leaf_weight=16426.98200327158 14582.721538379788 14815.435725659132 13294.39791226387 14166.189322948456 30481.01582968235 4106.5568455159664 11221.556554377079 1562.6210824102163 3782.6059652268887 6602.2629396021366 4868.2190386801958 2390.2897393107414 3856.7758046090603 4555.7286743670702 764.90010078251362 2868.8049952685833 2367.6128055900335 18517.470902472734 1053.5507592409849 1518.5891800820827 6637.4631048738956 940.4858757853508 1633.8810417503119 5325.809350579977 8803.131664454937 5964.1933232992887 2994.7734517753124 679.2868704944849 10933.599275559187 11627.72201102972
leaf_count=99504 82211 87354 66132 82812 189319 18852 46984 7482 20294 36935 23535 11431 19193 21704 3236 14801 11249 94214 5061 6450 33031 3964 8012 28539 46965 37088 16386 2801 68678 71680
internal_value=0 0.0158138 0.0224851 0.00364627 -0.0324682 -0.0199868 0.0391665 -0.00850752 0.00206771 -0.00614475 0.00916016 0.0395785 -0.0140408 0.0171002 -0.0228168 -0.0107641 0.0211396 0.02614 0.0234312 -0.0174372 -0.00838384 -0.0277657 0.0155533 0.0454655 0.0405841 0.0279043 0.0476528 0.00630982 0.0486602 0.0394113
internal_weight=0 154298 139482 65505.1 75047 44566 73977.1 48948.7 35654.3 29983.3 31871.7 16556.5 25876.7 27003.4 20966.4 14364.1 25440.8 23073.2 4910.33 13599.2 10730.4 9211.83 2574.37 62076.2 45649.2 17762.1 8958.97 11900.8 27887.1 16953.5
internal_count=1265897 844832 757478 338853 421065 231746 418625 244610 178478 149535 158184 94243 130683 134649 106429 69494 127167 115918 24254 66258 51457 45007 11976 368840 269336 100439 53474 49785 168897 100219
is_linear=0
shrinkage=0.05


Tree=23
num_leaves=31
num_cat=0
split_feature=17 31 18 32 27 21 27 4 4 4 4 14 4 4 4 4 4 19 21 4 30 7 32 18 19 19 4 4 4 4
split_gain=43518.1 20723 15137.3 10454.2 9416.95 7292.04 6922.4 5574.36 5493.06 5167.71 6086.1 4234.36 4082.63 8814.33 6323 4194.38 3223.42 2971.34 2539.14 1775.11 1674.29 1627 1494.26 1471.72 2317.14 1342.9 1524.31 2284.7 1395.83 1338.8
threshold=1.0000000180025095e-35 1.4132485618225026 1.0000000180025095e-35 0.72172351003091262 1.0000000180025095e-35 1.0000000180025095e-35 1.0000000180025095e-35 20.500000000000004 29.500000000000004 30.500000000000004 39.500000000000007 1.5000000000000002 40.500000000000007 49.500000000000007 50.500000000000007 59.500000000000007 49.500000000000007 1.0000000180025095e-35 1.0000000180025095e-35 60.500000000000007 5.5000000000000009 2.5000000000000004 1.7414437256336053 1.0000000180025095e-35 1.0000000180025095e-35 1.0000000180025095e-35 49.500000000000007 50.500000000000007 59.500000000000007 49.500000000000007
decision_type=2 2 2 2 2 2 2 2 2 2 2 2 2 2 2 2 2 2 2 2 2 2 2 2 2 2 2 2 2 2
left_child=2 4 6 -3 5 7 18 -2 -9 -10 -11 12 -12 -14 -15 -16 20 29 21 -17 -5 25 -8 24 -6 -1 -27 -28 -29 -4
right_child=1 3 17 16 23 -7 22 8 9 10 11 -13 13 14 15 19 -18 -19 -20 -21 -22 -23 -24 -25 -26 26 27 28 -30 -31
leaf_value=0.058366114099837434 -0.051436570277964978 -0.023012282026347395 0.037729848106277206 0.058309259499415594 0.013263728918811167 -0.056308464158066965 -0.0024315690307479191 0.083499796378625368 -0.048100967028326606 0.069070561562128666 -0.041016333658379485 -0.042909197038989925 0.072365091124766814 -0.02755223927850415 0.07518155507786678 -0.03329424366495503 -0.027848295930012708 -0.028229419015049169 -0.0092685128481450659 0.042682404385787506 -0.070183168837397267 -0.0034835011458811704 0.044849124039768491 -0.056104177318764638 -0.042413477086311588 0.048745447966974581 0.010882128492286286 0.062117853018008429 0.019078714808463917 -0.0036914893058623299
leaf_weight=15583.406011044979 6421.9755067229271 7730.7104198038578 2871.5007597953081 13271.32333239913 2031.9979009926319 9266.1059123128653 12419.926134824753 1820.3487112671137 6011.2041657865047 3090.8951075822115 4202.4579931050539 5837.9572479575872 4841.9713721424341 10743.559348106384 3242.7102759927511 2061.7085949480534 1257.0740568935871 12363.552563786507 2289.056618258357 1225.9134310185909 258.45873607695103 1724.8761332184076 1930.8871157765388 19946.44019241631 23251.445428684354 26355.1688028723 8331.2897324562073 5645.5514005124569 2827.2622724473476 6083.9748634248972
leaf_count=98215 34354 40744 13495 78945 8673 57937 54679 8374 29394 18339 19944 28841 27924 49958 18154 9667 6201 61296 11931 5964 1300 7271 9940 135062 137115 165726 45163 36671 15794 28826
internal_value=0 -0.0193833 0.0249483 0.0241053 -0.0287996 -0.0155999 0.0352586 -0.00797963 -0.00150128 -0.00525158 0.00205613 -0.00438536 0.00416003 0.0127444 -0.00396756 0.0348334 0.0487388 -0.0123427 0.0424227 -0.0049635 0.0558547 0.0443795 0.00393 -0.0459497 -0.0379388 0.0457849 0.0412423 0.0294745 0.0477563 0.00958993
internal_weight=0 126514 98426.5 22517.6 103997 58766.8 77107.4 49500.7 43078.7 41258.4 35247.2 32156.3 26318.3 22115.9 17273.9 6530.33 14786.9 21319 62756.6 3287.62 13529.8 60467.6 14350.8 45229.9 25283.4 58742.7 43159.3 16804.1 8472.81 8955.48
internal_count=1265897 716890 549007 127190 589700 308850 445390 250913 216559 208185 178791 160452 131611 111667 83743 33785 86446 103617 380771 15631 80245 368840 64619 280850 145788 361569 263354 97628 52465 42321
is_linear=0
shrinkage=0.05


Tree=24
num_leaves=31
num_cat=0
split_feature=27 21 3 17 14 17 31 4 30 4 4 31 4 4 31 21 22 4 4 4 4 4 31 4 31 3 3 21 17 0
split_gain=40479.8 22334 15381.6 11253.1 9065.7 6053.27 5776.22 4652.09 6578.22 4942.36 6046.99 4024.76 3537.69 3231.29 3162.43 2950.14 2876.54 2644.59 2310.68 5947.37 3265.82 5729.74 2983.4 2013.54 1730.78 1691.54 1598.79 1739.12 2178.66 1612.53
threshold=1.0000000180025095e-35 1.0000000180025095e-35 37.500000000000007 3.5000000000000004 1.5000000000000002 1.0000000180025095e-35 0.61357651843713146 40.500000000000007 4.5000000000000009 49.500000000000007 50.500000000000007 1.6670004861120833 49.500000000000007 59.500000000000007 2.1046407678444834 1.0000000180025095e-35 1000.0938026452615 50.500000000000007 49.500000000000007 40.500000000000007 50.500000000000007 59.500000000000007 1.2591006737907799 60.500000000000007 -0.012182789182603499 12.500000000000002 40.500000000000007 1.0000000180025095e-35 3.5000000000000004 0.20000477467990743
decision_type=2 2 2 2 2 2 2 2 2 2 2 2 2 2 2 2 2 2 2 2 2 2 2 2 2 2 2 2 2 2
left_child=1 2 11 4 6 15 7 8 24 -9 16 25 -8 -12 26 18 -11 -14 19 22 -20 -22 -2 -15 -4 -1 -7 28 29 -28
right_child=5 -3 3 -5 -6 14 12 9 -10 10 13 -13 17 23 -16 -17 -18 -19 20 -21 21 -23 -24 -25 -26 -27 27 -29 -30 -31
leaf_value=-0.046739602533587707 -0.027222010326099028 -0.04497714637370176 -0.075633555078678763 -0.052039012986920534 -0.01619504157206848 -0.054111299058579157 0.055509335899396689 0.065647689939150711 0.026027117712768368 -0.017168974992553123 0.066891801480239058 0.033199287473632856 0.00052898196562616788 -0.0097465885982936182 0.019357738472000442 -0.05679396394722748 0.025703898605899209 0.048136159864665566 -0.038828964666019677 0.088579555641076557 0.097305435412075758 -0.032272409597490309 0.04680201200348591 0.049862825412800481 -0.015039142224456343 -0.015052761604689657 -0.0498715808457105 -0.060368276496539176 -0.060603073056360826 -0.014103113097984033
leaf_weight=7083.4124187082052 4844.4115586429834 14078.954136997461 2643.7692055255175 4185.2256674617529 9132.4057331979275 19272.385026812553 37624.534231975675 8768.4088246822357 7739.0400942713022 8835.1132757514715 8271.4152459949255 3187.0758777558804 5917.0525333583355 3048.7710538506508 2125.258987352252 2791.6160625815392 7021.8853719830513 5753.6941358596087 6607.7797612249851 2180.5386408567429 1443.927477568388 2085.0587840974331 1893.0457780510187 2646.3697165250778 2126.2514255493879 10389.078178748488 4021.6204786449671 5646.8220575451851 4505.5512977987528 14555.115200445056
leaf_count=35278 22203 87354 12581 23263 44345 124370 238994 55633 40634 42052 51984 18186 29437 14738 11201 17291 36909 34194 30886 10088 6464 10013 9581 14805 10778 53667 25472 38124 29145 86227
internal_value=0 0.0149373 0.0212148 0.0284253 0.0315 -0.0307549 0.0358385 0.0240591 -0.00243901 0.0326481 0.022946 -0.0184734 0.0480493 0.0469357 -0.0403276 -0.00879016 0.00181623 0.0239994 -0.00175737 0.0168059 -0.0180887 0.0207459 -0.00642323 0.0179522 -0.0486234 -0.0278987 -0.0429701 -0.0354963 -0.0294116 -0.0218465
internal_weight=0 148452 134374 113714 109529 71973.1 100396 51101 12509.1 38592 29823.6 20659.6 49295.3 13966.6 50126.8 21846.4 15857 11670.7 19054.8 8918 10136.8 3528.99 6737.46 5695.14 4770.02 17472.5 48001.5 28729.1 23082.3 18576.7
internal_count=1265897 844832 757478 650347 627084 421065 582739 280114 63993 216121 160488 107131 302625 81527 314539 106526 78961 63631 89235 41872 47363 16477 31784 29543 23359 88945 303338 178968 140844 111699
is_linear=0
shrinkage=0.05


Tree=25
num_leaves=31
num_cat=0
split_feature=18 3 17 21 31 19 31 17 13 32 1 19 20 20 19 12 32 4 4 4 27 5 6 12 4 19 4 4 21 4
split_gain=38127 25606.4 15438.8 10769.4 6917.19 5863.04 5813.83 5812.26 4714.8 3845.66 3643.73 3211.14 2891.76 2616.91 2599.47 2446.84 2387.14 2049.46 1889.01 5054.77 1649.06 1672.03 1416.12 1382.56 1323.43 1301.7 1239.58 1223.16 1167.42 1135.82
threshold=1.0000000180025095e-35 42.500000000000007 3.5000000000000004 1.0000000180025095e-35 0.80590347210227509 1.0000000180025095e-35 1.7867585322166193 1.0000000180025095e-35 10.500000000000002 0.023205149900329205 0.83912000526995867 1.0000000180025095e-35 29.500000000000004 -1.0000000180025095e-35 1.0000000180025095e-35 9.5000000000000018 0.44891729893800164 49.500000000000007 30.500000000000004 39.500000000000007 1.0000000180025095e-35 0.052004709310872109 23.985055567759527 1.0000000180025095e-35 30.500000000000004 1.0000000180025095e-35 50.500000000000007 39.500000000000007 1.0000000180025095e-35 49.500000000000007
decision_type=2 2 2 2 2 2 2 2 2 2 2 2 2 2 2 2 2 2 2 2 2 2 2 2 2 2 2 2 2 2
left_child=1 6 3 4 5 -3 11 14 10 -6 12 -1 13 23 29 -15 -8 -11 -13 -20 21 -9 -17 -7 -10 -5 -19 -26 -16 -2
right_child=7 2 -4 25 9 8 16 20 24 17 -12 18 -14 15 28 22 -18 26 19 -21 -22 -23 -24 -25 27 -27 -28 -29 -30 -31
leaf_value=0.018667332827364953 0.03497078407656657 0.051479943143230913 -0.053683210190497113 0.043175165890003697 0.014471257184874457 0.015869042305915067 -0.046078981633415339 -0.039251532462169815 -0.05095508145092581 0.058610048905690382 -0.027893391710177885 -0.050294367584697103 -0.031588241680749828 0.047568261644170065 -0.018843046127702268 0.024239738591958285 0.049727510277317505 0.0012886691348376637 0.080419312429869064 -0.032594972643592866 -0.054077761098843671 0.0053420739833633032 -0.027188926929965159 -0.02984397021801441 0.072341294382852639 -0.039213805859750955 0.048753650415356849 -0.017425857674690081 -0.057047059901338716 -0.0034422232781905352
leaf_weight=2876.9010693579912 2828.6205380707979 12871.488585606217 6018.0728534311056 519.53591473400593 7460.0487050563097 5118.4730594158173 805.80871318280697 17794.100078314543 3041.9914679378271 32074.151748985052 3714.174233302474 13485.770701780915 2210.7643051296473 15625.539024457335 9582.7714117914438 11922.589551463723 3366.2404239177704 2686.8283719420433 1067.2012146115303 13572.998070642352 20669.391422957182 2383.6075232625008 1507.8136445432901 2443.7318953722715 444.32783411443233 6208.2602223157883 2818.4198976308107 2600.1919921934605 2526.9110082834959 6019.9292224347591
leaf_count=14354 13495 76391 36569 2646 41111 28422 4097 101651 15612 211892 18735 78699 11009 89634 44362 66091 20321 13511 6045 73670 147412 12647 7998 12804 2534 37741 17231 13453 16934 28826
internal_value=0 0.0132999 0.0243548 0.0285011 0.0323754 0.0214727 -0.0241899 -0.0331685 0.0135303 0.0472629 0.019419 -0.0316468 0.0239447 0.0272974 -0.0117626 0.0341164 0.031223 0.0537725 -0.0367933 -0.0243568 -0.0441516 -0.0339837 0.0184659 0.00109685 -0.0276303 -0.0328515 0.0255884 -0.00432493 -0.026815 0.00883728
internal_weight=0 154461 119286 113268 106541 61501.1 35174.9 61805.3 48629.6 45039.4 42543.1 31002.9 38828.9 36618.1 20958.2 29055.9 4172.05 37579.4 28126 14640.2 40847.1 20177.7 13430.4 7562.2 6086.51 6727.8 5505.25 3044.52 12109.7 8848.55
internal_count=1265897 900570 703384 666815 626428 342683 197186 365327 266292 283745 234693 172768 215958 204949 103617 163723 24418 242634 158414 79715 261710 114298 74089 41226 31599 40387 30742 15987 61296 42321
is_linear=0
shrinkage=0.05


Tree=26
num_leaves=31
num_cat=0
split_feature=27 18 17 32 18 3 4 4 4 4 17 17 32 4 4 4 4 31 31 0 32 4 30 4 4 4 4 11 5 4
split_gain=35488.3 20014.4 12015.4 7653.94 5810.03 5714.79 4936.53 4255.86 5416.52 4285.17 3810.29 3380.94 3171.93 3169.06 7784.8 4297.75 3936.81 2820.18 2483.51 2305.89 2066.65 2575.78 2060.53 1713.77 3508.49 1964.06 7312.39 2310.41 1562.03 1526.15
threshold=1.0000000180025095e-35 1.0000000180025095e-35 1.0000000180025095e-35 1.5101898739267658 1.0000000180025095e-35 40.500000000000007 20.500000000000004 29.500000000000004 30.500000000000004 39.500000000000007 3.5000000000000004 1.0000000180025095e-35 1.1666557882266528 40.500000000000007 49.500000000000007 50.500000000000007 59.500000000000007 0.3060058904182934 0.29444437304806281 0.20000477467990743 0.64368872844859892 30.500000000000004 4.5000000000000009 50.500000000000007 59.500000000000007 49.500000000000007 40.500000000000007 4239.581195005906 0.052004709310872109 60.500000000000007
decision_type=2 2 2 2 2 2 2 2 2 2 2 2 2 2 2 2 2 2 2 2 2 2 2 2 2 2 2 2 2 2
left_child=1 2 20 6 5 -2 -4 -8 -9 -10 12 -3 19 -11 -15 -16 -17 -5 -14 -7 21 22 -1 25 -25 26 27 -21 -13 -18
right_child=4 11 3 17 -6 10 7 8 9 13 -12 28 18 14 15 16 29 -19 -20 23 -22 -23 -24 24 -26 -27 -28 -29 -30 -31
leaf_value=-0.079345188445058279 -0.044779300928543132 -0.00040469527820122513 -0.04749774248854529 -0.019771866993800683 -0.047360112118055957 -0.051570788202544397 0.078193388802209315 -0.045597171830039987 0.065044034748923993 -0.03981510928547749 -0.05858301649098388 -0.038048160719875657 -0.020600718374951813 0.067432913961120375 -0.027547687074738671 0.068428638539110756 -0.038814887665786293 0.05305588981953914 0.05139984962055813 0.019630588993640764 0.049899107938277121 0.035382513595333814 0.015805381332701037 0.094246029938428344 -0.017615074842552089 -0.031878226806875763 0.096314033855703793 -0.041779972280322417 0.0050639582226196913 0.032279522715600528
leaf_weight=876.63827256858349 13292.562069043517 13479.810317948461 5476.034793227911 1538.2187787890434 27274.799295201898 2708.5636110603809 1811.7892297655344 5539.7584090828896 2996.7479318901896 3869.3974247276783 2981.0837492644787 17447.959505572915 1627.1841316968203 4519.2532576322556 9752.0250179320574 2880.2062724232674 2005.4288260191679 9787.3117167428136 4537.1422374099493 2486.3817946612835 27754.744199216366 28254.465305015445 1621.2469684779644 1294.5103314220905 1528.8363447189331 5614.0910979509354 1776.6515854597092 3988.4388902038336 2388.657711789012 1210.5035263895988
leaf_count=4146 82211 61710 31099 7710 189319 15335 8952 28824 19267 19135 19566 101651 8129 28226 45747 17637 9234 66183 23427 12339 190055 177810 8760 5818 7436 27959 7933 21593 12647 6039
internal_value=0 0.0142212 0.0245131 0.00687178 -0.0294054 -0.0176997 -0.0033884 0.00359565 -0.000528294 0.00863946 -0.00508859 -0.0197267 0.00115007 0.00166535 0.0095458 -0.00696126 0.025971 0.0431645 0.032394 -0.00877895 0.0400074 0.0310799 -0.0175879 -0.00183395 0.0336735 -0.00906408 0.00645809 -0.0181978 -0.0328567 -0.0120544
internal_weight=0 143210 109894 51386.7 69110.2 41835.4 40061.1 34585.1 32773.3 27233.6 28542.9 33316.4 25561.8 24236.8 20367.4 15848.2 6096.14 11325.5 6164.33 19397.5 58507.1 30752.4 2497.89 16688.9 2823.35 13865.6 8251.47 6474.82 19836.6 3215.93
internal_count=1265897 844832 668824 288053 421065 231746 214160 183061 174109 145285 149535 176008 129969 126018 106883 78657 32910 73893 31556 98413 380771 190716 12906 83078 13254 69824 41865 33932 114298 15273
is_linear=0
shrinkage=0.05


Tree=27
num_leaves=31
num_cat=0
split_feature=27 21 3 18 17 18 17 0 32 31 0 21 0 3 32 31 4 4 4 7 4 4 4 4 31 11 1 3 2 32
split_gain=32768.9 18673.7 12717.6 9467.23 6306.96 5526.47 5371.79 3666.87 3489.4 2989.05 2848.31 2755.25 2611.5 2469.53 2240.07 2167.47 2575.22 5807.39 2113.47 1855.59 1848.67 4196.45 2794.72 2715.93 2599.82 2004.82 1658.55 1598.15 1690.99 1504.06
threshold=1.0000000180025095e-35 1.0000000180025095e-35 37.500000000000007 1.0000000180025095e-35 3.5000000000000004 1.0000000180025095e-35 1.5000000000000002 0.10002065842219807 1.8210453970354326 -0.58479548640873735 0.20000477467990743 1.0000000180025095e-35 0.10002065842219807 19.500000000000004 0.90124393220056576 1.2780348104408279 50.500000000000007 59.500000000000007 49.500000000000007 2.5000000000000004 49.500000000000007 40.500000000000007 50.500000000000007 59.500000000000007 1.1226785779116391 4235.9760399657953 0.8431171233768372 13.500000000000002 -1.0000000180025095e-35 1.5540129851270821
decision_type=2 2 2 2 2 2 2 2 2 2 2 2 2 2 2 2 2 2 2 2 2 2 2 2 2 2 2 2 2 2
left_child=1 2 8 4 7 6 10 -4 27 -9 -2 13 -5 -12 19 16 -14 -18 -17 26 21 24 -22 -24 25 -15 -11 -1 -29 -8
right_child=5 -3 3 12 -6 -7 29 9 -10 14 11 -13 15 20 -16 18 17 -19 -20 -21 22 -23 23 -25 -26 -27 -28 28 -30 -31
leaf_value=-0.042441525093677553 -0.046190173858383386 -0.042724351403091609 -0.02330569337300388 -0.058981369718395217 -0.043529933023928706 -0.046412672533887582 -0.044670013608467521 0.013888313910183492 0.038112094403768622 0.038912313127709174 -0.042616305586559926 -0.053126786313436272 -0.01853772918233566 0.027362470344787282 0.052124268880603668 0.063083912689465393 0.094096592525374875 -0.016392471148114148 -0.018071106537212122 -0.024368867456658169 -0.025388107106661974 0.086783622205460362 0.086296161555152129 -0.012223303195832173 0.050485689461600418 -0.039015201835616353 -0.0034362331078911807 -0.029751735551079669 0.011865933431728247 0.0024784736976433373
